#define YOLO 1
#if YOLO

#include <vector>

// dimensions
static const unsigned int input_height = 120;
static const unsigned int input_width = 160;
static const unsigned int input_channel = 3;
static const unsigned int output_height = 8;
static const unsigned int output_width = 10;
static const unsigned int output_channel = 6;
static const unsigned int num_of_boxes = 1;
static const unsigned int num_of_classes = 1;
static const unsigned int num_of_coords = 4;
static const std::vector<float> anchors = { 1.66f, 1.71f };
#endif

#ifdef CNN_TEST
#define CNN_STOPWATCH(name) // STOPWATCH(name)
#else
#define CNN_STOPWATCH(name) STOPWATCH(name)
#endif

// includes
#include <emmintrin.h>

// buffers
alignas(16) float separable_conv2d_1_depthwise_WEIGHTS[] = { -0.05256223678588867f, 0.32562169432640076f, 1.4885398149490356f, -0.8457900881767273f, 0.2557922601699829f, -0.019123252481222153f, 0.7581833004951477f, 0.056831132620573044f, 0.8661468029022217f, -0.057290174067020416f, -0.09624828398227692f, -0.26596012711524963f, -0.0816575437784195f, -0.003611514810472727f, 1.4954396486282349f, -1.291666030883789f, 0.1195383220911026f, -1.4506677389144897f, -0.5719365477561951f, 0.10163703560829163f, 0.5671709775924683f, 0.12766385078430176f, 0.19199837744235992f, -1.0601869821548462f, 0.11869186162948608f, 0.5586049556732178f, 0.9603792428970337f, -0.7572526335716248f, -0.2781459391117096f, -0.5744239687919617f, -0.27443763613700867f, -0.31864649057388306f, 0.4134669899940491f, -0.008702664636075497f, -0.08748817443847656f, -0.37280726432800293f, 0.05580117180943489f, 0.007845710031688213f, 0.7064492702484131f, 0.4331324100494385f, 0.20510052144527435f, 0.23542815446853638f, 1.6095994710922241f, -0.1908213496208191f, 0.939052164554596f, 0.022501099854707718f, 0.4962807595729828f, 0.2983623445034027f, 0.050597164779901505f, -1.1788386106491089f, 0.46759575605392456f, -0.15759773552417755f, -0.39757606387138367f, -0.4701779782772064f, 0.385452002286911f, -0.6136298179626465f, 0.7231625318527222f, -0.07935402542352676f, -0.3160218596458435f, 0.22966863214969635f, -0.1267753690481186f, -0.2636011838912964f, -0.10630371421575546f, -0.19320568442344666f, -0.9107977151870728f, 0.17072075605392456f, -0.5794563293457031f, -0.9493198990821838f, 0.10538069903850555f, 0.023946577683091164f, 0.1083868145942688f, 0.2573392987251282f, 0.061139918863773346f, 0.4056504964828491f, 0.17672598361968994f, 0.75240558385849f, -0.6181368231773376f, 0.6667069792747498f, 0.22599251568317413f, -0.8581373691558838f, 0.5522529482841492f, 0.04832618311047554f, 0.5473880767822266f, 1.005488634109497f, -0.14842896163463593f, -0.030084336176514626f, -0.6362014412879944f, 0.6249964833259583f, -0.8867738842964172f, 0.4933948814868927f, -0.3715093731880188f, -1.0580898523330688f, 0.07663881033658981f, -0.09669003635644913f, -0.1866840422153473f, 0.5563386082649231f, 0.036608628928661346f, 0.08424794673919678f, 0.100422702729702f, 0.4911697208881378f, -1.1097825765609741f, 0.7047258615493774f, -0.527401864528656f, -1.186079978942871f, 0.45691975951194763f, 0.0068650697357952595f, -0.6233656406402588f, 0.7136951088905334f };
alignas(16) float separable_conv2d_1_WEIGHTS[] = { 0.0064599644392728806f, 0.007295194547623396f, -0.010795358568429947f, 0.0f, 0.024785034358501434f, 0.004481105599552393f, -0.1305352747440338f, 0.0f, 0.5536600947380066f, 0.7530037760734558f, 0.32425299286842346f, 0.0f, 0.07135021686553955f, -1.057782769203186f, -0.07355086505413055f, 0.0f, 0.7185451984405518f, 0.05168507248163223f, -0.022820429876446724f, 0.0f, 0.03208891674876213f, -0.20539769530296326f, -0.3367123007774353f, 0.0f, 0.2263043224811554f, -0.7733252644538879f, 0.2751981019973755f, 0.0f, 0.8067584037780762f, 0.19971294701099396f, -0.06566839665174484f, 0.0f, 0.429835706949234f, -0.4571985602378845f, 0.23954036831855774f, 0.0f, -0.005063369404524565f, 0.012639505788683891f, 0.0016750585054978728f, 0.0f, -0.01710018701851368f, 0.019790317863225937f, 0.10996964573860168f, 0.0f, -0.019934630021452904f, -0.7252943515777588f, -0.027548303827643394f, 0.0f };
alignas(16) float separable_conv2d_1_BIAS[] = { 4.944715976715088f, 0.2983951270580292f, 0.10947275161743164f };
alignas(16) float conv2d_1_WEIGHTS[] = { 1.4529085159301758f, 0.3302558362483978f, 0.10502804815769196f, 0.8522798418998718f, -0.8582682609558105f, -0.0964563712477684f, 0.8660351037979126f, 1.2870235443115234f, 1.0735124349594116f, 0.4517057240009308f, -0.7376353144645691f, 1.1196856498718262f, 0.1580168753862381f, 1.211614727973938f, -0.8923034071922302f, -1.187619686126709f, -0.8168509006500244f, -2.390057325363159f, 0.2620534300804138f, 0.8793204426765442f, -0.25079306960105896f, 0.9076766967773438f, 0.3411640226840973f, 0.022297969087958336f, -0.44090938568115234f, -0.052944108843803406f, -1.0664794445037842f, -0.2023681253194809f, 0.03617556765675545f, -0.9778650999069214f, -0.8731131553649902f, 0.5686103701591492f, -0.784957766532898f, -0.34734952449798584f, -2.5308468341827393f, 0.05777863785624504f, -1.7738903760910034f, -1.28205406665802f, -0.595360517501831f, 0.38803791999816895f, -0.8461214900016785f, 1.2258185148239136f, 0.713140606880188f, 0.0773201510310173f, 1.6594200134277344f, 1.1191439628601074f, -0.5206549167633057f, 0.9337649941444397f };
alignas(16) float conv2d_1_BIAS[] = { -2.391068935394287f, 0.16351629793643951f, 2.2463278770446777f, -3.112292528152466f, 5.026103496551514f, 2.352311611175537f, -2.4867165088653564f, -5.064061641693115f, -2.37277889251709f, -3.382711410522461f, 1.8689444065093994f, -4.7088446617126465f, -2.2072930335998535f, -5.573193550109863f, 4.556613922119141f, 1.4789211750030518f };
alignas(16) float separable_conv2d_2_depthwise_WEIGHTS[] = { 0.8073474168777466f, 0.15654878318309784f, -1.13291597366333f, -0.25360041856765747f, 0.5212405323982239f, -0.9463115930557251f, -0.4141699969768524f, 0.5784866213798523f, -1.5871528387069702f, -0.960017204284668f, 0.6514641046524048f, 0.6202881932258606f, -0.0006266448763199151f, 1.0930250883102417f, -0.903542160987854f, -0.5684511065483093f, 0.7232200503349304f, -0.36668720841407776f, -0.17072992026805878f, 0.9268440008163452f, 0.22711274027824402f, -1.4649920463562012f, -0.04612668976187706f, 0.12291330844163895f, 0.3147291839122772f, 0.26625749468803406f, 0.7988555431365967f, 0.20765605568885803f, -0.6846514344215393f, -0.7576614022254944f, -0.6191466450691223f, 0.6453321576118469f, 1.6823984384536743f, 0.26763302087783813f, 1.4095709323883057f, -0.3095919191837311f, 0.9045153856277466f, -0.6786537170410156f, 1.4459726810455322f, 0.48028481006622314f, 1.3247995376586914f, -0.7114729881286621f, 0.652420699596405f, 0.6635599732398987f, 0.28809529542922974f, -0.6869953870773315f, 0.716744601726532f, -0.6246099472045898f, -0.992148756980896f, -1.1747362613677979f, 0.20708678662776947f, 1.252226710319519f, 0.27200615406036377f, 0.20553576946258545f, -0.9741975665092468f, -1.5226008892059326f, -0.2853306233882904f, 0.654063880443573f, 1.6008766889572144f, -0.12762264907360077f, 0.7505236864089966f, 0.055460721254348755f, 0.8858823180198669f, -0.7934618592262268f, 0.5277381539344788f, -0.7237139940261841f, -0.9709374904632568f, 0.9304186701774597f, 0.14657141268253326f, -0.9444838762283325f, 0.32430243492126465f, 0.5892534852027893f, 0.028121311217546463f, -1.2908744812011719f, -0.5593630075454712f, -1.187848448753357f, -0.18660518527030945f, -0.09041646867990494f, 0.038958366960287094f, -0.266119122505188f, 0.6756603121757507f, 0.6557491421699524f, 0.14728876948356628f, -0.23883211612701416f, 0.6660927534103394f, 0.16783484816551208f, 0.4252539873123169f, 1.232019305229187f, 0.7654098868370056f, 0.033880315721035004f, -0.13344243168830872f, 0.012315982952713966f, -1.1447855234146118f, 0.46015632152557373f, -0.8648492097854614f, -0.3033066689968109f, -0.11279928684234619f, -1.135909080505371f, 0.11232112348079681f, -1.2816851139068604f, 0.1950947493314743f, 0.6540729999542236f, 0.8560330271720886f, 0.2986004948616028f, 0.7796072363853455f, 0.0832446813583374f, 1.0378907918930054f, -0.2989802360534668f, -0.0426226481795311f, -0.5244233012199402f, -0.03759799152612686f, -0.3875811696052551f, -1.0846375226974487f, 0.29990726709365845f, 0.2620510160923004f, 0.5023902654647827f, 0.09316021203994751f, 0.6876664757728577f, 0.6518598794937134f, -1.0506789684295654f, -0.4337019920349121f, 0.2710503041744232f, 0.7890766263008118f, -0.3863252103328705f, 0.8476365804672241f, 1.0316725969314575f, -0.6236127018928528f, -0.5336899161338806f, -0.36348408460617065f, 0.19164817035198212f, -0.14305661618709564f, 1.014249563217163f, -0.23048512637615204f, 0.153608039021492f, 1.6646881103515625f, -0.6100870370864868f, 0.10876471549272537f, -0.5774264931678772f, -0.6914910078048706f, -1.4361763000488281f, -0.17408818006515503f, 0.020613647997379303f, 0.20097894966602325f, 1.0701566934585571f, -0.9756743907928467f, 0.8508111238479614f, 0.042702704668045044f, -0.01740768551826477f, 0.6539028882980347f, 0.8003256916999817f, -0.8001876473426819f, 0.4960528016090393f, 0.49299925565719604f, 1.0644599199295044f, 0.012959805317223072f, -1.1222268342971802f, -0.5442543625831604f, 1.010988473892212f, 0.3367258608341217f, 0.7061702609062195f, 0.6206156015396118f, -0.4534631073474884f, -0.9899799227714539f, -0.5359947085380554f, -1.2080459594726562f, 1.36765718460083f, 0.39293551445007324f, 0.5020128488540649f, -0.11570312827825546f, 1.1154862642288208f, 0.2917531430721283f, -1.5186002254486084f, -0.6131499409675598f, -0.3745669424533844f, 0.8732890486717224f, 0.0851365476846695f, -0.6316275596618652f, 0.9366282224655151f, -0.6193984150886536f, -0.6597872972488403f, 0.0905255451798439f, -0.14453616738319397f, 0.9516159892082214f, -0.45774930715560913f, -0.6851995587348938f, -0.6210172772407532f, 0.4019728899002075f, 0.33227813243865967f, -0.3768567740917206f, 1.2340867519378662f, -1.3288607597351074f, 0.7955985069274902f, 0.3550705313682556f, -0.7451878786087036f, 0.13936354219913483f, -1.2934693098068237f, -0.25027358531951904f, -1.009177565574646f, -0.5531061291694641f, -1.0209819078445435f, -0.14469629526138306f, 0.0612882599234581f, 1.6281107664108276f, -0.08352509886026382f, -0.5057095885276794f, 1.031443476676941f, -0.7081700563430786f, -0.7428206205368042f, 0.3413940370082855f, -0.9836457371711731f, 1.7024481296539307f, 1.248673677444458f, 0.14649780094623566f, -0.9389454126358032f, 0.054254189133644104f, -1.3790141344070435f, 0.36939093470573425f, 0.8325338363647461f, -0.7242340445518494f, 0.5412100553512573f, 0.8210419416427612f, -0.8191433548927307f, -0.7706776261329651f, 0.4494432210922241f, -0.3822987973690033f, 0.18575222790241241f, 0.3098478317260742f, -0.2906399071216583f, 0.9702712297439575f, -0.8685564994812012f, -0.08544682711362839f, 0.4564184844493866f, 0.957065224647522f, -0.4629431962966919f, -0.38883987069129944f, 1.0413585901260376f, 0.3264221251010895f, 0.21735408902168274f, -1.2524052858352661f, -0.25081324577331543f, -0.053679995238780975f, 0.47548195719718933f, 0.9812785983085632f, 1.0262408256530762f, 0.7647101283073425f, -0.9502595067024231f, -1.205461859703064f, 0.1052451953291893f, 1.0391886234283447f, 0.7104413509368896f, 0.3275386691093445f, -1.0214239358901978f, 0.7551884055137634f, -0.23883862793445587f, 0.6923738718032837f, -0.21796049177646637f, -0.5244916081428528f, -1.11453378200531f, 0.1487555354833603f, -0.49293649196624756f, -0.8358147740364075f, -0.4452630281448364f, 0.3971155285835266f, 0.1932840496301651f, 1.4285650253295898f, 0.05420476943254471f, 0.39126133918762207f, 0.5605620741844177f, 0.006137504242360592f, -1.4402111768722534f, -0.7631693482398987f, -0.296915739774704f, 0.9410378932952881f, 1.135488748550415f, -0.09639909863471985f, -0.9431928992271423f, 0.39822372794151306f, 0.6615906357765198f, 0.3278936743736267f, -0.1232077106833458f, 0.5364733934402466f, -0.3121260702610016f, -0.7256420254707336f, 0.6303187608718872f, 0.3316071331501007f, 0.32527244091033936f, -1.2237123250961304f, -0.1443256288766861f, -1.0322333574295044f, 0.23436491191387177f, -0.1974857896566391f, -0.44258737564086914f, 0.40215247869491577f, 0.04501247778534889f, -0.11025766283273697f, 0.15624986588954926f, -0.24750961363315582f, 0.03621242195367813f, 0.2550070881843567f, -0.015436339192092419f, -0.8833573460578918f, 1.2400721311569214f, 0.7891063094139099f, -1.2808423042297363f, 1.1090645790100098f, 0.10995173454284668f, 1.1918621063232422f, -0.20631256699562073f, 0.6335082054138184f, -0.40093809366226196f, 0.6852152943611145f, -0.12622366845607758f, 1.0088120698928833f, -0.9175944924354553f, -0.022883109748363495f, -0.16174402832984924f, 0.6182412505149841f, -0.18255214393138885f, -0.2984587550163269f, 0.7748205661773682f, -1.608761191368103f, -0.34040674567222595f, 0.06655570864677429f, 0.6682928204536438f, -1.224804162979126f, 0.5756192207336426f, 0.4846534729003906f, 0.4980808198451996f, 0.6423357725143433f, 0.1117388904094696f, -0.5276979207992554f, 0.8078672885894775f, 1.1949959993362427f, 0.021889138966798782f, 0.09928544610738754f, 1.408146619796753f, 0.09469601511955261f, 0.21293792128562927f, -0.8007696866989136f, -0.8533834218978882f, 0.46926629543304443f, 0.9894875288009644f, 0.09511560201644897f, -0.2447039633989334f, -0.20535148680210114f, -1.3752623796463013f, -0.868435800075531f, -1.145326852798462f, 0.17727968096733093f, 0.3688940405845642f, -0.41278308629989624f, 0.16837505996227264f, 0.2727700173854828f, 0.5910645723342896f, -0.530656099319458f, 0.8257120847702026f, -0.5145229697227478f, 0.6145626306533813f, 0.1610833704471588f, 0.04241539537906647f, -0.6287357807159424f, 0.8759239912033081f, 0.46627068519592285f, -0.4947967827320099f, -0.8759999871253967f, -0.8795815110206604f, 0.7244467735290527f, 0.3604896068572998f, 0.7441821098327637f, -0.19309468567371368f, -0.41699546575546265f, -0.5590253472328186f, 0.8203500509262085f, -0.3951135575771332f, 0.5949519276618958f, 0.46598222851753235f, 0.10642305016517639f, -0.8580658435821533f, 0.3905664086341858f, 1.462284803390503f, -0.6052619814872742f, -0.006340228021144867f, -1.0840345621109009f, 0.060452546924352646f, 0.91169273853302f, 0.3902076482772827f, 1.1975735425949097f, -0.5468118786811829f, -0.9588156342506409f, -0.2649097740650177f, -0.24029266834259033f, -1.157536268234253f, -0.07641454041004181f, 1.2259031534194946f, 0.8366536498069763f, -0.8358892202377319f, -1.394680142402649f, 0.09171134978532791f, 0.2839629054069519f, 0.4569469690322876f, -0.8251190781593323f, -0.559391438961029f, 1.0968819856643677f, -0.7726420760154724f, -1.310391902923584f, -0.628115713596344f, -0.4417164623737335f, 0.6656186580657959f, -1.5267438888549805f, -0.16761711239814758f, 0.4016626477241516f, 0.44403454661369324f, 0.3644668161869049f, -1.2174651622772217f, 0.47324138879776f, -0.6352711319923401f, -1.2102278470993042f, -0.7050697207450867f, -0.1448245346546173f, 0.6843761205673218f, 0.18417571485042572f, -1.0372264385223389f, -0.16006000339984894f, -0.28304174542427063f, 0.1514970362186432f, -0.22139936685562134f, -1.1891038417816162f, -0.024422138929367065f, -0.06418820470571518f, 0.21957413852214813f, -0.5151005983352661f, -1.280030369758606f, 0.018781356513500214f, 0.8430575132369995f, -0.38230884075164795f, 0.46471917629241943f, -0.7036829590797424f, -0.3860148787498474f, -0.7881187200546265f, 0.29735174775123596f, -0.28800255060195923f, -0.20943902432918549f, -0.9096589684486389f, -1.3036961555480957f, -0.5544259548187256f, 0.10680151730775833f, 1.0461419820785522f, 0.4027155637741089f, 0.34527239203453064f, 0.4576564133167267f, 0.9479824304580688f, -0.4079081118106842f, -0.8771799206733704f, 0.9444249272346497f, -0.010477389208972454f, 0.7608602643013f, 0.25567036867141724f, 0.943708062171936f, -0.35466468334198f, 0.35150471329689026f, 0.03516938537359238f, -0.9837856888771057f, -0.23521161079406738f, 0.2932277321815491f, -0.29131031036376953f, -0.5273635387420654f, -0.5489628911018372f, -0.24286705255508423f, -1.0973412990570068f, 0.27379459142684937f, -0.42903581261634827f, -0.4001625180244446f, -0.49625492095947266f, 0.054391659796237946f, -0.0027223750948905945f, 0.9913118481636047f, 0.9452699422836304f, -0.11432129889726639f, 0.9955121278762817f, -1.4267983436584473f, -0.433945894241333f, 0.24916806817054749f, 0.7031019926071167f, 0.8019298911094666f, -0.26165512204170227f, -0.49553388357162476f, -0.696526050567627f, -1.5629395246505737f, -0.6724839210510254f, 0.24080535769462585f, -0.8978988528251648f, 0.5505560040473938f, 0.3127734959125519f, 0.7404933571815491f, -0.21725794672966003f, -0.9422931671142578f, 1.114038348197937f, -0.4048721194267273f, -0.8958500027656555f, -0.13864806294441223f, -0.966259777545929f, -0.27600884437561035f, -0.2406565099954605f, 0.812389075756073f, 0.2449810653924942f, -0.5907768607139587f, -0.40182939171791077f, -0.7662493586540222f, -1.0058162212371826f, -0.46048402786254883f, 0.8127591609954834f, 0.32085129618644714f, -0.36609578132629395f, 1.0491732358932495f, 0.41635867953300476f, 0.7907068729400635f, -0.43674236536026f, 0.44387638568878174f, -1.1729599237442017f, 0.03588402271270752f, -0.7958889603614807f, 0.38439372181892395f, -1.3712080717086792f, 0.6198670864105225f, 0.8848990797996521f, 0.412303626537323f, -0.2951805293560028f, 0.6117129325866699f, 0.17571428418159485f, -0.9283104538917542f, -0.5433558821678162f, -0.36461523175239563f, -0.002629085909575224f, 0.0431901216506958f, -1.3005397319793701f, -0.1129426583647728f, 0.22147932648658752f, -0.7869908213615417f, 1.3311760425567627f, -0.5196041464805603f, 0.8062252402305603f, 0.42020413279533386f, 0.08688301593065262f, -0.7334396243095398f, 0.20694279670715332f, 0.5725399851799011f, 0.15227042138576508f, 0.4238895773887634f, -0.5337010025978088f, 0.054868433624506f, -0.5704376697540283f, -0.6347010135650635f, -0.8075892925262451f, 0.8425765633583069f, -0.20605473220348358f, 0.2931157052516937f, 0.6819755434989929f, -1.3274846076965332f, -0.4574471414089203f, 0.12919741868972778f, 0.3483121693134308f, -0.8399033546447754f, -0.4937056601047516f, -0.48115408420562744f, -0.7640448808670044f, -0.6664088368415833f, 0.5634072422981262f, 0.5408634543418884f, -0.5729248523712158f, -0.7743088603019714f, -0.1325019896030426f, 0.6448653936386108f, -0.7315632104873657f, -0.7512568235397339f, -0.2701999545097351f, -1.172245740890503f };
alignas(16) float separable_conv2d_2_WEIGHTS[] = { -0.11642653495073318f, -0.03529791533946991f, 0.05594760552048683f, -0.06123294308781624f, 0.03859526291489601f, -0.02871912345290184f, 0.22963060438632965f, -0.08032629638910294f, -0.18332859873771667f, -0.027989987283945084f, -0.07803714275360107f, -0.03729492425918579f, 0.045614007860422134f, 0.04698050767183304f, -0.17846299707889557f, 0.10912211239337921f, -0.12050487101078033f, 0.02696232683956623f, 0.08480464667081833f, 0.04081716388463974f, 0.122773177921772f, 0.054870449006557465f, -0.1467144638299942f, 0.052048198878765106f, -0.05263444781303406f, -0.08201393485069275f, -0.14743781089782715f, -0.042659442871809006f, -0.03041131980717182f, -0.035551201552152634f, -0.052625592797994614f, -0.02082107774913311f, 0.08605501055717468f, 0.08890405297279358f, 0.032469574362039566f, -0.030862288549542427f, 0.08230379223823547f, 0.012068184092640877f, 0.012301896698772907f, 0.2179538458585739f, -0.2212836742401123f, -0.010499940253794193f, -0.06235318258404732f, 0.005601389333605766f, 0.09416390210390091f, 0.01750417985022068f, 0.08899005502462387f, -0.11272100359201431f, -0.08401693403720856f, -0.01478876918554306f, -0.11537513136863708f, -0.02027440443634987f, -0.10653050988912582f, 0.11419796198606491f, -0.21788108348846436f, -0.05773453414440155f, 0.18838906288146973f, -0.09400713443756104f, -0.03894424065947533f, 0.08814824372529984f, -0.02043365128338337f, -0.052128881216049194f, 0.16926224529743195f, -0.024118073284626007f, -0.09749734401702881f, 0.0004751298110932112f, -0.10831409692764282f, -0.0015542443143203855f, 0.07485141605138779f, 0.09722152352333069f, 0.054377950727939606f, -0.02401622198522091f, -0.10550842434167862f, -0.02765883319079876f, -0.03639168664813042f, -0.176029771566391f, -0.282421737909317f, -0.018174180760979652f, -0.0005641331081278622f, 0.09680285304784775f, -0.0649796724319458f, 0.05025484040379524f, -0.21721264719963074f, 0.10250452905893326f, -0.06949575990438461f, -0.009345290251076221f, -0.0832105353474617f, 0.08987914770841599f, -0.061628520488739014f, 0.14579974114894867f, 0.052272334694862366f, -0.029707355424761772f, -0.12642620503902435f, 0.06998397409915924f, 0.11448999494314194f, -0.02928118407726288f, 0.14718714356422424f, -0.022547101601958275f, 0.03076859936118126f, 0.09103990346193314f, -0.0006903482135385275f, -0.061714574694633484f, -0.026752226054668427f, 0.0791555717587471f, -0.010810207575559616f, -0.04419192299246788f, -0.16601361334323883f, 0.05942487716674805f, -0.027230188250541687f, 0.02889539860188961f, 0.1658649444580078f, 0.22489216923713684f, 0.026600362733006477f, 0.101041279733181f, -0.07732030004262924f, -0.19099311530590057f, 0.10877185314893723f, -0.03954732045531273f, -0.017848821356892586f, 0.12044290453195572f, 0.12772923707962036f, 0.06747821718454361f, -0.09799830615520477f, -0.02178099937736988f, 0.026287870481610298f, -0.03788210079073906f, 0.04841260612010956f, 0.06709598004817963f, -0.000560661603230983f, 0.05435924604535103f, -0.13951633870601654f, -0.025800777599215508f, 0.052159298211336136f, -0.29078349471092224f, -0.06381479650735855f, 0.10211770981550217f, 0.15071171522140503f, 0.04032178968191147f, 0.12435755133628845f, 0.12319456040859222f, -0.18431659042835236f, 0.016960177570581436f, 0.18869929015636444f, -0.05289580672979355f, -0.06231674551963806f, -0.013866361230611801f, 0.048583805561065674f, 0.03150812163949013f, 0.21215635538101196f, -0.0369487963616848f, 0.05479232594370842f, 0.3082544505596161f, -0.1038963571190834f, -0.08140493929386139f, -0.025292670354247093f, 0.009708840399980545f, -0.15028676390647888f, 0.03450142592191696f, 0.009954214096069336f, -0.08603562414646149f, 0.10394234210252762f, -0.08817866444587708f, -0.0412130244076252f, 0.16004763543605804f, -0.020487645640969276f, -0.20945428311824799f, 0.201944038271904f, 0.0947580561041832f, -0.07279892265796661f, -0.06642657518386841f, 0.03489610180258751f, 0.02325918897986412f, 0.16561897099018097f, 0.11950303614139557f, -0.3726644515991211f, 0.10794637352228165f, -0.005359525792300701f, 0.08377183228731155f, -0.17499756813049316f, 0.11103282868862152f, -0.010358285158872604f, 0.2180768996477127f, 0.037541165947914124f, 0.11169158667325974f, 0.09835512191057205f, 0.1025719940662384f, 0.0004335089470259845f, 0.010847950354218483f, -0.15241241455078125f, -0.1788116991519928f, -0.17524613440036774f, -0.23282544314861298f, 0.14425931870937347f, 0.07501741498708725f, 0.1397223174571991f, 0.01651991717517376f, 0.00790986604988575f, 0.07351140677928925f, -0.11529511958360672f, -0.0040673622861504555f, -0.09884805977344513f, 0.11282743513584137f, -0.054533567279577255f, 0.027075355872511864f, -0.11865583807229996f, 0.11855804920196533f, -0.13195183873176575f, -0.03184032440185547f, -0.2249135971069336f, 0.10789279639720917f, -0.1311388462781906f, -0.11523829400539398f, -0.029969416558742523f, -0.1190689280629158f, 0.06199086457490921f, -0.07842005044221878f, 0.018675846979022026f, 0.04926326870918274f, -0.033121731132268906f, -0.18519622087478638f, -0.09163936972618103f, 0.003265734761953354f, -0.08547978848218918f, 0.1515994518995285f, 0.04465045779943466f, 0.06941479444503784f, -0.17232640087604523f, 0.010429688729345798f, 0.01233556680381298f, 0.06044590100646019f, -0.07068511843681335f, -0.03956538811326027f, -0.14271773397922516f, -0.05889861658215523f, 0.054691266268491745f, 0.09478887915611267f, 0.04172142967581749f, 0.15393568575382233f, 0.08115926384925842f, -0.01602206565439701f, -0.09103720635175705f, -0.028073037043213844f, 0.24179041385650635f, -0.15246571600437164f, 0.0010664500296115875f, 0.10121940821409225f, -0.12433168292045593f, -0.012134431861341f, 0.09342648088932037f, 0.11756223440170288f, -0.07583863288164139f, 0.06719882041215897f, 0.10616699606180191f, -0.06367848813533783f, 0.011098183691501617f, -0.01668282225728035f, -0.050089482218027115f, -0.10670270770788193f, 0.016048960387706757f, -0.10679619014263153f, -0.09116920083761215f, 0.10005232691764832f, 0.041718121618032455f, -0.07924023270606995f, 0.027562949806451797f, 0.08354587852954865f, 0.08146608620882034f, 0.0375518873333931f, -0.1256047785282135f, -0.05872325971722603f, -0.06376181542873383f, -0.12990839779376984f, 0.09875496476888657f, -0.0052595362067222595f, 0.15338848531246185f, -0.11261716485023499f, -0.07819689810276031f, -0.11471332609653473f, 0.06181354820728302f, -0.2390979528427124f, 0.04136337339878082f, 0.13125383853912354f, 0.042320795357227325f, -0.0678819790482521f, 0.034469928592443466f, -0.016439562663435936f, 0.1180400624871254f, 0.03588169813156128f, -0.2175332009792328f, 0.04966943711042404f, -0.11029746383428574f, 0.005434476304799318f, -0.012056112289428711f, 0.11148146539926529f, 0.0914936363697052f, -0.08842412382364273f, -0.06825514137744904f, -0.032262492924928665f, 0.0007947908597998321f, 0.09575016796588898f, 0.09549059718847275f, 0.12860459089279175f, -0.2576892077922821f, 0.06566073000431061f, 0.07777994871139526f, -0.07153742015361786f, 0.09504111856222153f, 0.0803704634308815f, 0.057312291115522385f, 0.024113833904266357f, -0.09563951194286346f, -0.05477038025856018f, -0.0390494167804718f, 0.059920381754636765f, -0.06318867951631546f, -0.11225870251655579f, -0.09813924133777618f, 0.04205625504255295f, -0.25116944313049316f, 0.09049004316329956f, 0.04456448554992676f, 0.05559161677956581f, -0.011221952736377716f, -0.11866556853055954f, -0.0885021984577179f, -0.03998435288667679f, -0.05141167342662811f, 0.001316059730015695f, 0.12101723998785019f, 0.1483597308397293f, 0.1548837423324585f, 0.12008558213710785f, 0.05680041015148163f, -0.015570859424769878f, 0.13181418180465698f, 0.007982217706739902f, 0.03349219262599945f, -0.051684826612472534f, -0.0018564716447144747f, -0.13806812465190887f, -0.1271643042564392f, -0.038887906819581985f, -0.1163809671998024f, 0.002397965406998992f, 0.11724919825792313f, -0.1397411823272705f, 0.025162599980831146f, 0.09187114983797073f, -0.24315664172172546f, 0.03929149731993675f, 0.22397543489933014f, -0.04118261858820915f, 0.2453651875257492f, -0.004982347134500742f, -0.10698629915714264f, 0.11937502771615982f, 0.05947713553905487f, 0.015925422310829163f, 0.03316410630941391f, -0.03380411118268967f, 0.05920260772109032f, -0.0015926655614748597f, 0.04824776202440262f, -0.017974620684981346f, 0.028140904381871223f, 0.021245848387479782f, 0.09285517781972885f, 0.00020733838027808815f, -0.12662599980831146f, 0.02611963450908661f, 0.006462999153882265f, -0.10860010981559753f, -0.011145791038870811f, 0.05261026322841644f, -0.025446949526667595f, -0.15539278090000153f, 0.1687554568052292f, -0.0011136375833302736f, -0.007243323139846325f, 0.012591203674674034f, 0.24601301550865173f, 0.12965790927410126f, 0.05051572248339653f, -0.0013663694262504578f, -0.04878866672515869f, 0.02610277198255062f, -0.11088413000106812f, 0.14081691205501556f, 0.0045120129361748695f, -0.15966108441352844f, -0.08128414303064346f, -0.056089676916599274f, 0.025772612541913986f, 0.08103740960359573f, 0.06710546463727951f, -0.03337657079100609f, 0.01803748682141304f, 0.0022654812783002853f, -0.019107842817902565f, 0.15491536259651184f, -0.025178557261824608f, -0.00022405062918551266f, -0.06114813685417175f, 0.011582156643271446f, -0.006053220946341753f, -0.13502845168113708f, 0.1688951700925827f, -0.04347188398241997f, -0.08146506547927856f, -0.07633139193058014f, 0.008008735254406929f, -0.04990633949637413f, 0.1559872180223465f, -0.0810009315609932f, -0.04751657322049141f, 0.18890371918678284f, -0.14473651349544525f, 0.06470093131065369f, 0.013744104653596878f, -0.06429339945316315f, 0.022513993084430695f, 0.19546250998973846f, -0.039839036762714386f, -0.09407001733779907f, -0.10680928081274033f, -0.0012632220750674605f, -0.1458864063024521f, -0.026361700147390366f, -0.04543226584792137f, 0.08814792335033417f, -0.07426709681749344f, 0.14302340149879456f, 0.06029548496007919f, 0.03408777713775635f, -0.14046694338321686f, 0.10860882699489594f, -0.04474496468901634f, -0.016782784834504128f, 0.2715527415275574f, 0.018141204491257668f, 0.010617118328809738f, 0.07818657904863358f, -0.06170795112848282f, -0.03016858547925949f, 0.026899373158812523f, 0.06090949848294258f, -0.011762565933167934f, -0.07135216891765594f, 0.055848244577646255f, -0.08062499761581421f, -0.11657936125993729f, -0.15917322039604187f, 0.10945279151201248f, 0.06749127060174942f, 0.045608535408973694f, 0.13358356058597565f, 0.025311652570962906f, 0.06850755959749222f, -0.13438524305820465f, 0.019076667726039886f, 0.10569144040346146f, -0.050242986530065536f, -0.015389552339911461f, -0.08925801515579224f, -0.035160262137651443f, -0.03956039249897003f, 0.06849417090415955f, 0.1102197989821434f, 0.018860889598727226f, 0.020031007006764412f, -0.13493800163269043f, -0.03723527863621712f, 0.10937301069498062f, 0.007747705560177565f, 0.09091934561729431f, -0.13548927009105682f, -0.025271575897932053f, -0.020774148404598236f, 0.14977727830410004f, -0.14419224858283997f, -0.03075099177658558f, 0.11922836303710938f, 0.08224538713693619f, 0.024242591112852097f, 0.09679868817329407f, 0.11932584643363953f, -0.06529245525598526f, 0.01329880952835083f, 0.09138938784599304f, -0.15488119423389435f, -0.1577075719833374f, 0.06042482703924179f, -0.010699394159018993f, 0.05481437221169472f, 0.03214303404092789f, -0.01624183915555477f, 0.0019715779926627874f, 0.021074922755360603f, 0.16918988525867462f, -0.06188679859042168f, -0.0985846146941185f, -0.182862788438797f, -0.019276566803455353f, 0.012947813607752323f, -0.009045268408954144f, -0.08006730675697327f, 0.15378645062446594f, -0.08012127876281738f, -0.08919277042150497f, 0.056491658091545105f, -0.026152001693844795f, 0.04520684853196144f, -0.10048548877239227f, -0.09022350609302521f, -0.045687880367040634f, 0.0016559705836698413f, -0.006915632169693708f, 0.208061084151268f, -0.03470331430435181f, -0.237901970744133f, 0.025765435770154f, 0.07203307747840881f, -0.017851339653134346f, -0.12241644412279129f, 0.0033965432085096836f, -0.2395981401205063f, -0.14878639578819275f, 0.11924660950899124f, -0.0665096715092659f, 0.03374527022242546f, 0.01409096922725439f, 0.08320234715938568f, 0.0375727154314518f, 0.08926241099834442f, -0.08241692930459976f, 0.030225487425923347f, 0.048363298177719116f, 0.00790605042129755f, 0.047183260321617126f, 0.009446529671549797f, -0.1527959555387497f, 0.011405020020902157f, -0.010310884565114975f, -0.08766314387321472f, 0.10073910653591156f, 0.10266011953353882f, 0.06438878178596497f, -0.0340249203145504f, -0.007201368920505047f, 0.059402912855148315f, 0.1419401615858078f, -0.06381852924823761f, 0.03419904038310051f, 0.05272255837917328f, 0.029423881322145462f, -0.03270137682557106f, -0.06224275007843971f, -0.05666200444102287f, -0.10229957103729248f, -0.1557159125804901f, 0.038916416466236115f, 0.03701699525117874f, 0.035933736711740494f, 0.028748104348778725f, 0.05230262503027916f, 0.17991216480731964f, -0.1027434840798378f, 0.18851801753044128f, -0.08030740916728973f, -0.010182707570493221f, -0.06929531693458557f, 0.0023228374775499105f, -0.03936255723237991f, 0.12407199293375015f, -0.03472534939646721f, -0.10060509294271469f, 0.025500362738966942f, -0.010559538379311562f, -0.06824808567762375f, -0.08896610885858536f, 0.04133329540491104f, 0.059087123721838f, -0.059393804520368576f, 0.04085433855652809f, 0.13888822495937347f, -0.05703529343008995f, -0.09396122395992279f, -0.021257027983665466f, 0.008953039534389973f, -0.13062874972820282f, 0.24072162806987762f, 0.03171403706073761f, 0.05368418991565704f, -0.05696725472807884f, 0.15595205128192902f, 0.15939034521579742f, 0.030218956992030144f, 0.08163220435380936f, -0.025836773216724396f, 0.12401915341615677f, -0.19426770508289337f, 0.014268013648688793f, 0.02490987628698349f, 0.027079740539193153f, 0.04268918186426163f, 0.1965254545211792f, -0.2137242704629898f, -0.08211732655763626f, -0.018412766978144646f, 0.013684919103980064f, -0.0024495115503668785f, -0.018484214320778847f, 0.22161610424518585f, -0.016367953270673752f, -0.023857945576310158f, 0.10818511992692947f, -0.09524073451757431f, 0.14878711104393005f, -0.01632947102189064f, -0.02331649698317051f, -0.029776085168123245f, -0.057507578283548355f, 0.10941953212022781f, 0.0026478550862520933f, 0.10479923337697983f, 0.003971671685576439f, 0.10319537669420242f, -0.031025735661387444f, 0.04609137028455734f, 0.08189037442207336f, 0.01571258157491684f, 0.21056553721427917f, -0.005782504100352526f, -0.08062547445297241f, -0.1208927184343338f, -0.0499504953622818f, 0.03067999891936779f, -0.006093366537243128f, 0.026305366307497025f, -0.10596011579036713f, 0.12100879102945328f, 0.02917487733066082f, 0.07371151447296143f, -0.00651949318125844f, 0.12578043341636658f, 0.0825212225317955f, -0.10442111641168594f, 0.093464195728302f, 0.013142968527972698f, -0.03262362256646156f, -0.11622580885887146f, 0.18897807598114014f, 0.018775612115859985f, -0.15557736158370972f, 0.10662856698036194f, -0.028161287307739258f, -0.08386334031820297f, 0.10476729273796082f, 0.13022030889987946f, 0.0671536847949028f, 0.05399133637547493f, -0.048973340541124344f, 0.05399681627750397f, 0.08451114594936371f, -0.0684933215379715f, -0.037920329719781876f, 0.052626755088567734f, -0.07272115349769592f, -0.04461275413632393f, 0.09246519207954407f, -0.15807782113552094f, 0.10129570215940475f, 0.10635296255350113f, 0.025236014276742935f, 0.13621309399604797f, -0.037056341767311096f, 0.05042366310954094f, 0.08173192292451859f, 0.0647510513663292f, 0.07746566832065582f, -0.08610644936561584f, 0.003459811909124255f, -0.260749489068985f, 0.04900782182812691f, -0.1648290753364563f, 0.06889565289020538f, -0.012154638767242432f, 0.08793619275093079f, -0.05677833780646324f, 0.08683129400014877f, -0.07796909660100937f, 0.023632535710930824f, -0.019757309928536415f, -0.046112027019262314f, -0.17124557495117188f, -0.021804196760058403f, 0.160523921251297f, -0.011542282067239285f, 0.04907030984759331f, 0.055758170783519745f, 0.18359042704105377f, -0.02792450413107872f, 0.21005098521709442f, 0.033885035663843155f, -0.0045821876265108585f, 0.1548725813627243f, -0.08177006989717484f, -0.05570773407816887f, 0.13283193111419678f, 0.04389631003141403f, -0.06135459616780281f, 0.05479202792048454f, 0.014308355748653412f, -0.06218872219324112f, -0.10168255865573883f, -0.032696451991796494f, -0.01670551672577858f, 0.05581117793917656f, -0.05374836176633835f, -0.013300223276019096f, 0.1852831393480301f, -0.026757799088954926f, -0.09190413355827332f, 0.09354223310947418f, 0.062253862619400024f, -0.01467882003635168f, 0.26456746459007263f, 0.1683705449104309f, 0.054634153842926025f, -0.04617789015173912f, -0.04451018571853638f, -0.03679190203547478f, 0.12857027351856232f, 0.033123962581157684f, 0.08544880151748657f, -0.07588261365890503f, -0.04623549431562424f, -0.13137543201446533f, 0.08652333170175552f, 0.021638818085193634f, -0.1235443726181984f, -0.028200969099998474f, 0.0983336865901947f, -0.10982175916433334f, 0.11292608082294464f, 0.10872069746255875f, 0.10405950248241425f, -0.0373704731464386f, -0.09122751653194427f, -0.12677080929279327f, -0.0723707303404808f, 0.013568373396992683f, 0.11114507168531418f, 0.13668109476566315f, 0.15302811563014984f, -0.07497180998325348f, 0.14100521802902222f, 0.053526267409324646f, -0.018511664122343063f, -0.08070740848779678f, 0.06583744287490845f, -0.13582278788089752f, -0.003581412136554718f, -0.006342260167002678f, -0.1544434279203415f, -0.03538519889116287f, 0.07000622898340225f, 0.03571685776114464f, -0.07623045891523361f, -0.17636074125766754f, 0.07388066500425339f, 0.04226328805088997f, 0.013509674929082394f, -0.022027047351002693f, 0.013267574831843376f, -0.16305524110794067f, 0.16126509010791779f, -0.004762755241245031f, -0.16711071133613586f, -0.022252921015024185f, 0.0627899020910263f, 0.0032992090564221144f, -0.0475241094827652f, 0.32261934876441956f, 0.011775968596339226f, -0.05373113974928856f, 0.0741245225071907f, -0.02524287812411785f, -0.015609921887516975f, 0.09966378659009933f, 0.05944601073861122f, -0.02364317886531353f, 0.027538981288671494f, 0.04381636530160904f, 0.033473264425992966f, -0.09693220257759094f, 0.14959530532360077f, -0.1620372235774994f, -0.11329089850187302f, -0.13987137377262115f, 0.13792845606803894f, -0.02956194430589676f, -0.031159657984972f, 0.01854437217116356f, 0.036761607974767685f, 0.07330461591482162f, -0.024803025647997856f, 0.13533298671245575f, 0.0499371699988842f, -0.03481501340866089f, -0.17207951843738556f, -0.10683676600456238f, 0.09587264060974121f, -0.05737163498997688f, 0.09571834653615952f, -0.06381862610578537f, -0.07258337736129761f, 0.08046717941761017f, -0.1373719722032547f, -0.012965681962668896f, 0.12542040646076202f, -0.059858113527297974f, 0.020450377836823463f, 0.027825044468045235f, 0.00790629256516695f, 0.049556367099285126f, 0.014911930076777935f, -0.04539120942354202f, 0.07445148378610611f, -0.24926862120628357f, 0.19499246776103973f, 0.005054882727563381f, 0.14417393505573273f, -0.12514837086200714f, 0.06896845251321793f, -0.05672227218747139f, 0.14322923123836517f, 0.03610772266983986f, -0.010860984213650227f, 0.059539370238780975f, -0.003051603678613901f, -0.04321270436048508f, -0.11323315650224686f, 0.08051647245883942f, -0.0712413340806961f, 0.08225587755441666f, -0.00013190630124881864f, 0.014555899426341057f, 0.016342077404260635f, 0.12962742149829865f, 0.042956311255693436f, 0.028343582525849342f, -0.010970545001327991f, -0.009477231651544571f, 0.01852671429514885f, 0.041760191321372986f, -0.0059899818152189255f, -0.10623379051685333f, 0.07592559605836868f, 0.06704413890838623f, -0.1553075760602951f, 0.1433195173740387f, -0.09352746605873108f, -0.10348083823919296f, -0.06952641904354095f, -0.05056275799870491f, -0.11806558817625046f, 0.17294514179229736f, -0.03385272994637489f, 0.07581823319196701f, -0.21074630320072174f, 0.0727798342704773f, -0.13516226410865784f, 0.0513816699385643f, -0.03635450452566147f, 0.03207966312766075f, 0.05260410159826279f, 0.22591686248779297f, 0.017448099330067635f, -0.024728873744606972f, 0.01438559778034687f, 0.036757174879312515f, -0.23397015035152435f, 0.022428404539823532f, -0.19382907450199127f, 0.12315957248210907f, -0.03840164095163345f, -0.1249271109700203f, 0.07804802060127258f, -0.09956929832696915f, -0.029539387673139572f, 0.06209418550133705f, 0.07242149859666824f, 0.06352272629737854f, -0.07547982037067413f, 0.009245645254850388f, -0.00981803610920906f, 0.0552872009575367f, -0.1152445375919342f, -0.001795971067622304f, 0.007348920684307814f, -0.06825117021799088f, -0.004726465325802565f, -0.14591829478740692f, 0.04535747319459915f, 0.014166685752570629f, 0.14517512917518616f, 0.05998940393328667f, 0.12726344168186188f, -0.009070079773664474f, -0.09175410866737366f, -0.04130297154188156f, 0.0774022564291954f, -0.18541602790355682f, -0.01639372482895851f, 0.020310133695602417f, -0.05678416043519974f, 0.057770922780036926f, -0.06587183475494385f, -0.10059430450201035f, -0.035542648285627365f, 0.22360284626483917f, -0.0586884431540966f, -0.07329609990119934f, -0.09191405028104782f, 0.09636801481246948f, -0.05880247429013252f, -0.005972917657345533f, 0.09225884079933167f, 0.20545943081378937f, 0.09613596647977829f, -0.1830589771270752f, -0.06531354784965515f, 0.044225770980119705f, -0.04588819667696953f, 0.044698864221572876f, -0.02829032763838768f, -0.02609291672706604f, -0.12752804160118103f, 0.07790950685739517f, -0.0037345218006521463f, -0.03176431357860565f, -0.006094292271882296f, 0.02359049767255783f, -0.04232048615813255f, -0.1120033860206604f, -0.210405632853508f, -0.1460096687078476f, 0.002641310915350914f, 0.07590111345052719f, 0.07533108443021774f, -0.043324410915374756f, -0.08755043894052505f, 0.07937652617692947f, 0.05312038213014603f, -0.18755531311035156f, 0.06773357093334198f, -0.09381197392940521f, 0.22709612548351288f, 0.0068404534831643105f, -0.0652361661195755f, 0.0940873920917511f, 0.1069449707865715f, -0.03707088530063629f, 0.13327820599079132f, 0.09106253832578659f, -0.17502708733081818f, -0.006002564914524555f, 0.02048450894653797f, -0.016083035618066788f, -0.053679097443819046f, -0.04653424024581909f, -0.007030559703707695f, -0.0428214855492115f, 0.10538481175899506f, -0.14989079535007477f, -0.05675816535949707f, 0.10307805985212326f, 0.0005250327521935105f, -0.03925515338778496f, 0.08063755929470062f, -0.0752323642373085f, 0.0564284548163414f, -0.030909620225429535f, -0.05762755498290062f, 0.1472533941268921f, 0.0198383666574955f, 0.0005291543784551322f, -0.13215585052967072f, 0.036886949092149734f, -0.09427740424871445f, -0.09127814322710037f, 0.04822571575641632f, -0.06826448440551758f, -0.1221761703491211f, 0.04539492353796959f, -0.10240690410137177f, -0.0029391434509307146f, -0.2041473239660263f, -0.01755543053150177f, 0.12646456062793732f, 0.021521002054214478f, 0.15181876718997955f, 0.18457619845867157f, 0.023109981790184975f, -0.13369031250476837f, 0.2760598957538605f, -0.06351169943809509f, -0.16805851459503174f, -0.019142894074320793f, 0.11577664315700531f, 0.02902047522366047f, -0.004941324703395367f, -0.01351518277078867f, 0.10992375016212463f, -0.07170222699642181f, -0.02853456325829029f, -0.018516164273023605f, 0.013201349414885044f, 0.061049431562423706f, -0.013621938414871693f, -0.18036532402038574f, -0.0604538656771183f, 0.03229309245944023f };
alignas(16) float separable_conv2d_2_BIAS[] = { 0.6350176930427551f, -0.16112741827964783f, -0.9501645565032959f, 1.287282109260559f, 0.5607832074165344f, 0.3724765479564667f, -0.10078980773687363f, -0.6705943942070007f, -0.4025031328201294f, 0.019918598234653473f, 0.5144941806793213f, -0.19891251623630524f, -1.3096158504486084f, 0.6607022881507874f, 0.047851577401161194f, 0.44404512643814087f };
alignas(16) float conv2d_2_WEIGHTS[] = { 0.5791099071502686f, -0.1851123720407486f, 0.009307092055678368f, -0.34340912103652954f, 0.14932839572429657f, -0.28625404834747314f, -0.3572673499584198f, -0.09881716966629028f, -0.4412156939506531f, -0.4580029845237732f, 0.0018182191997766495f, -0.054001957178115845f, 0.08700156211853027f, 0.008539416827261448f, 0.5528789162635803f, 0.31471842527389526f, 0.19004113972187042f, 0.31055012345314026f, 0.1234518513083458f, 0.0857146754860878f, 0.5410411357879639f, -0.1738324761390686f, -0.02282644435763359f, 0.7316954731941223f, -0.08479293435811996f, 0.09236997365951538f, -0.4783296585083008f, -1.2949727773666382f, 0.5038434267044067f, -0.37727177143096924f, -0.3317261338233948f, 0.25805553793907166f, 0.46363911032676697f, -0.31524714827537537f, 0.5996074080467224f, 0.03160296007990837f, 0.26118671894073486f, -0.03627156838774681f, 0.014584673568606377f, -0.4267663359642029f, 0.20760899782180786f, -0.08223062753677368f, -0.1765875518321991f, 0.4091707468032837f, -0.1329648196697235f, -0.08432172238826752f, 0.2125808745622635f, 0.06033586710691452f, 0.008492442779242992f, 0.4566895365715027f, -0.22960823774337769f, -0.09226863831281662f, -0.070636086165905f, -0.08206582814455032f, -0.6606464982032776f, 0.4141121804714203f, 0.4497201442718506f, -0.49364688992500305f, -0.11173859983682632f, -0.01591639220714569f, -0.14769648015499115f, -0.2654721140861511f, -1.0881770849227905f, 0.1908079981803894f, -0.29415440559387207f, -0.24820628762245178f, 0.16762325167655945f, 0.2840077877044678f, -0.3782848119735718f, -0.5520011186599731f, 0.09401871263980865f, 0.1348888874053955f, 0.23410451412200928f, 0.3638463318347931f, -0.18030156195163727f, 0.3515314757823944f, 0.3885514438152313f, 0.11106939613819122f, -0.8018571734428406f, -0.18405580520629883f, -0.4609672427177429f, 0.18719065189361572f, -0.24390840530395508f, -0.8035523295402527f, 0.40453287959098816f, -0.19646894931793213f, -0.2966017425060272f, -0.34949246048927307f, -0.6773451566696167f, 0.03155101463198662f, 0.056969139724969864f, 0.35713618993759155f, -0.09204135835170746f, 0.06577972322702408f, 0.11049126088619232f, 0.17924445867538452f, -0.04200199991464615f, 0.5426942110061646f, 0.29077136516571045f, -0.329037070274353f, -0.06284059584140778f, -0.23129010200500488f, 0.09012151509523392f, 0.33168646693229675f, -0.02060365304350853f, 0.1418597549200058f, -0.18767023086547852f, -0.0008041824912652373f, 0.7136908173561096f, -0.6836158633232117f, -0.14888650178909302f, -0.2736414968967438f, -0.019233891740441322f, -0.16096287965774536f, -0.3544180393218994f, 0.35437440872192383f, 0.6276076436042786f, 0.2789732813835144f, -0.3042535185813904f, 0.1688215434551239f, 0.27102482318878174f, -0.45454126596450806f, 0.16026951372623444f, -0.05000949278473854f, 0.12509271502494812f, 0.07530750334262848f, 0.7315988540649414f, -0.09707056730985641f, -0.7142425775527954f, 0.19058625400066376f, 0.02373667061328888f, -0.17470967769622803f, -0.060599759221076965f, 0.06892365962266922f, -0.8328660726547241f, -0.019148219376802444f, 0.42347782850265503f, -0.13952986896038055f, 0.4764399230480194f, 0.08610334247350693f, 0.10411190986633301f, -0.5137137770652771f, -0.8794979453086853f, -0.7090799808502197f, 0.32175159454345703f, -0.37784314155578613f, 0.09423591196537018f, 0.19421452283859253f, -0.3331186771392822f, 0.7036483883857727f, -0.010297763161361217f, -0.6568607687950134f, -0.07081181555986404f, 0.12039104104042053f, 0.5586775541305542f, -0.12629914283752441f, 0.1441199630498886f, -0.3874647319316864f, 0.1900571584701538f, -0.12520283460617065f, -0.48946306109428406f, 0.4012036621570587f, 0.06536748260259628f, -0.6469300985336304f, 0.07426460087299347f, -0.18173685669898987f, -0.9361878633499146f, -0.7624531984329224f, -0.06606381386518478f, -0.2486923784017563f, -0.1747828722000122f, -0.5774214267730713f, -0.13501772284507751f, -0.05943247303366661f, 0.7746001482009888f, 0.22492098808288574f, -0.053531765937805176f, 0.5397765040397644f, 0.10644010454416275f, 0.4182793200016022f, -0.17991001904010773f, -0.5444515347480774f, -1.0122541189193726f, 0.1703067421913147f, -0.6009724140167236f, -0.39550045132637024f, -0.13240249454975128f, 0.3304305970668793f, 0.38393670320510864f, -0.7168763279914856f, 0.16642937064170837f, -0.17489777505397797f, -0.09273312240839005f, 0.6030318140983582f, 0.16024258732795715f, -0.07485395669937134f, -0.16671599447727203f, -0.07371710985898972f, -0.4001968801021576f, 0.40922388434410095f, -0.6465734839439392f, -0.4087178409099579f, -0.19039693474769592f, -0.45417627692222595f, -0.3253016769886017f, -0.06190183758735657f, -0.4876824915409088f, 0.41714271903038025f, -0.6613031625747681f, 0.22018703818321228f, -0.7867926359176636f, -0.01058761402964592f, 0.0006996096926741302f, -0.43745937943458557f, -0.3101825714111328f, -0.20201678574085236f, -0.22572578489780426f, -0.15865127742290497f, 0.8205675482749939f, -0.12568899989128113f, -0.09567314386367798f, 0.13368511199951172f, 0.06094461306929588f, -0.7037051320075989f, 0.23820190131664276f, 0.08006300032138824f, -0.623942494392395f, 0.1398579478263855f, 0.15747122466564178f, -0.2379285991191864f, -0.2869897782802582f, 0.10089858621358871f, 0.06741781532764435f, 0.6919999122619629f, 0.18131840229034424f, -0.8545345067977905f, 0.14336936175823212f, -0.41547834873199463f, 0.18547730147838593f, -0.16167093813419342f, 0.32079848647117615f, -0.2509797513484955f, -0.0937933474779129f, -0.21630163490772247f, -0.059531185775995255f, -0.4897617995738983f, 0.5124528408050537f, 0.2862805128097534f, -0.04984366148710251f, 0.20736046135425568f, 0.03798705339431763f, 0.2063564509153366f, 0.2951858639717102f, 0.1282522827386856f, -0.5269623398780823f, 0.7179039120674133f, -0.3593296706676483f, -0.49974164366722107f, 0.0531613864004612f, -0.11052733659744263f, 0.5493301749229431f, -0.6193758845329285f, 0.46000468730926514f, 0.18438859283924103f, 0.15296466648578644f, -0.057820726186037064f, -0.6401507258415222f, -0.489774227142334f, 0.47854524850845337f, 0.32747402787208557f, 0.03388633579015732f, 0.45024704933166504f, -0.46378085017204285f, -0.5021959543228149f, -0.06867296248674393f, 0.634053111076355f, -0.17608438432216644f, -0.29314276576042175f, 0.143499955534935f, -0.32809141278266907f, -0.19172357022762299f, 0.07334031164646149f, 0.301879346370697f, -0.4471687972545624f, 0.14712773263454437f, -0.44039395451545715f, -0.1532617062330246f, -0.6309384703636169f, 0.6488132476806641f, -0.034771811217069626f, -0.4100634455680847f, -0.015780778601765633f, -0.08479642122983932f, -0.20919376611709595f, -0.7048369646072388f, 0.2104560136795044f, -0.19312404096126556f, -0.061598241329193115f, -0.1331612914800644f, 0.6706268191337585f, 0.2189081460237503f, 0.16631245613098145f, -0.28757455945014954f, -0.13834835588932037f, -0.45345211029052734f, -0.1989574134349823f, -0.5513561964035034f, 0.4023461639881134f, -0.5689887404441833f, -0.16465812921524048f, 0.2568286657333374f, -0.30413079261779785f, -0.05983833223581314f, 0.26777583360671997f, 0.14981210231781006f, -0.15399017930030823f, 0.5537089705467224f, 0.5465897917747498f, -0.043202172964811325f, -0.8107290267944336f, 0.4475812017917633f, 0.36927148699760437f, 0.02245938777923584f, 0.501560389995575f, 0.07972351461648941f, -0.1826370507478714f, 0.13399986922740936f, 0.2832070589065552f, -0.3157214820384979f, 0.2070038765668869f, -0.3942580223083496f, -0.02691958285868168f, 0.12654635310173035f, 0.321676641702652f, -0.21847517788410187f, -0.8096565008163452f, 0.030308695510029793f, 0.3278381824493408f, -0.2024780511856079f, 0.3519754111766815f, -0.03394168242812157f, 0.3011782765388489f, 0.3032850921154022f, -0.4341338872909546f, 0.09123891592025757f, -0.543000340461731f, 0.7364867329597473f, -0.6774720549583435f, 0.34525224566459656f, 0.04853077232837677f, -0.5583868026733398f, 0.05293848365545273f, -0.023052368313074112f, 0.46791431307792664f, -0.727702796459198f, 0.13430538773536682f, -0.4140712320804596f, 0.11330369114875793f, -0.4324302673339844f, -0.5567412972450256f, -0.18493004143238068f, 0.04054165631532669f, 0.21679390966892242f, -0.13090036809444427f, 0.0944448783993721f, -0.3249792754650116f, 0.07037846744060516f, -0.001140366424806416f, -0.6888546347618103f, -0.2980860471725464f, 0.01810338906943798f, 0.4484989643096924f, 0.24028483033180237f, 0.5437417030334473f, -0.5756337642669678f, 0.05301549285650253f, 0.05080028250813484f, -0.7936850786209106f, 0.575041651725769f, -0.4343683421611786f, -0.3442405164241791f, -0.7424463629722595f, -0.2354632169008255f, 0.22674119472503662f };
alignas(16) float conv2d_2_BIAS[] = { -0.4631189703941345f, -0.9051483869552612f, 0.2965914309024811f, 2.080955743789673f, 0.06854549050331116f, 0.9903117418289185f, -0.5808647274971008f, 0.30708158016204834f, 0.9385823607444763f, 0.36992552876472473f, 0.26867395639419556f, -0.2676159739494324f, -1.8312108516693115f, 1.0002893209457397f, 2.241396903991699f, -0.5493326187133789f, 1.6716225147247314f, -0.5440967679023743f, 0.03400639817118645f, -0.07653488218784332f, -0.9947694540023804f, 2.349494218826294f, 0.8031368255615234f, 0.7235186696052551f };
alignas(16) float separable_conv2d_3_depthwise_WEIGHTS[] = { 0.6615062952041626f, 1.227513074874878f, 0.8578688502311707f, -0.761969268321991f, 0.6702031493186951f, -0.08471482247114182f, -1.10968017578125f, -0.057875897735357285f, 1.3410199880599976f, 0.8376469612121582f, 0.8520389199256897f, 0.21286524832248688f, 1.3807390928268433f, 0.19590947031974792f, 0.648576557636261f, -0.7919610738754272f, -0.744967520236969f, 0.018153060227632523f, 1.3587061166763306f, -1.0028315782546997f, -0.14222770929336548f, 0.15354816615581512f, 0.9830780029296875f, 0.5862700343132019f, 1.1309469938278198f, 0.010837458074092865f, 0.3887948989868164f, -0.6093870401382446f, -1.0141127109527588f, 0.08538177609443665f, -0.42225244641304016f, 0.9751837849617004f, -0.9646099209785461f, -0.6267409324645996f, -0.6945169568061829f, 1.4288722276687622f, -0.2540484666824341f, -0.19391581416130066f, -1.1835349798202515f, -0.32718420028686523f, -0.011195703409612179f, 0.6963189244270325f, -1.0759861469268799f, 0.007128605153411627f, -1.239937424659729f, -0.6217819452285767f, 0.05896744132041931f, 0.2570993900299072f, 0.20547738671302795f, -1.2716084718704224f, 0.3308560848236084f, 1.0051363706588745f, 0.2661827802658081f, 0.47953277826309204f, -0.7784593105316162f, -0.6182835698127747f, -0.5153111815452576f, -1.5798014402389526f, 0.9011462926864624f, -0.014343180693686008f, 0.6115209460258484f, -0.37919849157333374f, 2.1690938472747803f, 0.3500557243824005f, 0.3755235970020294f, 0.8287814855575562f, 1.2561167478561401f, -0.43411046266555786f, 0.6244612336158752f, 0.08296037465333939f, 0.6345611214637756f, 0.5686020255088806f, 1.0060901641845703f, -0.8746954798698425f, -1.0331380367279053f, 0.5245248079299927f, 0.19154050946235657f, -0.9392837882041931f, -0.8144723176956177f, 0.36350351572036743f, 0.08156748861074448f, 0.43692922592163086f, -0.8247674107551575f, 0.622080385684967f, 0.8247052431106567f, 0.4627240002155304f, 1.154624342918396f, 0.03379238024353981f, -0.6380219459533691f, 0.2405649870634079f, -0.70461106300354f, -0.5836531519889832f, -0.6855691075325012f, -0.06152372062206268f, 0.5594496726989746f, 0.20500290393829346f, 0.8579069972038269f, 0.3841397166252136f, 0.8051149249076843f, 0.19231197237968445f, 0.9119462370872498f, -0.38348010182380676f, -0.15929964184761047f, -0.05129016190767288f, 0.7419772148132324f, -0.6281759142875671f, 0.38782998919487f, -0.5358921885490417f, 0.42804595828056335f, -0.20633257925510406f, 0.29979369044303894f, -1.5128017663955688f, -0.48175641894340515f, 1.4058736562728882f, 0.18551084399223328f, 0.30112704634666443f, -0.7296862006187439f, -0.30281224846839905f, 0.8848938941955566f, -0.49557048082351685f, 1.2124013900756836f, 0.550125002861023f, -0.39870184659957886f, 0.04342435300350189f, -0.19878749549388885f, -1.4935985803604126f, -0.30982109904289246f, 0.523593008518219f, 0.4672103524208069f, -0.6368624567985535f, 1.1227011680603027f, 0.578522264957428f, -0.791806697845459f, -0.3957892656326294f, -0.6701160073280334f, 0.37148934602737427f, 0.7780885696411133f, -0.7279216051101685f, -0.28325948119163513f, 0.6080347299575806f, 0.4795357286930084f, -0.640432596206665f, 0.6119576096534729f, -0.7413892149925232f, 1.3233575820922852f, -0.05393124744296074f, 0.5928419232368469f, -0.3133443295955658f, 0.846358597278595f, 0.4627767503261566f, 0.48869428038597107f, -0.26206183433532715f, 1.4068154096603394f, -0.6058992147445679f, 0.4214112162590027f, 0.12939386069774628f, -0.03667674586176872f, -0.09551405161619186f, 1.4908150434494019f, -0.6888962984085083f, -0.08844690769910812f, -0.12252902239561081f, 0.6346487402915955f, -0.579232394695282f, 0.22083301842212677f, 0.7694265246391296f, 1.2232275009155273f, -0.07822377979755402f, 0.017262771725654602f, -0.46010562777519226f, -0.6209287643432617f, 0.4936443269252777f, 1.012830138206482f, -0.5234935283660889f, 0.34561583399772644f, -1.085824966430664f, -0.9873031377792358f, 0.7482564449310303f, -0.5557409524917603f, 0.41295483708381653f, 0.6658608913421631f, 0.14952592551708221f, 1.4507999420166016f, -0.4003612697124481f, -1.103196144104004f, 0.10014582425355911f, 0.00905176717787981f, 0.02869575470685959f, -1.1845180988311768f, -0.2615317106246948f, 1.1235466003417969f, 0.18437029421329498f, -0.4426448941230774f, 0.22755081951618195f, 0.08927709609270096f, 0.5293373465538025f, 0.6166024804115295f, -0.41227132081985474f, 0.9079771041870117f, -0.4525967538356781f, -0.17940659821033478f, -1.022118091583252f, -0.26708146929740906f, -1.5835479497909546f, -0.9523842930793762f, -0.5384090542793274f, 0.27337294816970825f, -1.1317138671875f, -0.9803719520568848f, 0.5491912364959717f, -0.554494321346283f, 0.12317407131195068f, -0.3245048522949219f, -0.10352066904306412f, 0.47290366888046265f, -0.8324180841445923f, 0.20073667168617249f, 1.401432991027832f, -0.6020420789718628f, 1.0986905097961426f, 0.631173849105835f, -0.22762061655521393f, -1.7593193054199219f, -0.123160719871521f, -0.26151716709136963f, -1.0911574363708496f, 0.6595327854156494f, 0.09882114082574844f, -0.8172063827514648f, -0.6049705743789673f, 0.6742433905601501f, 0.6689140796661377f, -0.9759101867675781f, -0.39325401186943054f, -0.12208810448646545f, 1.4034086465835571f, 0.6843207478523254f, -0.7621778845787048f, 0.07243461906909943f, -0.926252007484436f, 1.1333023309707642f, 0.6900973320007324f, 0.6836783289909363f, -0.6030789017677307f, 0.9399482607841492f, 0.1625567376613617f, -0.27035263180732727f, 1.2481663227081299f, 1.2985738515853882f, -0.0654779002070427f, 0.15632525086402893f, 0.668811559677124f, -0.9078485369682312f, 0.15162648260593414f, 0.2874389588832855f, -0.9873377680778503f, -0.028647638857364655f, 0.43251878023147583f, 0.002453780733048916f, -0.22868762910366058f, 1.1926324367523193f, -0.6469292640686035f, 1.3254610300064087f, 0.5452502965927124f, -1.385021686553955f, 0.6710120439529419f, -0.17093941569328308f, 0.9612817168235779f, 0.9786399602890015f, 0.40964430570602417f, 0.862263023853302f, -0.05494857206940651f, -0.39808785915374756f, -1.4881175756454468f, -0.7793080806732178f, -0.24423302710056305f, 0.5385486483573914f, 0.2230411320924759f, 0.9831030368804932f, 0.43573954701423645f, -0.5425179600715637f, -0.46669110655784607f, -0.26299911737442017f, 1.1777817010879517f, -0.33730819821357727f, -0.9260736107826233f, -0.8772507905960083f, 0.47579342126846313f, 0.38958293199539185f, 0.9317309856414795f, -0.7041507959365845f, 0.7798689603805542f, 0.5941859483718872f, 0.4632345139980316f, -0.14694704115390778f, 0.26116684079170227f, 1.0668790340423584f, -0.9426979422569275f, -0.5968809127807617f, 0.8537995219230652f, 0.2455413043498993f, 1.5094492435455322f, 0.571918249130249f, 0.8403607606887817f, -0.6245362758636475f, -0.0007389731472358108f, 1.4688646793365479f, 0.05813401937484741f, 0.5105183720588684f, -0.48012927174568176f, -0.07943666726350784f, -1.1485997438430786f, 0.8594275116920471f, 0.6856194138526917f, 0.9481096863746643f, -0.40130406618118286f, -0.7075624465942383f, 0.6767154335975647f, 0.24121791124343872f, 1.3309046030044556f, -1.0867409706115723f, 0.9552589058876038f, -0.4028379023075104f, -0.005164277274161577f, -0.7328781485557556f, -0.6173619031906128f, -1.3705265522003174f, -0.44168081879615784f, 0.1703406572341919f, 0.8659476637840271f, -0.5612460374832153f, 0.1382012814283371f, -1.4985129833221436f, 0.7547839879989624f, 0.36409100890159607f, -0.5386385321617126f, -0.07504560053348541f, -0.48705410957336426f, -0.06480726599693298f, 1.095287799835205f, 0.7607144713401794f, 0.1819663941860199f, 0.13585755228996277f, -0.463203102350235f, -0.46545475721359253f, -0.46253710985183716f, -0.1421494036912918f, 0.10801898688077927f, 0.5846932530403137f, 1.0926988124847412f, 0.0848759114742279f, -0.06304999440908432f, 0.35983338952064514f, 1.1439800262451172f, 1.4256712198257446f, -0.04879746586084366f, 0.28694087266921997f, 0.0223594568669796f, -1.2500213384628296f, 1.0979740619659424f, -0.23333582282066345f, -1.7219864130020142f, 0.5197727680206299f, 0.35206568241119385f, 0.3067221939563751f, -0.6141826510429382f, -1.4434453248977661f, 0.2047916054725647f, -0.20610640943050385f, 0.5027356743812561f, -1.0481048822402954f, 0.4870297908782959f, -1.0984601974487305f, -0.3655461370944977f, 1.1687190532684326f, -0.2782690227031708f, 1.0707231760025024f, 1.000064492225647f, -1.067246913909912f, 0.1984800547361374f, -1.0583093166351318f, 0.9108133316040039f, -0.40807798504829407f, -0.08996584266424179f, 0.2958904504776001f, -0.2471218854188919f, -0.47603631019592285f, -0.38768717646598816f, 0.7046347856521606f, 0.3440914452075958f, 0.4478086233139038f, 0.29224690794944763f, -0.15673889219760895f, 0.08837871253490448f, 0.2323729544878006f, 0.4469496011734009f, -0.11935976147651672f, 0.9561679363250732f, -0.2751334011554718f, -0.14090615510940552f, -0.5276517271995544f, 0.19667896628379822f, -0.34757858514785767f, 0.4327023923397064f, 1.2688443660736084f, -0.29917511343955994f, -0.0040147071704268456f, -0.008134793490171432f, 1.295077919960022f, 0.282865971326828f, -0.010126978158950806f, -0.16569270193576813f, 0.5732328295707703f, 0.010772498324513435f, 0.5025278329849243f, 0.8180204629898071f, -0.13613541424274445f, 0.8117446303367615f, 0.9045065641403198f, 0.11170433461666107f, -1.1316360235214233f, -0.13715827465057373f, 0.15530653297901154f, -0.2760200500488281f, 0.859855592250824f, -0.31337445974349976f, -0.4040835499763489f, 1.1255085468292236f, 0.1971186250448227f, 0.7288691401481628f, 0.12875783443450928f, -1.1097679138183594f, 0.15949925780296326f, -0.6464382410049438f, -0.5034358501434326f, -0.78938889503479f, 1.6676831245422363f, -1.0771363973617554f, 0.9012014269828796f, 0.10753924399614334f, -0.09700726717710495f, -0.5994398593902588f, -0.5087350606918335f, -1.3225884437561035f, -0.643907368183136f, 0.8587976098060608f, 0.829266369342804f, 0.6589270234107971f, -0.8088757991790771f, -0.695529580116272f, 0.7490648627281189f, -0.9956286549568176f, 0.42615368962287903f, 1.1982859373092651f, -0.40101781487464905f, 0.8495019674301147f, -0.5310654640197754f, -0.9884701371192932f, 0.05962824821472168f, -0.4708724319934845f, 0.6692888736724854f, 0.5858969688415527f, -0.46225935220718384f, 0.1464635282754898f, -1.8146967887878418f, 0.31422674655914307f, -0.36353740096092224f, -0.16095216572284698f, -0.2091645747423172f, 1.6605416536331177f, -0.5527844429016113f, -0.6592044830322266f, -0.5009412169456482f, 1.115224003791809f, -0.33752602338790894f, -0.5288859009742737f, -0.6226510405540466f, 0.6677485108375549f, 0.2658349275588989f, 0.44539737701416016f, 0.3973829448223114f, -1.0090678930282593f, 0.5203744173049927f, 1.1382534503936768f, 0.14640185236930847f, -0.2605701684951782f, 0.6220120787620544f, 0.7673506736755371f, -0.4641846716403961f, -0.39910760521888733f, 0.6731929183006287f, 0.02176803909242153f, -0.6663772463798523f, -0.22116072475910187f, -0.16938520967960358f, -0.2133251577615738f, 0.1783149689435959f, -0.5171401500701904f, -0.9238952398300171f, -0.3539450466632843f, 0.9556013345718384f, -0.49528786540031433f, 0.24317628145217896f, -0.2996135652065277f, -0.054055530577898026f, 1.471935749053955f, -0.4936119019985199f, 0.4872271418571472f, 0.6288558840751648f, -0.822722315788269f, -0.17281611263751984f, 0.4583938419818878f, 0.522596001625061f, 0.5856349468231201f, -0.15388348698616028f, 1.3066285848617554f, -1.1830545663833618f, 0.9081066250801086f, 0.660196840763092f, -0.40365976095199585f, -0.10623233020305634f, -0.5917466878890991f, -0.333959698677063f, 1.2623412609100342f, 0.691196858882904f, -0.0733535960316658f, 0.6563023328781128f, -0.3802326023578644f, -0.729981541633606f, -0.19545897841453552f, 0.47733035683631897f, -0.7789807319641113f, 1.1715116500854492f, 0.2653968036174774f, -0.9231209754943848f, 0.6979278922080994f, 0.7373536825180054f, 1.059615135192871f, -0.6052141189575195f, -0.9454455971717834f, -0.8093039393424988f, 0.6066738963127136f, 0.24447636306285858f, -0.7163488268852234f, -0.40995708107948303f, -0.6673635244369507f, 0.42078787088394165f, 0.12364597618579865f, -0.041420694440603256f, 0.8656675219535828f, -0.4317016303539276f, 0.8599932193756104f, -0.935242235660553f, 0.08537328988313675f, -0.7629562616348267f, 0.0752931758761406f, -0.17651213705539703f, 1.3000075817108154f, 0.042103610932826996f, -1.284139633178711f, -0.4810487926006317f, -0.6205974221229553f, 0.022275038063526154f, 1.165898084640503f, -0.8531148433685303f, 0.720944344997406f, -0.0454261489212513f, 0.37022873759269714f, -0.32323476672172546f, 0.8801853060722351f, 0.7473416924476624f, 1.3269604444503784f, -0.000389384338632226f, -0.09321393072605133f, -0.7089354991912842f, 0.994717001914978f, -1.6885299682617188f, -0.005404994823038578f, 0.03228103742003441f, 0.34694620966911316f, -0.48200464248657227f, 0.4961518943309784f, -0.3352934420108795f, 1.138114333152771f, -0.027113474905490875f, 0.4384791851043701f, -1.130218267440796f, -0.1328504979610443f, 0.31236371397972107f, 0.11431236565113068f, -0.8441230654716492f, 0.5552259683609009f, 0.17830514907836914f, -0.6267628073692322f, 0.3417191207408905f, 1.2847089767456055f, -0.6645914912223816f, -0.6961846947669983f, -1.4161858558654785f, 0.3970002233982086f, -0.45231351256370544f, 0.9746404886245728f, 0.9825657606124878f, 0.38574305176734924f, -0.3652574419975281f, 0.6349251866340637f, 1.3706047534942627f, 0.024708928540349007f, -0.41209399700164795f, 1.370872974395752f, 0.31661152839660645f, -0.22763831913471222f, -0.18853019177913666f, -0.92516028881073f, -0.05266578868031502f, -1.837081789970398f, 0.15464092791080475f, 0.9924284219741821f, 0.9419123530387878f, 0.3152604103088379f, 0.292939692735672f, 0.9607443809509277f, 1.035833477973938f, 0.6822353005409241f, 0.38835206627845764f, 0.41374292969703674f, -1.0788823366165161f, 0.42251747846603394f, 0.7747056484222412f, 0.5094256401062012f, 0.10229716449975967f, -1.3702359199523926f, -0.08396685123443604f, -0.20541714131832123f, -1.4513698816299438f, 1.1359012126922607f, 0.8289918303489685f, 1.0663264989852905f, -0.4798836410045624f, -0.16391099989414215f, 1.2109969854354858f, -0.3349587023258209f, 0.7129626870155334f, 0.944794237613678f, 0.5417443513870239f, 0.40348613262176514f, 0.08997006714344025f, -0.3867703378200531f, -0.13167384266853333f, 0.24905209243297577f, -0.8778846859931946f, -0.23761747777462006f, 0.6094096302986145f, 0.013184292241930962f, -0.20692819356918335f, 1.184891939163208f, 0.6121013164520264f, 0.115337073802948f, -0.41350486874580383f, 0.48144522309303284f, -1.3482425212860107f, -1.0612493753433228f, 0.21156908571720123f, -0.7217977643013f, 1.2640042304992676f, 0.6734737157821655f, -0.5084331631660461f, -0.3127386271953583f, -0.3936997056007385f, -1.3623672723770142f, 0.0022109434939920902f, 0.2799580693244934f, -1.0034867525100708f, 0.1910053938627243f, -0.5037431120872498f, 0.6054210662841797f, -0.8503333926200867f, 0.7113890647888184f, 0.20212340354919434f, 1.091662049293518f, -0.44201192259788513f, 1.048524260520935f, -0.7971943616867065f, 0.4514840245246887f, -0.5119811296463013f, 0.4070027470588684f, -1.4380725622177124f, 0.3318078815937042f, 0.03834627941250801f, -1.0456106662750244f, -0.09199614077806473f, 0.5952110290527344f, -0.2814190685749054f, -1.1890673637390137f, -0.20372620224952698f, 1.2071912288665771f, -0.3303404450416565f, 0.6650858521461487f, 0.5135238170623779f, -0.5341434478759766f, 0.841515064239502f, 0.2687065303325653f, 0.6333643198013306f, 0.5672206878662109f, -1.2761788368225098f, 0.4715654253959656f, -0.24290694296360016f, -0.7999879717826843f, -0.6539404392242432f, 0.41322261095046997f, 0.7674700617790222f, -1.194226861000061f, 0.2070925086736679f, 0.5421115756034851f, 0.8395172357559204f, 0.5574964880943298f, 0.9038923978805542f, 0.06525244563817978f, 1.023861050605774f, 0.7848186492919922f, -0.6732507944107056f, 0.03176065906882286f, -0.29947182536125183f, -0.25646156072616577f, 0.5445641279220581f, -1.222585678100586f, 0.0262336153537035f, -0.3862569332122803f, -1.0332403182983398f, 0.2561531364917755f, -0.5545454621315002f, -0.24472682178020477f, 0.17270436882972717f, 0.7191129326820374f, -0.2584928572177887f, 1.0966986417770386f, -0.43225106596946716f, -0.858689546585083f, 0.4297192394733429f, 0.6840788722038269f, 0.9091211557388306f, 0.548158586025238f, -1.0473603010177612f, -0.9888138175010681f, -0.3235686421394348f, 0.09286466240882874f, -0.42896926403045654f, -1.491255760192871f, 0.4973151683807373f, 0.8737477660179138f, -0.3261376917362213f, 0.3204585909843445f, -0.9037019610404968f, -0.4686115086078644f, 0.192324697971344f, -0.5175354480743408f, -0.04877963289618492f, -0.7250167727470398f, -0.5995722413063049f, -1.1178935766220093f, 0.346143901348114f, 0.8593608736991882f, 1.1217488050460815f, -0.5329256653785706f, 0.7279993891716003f, 0.7231114506721497f, 1.1288508176803589f, 0.45441922545433044f, 0.3674028217792511f, 0.5034268498420715f, -1.3249887228012085f, -0.4022105038166046f, -1.1518453359603882f, -1.2808294296264648f, -0.04001592472195625f, 1.5413925647735596f, -1.1414109468460083f, 0.21510998904705048f, 0.29649341106414795f, 0.6998009085655212f, -0.9339736700057983f, -0.7735141515731812f, 0.07083671540021896f, 0.2626785337924957f, 0.3946278989315033f, -0.8387507796287537f, -0.2331800013780594f, -1.1742362976074219f, -0.35034987330436707f, -1.4866145849227905f, 0.06826158612966537f, 0.27725157141685486f, -0.1960631161928177f, 1.1820480823516846f, -1.0185225009918213f, -1.3319332599639893f, 0.41089317202568054f, 0.8000601530075073f, -0.24521830677986145f, 0.38176289200782776f, -0.5758113861083984f, -0.6030832529067993f, 0.3785831034183502f, -0.3113970160484314f, -0.23073036968708038f, 1.01224946975708f, 0.4688851833343506f, -0.30573952198028564f, -0.37148529291152954f, -0.18757684528827667f, 0.5161656141281128f, 0.8621296882629395f, -0.22623571753501892f, -0.25015148520469666f, 0.4136466383934021f, 0.9077360033988953f, -1.0375382900238037f, 1.4048473834991455f, 0.6504964828491211f, 0.5165137052536011f, -0.03517178073525429f, -1.0735186338424683f, -1.1554186344146729f, -0.21596463024616241f, -0.8622382283210754f, 0.9782523512840271f, -0.38797733187675476f, -0.2461390346288681f, 1.1177241802215576f, 0.3847358524799347f, -0.4088221490383148f, -0.6917173862457275f, -1.6204100847244263f, 0.38779327273368835f, 0.3672757148742676f, 1.2923047542572021f, 1.1659523248672485f, -0.5405794978141785f, -0.6574854850769043f, -1.3345705270767212f, -0.44243431091308594f, -0.41490477323532104f, 0.07940970361232758f, -1.0914421081542969f, -0.40265458822250366f, 1.0906037092208862f, 0.495715856552124f, 0.025561803951859474f, -0.45310890674591064f, -0.4573799967765808f, 0.8096192479133606f, 1.2797290086746216f, 0.2884802222251892f, -0.36365246772766113f, -0.7355874180793762f, -0.5506084561347961f, -0.2640964984893799f, 0.4946639835834503f, 0.24559901654720306f, -0.4078757166862488f, 1.080052137374878f, 0.7170050740242004f, -1.0230070352554321f, 1.2147579193115234f };
alignas(16) float separable_conv2d_3_WEIGHTS[] = { -0.058129891753196716f, -0.05868666246533394f, 0.038418639451265335f, -0.03804492577910423f, 0.04523167386651039f, -0.09339121729135513f, -0.11085643619298935f, 0.039612848311662674f, -0.08445269614458084f, -0.04026126489043236f, -0.002263956004753709f, 0.0035718544386327267f, 0.014605852775275707f, 0.0978671982884407f, -0.02910766191780567f, -0.06536351144313812f, 0.07887207716703415f, -0.02736416645348072f, -0.007441661786288023f, -0.058706820011138916f, 0.046223800629377365f, -0.012134796008467674f, 0.03018091432750225f, 0.09813642501831055f, -0.0646577849984169f, 0.003582283155992627f, -0.0707113966345787f, -0.04600238427519798f, 0.016467010602355003f, 0.015069937333464622f, 0.014415335841476917f, -0.015159637667238712f, -0.09417340159416199f, -0.006190132349729538f, -0.08928030729293823f, -0.10564086586236954f, 0.05791753903031349f, 0.007395295426249504f, -0.06762108951807022f, 0.04195789247751236f, 0.04403797164559364f, -0.006876187864691019f, 0.1217866986989975f, 0.05513732135295868f, 0.0571904331445694f, 0.045245733112096786f, -0.01651768758893013f, 0.025928741320967674f, 0.022333046421408653f, -0.007856529206037521f, 0.0601285882294178f, 0.06337077915668488f, -0.014401469379663467f, -0.035370245575904846f, -0.013027967885136604f, 0.013018697500228882f, -0.10513138025999069f, 0.07032249122858047f, -0.0856928601861f, 0.13183949887752533f, 0.011497566476464272f, 0.07765604555606842f, -0.017147649079561234f, 0.102407306432724f, -0.03887546434998512f, -0.00502881919965148f, -0.048559799790382385f, -0.005750575102865696f, 0.05672759190201759f, 0.0946207046508789f, 0.03743743896484375f, -0.010660013183951378f, 0.04343835264444351f, 0.04226235672831535f, -0.07376062124967575f, -0.0538659431040287f, -0.0010327339405193925f, 0.03203878179192543f, 0.004933781921863556f, -0.11271049082279205f, -0.01695556566119194f, 0.0066170040518045425f, 0.09278702735900879f, 0.04101085662841797f, 0.021696237847208977f, 0.06157383695244789f, -0.07230009883642197f, 0.014066708274185658f, 0.039580538868904114f, -0.05483545735478401f, -0.07240712642669678f, 0.015748634934425354f, -0.011881079524755478f, -0.02913406491279602f, -0.06151985004544258f, -0.029443519189953804f, 0.027045179158449173f, -0.007755020167678595f, -0.0033500895369797945f, 0.020594522356987f, 0.054371178150177f, -0.07973220199346542f, -0.10185184329748154f, 0.139425590634346f, 0.03023698925971985f, 0.06807791441679001f, -0.07440707832574844f, 0.05080600455403328f, 0.020808780565857887f, -0.004618002101778984f, 0.067444808781147f, 0.12423904240131378f, -0.02967658080160618f, 0.014223686419427395f, -0.045455463230609894f, 0.0038646585308015347f, -0.004115990828722715f, -0.027113938704133034f, -0.008418682031333447f, 0.06680705398321152f, 0.00817060749977827f, -0.0036416680086404085f, -0.02052631601691246f, -0.17814956605434418f, 0.029452944174408913f, -0.07531657069921494f, 0.013567004352807999f, -0.04568744823336601f, 0.010884898714721203f, 0.0007830419344827533f, 0.027293333783745766f, 0.07866249233484268f, 0.08768144994974136f, 0.013063861057162285f, -0.06555958092212677f, 0.02463447116315365f, 0.0028628723230212927f, 0.043721068650484085f, 0.09020598232746124f, 0.014544228091835976f, 0.014396673068404198f, 0.021879255771636963f, -0.01179253775626421f, -0.02620651014149189f, 0.03382387384772301f, -0.00095996173331514f, 0.041467517614364624f, 0.07396060228347778f, -0.03324924409389496f, 0.018806392326951027f, -0.0483834408223629f, 0.017603449523448944f, 0.04396507143974304f, 0.014303219504654408f, -0.033920444548130035f, -0.05652451515197754f, -0.037829965353012085f, -0.011284535750746727f, 0.039027139544487f, -0.0007956908084452152f, 0.13590013980865479f, 0.06272497028112411f, -0.0938328430056572f, 0.026719067245721817f, 0.01841355487704277f, -0.015146443620324135f, 0.0347767099738121f, 0.012005861848592758f, -0.05901738628745079f, 0.00429462781175971f, 0.012914691120386124f, 0.020021792501211166f, -0.03709784150123596f, -0.12842072546482086f, 0.02370571717619896f, 0.04949284344911575f, 0.018989041447639465f, -0.0028202759567648172f, -0.058763664215803146f, 0.04757310077548027f, -0.030455423519015312f, -0.06185174733400345f, -0.03689660504460335f, -0.10177305340766907f, -0.030422288924455643f, 0.002716159215196967f, -0.09472908079624176f, -0.029403846710920334f, 0.0006632914883084595f, -0.17824271321296692f, -0.004667764995247126f, 0.1005983054637909f, -0.15406681597232819f, -0.03576109930872917f, 0.021572446450591087f, 0.03840605169534683f, 0.08954271674156189f, 0.06285177171230316f, -0.07488551735877991f, 0.04595010355114937f, -0.011675207875669003f, 0.027537226676940918f, -0.0153184300288558f, 0.010806686244904995f, 0.101493239402771f, 0.05531233921647072f, -0.01314218994230032f, -0.05136318504810333f, 0.011685619130730629f, -0.054450564086437225f, 0.03463154286146164f, -0.052772097289562225f, 0.029327573254704475f, 0.142203226685524f, -0.02218756452202797f, -0.06347345560789108f, -0.08163885027170181f, -0.05166810005903244f, -0.07253313064575195f, 0.030832486227154732f, -0.02259841561317444f, -0.09897398948669434f, 0.13318762183189392f, -0.07306866347789764f, -0.022852232679724693f, 0.02167874202132225f, 0.008272379636764526f, -0.041674863547086716f, -0.020190056413412094f, -0.0778723731637001f, 0.020945588126778603f, -0.023567283526062965f, -0.050791703164577484f, 0.044556066393852234f, -0.04473169520497322f, -0.02489924617111683f, -0.13929034769535065f, 0.045434191823005676f, -0.0031593884341418743f, 0.0027396788354963064f, 0.04259564355015755f, 0.04772569239139557f, 0.021511362865567207f, -0.0062362500466406345f, 0.0556081086397171f, -0.034072957932949066f, 0.00026876633637584746f, 0.19949014484882355f, 0.05399321764707565f, 0.007701622787863016f, 0.012391580268740654f, -0.02201239950954914f, -0.002206437522545457f, 0.0505671352148056f, -0.011643853038549423f, -0.018272850662469864f, -0.025888655334711075f, -0.009009881876409054f, 0.050686150789260864f, -0.08716489374637604f, -0.016852717846632004f, -0.06361247599124908f, -0.03726000338792801f, 0.039937712252140045f, -0.001914202468469739f, -0.09952322393655777f, 0.031298696994781494f, 0.0443483330309391f, -0.015957318246364594f, -0.07310494780540466f, 0.03266596421599388f, -0.07521547377109528f, -0.08343850076198578f, 0.029970571398735046f, -0.0241351667791605f, 0.03261801600456238f, 0.07143836468458176f, 0.014151631854474545f, 0.19481819868087769f, 0.03713119029998779f, 0.00971608329564333f, -0.04607076197862625f, -0.04808517545461655f, -0.0414896234869957f, -0.0666448324918747f, -0.06300442665815353f, 0.028619496151804924f, 0.009022148326039314f, 0.0034091640263795853f, -0.09316911548376083f, -0.055597878992557526f, -0.0952364131808281f, 0.014267858117818832f, -0.005490473937243223f, 0.02488478645682335f, -0.015690602362155914f, -0.02854193188250065f, 0.006877062376588583f, -0.02450665831565857f, 0.07809481769800186f, 0.08287855982780457f, -0.06421173363924026f, 0.11779152601957321f, -0.015864113345742226f, -0.054392989724874496f, -0.09592455625534058f, -0.0068040634505450726f, -0.038121119141578674f, 0.00240622041746974f, 0.13507071137428284f, 0.009176194667816162f, 0.02690824307501316f, -0.027480417862534523f, -0.043169040232896805f, 0.007148462813347578f, 0.029083631932735443f, 0.018699970096349716f, -0.1214994341135025f, -0.05095962435007095f, -0.1248873695731163f, 0.0734235942363739f, 0.03671480342745781f, 0.0786282941699028f, 0.04151713475584984f, -0.10148680210113525f, -0.04648962989449501f, 0.06455612182617188f, 0.008309713564813137f, 0.027458107098937035f, -0.04589950665831566f, -0.013759218156337738f, 0.022229831665754318f, -0.0361931249499321f, -0.00022947863908484578f, 0.009160072542726994f, 0.013504354283213615f, 0.04977662116289139f, -0.10536105185747147f, -0.06414792686700821f, -0.027040909975767136f, -0.05520537495613098f, 0.0319758765399456f, 0.042537059634923935f, 0.02394365519285202f, -0.056199513375759125f, -0.07817863672971725f, -0.011953504756093025f, -0.050014927983284f, 0.03917304798960686f, 0.03828250616788864f, 0.059130407869815826f, -0.02166893146932125f, -0.10840799659490585f, -0.04526989907026291f, -0.005045230034738779f, -0.06591042876243591f, -0.04675900191068649f, 0.0027870109770447016f, -0.017037954181432724f, 0.006179511081427336f, 0.10465758293867111f, 0.012932323850691319f, -0.04044390097260475f, 0.021087490022182465f, -0.024544501677155495f, 0.01888994127511978f, 0.060180600732564926f, -0.13032963871955872f, -0.041067492216825485f, 0.049491800367832184f, 0.011994507163763046f, 0.020482907071709633f, 0.16170230507850647f, 0.0044328211806714535f, 0.033048465847969055f, -0.054628219455480576f, 0.10559958219528198f, -0.016125479713082314f, -0.04845452681183815f, -0.0232133399695158f, 0.00606538588181138f, -0.09152049571275711f, 0.0062100510112941265f, -0.09159301966428757f, -0.03995099291205406f, -0.03585762903094292f, -0.0865800604224205f, -0.06917712837457657f, 0.04776190221309662f, 0.037807267159223557f, 0.016107851639389992f, -0.040707867592573166f, 0.01731448620557785f, 0.05163688585162163f, 0.00661402428522706f, 0.14838166534900665f, 0.0008972607902251184f, -0.025045577436685562f, 0.0260162316262722f, 0.037072937935590744f, -0.04093587026000023f, -0.021790936589241028f, 0.09836054593324661f, -0.015500233508646488f, -0.027933932840824127f, 0.09152280539274216f, 0.05052308738231659f, -0.028390057384967804f, 0.14147157967090607f, 0.044923726469278336f, 0.0808306634426117f, 0.055275335907936096f, -0.03256227448582649f, 0.011084534227848053f, 0.08188562095165253f, -0.025034286081790924f, 0.026903273537755013f, 0.04123909771442413f, 0.020703699439764023f, 0.045700423419475555f, -0.039420243352651596f, -0.015980953350663185f, 0.09860608726739883f, 0.06697973608970642f, 0.10673220455646515f, 0.0652734786272049f, 0.05910453572869301f, -0.011638492345809937f, 0.10852813720703125f, 0.013859104365110397f, -0.0004557718348223716f, 0.022850198671221733f, 0.0734068900346756f, -0.035884659737348557f, 0.036699313670396805f, 0.042419031262397766f, -0.059264179319143295f, -0.08968759328126907f, -0.09708772599697113f, 0.06782541424036026f, -0.03485652431845665f, -0.08405203372240067f, -0.08730117231607437f, 0.004358341917395592f, -0.03416623920202255f, -0.009895553812384605f, -0.13071326911449432f, -0.0028498300816863775f, -0.00908032525330782f, 0.06609219312667847f, -0.03850262984633446f, 0.04037056118249893f, 0.12319411337375641f, -0.10522246360778809f, 0.024892384186387062f, -0.03601907566189766f, 0.09580843150615692f, 0.019231772050261497f, -0.01987883634865284f, -0.007399206515401602f, 0.04157983884215355f, -0.07666096091270447f, 0.09286356717348099f, 0.014196927659213543f, 0.01742343232035637f, -0.12682251632213593f, 0.03288668766617775f, 0.024231359362602234f, 0.003247976303100586f, -0.04368262737989426f, 0.0539880245923996f, -0.000554228201508522f, -0.039514608681201935f, -0.0034567718394100666f, -0.047020215541124344f, 0.0058344826102256775f, -0.06809056550264359f, -0.15590129792690277f, -0.09176211059093475f, 0.0029831090942025185f, -0.048759765923023224f, -0.0018335386412218213f, -0.06369248777627945f, -0.05648102983832359f, 0.0005870612803846598f, 0.05028840899467468f, -0.004786548670381308f, 0.06974770873785019f, 0.08878999203443527f, 0.015268602408468723f, -0.03452058136463165f, 0.002223208313807845f, -0.028635811060667038f, -0.012087523005902767f, -0.0721619501709938f, -0.0765308365225792f, 0.069276824593544f, -0.07589028030633926f, -0.03360550105571747f, 0.016514115035533905f, 0.019165337085723877f, -0.05041727051138878f, -0.10142772644758224f, 0.01867876946926117f, -0.00893856305629015f, 0.033870238810777664f, 0.006918759550899267f, -0.03832629323005676f, -0.017056776210665703f, -0.031074166297912598f, 0.034605931490659714f, 0.010992045514285564f, 0.011204150505363941f, -0.016581982374191284f, 0.04874845966696739f, -0.039444152265787125f, -0.07184689491987228f, 0.0041955397464334965f, -0.09121271222829819f, -0.03934763744473457f, 0.00308580556884408f, -0.04310961440205574f, -0.03160052374005318f, -0.09515164792537689f, 0.008875319734215736f, 0.06803972274065018f, 0.16702964901924133f, -0.060847558081150055f, 0.0094976257532835f, 0.012818815186619759f, -0.01508241705596447f, -0.219747856259346f, 0.03576100990176201f, -0.033245913684368134f, -0.060629308223724365f, 0.011842050589621067f, 0.05898940935730934f, -0.01320712547749281f, -0.0048380629159510136f, 0.020836327224969864f, 0.04246773198246956f, 0.05076059699058533f, -0.03169916570186615f, 0.00527369137853384f, -0.08562342077493668f, 0.030076846480369568f, -0.02726234309375286f, -0.03206804394721985f, -0.05689045041799545f, 0.002083429368212819f, -0.0655289962887764f, 0.10392975807189941f, -0.011755362153053284f, 0.01611039601266384f, -0.04721057042479515f, 0.06452541798353195f, -0.03481018543243408f, -0.009862401522696018f, 0.04588229954242706f, -0.18116842210292816f, -0.1473456770181656f, 0.03588990494608879f, 0.0058725858107209206f, 0.03537600859999657f, 0.003322237404063344f, -0.0034162194933742285f, 0.015501092188060284f, 0.0880705937743187f, -0.01894855871796608f, -0.01864943839609623f, -0.030623458325862885f, 0.023442251607775688f, 0.07894809544086456f, -0.039419688284397125f, -0.017136765643954277f, -0.04192645847797394f, 0.03881442919373512f, 0.013861242681741714f, 0.007138767279684544f, -0.1447858065366745f, -0.04270964488387108f, 0.04962752014398575f, -0.05660472437739372f, -0.06258092820644379f, 0.05038146674633026f, -0.03486127778887749f, -0.027852604165673256f, -0.15528087317943573f, 0.02788923867046833f, 0.012045550160109997f, -0.055439773947000504f, -0.10482361912727356f, -0.0462227463722229f, -0.041208941489458084f, -0.007974550127983093f, -0.013508598320186138f, 0.060480136424303055f, 0.08042491227388382f, 0.02840040996670723f, -0.1420239955186844f, 0.132084921002388f, 0.017483046278357506f, 0.09128070622682571f, -0.10608404129743576f, 0.008015156723558903f, 0.02256619744002819f, -0.0579829216003418f, 0.025329306721687317f, -0.09511765092611313f, 0.01394421886652708f, -0.06153016537427902f, -0.12676972150802612f, 0.0031104646623134613f, -0.04815101623535156f, -0.030627340078353882f, 0.003467870643362403f, -0.0330817811191082f, -0.07041291147470474f, -0.15804317593574524f, -0.021132737398147583f, -0.022110451012849808f, 0.015488526783883572f, 0.04704216867685318f, -0.051356732845306396f, -0.0529128760099411f, 0.030488161370158195f, -0.010196585208177567f, 0.018179666250944138f, -0.03891317546367645f, 0.07709404826164246f, -0.06559348851442337f, -0.0656697079539299f, 0.04203924909234047f, 0.018338363617658615f, -0.018675580620765686f, 0.0697280541062355f, 0.08813001960515976f, 0.03632660210132599f, 0.0967387929558754f, -0.017901161685585976f, 0.09310097992420197f, -0.009023324586451054f, -0.02597326785326004f, -0.07857798039913177f, -0.03776570409536362f, 0.04784056171774864f, -0.0032364230137318373f, -0.08945544064044952f, -0.07218540459871292f, 0.0016618549125269055f, -0.027761485427618027f, -0.0794229656457901f, 0.034258659929037094f, -0.011597111821174622f, -0.007261825725436211f, 0.049072351306676865f, -0.07797236740589142f, -0.09654957801103592f, 0.0021312320604920387f, 0.13561634719371796f, 0.0739787369966507f, -0.07592348754405975f, -0.06188620254397392f, -0.05225489288568497f, -0.07687908411026001f, 0.039542898535728455f, 0.07741355895996094f, -0.006292581558227539f, -0.019068913534283638f, -0.002579115331172943f, -0.027565041556954384f, 0.01273917406797409f, -0.06770052760839462f, -0.009903203696012497f, 0.015621562488377094f, 0.031888388097286224f, 0.022895749658346176f, 0.016788175329566002f, 0.028748979791998863f, -0.02180349826812744f, -0.07739783823490143f, 0.02090861089527607f, 0.043713342398405075f, 0.04408092796802521f, 0.02202395536005497f, -0.11681269854307175f, 0.060464080423116684f, 0.06830374151468277f, 0.0005923814605921507f, -0.028173623606562614f, -0.11090636998414993f, -0.003974784165620804f, 0.10724128037691116f, 0.021159226074814796f, 0.03894086927175522f, -0.10626240074634552f, -0.12369950860738754f, -0.008083670400083065f, -0.03640016168355942f, 0.021823225542902946f, -0.03728450462222099f, -0.023543622344732285f, -0.05796390026807785f, 0.0038499983493238688f, 0.027725163847208023f, -0.05314624309539795f, -0.06642080098390579f, 0.1005965918302536f, -0.033269740641117096f, -0.11686110496520996f, 0.007431706879287958f, 0.0019488700199872255f, -0.13322843611240387f, -0.0023857199121266603f, 0.0628083124756813f, -0.0167794618755579f, -0.09290696680545807f, 0.05564908683300018f, 0.003758020233362913f, 0.012937979772686958f, -0.02924489416182041f, -0.025525925680994987f, 0.04429269954562187f, 0.08465472608804703f, -0.038632217794656754f, 0.02895483374595642f, 0.02081984095275402f, 0.08742859214544296f, -0.032507915049791336f, -0.10177452117204666f, -0.09953556209802628f, 0.06811888515949249f, -0.05261075496673584f, -0.004066439811140299f, 0.005299083422869444f, 0.011231739073991776f, -0.1509651094675064f, 0.002440492156893015f, -0.04320421814918518f, -0.04664941877126694f, -0.1575421392917633f, -0.06081937998533249f, -0.010700039565563202f, 0.005613279528915882f, -0.03949125111103058f, -0.015143229626119137f, -0.15688076615333557f, 0.020021619275212288f, 0.004019991494715214f, -0.003645220771431923f, 0.11677952855825424f, 0.016341708600521088f, 0.013955598697066307f, -0.010106758214533329f, 0.0171048566699028f, 0.0012620494235306978f, 0.06928972154855728f, -0.07482132315635681f, -0.0397019237279892f, 0.013749494217336178f, -0.01056923158466816f, -0.019450651481747627f, 0.02148709073662758f, -0.09908383339643478f, -0.019238241016864777f, -0.07853557914495468f, 0.07801473140716553f, -0.06073844060301781f, -0.04284720495343208f, 0.02721521072089672f, 0.056034915149211884f, 0.04343188554048538f, -0.008227411657571793f, 0.030316781252622604f, 0.055553682148456573f, -0.04701476916670799f, -0.06317225843667984f, 0.049106989055871964f, -0.12491127848625183f, -0.06740440428256989f, -0.11236287653446198f, 0.11725180596113205f, -0.022459059953689575f, 0.01061180979013443f, 0.08394545316696167f, -0.011766863986849785f, 0.0034157512709498405f, 0.06736096739768982f, -0.0302384365350008f, 0.03851395845413208f, -0.022705841809511185f, -0.019713982939720154f, -0.005631065461784601f, -0.04296296089887619f, -0.09904893487691879f, 0.05102737620472908f, -0.06747502088546753f, -0.018053023144602776f, 0.012848339043557644f, -0.014966728165745735f, -0.0452914796769619f, -0.004930322524160147f, -0.01412845216691494f, -0.04251907765865326f, 0.05569780245423317f, -0.12205485999584198f, 0.07849591970443726f, -0.02942810393869877f, -0.022672031074762344f, 0.09490959346294403f, -0.15768706798553467f, -0.023185772821307182f, 0.04616531357169151f, -0.12701617181301117f, 0.0003066828357987106f, -0.005993204656988382f, 0.019513936713337898f, -0.05052842199802399f, 0.014369489625096321f, 0.026585930958390236f, 0.05296264961361885f, 0.01497028861194849f, 0.04857371374964714f, 0.05457207188010216f, -0.04723450541496277f, -0.03616791591048241f, -0.01884361356496811f, 0.05863717198371887f, 0.11704721301794052f, 0.05004578083753586f, -0.14398334920406342f, -0.07947586476802826f, -0.00015602914209011942f, 0.004522514529526234f, 0.0017806865507736802f, -0.06724140793085098f, 0.041062064468860626f, -0.002973234746605158f, -0.054601628333330154f, 0.03890339285135269f, 0.012092691846191883f, 0.1378212720155716f, 0.011015101335942745f, 0.0003784388245549053f, 0.010144384577870369f, -0.006732702720910311f, -0.11287713050842285f, -0.005399744026362896f, 0.030949564650654793f, 0.08965817093849182f, -0.05574766546487808f, 0.05384417995810509f, 0.09124197065830231f, 0.002846767893061042f, -0.10819312185049057f, -0.06271853297948837f, -0.05926401540637016f, 0.012749112211167812f, 0.0010997609933838248f, -0.09290138632059097f, 0.021575668826699257f, 0.05732252448797226f, -0.008064101450145245f, 0.06860222667455673f, 0.08531010150909424f, 0.10734976083040237f, -0.012996566481888294f, 0.02072121761739254f, 0.09201230853796005f, -0.06152544915676117f, -0.005725876893848181f, -0.01848628558218479f, 0.09062569588422775f, -0.051212433725595474f, -0.07537662237882614f, -0.004541927482932806f, -0.033757612109184265f, 0.043951716274023056f, 0.01963803544640541f, 0.05241399630904198f, 0.048746831715106964f, 0.001520203542895615f, -0.11706648021936417f, 0.011091025546193123f, 0.015403459779918194f, 0.1143135353922844f, 0.009342922829091549f, -0.006937896367162466f, 0.06551750749349594f, -0.02992035448551178f, 0.038092341274023056f, -0.04712466895580292f, -0.03171130269765854f, -0.09311919659376144f, 0.07726764678955078f, -0.03672610968351364f, 0.015612074173986912f, -0.02370535209774971f, -0.04208632558584213f, 0.06535849720239639f, 0.00027535820845514536f, 0.057589445263147354f, 0.02648010291159153f, 0.07749544084072113f, -0.04727711156010628f, 0.042196400463581085f, 0.022164391353726387f, 0.037811942398548126f, 0.0771293193101883f, -0.05150887370109558f, 0.058819279074668884f, -0.05781782791018486f, 0.08213102072477341f, 0.012983778491616249f, 0.04242800921201706f, -0.013042645528912544f, 0.018165243789553642f, -0.036965351551771164f, -0.06246161460876465f, 0.0008297811727970839f, -0.07249374687671661f, -0.06281052529811859f, 0.04284542426466942f, 0.037367384880781174f, -0.07261983305215836f, 0.0528789684176445f, -0.009747526608407497f, 0.07021347433328629f, 0.008571160025894642f, 0.039837390184402466f, -0.02055341936647892f, 0.08913164585828781f, 0.09210969507694244f, -0.09356866031885147f, 0.07633740454912186f, -0.11765104532241821f, 0.025223497301340103f, 0.08707873523235321f, -0.08984804153442383f, -0.04106844961643219f, 0.027207382023334503f, -0.04173309728503227f, -0.10515119135379791f, -0.02121383510529995f, 0.11866682022809982f, -0.05645742267370224f, -0.03790050372481346f, 0.0637892633676529f, 0.014679496176540852f, 0.16667260229587555f, 0.028922664001584053f, -0.03250063583254814f, -0.01464576181024313f, -0.03854489326477051f, -0.08173589408397675f, -0.023433148860931396f, 0.03691978007555008f, -0.013566761277616024f, 0.0160786472260952f, 0.00887299608439207f, 0.06999029964208603f, -0.09555966407060623f, 0.025146281346678734f, 0.06848207861185074f, 0.030299846082925797f, -0.10967133939266205f, 0.07236840575933456f, 0.032944899052381516f, -0.025767937302589417f, -0.02922551892697811f, 0.011116957291960716f, -0.000804672425147146f, 0.028960129246115685f, 0.02148888260126114f, 0.03751590847969055f, 0.022083230316638947f, -0.017071416601538658f, 0.032873090356588364f, -0.0315006785094738f, 0.019436227157711983f, -0.06596852093935013f, -0.046479083597660065f, -0.08248986303806305f, -0.025151032954454422f, 0.002532387152314186f, 0.07052259147167206f, 0.01155451312661171f, -0.036415569484233856f, 0.02543284371495247f, -0.013329974375665188f, 0.020655285567045212f, 0.023024365305900574f, 0.014101335778832436f, 0.0030339756049215794f, -0.04385876655578613f, 0.07783713936805725f, -0.048796460032463074f, -0.010217810049653053f, -0.03731612488627434f, 0.007574765477329493f, -0.03845556452870369f, -0.009062484838068485f, -0.08485869318246841f, 0.11565794050693512f, -0.03387362137436867f, -0.1631580889225006f, -0.025354020297527313f, -0.02359653450548649f, 0.12804579734802246f, 0.14366354048252106f, -0.0642038956284523f, 0.02372695691883564f, 0.046909838914871216f, 0.01985054649412632f, -0.005664127413183451f, -0.0922335758805275f, 0.031063567847013474f, 0.04834221675992012f, 0.0951809287071228f, 0.0006540336180478334f, -0.030607920140028f, -0.039879050105810165f, -0.01669030450284481f, 0.006361812818795443f, 0.05084524676203728f, -0.03169465810060501f, -0.004279989283531904f, 0.025509200990200043f, 0.039339203387498856f, 0.029421519488096237f, -0.006041609216481447f, -0.07338652014732361f, -0.05780823528766632f, -0.09976708889007568f, -0.05508318543434143f, -0.0856039822101593f, -0.010289713740348816f, -0.023034226149320602f, 0.030825547873973846f, -0.06317778676748276f, 0.016718074679374695f, 0.0781501904129982f, -0.07858847081661224f, -0.09474118798971176f, -0.018298272043466568f, -0.05083898454904556f, 0.10942152887582779f, -0.017373980954289436f, 0.06025620922446251f, -0.010881995782256126f, -0.01467638649046421f, 0.02688714861869812f, -0.008170676417648792f, 0.03926698490977287f, -0.09208112955093384f, 0.08386123180389404f, -0.04438820481300354f, -0.03297622501850128f, -0.03670669347047806f, 0.04172954708337784f, -0.009695318527519703f, 0.01897355541586876f, 0.06284333765506744f, -0.08692806214094162f, -0.08584171533584595f, 0.006844967138022184f, 0.06597153097391129f, 0.04393954947590828f, 0.03731567785143852f, -0.10008898377418518f, -0.005095507949590683f, -0.015612234361469746f, -0.0717693641781807f, 0.02250571921467781f, -0.033879008144140244f, -0.057225748896598816f, 0.09591493010520935f, 0.013185658492147923f, -0.12810426950454712f, -0.13017447292804718f, 0.02310505509376526f, 0.08166501671075821f, 0.020397856831550598f, -0.05582757294178009f, -0.014620980247855186f, -0.0005758306360803545f, 0.058531731367111206f, 0.011986053548753262f, 0.07497140020132065f, 0.016070852056145668f, -0.017344506457448006f, -0.0026210264768451452f, -0.001796893891878426f, -0.07032252103090286f, -0.06293100863695145f, 0.005234035197645426f, 0.04692917689681053f, -0.02085570991039276f, 0.08916918188333511f, -0.10572513937950134f, -0.03929948806762695f, 0.05674545466899872f, 0.044150710105895996f, 0.0074917906895279884f, 0.08037538081407547f, -0.004226952791213989f, 0.030288493260741234f, 0.07050276547670364f, -0.02247876301407814f, 0.05069876089692116f, 0.05741157382726669f, -0.029370903968811035f, -0.029368320479989052f, -0.11364137381315231f, -0.030921850353479385f, -0.04765553027391434f, 0.0445830412209034f, -0.07822654396295547f, -0.1340542882680893f, -0.014427084475755692f, -0.08482152968645096f, -0.024123720824718475f, -0.006595252081751823f, -0.04255037382245064f, -0.00533687649294734f, -0.13677871227264404f, 0.009757695719599724f, 0.0012875815154984593f, -0.004462546203285456f, -0.037912849336862564f, -0.06861674785614014f, 0.06479304283857346f, -0.044561564922332764f, -0.030841698870062828f, -0.06229495629668236f, 0.07323446124792099f, -0.045630134642124176f, 0.11214232444763184f, -0.0511283241212368f, -0.014910430647432804f, 0.059426646679639816f, -0.005267417524009943f, -0.08395335078239441f, -0.004619194660335779f, -0.049002550542354584f, 0.08872327953577042f, 0.08331961929798126f, -0.026142852380871773f, -0.11130523681640625f, 0.0754023864865303f, 0.020212406292557716f, 0.017959384247660637f, 0.009975241497159004f, -0.008459934033453465f, 0.05988047271966934f, -0.025023609399795532f, 0.08998990058898926f, 0.024626780301332474f, 0.007043926045298576f, 0.022134928032755852f, -0.04570091888308525f, 0.0842621698975563f, -0.020818576216697693f, 0.11982572078704834f, 0.11989235877990723f, 0.05609018728137016f, -0.04051489755511284f, 0.04369854927062988f, -0.09345049411058426f, -0.03929327800869942f, 0.037464968860149384f, -0.06468745321035385f, -0.03412717580795288f, -0.09035124629735947f, -0.019981931895017624f, -0.035349536687135696f, -0.1047918051481247f, 0.026028625667095184f, 0.024180470034480095f, -0.04151991754770279f, -0.06113118678331375f, -0.01626460812985897f, -0.0907711535692215f, 0.04172676429152489f, -0.023864155635237694f, -0.08848259598016739f, 0.0499112494289875f, 0.014226753264665604f, -0.04850694164633751f, -0.1274569183588028f, 0.00345350313000381f, -0.02795344963669777f, -0.10696927458047867f, 0.047077007591724396f, 0.00249303225427866f, 0.01545732095837593f, -0.029101649299263954f, -0.03823371231555939f, -0.05442168936133385f, 0.09112738072872162f, -0.0547778345644474f, 0.06990217417478561f, 0.06675457954406738f, 0.043024539947509766f, -0.0006277288775891066f, 0.06903456151485443f, -0.006434611976146698f, 0.0003760374675039202f, -0.03924904763698578f, 0.02623823843896389f, -0.04668256640434265f, -0.022694943472743034f, 0.02742280624806881f, 0.0960642397403717f, -0.048724137246608734f, -0.08140689134597778f, -0.10061698406934738f, -0.008491856046020985f, 0.058492522686719894f, -0.0018885938916355371f, -0.011721933260560036f, 0.05772082135081291f, -0.04376635700464249f, 0.023786813020706177f, -0.03011324629187584f, 0.1209581196308136f, -0.05673360824584961f, -0.020286912098526955f, 0.006894215010106564f, -0.07150484621524811f, 0.04650643467903137f, -0.11306671798229218f, -0.009276635944843292f, 0.08028547465801239f, -0.056334491819143295f, -0.11589062213897705f, -0.010395271703600883f, -0.041601620614528656f, -0.012658186256885529f, 0.010472266003489494f, 0.017703700810670853f, -0.017310287803411484f, -0.006207454018294811f, -0.0634550228714943f, -0.01817370392382145f, -0.017159661278128624f, 0.029846401885151863f, 0.09039130061864853f, -0.004153528716415167f, 0.09663106501102448f, 0.05042245239019394f, -0.0895075649023056f, -0.035704419016838074f, -0.10012926906347275f, -0.015069092623889446f, 0.036761797964572906f, 0.011673025786876678f, 0.05945168435573578f, 0.08324866741895676f, -0.05854141712188721f, -0.004698014818131924f, 0.0001598937378730625f, -0.05571124702692032f, 0.03297705575823784f, 0.01899127848446369f, -0.09613246470689774f, -0.10029274970293045f, -0.04251961410045624f, -0.05083322897553444f, -0.009750813245773315f, 0.09287029504776001f, -0.03517383337020874f, 0.08256018906831741f, -0.049030303955078125f, -0.00890140887349844f, 0.19352491199970245f, 0.027056053280830383f, 0.1388404220342636f, 0.013770746067166328f, -0.05885951966047287f, -0.015245405025780201f, 0.037595104426145554f, -0.05346668139100075f, 0.010451805777847767f, 0.056580133736133575f, -0.07130739092826843f, 0.01482011005282402f, 0.06609560549259186f, 0.010715052485466003f, -0.06011729687452316f, -0.044508419930934906f, -0.016091598197817802f, -0.09742236882448196f, -0.025242900475859642f, -0.02965332381427288f, -0.014973675832152367f, 0.006536152679473162f, -0.08132472634315491f, -0.017049454152584076f, 0.11496657878160477f, 0.026140956208109856f, 0.07294026017189026f, -0.02036655694246292f, 0.10057619959115982f, 0.04918033629655838f, 0.013445382937788963f, -0.06084997579455376f, -0.07953520864248276f, -0.05647869035601616f, 0.0611809641122818f, -0.003495112294331193f, -0.011016941629350185f, 0.015123864635825157f, 0.05074600130319595f, 0.03544677793979645f, -0.005487238522619009f, 