#ifdef CNN_TEST
#define CNN_STOPWATCH(name) // STOPWATCH(name)
#else
#define CNN_STOPWATCH(name) STOPWATCH(name)
#endif

#include <vector>

// dimensions
static const unsigned int input_height = 60;
static const unsigned int input_width = 80;
static const unsigned int input_channel = 3;
static const unsigned int output_height = 8;
static const unsigned int output_width = 10;
static const unsigned int output_channel = 6;
static const unsigned int num_of_boxes = 1;
static const unsigned int num_of_classes = 1;
static const unsigned int num_of_coords = 4;
static const std::vector<float> anchors = { 1.29f, 2.24f };

// includes
#include <emmintrin.h>

// buffers
alignas(16) float separable_conv2d_1_depthwise_WEIGHTS[] = { 0.9526504278182983f, 1.2274858951568604f, -0.41081926226615906f, 0.36685431003570557f, 0.844753623008728f, -0.18055382370948792f, 0.04950308799743652f, 1.46086847782135f, 0.9987335205078125f, 0.21425127983093262f, 1.1882336139678955f, 0.7486385107040405f, 1.2545814514160156f, 2.3760735988616943f, 0.283313512802124f, -0.37284335494041443f, 1.0324655771255493f, 0.03605004400014877f, 0.1320813149213791f, 2.189413547515869f, 1.855480432510376f, 0.2638554871082306f, 1.7115882635116577f, 1.4978249073028564f, 0.7586085200309753f, 0.8907753825187683f, -0.1759050488471985f, 0.23594868183135986f, 0.5424895286560059f, -0.15939927101135254f, 0.06410467624664307f, 0.7864866852760315f, 1.444794774055481f, -0.34690821170806885f, 0.9418940544128418f, 0.4074898660182953f, 1.7256550788879395f, 1.8991056680679321f, -0.7045162320137024f, 1.4257763624191284f, 2.2883734703063965f, -0.3092808127403259f, -0.16127713024616241f, 2.3968071937561035f, 1.0071913003921509f, 0.36965012550354004f, 1.6484328508377075f, 2.2300429344177246f, 2.3432443141937256f, 2.6561341285705566f, 0.16921254992485046f, 1.3400942087173462f, 3.06813645362854f, 0.07593651115894318f, 0.18217650055885315f, 2.7274227142333984f, 1.44595205783844f, 0.01338571310043335f, 2.182448148727417f, 3.058607339859009f, 0.9208357930183411f, 0.87908935546875f, 0.23587438464164734f, 0.26178285479545593f, 0.897701621055603f, 0.09050000458955765f, 0.21398286521434784f, 1.444264531135559f, 0.1446930319070816f, 0.02465391904115677f, 0.6999953389167786f, 1.3011609315872192f, 1.464318037033081f, 1.3776674270629883f, 0.4729246497154236f, 1.5446299314498901f, 2.0222933292388916f, 0.07720129191875458f, 0.02885475382208824f, 1.5938783884048462f, 0.4293171465396881f, -0.47721409797668457f, 1.1960941553115845f, 2.249955892562866f, 1.50501549243927f, 1.5078761577606201f, -0.05073064565658569f, 1.535366177558899f, 2.3245959281921387f, -0.04269009083509445f, -0.0544721744954586f, 1.9972255229949951f, 0.18947112560272217f, 0.09198515117168427f, 1.325702428817749f, 2.4937875270843506f, 0.5304308533668518f, 0.15598422288894653f, -0.13899049162864685f, 1.1434049606323242f, 0.10911086946725845f, 0.1488368660211563f, -0.1693682074546814f, 1.8246033191680908f, -0.32679733633995056f, 0.08256468921899796f, 0.3794220983982086f, 1.0195776224136353f };
alignas(16) float separable_conv2d_1_WEIGHTS[] = { -0.20678013563156128f, 0.5261199474334717f, 0.2954792082309723f, -0.2007037252187729f, 0.6778776049613953f, 0.2262100726366043f, 0.01805105432868004f, 0.007954423315823078f, -0.03280691057443619f, -0.08930544555187225f, 0.2885204255580902f, 0.4037852883338928f, -0.44697949290275574f, -0.5526280403137207f, -0.32045209407806396f, -0.00820247270166874f, -0.005342715885490179f, -0.003682115813717246f, 0.0014795303577557206f, 0.009877648204565048f, 0.005052926484495401f, -0.4241179823875427f, -0.44082948565483093f, -0.5300533175468445f, 0.45536354184150696f, -0.07264365255832672f, 0.0586131289601326f, -0.010851110331714153f, -0.017880689352750778f, 0.026361525058746338f, 0.499963641166687f, -0.16809071600437164f, 0.2573447525501251f, 0.520149290561676f, -0.29190516471862793f, 0.45406094193458557f };
alignas(16) float separable_conv2d_1_BIAS[] = { 2.326810121536255f, 4.91840934753418f, 1.5920430421829224f };
alignas(16) float conv2d_1_WEIGHTS[] = { -0.04012910649180412f, 1.1429367065429688f, 0.25998249650001526f, -0.2516267001628876f, -0.630126953125f, 0.3696081042289734f, -0.6358980536460876f, 1.0567638874053955f, 0.1943955272436142f, 0.9495521187782288f, -0.5664272308349609f, 1.4147011041641235f, -0.46930503845214844f, 0.6912767887115479f, -0.7673715353012085f, -0.455960214138031f, -0.058632608503103256f, -2.0025064945220947f, -0.8648917078971863f, -0.4933295249938965f, 0.7033237218856812f, 0.5356378555297852f, -1.048697829246521f, 0.3387672007083893f };
alignas(16) float conv2d_1_BIAS[] = { 5.230777263641357f, 0.5638128519058228f, 3.3393914699554443f, -3.757272958755493f, 2.0230228900909424f, -3.982821464538574f, 6.653397083282471f, -0.3392074704170227f };
alignas(16) float separable_conv2d_2_depthwise_WEIGHTS[] = { 2.328709363937378f, -1.963773488998413f, 0.480251282453537f, 1.110625147819519f, 2.5260565280914307f, 0.47964584827423096f, 0.3277833163738251f, 1.284198522567749f, 1.9744123220443726f, -1.2584116458892822f, -0.72667396068573f, -3.6090829372406006f, 0.605023205280304f, 3.8663330078125f, -2.360455274581909f, 2.0006446838378906f, 0.16743724048137665f, -2.8587639331817627f, -0.1713285595178604f, -1.465876817703247f, -1.6473979949951172f, -0.39364489912986755f, -2.4192492961883545f, 1.2399663925170898f, -2.4774057865142822f, -2.430270195007324f, 1.0110293626785278f, -1.5847711563110352f, -1.133501648902893f, -0.6871790289878845f, -1.8743435144424438f, 0.437836617231369f, 3.6643331050872803f, 0.250069797039032f, -1.1881859302520752f, 1.084973931312561f, -0.2147001177072525f, -1.8044428825378418f, 1.1981425285339355f, 2.724395513534546f, 2.919285297393799f, 1.924940586090088f, -1.7015869617462158f, -1.6562261581420898f, 3.10443377494812f, -0.6598154902458191f, 3.279139995574951f, 2.1504578590393066f, -1.1413849592208862f, 0.24591600894927979f, -2.0700716972351074f, 1.190622091293335f, 0.252417653799057f, -1.298046350479126f, 0.1074260026216507f, 1.2591972351074219f, -1.0374480485916138f, -2.60493803024292f, -0.23021025955677032f, 1.43788480758667f, -2.05200457572937f, -0.3067317306995392f, -1.1430567502975464f, -4.086198329925537f, 1.4213775396347046f, 1.6743615865707397f, 0.6590148210525513f, 1.9078011512756348f, 0.5304301977157593f, -0.25761640071868896f, 2.51249361038208f, 0.0033663827925920486f, 0.41102850437164307f, 2.5912580490112305f, -2.6784276962280273f, 0.21583227813243866f, 2.2920193672180176f, -1.3819929361343384f, 1.8064404726028442f, -0.3673568367958069f, -0.8252246975898743f, 0.8117209672927856f, -1.8011056184768677f, 3.0698509216308594f, -0.8648748397827148f, -1.8457598686218262f, -0.6541792154312134f, -0.27001944184303284f, 0.13515464961528778f, -1.2088162899017334f, -1.9593228101730347f, 2.491983413696289f, -1.5435030460357666f, -0.4819651246070862f, 0.9298208951950073f, -1.8294823169708252f, -1.1133092641830444f, 1.080159068107605f, 2.8449532985687256f, 0.4865495264530182f, -0.5580865740776062f, -0.9478623270988464f, -2.6682493686676025f, 0.2998679578304291f, -0.5797725915908813f, -1.9538218975067139f, -0.8188784122467041f, -1.9988189935684204f, -2.0467281341552734f, 2.434013843536377f, -1.2358201742172241f, 0.3053501546382904f, -2.098649263381958f, -1.1358332633972168f, 1.4643535614013672f, -0.3816046416759491f, -1.5568225383758545f, 0.5199034810066223f, 2.388390064239502f, 2.5960886478424072f, -3.5707993507385254f, 0.9891811609268188f, 1.3284913301467896f, -1.8820306062698364f, -0.33499571681022644f, 1.6131833791732788f, 0.13726650178432465f, 1.956910252571106f, -0.8573285937309265f, -0.7057179808616638f, -2.173236608505249f, -1.8639732599258423f, -1.9688135385513306f, -0.20175057649612427f, -0.402262419462204f, 1.2739989757537842f, -0.562147319316864f, -0.22457212209701538f, 0.7070614099502563f, 0.8520395755767822f, -2.1746819019317627f, 0.1427527219057083f, 0.1648906022310257f, 0.16296075284481049f, -1.2434700727462769f, 1.3545781373977661f, -2.2043867111206055f, 0.2918947637081146f, 0.3552199900150299f, -0.33515000343322754f, 2.390714406967163f, 1.314134120941162f, 0.4587149918079376f, 0.39800307154655457f, -0.22971247136592865f, -0.49067753553390503f, -1.4648703336715698f, 0.6386605501174927f, 1.006917119026184f, -0.07197068631649017f, 0.03356540948152542f, 2.7592806816101074f, -0.9735673069953918f, 1.478197455406189f, -0.42140188813209534f, 2.2947442531585693f, 2.7937276363372803f, -0.10283709317445755f, -2.29940128326416f, 1.6003824472427368f, 1.387652039527893f, 1.5411794185638428f, 1.1757780313491821f, -1.57516348361969f, 0.33724501729011536f, -2.299213171005249f, 0.8105165958404541f, 2.0874998569488525f, -0.8048628568649292f, 1.8828648328781128f, -2.8085739612579346f, -0.3962169289588928f, 1.1265826225280762f, -1.815783143043518f, 1.350296974182129f, 1.2712913751602173f, -3.1077563762664795f, 1.320887804031372f, -0.29056012630462646f, 0.9236103296279907f, 2.19407320022583f, 1.0240449905395508f, -1.9216779470443726f, -0.5650684237480164f, 2.5731353759765625f, -2.2525687217712402f, -2.8513033390045166f, -1.9319570064544678f, -2.576249837875366f, -0.3190416693687439f, -0.8601007461547852f, -1.5497537851333618f, 0.4401426315307617f, 0.5966499447822571f, -1.48753821849823f, 0.9520964026451111f, 0.1800307184457779f, 2.4555294513702393f, -1.2274158000946045f, -1.445984959602356f, 2.5003323554992676f, -0.8508302569389343f, 0.24678339064121246f, 3.782439708709717f, 0.022275518625974655f, -1.7017935514450073f, -2.386542320251465f, 2.264204263687134f, 2.599977731704712f, 0.013875369913876057f, 2.036627769470215f, 1.4306321144104004f, -1.864814043045044f, 0.8888607621192932f, -1.053926944732666f, -1.6506738662719727f, -0.8760433793067932f, -1.7155669927597046f, -1.6958948373794556f, -1.0825103521347046f, -0.9904724955558777f, -0.3620718717575073f, -1.796321988105774f, -1.684523105621338f, 0.4621981084346771f, 0.9560390114784241f, -0.9874904155731201f, -1.1401578187942505f, -1.3952140808105469f, 0.2826778292655945f, 2.6057026386260986f, -0.4039961099624634f, 1.3611243963241577f, 0.098017618060112f, 0.29844120144844055f, 3.350818157196045f, -0.8394818902015686f, -0.47286248207092285f, 0.9506374001502991f, 2.653675079345703f, 1.1401664018630981f, 0.25207608938217163f, 1.2222859859466553f, -1.4798468351364136f, -1.1302896738052368f, 2.3884475231170654f, 0.8246710896492004f, 1.3038184642791748f, -0.7180659770965576f, 2.093038558959961f, -0.1516321450471878f, 2.0135889053344727f, 0.5481133460998535f, -4.273350238800049f, -1.1088999509811401f, 0.17440108954906464f, -0.1923011690378189f, -0.9985843300819397f, 0.7902693152427673f, -0.4522726237773895f, -3.1608004570007324f, 0.3065530061721802f, 3.9417898654937744f, 1.004823088645935f, 2.059269666671753f, -1.5118314027786255f, -1.6290037631988525f, 1.233426570892334f, 1.1241710186004639f, -2.5951080322265625f, 0.3547779321670532f, -0.35776838660240173f, -2.3477373123168945f, 1.1116727590560913f, 2.1043872833251953f, -1.627150535583496f, 1.2869714498519897f, 0.7500125765800476f };
alignas(16) float separable_conv2d_2_WEIGHTS[] = { 0.048960063606500626f, 0.02098342403769493f, 0.037508606910705566f, 0.01495759654790163f, -0.0909624695777893f, 0.04110201075673103f, 0.05478864535689354f, -0.01583768241107464f, -0.054287996143102646f, -0.05160796642303467f, -0.04215821251273155f, 0.014131149277091026f, -0.03660139441490173f, 0.031560320407152176f, 0.03842964395880699f, -0.11424218863248825f, -0.03747573867440224f, -0.05494165048003197f, 0.019028237089514732f, 0.051979415118694305f, -0.015944501385092735f, -0.028137078508734703f, -0.08171671628952026f, 0.06233856827020645f, -0.00010939531057374552f, -0.013622774742543697f, -0.028042364865541458f, 0.03562863543629646f, -0.08964481204748154f, 0.04063117131590843f, 0.05943521112203598f, -0.04181709513068199f, 0.024416670203208923f, -0.06507541239261627f, 0.06164151430130005f, -0.002941591665148735f, 0.04578050971031189f, 0.021761512383818626f, 0.015748770907521248f, 0.1400400847196579f, 0.003301692893728614f, 0.017699697986245155f, 0.01063495222479105f, 0.030022798106074333f, 0.08623725175857544f, -0.031809426844120026f, -0.008933767676353455f, 0.08166217803955078f, 0.050382740795612335f, 0.04736661911010742f, 0.10801045596599579f, -0.004838576074689627f, 0.030246831476688385f, -0.010106561705470085f, -0.1977204531431198f, -0.018253518268465996f, 0.11657227575778961f, 0.01121560949832201f, 0.009682442992925644f, -0.04744841530919075f, -0.0335988812148571f, 0.1053360253572464f, 0.05732995271682739f, -0.07920869439840317f, 0.01249083224684f, -0.045522261410951614f, 0.06671654433012009f, -0.0057698884047567844f, -0.06411699205636978f, 0.06788769364356995f, -0.04937407374382019f, 0.07461997121572495f, -0.0005488021997734904f, 0.11363684386014938f, 0.0056005604565143585f, -9.68257609201828e-06f, -0.024931805208325386f, 0.030737338587641716f, -0.11418024450540543f, -0.003349745413288474f, -0.04299182817339897f, 0.009460249915719032f, -0.011359404772520065f, -0.05763272941112518f, 0.03587815910577774f, 0.0006614215672016144f, -0.011797823943197727f, 0.07612163573503494f, -0.0937805324792862f, 0.06110287085175514f, -0.018867524340748787f, -0.07479001581668854f, 0.023699967190623283f, 0.0073485057801008224f, -0.02837672270834446f, 0.011315153911709785f, 0.049182530492544174f, 0.0768439918756485f, 0.07043799757957458f, 0.05647444725036621f, -0.018787598237395287f, 0.0090143708512187f, -0.13763970136642456f, -0.009099368005990982f, 0.08411197364330292f, -0.10795751214027405f, 0.044562701135873795f, -0.04689162224531174f, -0.03325551748275757f, -0.023006629198789597f, 0.057457540184259415f, 0.06812866032123566f, -0.02042437344789505f, 0.1781945377588272f, 0.07830382883548737f, 0.03105304390192032f, -0.03154406696557999f, 0.03817514702677727f, 0.014961067587137222f, -0.09282638132572174f, 0.06536926329135895f, -0.12234138697385788f, 0.033090412616729736f, -0.02199365384876728f, -0.048056524246931076f, -0.005049985833466053f, -0.012743017636239529f, -0.059463173151016235f, 0.008616659790277481f, 0.09619095176458359f, 0.0035745359491556883f, 0.034083329141139984f, 4.985970372217707e-05f, 0.09508713334798813f, 0.09784500300884247f, 0.11629901826381683f, 0.026973193511366844f, 0.01679931953549385f, 0.05581533536314964f, 0.019264215603470802f, -0.013392177410423756f, -0.007150887046009302f, 0.0964972972869873f, 0.06729799509048462f, 0.06078401207923889f, 0.0031315016094595194f, -0.036190807819366455f, 0.018391242250800133f, 0.03491939604282379f, 0.13808099925518036f, -0.0616423673927784f, 0.00597207760438323f, 0.01563531532883644f, 0.022012148052453995f, 0.06510783731937408f, -0.046080153435468674f, -0.04619762673974037f, -0.03434072434902191f, -0.018450645729899406f, 0.053889717906713486f, -0.07554910331964493f, 0.009794933721423149f, -0.010175514966249466f, 0.08649860322475433f, 0.03732747212052345f, 0.02501906082034111f, 0.05242493748664856f, -0.03901016712188721f, 0.040340833365917206f, -0.19271458685398102f, 0.02524220198392868f, -0.0039958651177585125f, -0.06978170573711395f, 0.032109152525663376f, -0.062245480716228485f, -0.01357913389801979f, 0.010174891911447048f, -0.017681753262877464f, 0.017296727746725082f, -0.04056007042527199f, -0.0553491935133934f, -0.023053696379065514f, -0.0763501301407814f, -0.0678323432803154f, 0.040259186178445816f, 0.08072616904973984f, -0.0004189031315036118f, 0.012115584686398506f, -0.024956149980425835f, -0.00335524114780128f, 0.10702595114707947f, -0.09774398803710938f, 0.08849234133958817f, 0.011407054029405117f, 0.08924134075641632f, 0.03909701853990555f, 0.06347869336605072f, -0.03610087186098099f, 0.03686732053756714f, 1.822110789362341e-05f, 0.04851975291967392f, 0.1345965713262558f, -0.0635232999920845f, -0.04647727683186531f, 0.03745559975504875f, -0.04768135026097298f, 0.002676817122846842f, -0.12253215163946152f, -0.03368039056658745f, 0.04770664498209953f, 0.07059814780950546f, -0.10283724218606949f, -0.03473926708102226f, 0.08503437042236328f, 0.037494879215955734f, -0.09350132197141647f, 0.0037214711774140596f, -0.015331432223320007f, -0.05128467455506325f, 0.05733117088675499f, -0.011310691945254803f, -0.03435928001999855f, -0.0568852424621582f, -0.03967942297458649f, -0.07104858011007309f, -0.01994282193481922f, 0.016789231449365616f, 0.007855501025915146f, 0.03784284368157387f, 0.06709474325180054f, 0.004871259909123182f, -0.0479096844792366f, 0.03049170970916748f, -0.013086069375276566f, -0.007308260537683964f, 0.035275399684906006f, 0.020001059398055077f, -0.000879287370480597f, -0.005408129654824734f, -0.016357282176613808f, -0.01978462189435959f, 0.005520894657820463f, 0.016942299902439117f, -0.008748499676585197f, -0.047021057456731796f, 0.010696403682231903f, -0.09848489612340927f, -0.058646343648433685f, -0.04887434467673302f, 0.005414735525846481f, 0.08010060340166092f, 0.059620507061481476f, 0.007835823111236095f, -0.025571387261152267f, 0.07388501614332199f, -0.18960708379745483f };
alignas(16) float separable_conv2d_2_BIAS[] = { 0.745896577835083f, -0.04218341410160065f, 1.9825359582901f, 0.2270555943250656f, 8.04440975189209f, -0.2897091209888458f, -0.14543220400810242f, 1.9326237440109253f };
alignas(16) float conv2d_2_WEIGHTS[] = { 0.846541702747345f, -0.09543166309595108f, -0.9608739018440247f, -0.2691348195075989f, -0.3342978060245514f, 0.4139043986797333f, -1.225359320640564f, 0.776395320892334f, -0.15637221932411194f, -0.2905699610710144f, 0.14321966469287872f, -0.15830889344215393f, -0.4777430295944214f, -1.1005412340164185f, -0.9268887639045715f, -0.3659537732601166f, 0.6232273578643799f, 0.3864768445491791f, 0.15027114748954773f, 0.1275632381439209f, -0.1295817494392395f, 0.13078013062477112f, -0.5883562564849854f, -0.08174294978380203f, -0.2503092288970947f, -0.2323295772075653f, -0.07676570862531662f, -0.17613758146762848f, 1.165786623954773f, -1.1340210437774658f, 0.5995451807975769f, 0.267496258020401f, 0.2247830182313919f, -0.1360887885093689f, 0.2971118986606598f, 0.7825444936752319f, 0.9662182331085205f, -0.7934752702713013f, -0.06528111547231674f, -1.053444504737854f, 0.2666459381580353f, -0.7684680223464966f, 0.3598335385322571f, 0.04940052330493927f, 0.27301961183547974f, -0.5873095393180847f, -0.0014548354083672166f, 0.2780105471611023f, 0.1272573471069336f, 0.07180045545101166f, 1.0172748565673828f, 0.1633993685245514f, 0.026601139456033707f, 0.5818118453025818f, -0.9088442325592041f, -0.019710619002580643f, 0.5598850250244141f, -0.829838752746582f, 0.3172925114631653f, 0.7844322919845581f, -0.5761928558349609f, -1.177892804145813f, 0.3853708803653717f, 0.21877077221870422f, -0.003946376498788595f, 0.34092581272125244f, 0.7876237034797668f, 0.03730848431587219f, 0.21087396144866943f, -0.2727091908454895f, 0.5782785415649414f, -0.49230626225471497f, 0.47889038920402527f, 0.4003290832042694f, 0.6726288795471191f, 0.04511113837361336f, 0.23817279934883118f, -0.10498493909835815f, -0.039812445640563965f, 0.8485416173934937f, -0.8508546352386475f, 1.0080323219299316f, -0.00479331286624074f, -0.3864949643611908f, -0.07486242800951004f, 0.4549408555030823f, 0.020980818197131157f, -0.19008447229862213f, -1.1230942010879517f, 0.7863832712173462f, 0.5296223163604736f, 0.5632245540618896f, -0.5057084560394287f, 0.3227904736995697f, 0.24761316180229187f, 0.689524233341217f };
alignas(16) float conv2d_2_BIAS[] = { -1.7201162576675415f, 1.5564948320388794f, -3.967010259628296f, 2.65769362449646f, -2.1365814208984375f, -0.5400813221931458f, 1.03938627243042f, -3.8612027168273926f, 0.414645254611969f, 2.8252997398376465f, 2.0106494426727295f, -2.9140264987945557f };
alignas(16) float separable_conv2d_3_depthwise_WEIGHTS[] = { 0.7116201519966125f, 0.3494414985179901f, 1.0035854578018188f, -2.7818684577941895f, -0.39894038438796997f, 3.260387897491455f, -0.9776561856269836f, -0.4223037660121918f, 0.2379285842180252f, -0.2725597620010376f, 1.2158280611038208f, 0.00863157119601965f, 1.921728253364563f, -3.0360372066497803f, 1.1381701231002808f, 1.5306111574172974f, -0.40317124128341675f, -1.845550537109375f, 1.870121717453003f, 2.322772741317749f, -1.2205307483673096f, 2.940638780593872f, -1.5078204870224f, 0.9994859099388123f, -3.6889050006866455f, -2.0579497814178467f, -1.4143260717391968f, -3.659053325653076f, -0.3259012997150421f, 1.6456137895584106f, 1.2144336700439453f, 0.1854064017534256f, -0.49402686953544617f, -1.772840976715088f, -0.48092207312583923f, 0.279264897108078f, -2.7457025051116943f, 0.2745078206062317f, 2.509596824645996f, -2.844918966293335f, 0.5463717579841614f, -2.7397024631500244f, -3.3679795265197754f, 1.6501370668411255f, -0.4540707767009735f, -1.1724557876586914f, 2.904352903366089f, -1.7250545024871826f, -0.584189236164093f, 2.248382568359375f, 1.3586680889129639f, -2.9062130451202393f, -0.04918551817536354f, 3.488990068435669f, -0.10773532837629318f, -1.319604754447937f, -1.2927708625793457f, -0.171914741396904f, 0.21353216469287872f, 1.4325209856033325f, -1.0103027820587158f, -2.629274606704712f, 0.18555232882499695f, -1.8113279342651367f, -1.5378450155258179f, -2.69268536567688f, 0.05706246197223663f, -0.7398051619529724f, 1.6805260181427002f, 1.3164794445037842f, 0.05357750505208969f, 1.2896639108657837f, 0.22789417207241058f, -0.788826048374176f, 0.722946286201477f, -3.9126641750335693f, 1.9688085317611694f, 2.5631444454193115f, -1.3956528902053833f, -0.37839797139167786f, 0.8749445080757141f, 1.0344140529632568f, 1.6283760070800781f, 1.4654265642166138f, 0.04576576501131058f, 0.9081847071647644f, 3.2632787227630615f, -2.3853464126586914f, 0.260678768157959f, 0.737456738948822f, -2.513411283493042f, 0.21254825592041016f, -2.278836727142334f, -0.1824125200510025f, 1.3378242254257202f, 1.2557672262191772f, 2.987856149673462f, 3.879011392593384f, 1.513909101486206f, 0.765974223613739f, 1.4695472717285156f, 1.956242561340332f, 1.9047223329544067f, -1.1462587118148804f, -2.8074324131011963f, 1.7759208679199219f, 0.4109758734703064f, 1.8595402240753174f, 1.2971218824386597f, 1.1268428564071655f, -0.4198589324951172f, -3.514066457748413f, -1.5883517265319824f, -2.0679421424865723f, -0.7314143776893616f, -0.7730385065078735f, 1.4590734243392944f, 0.9138299822807312f, -0.4659821689128876f, 0.9604946970939636f, 0.4799899756908417f, -2.326141357421875f, -1.557792067527771f, -2.064326524734497f, 3.3008718490600586f, 0.876986563205719f, -2.338486433029175f, -1.7151494026184082f, 0.5559405088424683f, 0.9170940518379211f, -0.4141024351119995f, 1.2315618991851807f, 1.9252327680587769f, -0.8011297583580017f, 1.9944968223571777f, -0.4814172387123108f, -0.37945398688316345f, 0.9640966653823853f, 0.059352386742830276f, 0.10344188660383224f, -0.36886170506477356f, -0.6963239908218384f, -0.41526445746421814f, 0.07800736278295517f, 2.1900758743286133f, -0.2570679187774658f, 0.33449116349220276f, 1.0875937938690186f, 1.2445520162582397f, -0.4795910120010376f, -3.2317874431610107f, -2.2827298641204834f, 1.0683132410049438f, -2.989182949066162f, 2.8371999263763428f, 2.1733555793762207f, 0.13244667649269104f, -1.0260106325149536f, 0.03366409242153168f, 0.39355942606925964f, 3.518946409225464f, -1.1111716032028198f, -0.300695538520813f, 0.46651357412338257f, 1.2229145765304565f, -0.7055503129959106f, -2.5069081783294678f, 1.8559679985046387f, -1.8773542642593384f, 2.7424368858337402f, 1.0155843496322632f, -0.5970253348350525f, 0.6874420046806335f, 1.7694053649902344f, 2.422978162765503f, 2.8201944828033447f, 0.3649647831916809f, -2.2476749420166016f, -0.8386484980583191f, 3.3013322353363037f, 1.4924923181533813f, 0.3149431049823761f, -0.017955293878912926f, -2.0806808471679688f, 0.48505470156669617f, -2.298158645629883f, -0.6018528342247009f, 0.6021180152893066f, -0.37670421600341797f, -1.459394931793213f, 2.1023402214050293f, 1.7917677164077759f, 0.15601368248462677f, 0.07857415825128555f, 1.4041141271591187f, -0.45580852031707764f, 1.246275782585144f, -1.6219666004180908f, -0.9505794644355774f, -3.9666731357574463f, 0.08285416662693024f, -2.574618339538574f, -2.088955879211426f, 1.06117582321167f, 1.8023653030395508f, 0.39545124769210815f, 0.04653831943869591f, 0.15811565518379211f, 0.3379746973514557f, -2.4084227085113525f, 0.12478624284267426f, -0.652207612991333f, 1.0077790021896362f, 0.5020474791526794f, 1.0468894243240356f, 2.8619654178619385f, 0.8021184802055359f, 0.8928006887435913f, 2.2563252449035645f, -2.199538230895996f, -2.053133249282837f, 0.35727202892303467f, -0.8176894783973694f, 2.7613062858581543f, -1.6621239185333252f, -1.4072322845458984f, -0.512748658657074f, 3.851289749145508f, 1.852061152458191f, -1.524128794670105f, -0.08212447166442871f, -1.3593945503234863f, 1.200530767440796f, 0.889626681804657f, -1.6932722330093384f, 1.3011322021484375f, 0.3217049241065979f, -1.048732876777649f, -0.3843357563018799f, 0.9594120383262634f, 0.09651997685432434f, 0.34026816487312317f, 0.4080476462841034f, -0.008374306373298168f, 1.252695918083191f, -1.3778197765350342f, 1.2789160013198853f, -1.0305484533309937f, -0.1373896300792694f, -0.12415551394224167f, -2.5735175609588623f, 0.6307896375656128f, 1.8126327991485596f, -0.13240325450897217f, -2.3097305297851562f, -0.37370193004608154f, -2.059340715408325f, -1.9360347986221313f, -0.6277332305908203f, 0.091654472053051f, -1.408334732055664f, 0.6409584879875183f, 1.279984951019287f, 2.960954427719116f, 0.3647526800632477f, -0.42970186471939087f, 0.4859273433685303f, -1.713535189628601f, -0.1638384759426117f, 0.5509568452835083f, -1.997758150100708f, 0.20236153900623322f, -0.9216028451919556f, 0.9947033524513245f, -2.156505584716797f, 0.8159554600715637f, 2.3910622596740723f, 0.39682573080062866f, -0.47870883345603943f, 0.33250340819358826f, -1.6531808376312256f, 2.6254215240478516f, -1.3980308771133423f, 1.0661439895629883f, -0.46492883563041687f, -1.196811556816101f, -0.6149937510490417f, -0.8765764236450195f, -0.9839025735855103f, 0.18526796996593475f, 3.4933817386627197f, 2.2271370887756348f, 0.7288687229156494f, -0.9940647482872009f, -3.5895814895629883f, 0.7913457155227661f, 2.4214985370635986f, 0.337423175573349f, 2.683283805847168f, 2.5089690685272217f, -0.32952427864074707f, -0.3916424810886383f, -1.0186266899108887f, 1.1781505346298218f, 1.5651726722717285f, -0.9460564851760864f, 1.5391055345535278f, -2.9412240982055664f, 0.9489383697509766f, -2.216219663619995f, -1.5602765083312988f, 1.3189646005630493f, -1.2877246141433716f, 3.0759518146514893f, -1.552363634109497f, -0.6635494232177734f, 2.163093328475952f, -0.6823166012763977f, 0.13065655529499054f, 1.8169084787368774f, 2.7315754890441895f, -1.4340876340866089f, 0.20906847715377808f, 2.845785617828369f, 0.44355499744415283f, 1.7672696113586426f, -2.27535080909729f, -3.605551242828369f, 0.12399360537528992f, -0.1627315729856491f, -1.3763331174850464f, -3.515721321105957f, 2.363286018371582f, -2.1279077529907227f, -1.4453636407852173f, 0.9564827084541321f, 0.24791671335697174f, -1.4333124160766602f, 1.6312520503997803f, 0.7175172567367554f, -2.3965203762054443f, -1.131006121635437f, -1.3803174495697021f, -2.315141439437866f, 1.5199799537658691f, 1.482255220413208f, -2.2183384895324707f, 3.119525194168091f, 2.5764756202697754f, 2.6032769680023193f, 1.3044999837875366f, 2.091005563735962f, 1.346763253211975f, -0.17940205335617065f, 0.4470549523830414f, -1.7812328338623047f, 0.6444680690765381f, -0.4699115455150604f, 0.4927610158920288f, 2.638061761856079f, 0.6440849304199219f, 0.4763299226760864f, -0.6679929494857788f, -1.7170237302780151f, 1.2622886896133423f, -2.9355411529541016f, 0.4731470048427582f, 2.7175774574279785f, -1.9309154748916626f, 0.9536654949188232f, 0.16452133655548096f, 2.1910758018493652f, -1.379048228263855f, -3.7013823986053467f, -1.0887987613677979f, -1.6082807779312134f, 2.79252028465271f, 1.626922369003296f, -1.2527073621749878f, -2.554640293121338f, 0.691215455532074f, -4.184594631195068f, -2.5350780487060547f, -1.2442752122879028f, -3.091111183166504f, 0.9926210641860962f, 1.4882307052612305f, 1.0506142377853394f, -2.378109931945801f, -0.053204234689474106f, 0.3472294509410858f, -3.3603596687316895f, -0.1672978550195694f, 2.6012051105499268f, -2.983893394470215f, -0.5030450820922852f, 1.7430872917175293f, 1.6533492803573608f, -0.8305472135543823f, 2.0125014781951904f, 0.7202062010765076f, -0.06974847614765167f, -2.652585983276367f, 1.9471640586853027f, -2.010486125946045f, 1.2428196668624878f, 1.1357678174972534f, 0.9647992849349976f, 1.2527931928634644f, 0.42352965474128723f, 0.4539937973022461f, -0.6289578676223755f, 0.7301011085510254f, -2.467757225036621f, 2.4139349460601807f, 1.6515979766845703f, 1.4748477935791016f, 1.7541006803512573f, -1.6178724765777588f, 2.3237292766571045f, -0.5165072679519653f, -1.8716756105422974f, 0.7844439744949341f, 0.1598154455423355f, -2.7901618480682373f, 1.9075748920440674f, -2.1304380893707275f, 1.202060580253601f, -2.498298406600952f, -1.9534164667129517f, -0.9789026379585266f, -0.730279803276062f };
alignas(16) float separable_conv2d_3_WEIGHTS[] = { -0.02637164480984211f, -0.03641340881586075f, -0.06853125989437103f, -0.011856148019433022f, -0.011515215039253235f, -0.03258190676569939f, -0.009153962135314941f, 0.006472077686339617f, -0.027335425838828087f, -0.008534247055649757f, -0.017739195376634598f, 0.024872761219739914f, -0.006589269265532494f, -0.006282003130763769f, -0.03297293186187744f, 0.0004924626555293798f, -0.019292021170258522f, -0.09226857870817184f, -0.01985308900475502f, -0.02498030476272106f, 0.03997749090194702f, -0.039667364209890366f, 0.013953878544270992f, -0.009910725988447666f, -0.021371791139245033f, -0.030681315809488297f, -0.028963593766093254f, 0.013815493322908878f, -0.021921895444393158f, -0.006995384581387043f, 0.009575868025422096f, -0.0452125184237957f, 0.04666819050908089f, -0.04136766865849495f, -0.009077318012714386f, 0.028561316430568695f, 0.019871415570378304f, -0.028121020644903183f, 0.02571954019367695f, -0.0051034679636359215f, 0.002357413526624441f, 0.0384923480451107f, 0.02634539268910885f, 0.09944389760494232f, 0.005718108266592026f, -0.02059868909418583f, -0.003364789066836238f, -0.009884903207421303f, 0.024736909195780754f, 0.024134254083037376f, -0.02697514183819294f, 0.006150865461677313f, 0.01324830949306488f, -0.02020726352930069f, 0.013105646707117558f, -0.003241985570639372f, 0.003223186358809471f, -0.057520925998687744f, -0.04127141460776329f, -0.00759453559294343f, 0.02119789645075798f, 0.03798798844218254f, -0.02277851104736328f, -0.014843306504189968f, -0.022497382014989853f, -0.09695819765329361f, -0.01763993129134178f, 0.03564056381583214f, -0.012415086850523949f, -0.01556478999555111f, -0.00986687932163477f, -0.05811525508761406f, 0.007181352935731411f, -0.05172920972108841f, 0.03613530844449997f, 0.027023527771234512f, 0.0002974749659188092f, -0.018503574654459953f, -0.013918662443757057f, 0.07536299526691437f, 0.016104131937026978f, -0.03367083892226219f, -0.01677742786705494f, -0.016452807933092117f, -0.039687175303697586f, -0.045637551695108414f, 0.019946390762925148f, 0.005355075467377901f, -0.00672200508415699f, -0.019873784855008125f, 0.02742723934352398f, 0.0408027246594429f, 0.0008821015944704413f, 0.03996647894382477f, -0.049815401434898376f, 0.091899074614048f, -0.07017675042152405f, 0.026851432397961617f, 0.005529018118977547f, 0.0071645090356469154f, 0.025418085977435112f, 0.0026627839542925358f, 0.009092510677874088f, 0.015574236400425434f, -0.03192168474197388f, -0.027825921773910522f, -0.012164698913693428f, 0.027452394366264343f, 0.02083677612245083f, -0.041726525872945786f, -0.012396731413900852f, 0.004457857925444841f, 0.011715053580701351f, -0.0711079016327858f, 0.010417108424007893f, 0.007798489648848772f, 0.027155201882123947f, 0.02507626824080944f, 0.024640049785375595f, -0.024501530453562737f, 0.006724785082042217f, 0.02806137502193451f, -0.03256255015730858f, 0.010358907282352448f, -0.045588988810777664f, 0.00029152893694117665f, -0.027266623452305794f, -0.01788100227713585f, 0.03372284397482872f, -0.08535205572843552f, 0.0019385400228202343f, -0.005621237214654684f, 0.044840116053819656f, 0.027004705742001534f, 0.02218341827392578f, 0.014713413082063198f, -0.0015339847886934876f, 0.0097495187073946f, 0.031148593872785568f, 0.08443532884120941f, 0.008907132782042027f, -0.013017170131206512f, 0.005399373359978199f, 0.006022701971232891f, -0.03219158947467804f, -0.019486892968416214f, -0.004096395801752806f, -0.014623675495386124f, -0.03362835571169853f, 0.024806484580039978f, 0.01940704695880413f, 0.05383291095495224f, -0.02598799206316471f, -0.03756535425782204f, 0.022594217211008072f, -0.01837560161948204f, -0.08559194952249527f, 0.006889243610203266f, 0.011347499676048756f, 0.02673051320016384f, 0.016831226646900177f, 0.03599632531404495f, -0.006907637696713209f, -0.031008094549179077f, -0.01883646287024021f, -0.023778898641467094f, -0.0035634171217679977f, 0.03778921440243721f, 0.009280174039304256f, -0.022074662148952484f, -0.023075086995959282f, 0.016506876796483994f, 0.018862932920455933f, -0.008430185727775097f, -0.006953674368560314f, 0.0189998559653759f, -0.0046866899356245995f, 0.03423812985420227f, -0.02527509443461895f, -0.020724019035696983f, -0.028088020160794258f, 0.021549871191382408f, -0.034955333918333054f, 0.028957366943359375f, -0.038502972573041916f, 0.020486358553171158f, -0.0011883622501045465f, 0.0237150639295578f, 0.0009220655192621052f, -0.008185647428035736f, -0.06045662239193916f, -0.030438395217061043f, -0.002464827848598361f, -0.06612902879714966f, -0.01926070638000965f, -0.02288816124200821f, -0.001431013224646449f, 0.015834026038646698f, 0.003201040206477046f, 0.012533821165561676f, 0.04405555501580238f, 0.012983485125005245f, -0.05540342628955841f, 0.023462245240807533f, -0.019199665635824203f, 0.01238970272243023f, -0.006911557633429766f, 0.03814267739653587f, -0.02552049234509468f, -0.033759597688913345f, 0.009040608070790768f, 0.05567505955696106f, 0.023624146357178688f, 0.06231941282749176f, 0.035268183797597885f, 0.0018001116113737226f, 0.04547247663140297f, -0.010393119417130947f, -0.010710633359849453f, -0.0027278834022581577f, -0.019158126786351204f, 0.016332903876900673f, -0.01728416234254837f, 0.02809702418744564f, -0.005321861244738102f, 0.059828754514455795f, 0.04684768244624138f, -0.0035889046266674995f, -0.03056839108467102f, 0.04378555342555046f, 0.009042930789291859f, 0.014263168908655643f, 0.027683885768055916f, 0.056146785616874695f, 0.006664708722382784f, 0.03338325768709183f, -0.03357810154557228f, 0.028916610404849052f, 0.006937435362488031f, 0.028588077053427696f, 0.05746683105826378f, -0.02125096134841442f, 0.0037555962335318327f, -0.013104598969221115f, -0.010807042941451073f, 0.009039335884153843f, 0.015463297255337238f, -0.03304017335176468f, 0.002946089021861553f, -0.02360238879919052f, -0.02974541299045086f, 0.0006235698820091784f, 0.03541465848684311f, 0.028762005269527435f, -0.010673411190509796f, 0.001523113576695323f, 0.02842104248702526f, -0.07279078662395477f, 0.016227521002292633f, -0.015240268781781197f, -0.027962300926446915f, 0.01051374338567257f, -0.02847810462117195f, -0.003662639996036887f, -0.0381137952208519f, 0.011945140548050404f, 0.041160810738801956f, 0.021258724853396416f, 0.0005395749467425048f, -0.008161493577063084f, 0.022849474102258682f, -0.011492494493722916f, -0.004106263164430857f, 0.006655449513345957f, 0.024491915479302406f, -0.02403789572417736f, -0.009127171710133553f, -0.004992688074707985f, -0.01644342765212059f, -0.0073123956099152565f, 0.031109504401683807f, -0.017871156334877014f, -0.03664408251643181f, -0.07352586090564728f, -0.04976615309715271f, -0.020468492060899734f, -0.04801761731505394f, -0.014779023826122284f, 0.032260961830616f, -0.02283555641770363f, 0.04795568436384201f, -0.00880920235067606f, 0.010690012946724892f, 0.03590388596057892f, 0.014683081768453121f, -0.023503929376602173f, 0.05653400719165802f, 0.028513843193650246f, 0.019879696890711784f, -0.026702575385570526f, 0.05249501392245293f, 0.02439899742603302f, 0.01642693392932415f, -0.008360679261386395f, 0.003081877715885639f, -0.004505505319684744f, -0.028313441202044487f, -0.031926415860652924f, -0.03771605342626572f, 0.023073244839906693f, -0.011653431691229343f, 0.051758307963609695f, 0.03904275968670845f, 0.012717791832983494f, -0.005873856600373983f, 0.010290747508406639f, -0.0004013346915598959f, 0.02113727293908596f, -0.026509732007980347f, -0.024680757895112038f, 0.018964804708957672f, -0.014715464785695076f, 0.006084779743105173f, -0.020327337086200714f, 0.02783622033894062f, -0.017432939261198044f, 0.018370840698480606f, -0.03833429142832756f, 0.013635197654366493f, 0.11170869320631027f, 0.06644003093242645f, 0.03913694992661476f, -0.000572074088267982f, 0.001985914306715131f, 0.002583462977781892f, -0.021386124193668365f, -0.07270366698503494f, -0.011094590649008751f, 0.00789251271635294f, -0.04365954175591469f, 0.00826180912554264f, -0.03138234093785286f, -0.03048938326537609f, 0.0028689338359981775f, -0.030340110883116722f, 0.015743106603622437f, -0.0066976603120565414f, -0.010139751248061657f, -0.0057801371440291405f, 0.0025195241905748844f, 0.02222917228937149f, -0.003031989559531212f, 0.006994133815169334f, -0.07707305997610092f, 0.03696359694004059f, -0.04109343886375427f, -0.022012313827872276f, 0.06224518641829491f, 0.010332719422876835f, 0.023526765406131744f, 0.00595701951533556f, -0.0302352886646986f, -0.027223384007811546f, 0.012094486504793167f, -0.026266105473041534f, 0.054997436702251434f, 0.038072723895311356f, 0.05639231950044632f, 0.01834910921752453f, 0.01442219689488411f, -0.014667943120002747f, 0.03302654251456261f, 0.0008980917627923191f, -0.009647773578763008f, -0.0555778332054615f, -0.05170077830553055f, 0.012972507625818253f, -0.0014456697972491384f, -0.0373179167509079f, 0.04122818261384964f, 0.016389811411499977f, 0.04404650628566742f, -0.019150950014591217f, 0.0588424913585186f, 0.030973458662629128f, 0.03782568499445915f, 0.023717325180768967f, -0.011026039719581604f, 0.018877597525715828f, 0.0008406406850554049f, 0.004471699707210064f, 0.00645176088437438f, 0.037382569164037704f, 0.03413134813308716f, 0.007117625791579485f, 0.0007327579078264534f, -0.00865218136459589f, -0.015368831343948841f, 0.011409741826355457f, -0.0265972800552845f, -0.04016251116991043f, 0.019256919622421265f, 0.011922822333872318f, -0.038267821073532104f, 0.03914394974708557f, -0.018239730969071388f, 0.007263916544616222f, -0.032856136560440063f, 0.02277800813317299f, 0.0027146635111421347f, 0.039183832705020905f, 0.023133249953389168f, 0.011957020498812199f, -0.0018420964479446411f, 0.03847751021385193f, -0.0024701065849512815f, -0.0037746017333120108f, 0.008059541694819927f, -0.018560774624347687f, 0.011700005270540714f, -0.018877100199460983f, 0.009102407842874527f, -0.05254722759127617f, 0.03312435746192932f, 0.026744145900011063f, -0.02437124028801918f, -0.043311454355716705f, 0.03887386992573738f, -0.012471000663936138f, -0.01481589861214161f, 0.005801770836114883f, -0.06834105402231216f, 0.05289251357316971f, 0.058353304862976074f, 0.01755072921514511f, -0.016751812770962715f, -0.017799539491534233f, -0.018596112728118896f, 0.020024597644805908f, 0.003510206239297986f, -0.009035686030983925f, 0.004502753261476755f, 0.02886332757771015f, -0.02433328703045845f, 0.036251503974199295f, -0.03193032369017601f, -0.030998503789305687f, 0.00639994814991951f, 0.00818792637437582f, -0.0638059675693512f, 0.007888682186603546f, 0.005134144332259893f, -0.025403834879398346f, 0.06599380075931549f, -0.027402479201555252f, -0.007487247698009014f, -0.014818738214671612f, 0.016908667981624603f, -0.04868856072425842f, 0.002740274416282773f, -0.04119151458144188f, -0.03374317288398743f, 0.02341119945049286f, -0.007862982340157032f, 0.02910362370312214f, 0.0019089006818830967f, 0.022162064909934998f, -0.070244699716568f, 0.02095336839556694f, -0.027112342417240143f, -0.02112637273967266f, -0.018645163625478745f, -0.006768213585019112f, 0.01634606160223484f, -0.025713257491588593f, -0.004300828091800213f, 0.013187645934522152f, 0.05461302399635315f, 0.02123228646814823f, 0.09916068613529205f, 0.018845856189727783f, -0.0005168705829419196f, -0.007773453835397959f, 0.013468283228576183f, 0.05516143515706062f, 0.017014548182487488f, -0.014832447282969952f, -0.01940915174782276f, 0.028104059398174286f, 0.0367647148668766f, -0.014135346747934818f, -0.0036180659662932158f, 0.028654353693127632f, 0.019118506461381912f, -0.018394067883491516f, 0.011184025555849075f, -0.0335158035159111f, 0.0010774163529276848f, 0.04554501920938492f, 0.006649553310126066f, -0.005741177126765251f, -0.055660221725702286f, -0.06475431472063065f, 0.008837609551846981f, -0.01489950343966484f, -7.618538074893877e-05f, 0.01942611113190651f, -5.343667453416856e-06f, -0.04948778823018074f, -0.007437214255332947f, -0.05586188659071922f, -0.03857221454381943f, 0.004998171702027321f, 0.048687323927879333f, -0.04901093989610672f, -0.025700600817799568f, -0.022549979388713837f, 0.018542582169175148f, 0.03316006064414978f, -0.03245004639029503f, 0.01563883386552334f, 0.0015149902319535613f, -0.02171996608376503f, -0.000587838760111481f, -0.055049747228622437f, -0.061014313250780106f, 0.021999217569828033f, 0.001353143248707056f, -0.025034647434949875f, -0.02793860249221325f, -0.02485145628452301f, 0.00013507375842891634f, -0.016943592578172684f, -0.003023400204256177f, 0.0039250473491847515f, 0.009866525419056416f, -0.007749381009489298f, 0.0045807817950844765f, -0.06235780939459801f, 0.033089231699705124f, 0.023173486813902855f, 0.00018276357150170952f, -0.013375155627727509f, -0.040235888212919235f, -0.023411499336361885f, 0.0013538416242226958f, -0.06645969301462173f, 0.0070086875930428505f, -0.01273288019001484f, 0.0016936063766479492f, -0.039645109325647354f, 0.04087100923061371f, 0.01878993771970272f, 0.050653353333473206f, -0.022031432017683983f, -0.004591202363371849f, -0.03092631697654724f, -0.002294449834153056f, -0.02342190220952034f, -0.033702731132507324f, -0.06412223726511002f, 0.04328281804919243f, 0.003532982664182782f, -0.030740225687623024f, -0.02189701795578003f, -0.004717772360891104f, 0.016041498631238937f, 0.029352610930800438f, 0.008088662289083004f, 0.015598759055137634f, -0.033272627741098404f, 0.010378027334809303f, -0.015446821227669716f, 0.030903007835149765f, -0.008769958280026913f, -0.00828418880701065f };
alignas(16) float separable_conv2d_3_BIAS[] = { -0.18363411724567413f, -1.305930733680725f, 6.051048278808594f, 1.5592740774154663f, -0.7281100749969482f, -0.04199808090925217f, -0.7131069302558899f, -2.969752311706543f, 1.8423811197280884f, 7.9569478034973145f, -2.997992753982544f, 3.4192285537719727f };
alignas(16) float conv2d_3_WEIGHTS[] = { -0.057573117315769196f, -0.06624867767095566f, 0.362848699092865f, -0.10010367631912231f, -0.037236396223306656f, -0.14940939843654633f, 0.8587288856506348f, -0.06179915368556976f, 0.3996671736240387f, 0.6912394762039185f, -0.07728059589862823f, 0.28376317024230957f, -0.17205046117305756f, -0.27148911356925964f, -0.12936288118362427f, 0.0005972806247882545f, -0.2937541604042053f, -0.35993051528930664f, 0.42828401923179626f, 0.3624977767467499f, 0.12481696903705597f, 0.2639404237270355f, -0.19585564732551575f, -0.3898615539073944f, -0.2615637183189392f, -0.5707030296325684f, 0.38777026534080505f, 0.17761783301830292f, 0.43653199076652527f, 0.11783239990472794f, -0.09826463460922241f, 0.43885374069213867f, -0.25981032848358154f, 0.8328409194946289f, -0.39243724942207336f, -0.2760051488876343f, 0.48853418231010437f, 0.1393430083990097f, 0.30916303396224976f, 0.04719610512256622f, 0.2914581894874573f, 0.25183558464050293f, -0.06682078540325165f, -0.013480130583047867f, -0.20048686861991882f, -0.2608499825000763f, 0.38304924964904785f, -0.7946302890777588f, 0.23657460510730743f, -0.1687268167734146f, 0.19427251815795898f, -0.3036203682422638f, 0.40950220823287964f, -0.3932960629463196f, -0.28294339776039124f, -0.2142179310321808f, -0.3353380262851715f, 0.32074350118637085f, -0.08305995166301727f, 0.6474101543426514f, 0.1147841289639473f, -0.38458046317100525f, -0.0441850945353508f, -0.033790647983551025f, 0.3518645763397217f, 0.2668091952800751f, -0.8383336067199707f, 0.2889970541000366f, 0.17328208684921265f, -0.2272789627313614f, -0.01523123774677515f, 0.24768754839897156f, 0.08348556607961655f, 0.048559289425611496f, -0.718729555606842f, 0.306873619556427f, -0.10789722949266434f, 0.24226786196231842f, -0.4959697425365448f, -0.027938855811953545f, -0.6928569674491882f, -0.04474342241883278f, -0.38919466733932495f, -0.18960176408290863f, -0.08099616318941116f, -0.4659498929977417f, -0.009841241873800755f, 0.005606421735137701f, -0.5085077285766602f, 0.2696736454963684f, 0.006089279428124428f, 0.3693852126598358f, -0.10632304847240448f, -0.48847347497940063f, 0.14712895452976227f, 0.20431673526763916f };
alignas(16) float conv2d_3_BIAS[] = { 3.4688844680786133f, -2.1801645755767822f, 1.8070673942565918f, 0.0327591598033905f, 3.091581106185913f, 2.8897247314453125f, 3.279357671737671f, 0.38435325026512146f };
alignas(16) float separable_conv2d_4_depthwise_WEIGHTS[] = { -1.687453031539917f, -0.6886635422706604f, 0.4362466335296631f, 2.59409236907959f, -0.301351398229599f, 0.6094327569007874f, -3.0465853214263916f, 0.4859658181667328f, 2.376851797103882f, -1.3843766450881958f, 1.743130087852478f, 1.3676425218582153f, -1.1606413125991821f, 1.0038820505142212f, -0.719662070274353f, 3.2883145809173584f, 0.5064305663108826f, -0.5180599689483643f, 0.8444808125495911f, 0.48680394887924194f, 2.320089817047119f, -3.071455240249634f, -1.1620763540267944f, 1.3787788152694702f, 1.8439514636993408f, -2.42144513130188f, -4.159634590148926f, -0.40110108256340027f, -1.6366958618164062f, -0.8158367276191711f, -2.763808012008667f, 4.495901584625244f, 1.57938814163208f, 1.6697428226470947f, 2.227416753768921f, 3.882185220718384f, 0.12613904476165771f, 1.4299798011779785f, -0.6669279932975769f, 1.2880632877349854f, -0.7466647028923035f, -0.15592457354068756f, -0.8783012628555298f, -1.2013976573944092f, -1.1838511228561401f, 1.2683383226394653f, 0.04087727144360542f, -0.0841936320066452f, -1.7877521514892578f, -1.4557359218597412f, 1.339978575706482f, 0.31988298892974854f, -0.4176974594593048f, 1.2987422943115234f, -2.064605236053467f, -2.883549451828003f, -3.1192173957824707f, -1.6558589935302734f, -1.0734477043151855f, -1.4318104982376099f, -0.8222532868385315f, 1.3366343975067139f, 0.042940061539411545f, 2.2305328845977783f, -0.2508183717727661f, -2.092359781265259f, 2.1019906997680664f, -0.21135659515857697f, -1.1474555730819702f, 0.4958823025226593f, -2.192092180252075f, -1.9368135929107666f, 0.9159708619117737f, 0.9334595203399658f, -2.591585874557495f, -0.16456638276576996f, -1.6103872060775757f, 0.9005925059318542f, 1.55782949924469f, 1.5340725183486938f, 0.2643308937549591f, 0.8873313069343567f, 0.8424379825592041f, 1.5581294298171997f, 2.53989315032959f, 0.05351044982671738f, -2.449326753616333f, -0.5788434743881226f, 0.7463879585266113f, 0.9383179545402527f, -2.305640459060669f, 2.869792938232422f, 3.883988380432129f, -1.0581543445587158f, -3.1764397621154785f, 2.5792150497436523f, 2.408658027648926f, 2.1184115409851074f, -0.6918214559555054f, 0.2092464417219162f, -0.26499319076538086f, -0.3600556254386902f, -2.0646588802337646f, 1.1073178052902222f, -0.03613682836294174f, 2.647165060043335f, 2.676522970199585f, 0.7439673542976379f, 0.6112934350967407f, 0.6081013679504395f, -0.20572113990783691f, 1.7412313222885132f, 0.07738416641950607f, -0.587587296962738f, 1.914665699005127f, -0.6667945384979248f, 0.689018189907074f, -0.8628886342048645f, -1.5741593837738037f, 3.3324944972991943f, 0.26680612564086914f, 0.8112070560455322f, -2.2101986408233643f, -2.1182382106781006f, -0.853792130947113f, -1.457977294921875f, -0.48272544145584106f, 1.0096073150634766f, -2.3725037574768066f, 0.668319821357727f, -3.088411331176758f, -1.948845386505127f, 2.3696465492248535f, -1.106350302696228f, -0.44819375872612f, -2.159625768661499f, 0.38439616560935974f, -0.9340850114822388f, -0.17365168035030365f, 2.1552224159240723f, 0.48124733567237854f, 0.5434295535087585f, 2.4110937118530273f, 1.0113338232040405f, 4.044069766998291f, -1.0154441595077515f, 0.1723005622625351f, -0.4727667570114136f, 0.551479160785675f, 0.12779933214187622f, 1.0536621809005737f, 0.2582515776157379f, 0.7256765365600586f, 0.02921495959162712f, 1.231415033340454f, 0.7675856947898865f, 0.06615149974822998f, 1.6435863971710205f, 0.5426639318466187f, -1.4335041046142578f, -0.08531302213668823f, 0.9827208518981934f, 0.9483939409255981f, -1.7950248718261719f, 0.1339845061302185f, -0.5864312052726746f, -0.39366018772125244f, -0.11763912439346313f, -1.5718231201171875f, -0.16956214606761932f, 0.3825855255126953f, 0.6908261775970459f, -2.4239234924316406f, 0.6586273312568665f, 1.153923749923706f, -0.03301634266972542f, -0.10174761712551117f, 2.063739061355591f, -1.1365898847579956f, 0.7006946802139282f, 1.2954086065292358f, 0.060731276869773865f, 1.9661221504211426f, -0.38903263211250305f, 0.36897361278533936f, -0.5201592445373535f, -0.5527482628822327f, 1.2213683128356934f, -0.5214722752571106f, 0.33922624588012695f, -0.0931972935795784f, 1.115221619606018f, -1.2905256748199463f, 2.3256797790527344f, 1.3938777446746826f, -0.36375701427459717f, 2.1162397861480713f, -2.792187452316284f, -0.2827967405319214f, 3.2071592807769775f, -0.07062551379203796f, -1.363627314567566f, 2.2207202911376953f, -3.3458878993988037f, -0.2086109220981598f, 1.199161171913147f, -1.7557847499847412f, 3.062265157699585f, -2.1415326595306396f, 0.8477464318275452f, 0.2352932095527649f, -4.783834457397461f, 2.1388332843780518f, 2.5384981632232666f, -0.7303155064582825f, 0.43707311153411865f, 1.0134447813034058f, 3.7076222896575928f, -1.8872339725494385f, -0.7159239649772644f, -1.2732588052749634f, -2.007585287094116f, -1.6994980573654175f, -1.441265344619751f, -1.7559515237808228f, -0.5706188082695007f, 0.08201761543750763f, -0.6428834795951843f, 2.7692298889160156f, -0.6321030259132385f, 0.11449512094259262f, -0.7940127849578857f, 1.159911036491394f, -1.9746567010879517f, -1.6432181596755981f, 1.555579423904419f, 0.8543785214424133f, -1.5758118629455566f, 1.248292326927185f, 1.1436498165130615f, -0.49957147240638733f, 0.7491657733917236f, -2.715827465057373f, -1.881883978843689f, 1.2334774732589722f, 2.9453091621398926f, 1.827072262763977f, 0.5849515199661255f, 0.9015336036682129f, -0.9740893840789795f, 1.4297161102294922f, 0.5486459732055664f, 0.11252854019403458f, -0.24475064873695374f, -1.182262659072876f, -1.2290881872177124f, 0.33019497990608215f, 0.09534252434968948f, 2.06968355178833f, -1.3439127206802368f, 2.754460573196411f, 3.0341567993164062f, -0.3998362421989441f, 0.7283856868743896f, 1.7934324741363525f, 2.438222646713257f, -1.3409230709075928f, -1.5199613571166992f, -3.561406135559082f, -2.2717690467834473f, -1.847139596939087f, -0.8422033786773682f, -1.0546181201934814f, -1.5884886980056763f, -4.0398945808410645f, 1.1618319749832153f, 2.9957258701324463f, 1.325917363166809f, 1.980072259902954f, -1.136284351348877f, 0.12359998375177383f, -0.9515194296836853f, -0.7942765951156616f, 0.9416054487228394f, -1.3201717138290405f, 1.6712123155593872f, -0.8126053214073181f, -0.21830318868160248f };
alignas(16) float separable_conv2d_4_WEIGHTS[] = { 0.019483214244246483f, -0.007274248171597719f, 0.06969507783651352f, 0.026150386780500412f, -0.0006295156199485064f, -0.019198525696992874f, -0.012455512769520283f, -0.07640619575977325f, 0.03241327032446861f, -0.011252890340983868f, 0.038571350276470184f, -0.016595996916294098f, -0.020852437242865562f, 0.04120424762368202f, 0.015552530065178871f, 0.098661407828331f, -0.04746709391474724f, 0.025788985192775726f, 0.006491873413324356f, 0.008423743769526482f, -0.07207454741001129f, 0.060639988631010056f, -0.018999025225639343f, -0.03343362733721733f, -0.09203610569238663f, 0.011698916554450989f, 0.046509433537721634f, 0.028179846704006195f, -0.02791571244597435f, -0.0613834373652935f, 0.007050893735140562f, 0.045354247093200684f, 0.0006625860696658492f, -0.012634042650461197f, -0.0635531023144722f, -0.06322375684976578f, -0.030979877337813377f, -0.01540165301412344f, 0.035811539739370346f, 0.049865540117025375f, -0.06887388229370117f, -0.03876377269625664f, 0.0006427992484532297f, 0.023715423420071602f, -0.007712595164775848f, 0.032917991280555725f, -0.0006087634828872979f, -0.015751749277114868f, 0.04907109960913658f, -0.016346434131264687f, 0.06442540138959885f, -0.0038047439884394407f, -0.0367521308362484f, 0.03751300275325775f, -0.006475651636719704f, 0.04052263870835304f, -0.0076262373477220535f, 0.02170267514884472f, 0.04875500872731209f, -0.016426945105195045f, 0.02133970335125923f, -0.09052267670631409f, 0.01857857219874859f, 0.012101242318749428f, 0.011481821537017822f, 0.013632717542350292f, 0.02155337482690811f, -0.023582251742482185f, -0.043996307998895645f, 0.023065932095050812f, 0.01796562969684601f, -0.007609803229570389f, 0.036228541284799576f, -0.005123508162796497f, 0.03843829035758972f, 0.02986542135477066f, 0.032200150191783905f, -0.07380763441324234f, 0.03831266611814499f, 0.015722937881946564f, 0.015426255762577057f, -0.00044262385927140713f, 0.08598090708255768f, -0.02549804002046585f, -0.051034338772296906f, 0.006510911975055933f, -0.0350760854780674f, 0.0502920001745224f, 0.052956778556108475f, -0.015445807948708534f, -0.06083618849515915f, -0.050040844827890396f, 0.007641494274139404f, 0.011046134866774082f, -0.0030401754193007946f, 0.05600608140230179f, 0.00034059377503581345f, 0.008720671758055687f, 0.007433442864567041f, 0.053638651967048645f, -0.058529071509838104f, 0.020827550441026688f, -0.013632822781801224f, -0.08848732709884644f, -0.02725900337100029f, -0.01918810047209263f, -0.011157839559018612f, -0.01224435679614544f, -0.020908767357468605f, 0.053424667567014694f, 0.03905298560857773f, 0.02374245412647724f, -0.03028288297355175f, 0.016069043427705765f, -0.0446055643260479f, 0.04609428718686104f, 0.028533753007650375f, 0.03585138916969299f, 0.009706234559416771f, 0.03839372098445892f, -0.022195516154170036f, -0.013991333544254303f, -0.11040129512548447f, -0.034584835171699524f, 0.025572625920176506f, 0.00793677568435669f, 0.04650546982884407f, -0.043819524347782135f, 0.014650181867182255f, -0.06303749978542328f, 0.058135904371738434f, -0.007676453795284033f, -0.00027078966377303004f, -0.011674010194838047f, 0.023492004722356796f, 0.007910520769655704f, -0.003854878479614854f, 0.008832463063299656f, 0.0033832204062491655f, 0.01177751924842596f, -0.0014596502296626568f, -0.018454773351550102f, -0.025815162807703018f, -0.06468889117240906f, 0.06548163294792175f, -0.008481629192829132f, -0.02561548538506031f, -0.025107959285378456f, 0.01105128787457943f, -0.1497529298067093f, -0.033349983394145966f, 0.04413092881441116f, 0.048671428114175797f, -0.06915319710969925f, -0.05600893124938011f, 0.008562177419662476f, -0.04377753660082817f, 0.061316899955272675f, -0.026025572791695595f, -0.03194146603345871f, -0.023461099714040756f, -0.02636653371155262f, -0.01095087081193924f, 0.04247821122407913f, -0.04389059171080589f, -0.018654970452189445f, -0.0533130057156086f, 0.05258753150701523f, 0.013333979994058609f, 0.0019292077049613f, -0.03928566351532936f, 0.054205913096666336f, 0.056668125092983246f, -0.017439763993024826f, -0.05193840339779854f, -0.0038594845682382584f, 0.025904042646288872f, 0.029103828594088554f, 0.06858065724372864f, 0.010901530273258686f, 0.03578916937112808f, -0.07025354355573654f, -0.02185540460050106f, -0.05114714801311493f, -0.01062824111431837f, -0.010370569303631783f, -0.012798172421753407f, 0.04050116240978241f, -0.06570273637771606f, -0.027003692463040352f, 0.04748263582587242f, -0.01188339851796627f, 0.016974300146102905f, 0.023447932675480843f, -0.02948606386780739f, 0.012630763463675976f, 0.05467981472611427f, -0.021206391975283623f, -0.03509167581796646f, 0.032191790640354156f, -0.03432856872677803f, -0.008381659165024757f, -0.053135890513658524f, -0.014087268151342869f, 0.014952166937291622f, 0.00034987099934369326f, -0.05454162880778313f, -0.05444655939936638f, -0.07003466784954071f, -0.05248119309544563f, 0.0002279444015584886f, -0.05172370746731758f, 0.031298499554395676f, -0.031087584793567657f, 0.02428167685866356f, -0.01238266658037901f, 0.02447773888707161f, -0.028662409633398056f, -0.04288864508271217f, -0.006870809476822615f, 0.021180052310228348f, 0.07855793088674545f, 0.0392083041369915f, 0.020823633298277855f, 0.008397100493311882f, -0.05092807486653328f, -0.019922060891985893f, -0.021499598398804665f, 0.02551916614174843f, 0.054770562797784805f, -0.004771515727043152f, -0.06282425671815872f, 0.027370722964406013f, -0.01424972340464592f, 0.011457911692559719f, 0.024376453831791878f, -0.013891163282096386f, 0.06291180104017258f, 0.019886409863829613f, 0.03455875441431999f, -0.035369873046875f, -0.039271071553230286f, 0.0064515117555856705f, 0.08058837801218033f, 0.013238465413451195f, -0.02163919061422348f, 0.011761026456952095f, -0.005503685213625431f, 0.014994926750659943f, -0.01487997267395258f, -0.01234219316393137f, -0.12211639434099197f, -0.038827117532491684f, -0.005814714357256889f, -0.02959265373647213f, 0.05497216805815697f };
alignas(16) float separable_conv2d_4_BIAS[] = { 3.0139787197113037f, -1.3971498012542725f, 1.6184732913970947f, 1.1423488855361938f, 8.031357765197754f, -2.7185795307159424f, 2.2554709911346436f, -4.43881368637085f };
alignas(16) float conv2d_4_WEIGHTS[] = { 0.06452422589063644f, 0.7438360452651978f, -0.07988999038934708f, -0.28222644329071045f, 0.47505679726600647f, -0.15017923712730408f, -0.05609937757253647f, -0.42114201188087463f, 0.8038700819015503f, 0.6360090970993042f, 0.4980124533176422f, -0.3269587457180023f, 0.03783635050058365f, -0.09757550060749054f, -0.3345479369163513f, -0.775078535079956f, -0.991312563419342f, 0.093254454433918f, -0.2382061928510666f, -0.8130069971084595f, -0.11661481857299805f, -0.31251755356788635f, 0.008587151765823364f, -0.2652722895145416f, -0.42055997252464294f, 0.08927122503519058f, 0.5078486204147339f, -0.15670648217201233f, -0.8558276891708374f, 0.7885652780532837f, 0.2591552436351776f, 0.3755510747432709f, 0.2662624716758728f, 0.32583552598953247f, 0.26972872018814087f, -0.2988003194332123f, -0.419013649225235f, 0.5794609785079956f, -0.14833658933639526f, 0.23479223251342773f, 0.171641543507576f, 0.531955897808075f, 0.0046251858584582806f, 0.9944291114807129f, 0.9799290299415588f, 0.5348093509674072f, 0.4420257806777954f, -0.06610602140426636f, 0.17061670124530792f, 0.25519877672195435f, 1.2689214944839478f, 0.08185714483261108f, 0.3320549428462982f, -0.984671413898468f, -0.07687285542488098f, -0.49417418241500854f, 0.183382049202919f, -0.843322217464447f, -0.27660056948661804f, -0.3131849467754364f, 0.4275415241718292f, -0.468191534280777f, -0.07784423232078552f, -0.5049428939819336f, -0.16776569187641144f, -0.17250341176986694f, 0.370532363653183f, -0.2561179995536804f, 0.23889870941638947f, 0.7918692827224731f, 0.5199804306030273f, -0.17444553971290588f, -0.5090351700782776f, 0.18623968958854675f, -0.4853353798389435f, -0.6929147839546204f, -0.4132937788963318f, -0.6800163388252258f, 0.6959425210952759f, -0.13282623887062073f, 0.006355856545269489f, -0.003742523957043886f, 0.11297789216041565f, -0.7978666424751282f, -0.4687829315662384f, 0.5299518704414368f, -0.3015640079975128f, -0.29279956221580505f, -0.5288418531417847f, 0.2696566879749298f, -0.43242350220680237f, 0.3042885959148407f, -0.593472957611084f, -0.19118300080299377f, -0.4781113862991333f, 0.44695788621902466f, -0.293018639087677f, -0.34323862195014954f, -0.01569516398012638f, -0.0368674099445343f, 0.035709578543901443f, 0.3005800247192383f, 0.21546073257923126f, -0.08071925491094589f, -0.20929870009422302f, -0.4266551434993744f, 1.2810481786727905f, -0.32494035363197327f, 0.12571829557418823f, -0.5772327780723572f, -0.10662556439638138f, -0.3122174143791199f, -0.25216662883758545f, 0.0976882055401802f, 0.5459908246994019f, 0.06579125672578812f, -0.08427344262599945f, 0.11514091491699219f, -0.6012606620788574f, -0.032005298882722855f, 0.35981160402297974f, -0.24324099719524384f, -0.538094162940979f, -0.28985145688056946f, 0.8169755935668945f, -0.5908269286155701f, 0.5308608412742615f, 0.10704955458641052f };
alignas(16) float conv2d_4_BIAS[] = { 4.131868839263916f, -1.3873142004013062f, -5.652911186218262f, 6.536836624145508f, -1.0655879974365234f, -4.936095714569092f, -0.9585414528846741f, 6.920412063598633f, -0.4949467182159424f, -1.345623254776001f, 1.4717472791671753f, 3.575042486190796f, 0.2218380719423294f, 3.726598024368286f, -4.458025932312012f, 2.9941470623016357f };
alignas(16) float separable_conv2d_5_depthwise_WEIGHTS[] = { -3.5052804946899414f, -0.31009894609451294f, 0.7111430168151855f, -0.37739014625549316f, -1.6279881000518799f, 1.7139921188354492f, 0.8496330976486206f, -1.7917864322662354f, 0.16429312527179718f, 2.82340145111084f, -0.5602366924285889f, 0.0855659544467926f, -2.1664223670959473f, -1.7983871698379517f, -2.1973493099212646f, 1.1054352521896362f, -1.2873746156692505f, 0.34730783104896545f, 2.930185556411743f, -0.5859419703483582f, -0.47642651200294495f, -1.6135661602020264f, -3.1147384643554688f, -2.445711135864258f, -0.33024853467941284f, 4.078649997711182f, -2.2905163764953613f, -1.3802772760391235f, 2.1647634506225586f, -3.1626250743865967f, 1.763065218925476f, -2.626098394393921f, 1.3367531299591064f, -0.08871855586767197f, 0.1077643409371376f, -0.2013247013092041f, -1.186095118522644f, -0.8936187028884888f, 1.494220495223999f, 3.506836175918579f, 0.2782991826534271f, -0.09150458127260208f, 0.13185471296310425f, -2.4617857933044434f, 2.4073383808135986f, -2.0664031505584717f, -2.654749631881714f, -1.0704716444015503f, 2.920839548110962f, 1.5558528900146484f, -0.13001585006713867f, 2.996131181716919f, -0.7588136792182922f, 3.3307836055755615f, -3.216562509536743f, 0.5103942155838013f, 2.6278233528137207f, 0.7604369521141052f, -3.4824535846710205f, 0.5538151264190674f, 0.5016395449638367f, 0.09406131505966187f, -2.513962984085083f, 2.1174278259277344f, -0.5957897305488586f, 0.3462281823158264f, -2.1312527656555176f, 0.4208339750766754f, -2.1805505752563477f, 1.8684312105178833f, 0.4629785418510437f, 0.8193234205245972f, 0.001236453652381897f, 2.859313488006592f, 0.5503188371658325f, 1.9182127714157104f, 0.03986361622810364f, -3.1295011043548584f, 1.1006907224655151f, 1.4255179166793823f, -2.516328811645508f, 3.3687891960144043f, -0.15468065440654755f, 0.23437251150608063f, -0.7158797383308411f, -4.089247226715088f, 0.19881455600261688f, -0.011016384698450565f, -1.048089861869812f, 1.9746627807617188f, -1.441890001296997f, 1.623724102973938f, 0.659187376499176f, -0.6605521440505981f, 2.4877727031707764f, -3.6645498275756836f, 2.8504152297973633f, 1.929324746131897f, 1.3218227624893188f, -0.6953525543212891f, -2.68076753616333f, 0.08286385983228683f, 1.5180425643920898f, 2.7082438468933105f, -0.29842904210090637f, -0.2838408946990967f, 0.0033816827926784754f, -0.8104256987571716f, 2.6647257804870605f, -2.4663989543914795f, -3.0800342559814453f, -1.2661198377609253f, -0.1073450818657875f, 1.0289288759231567f, -2.2807271480560303f, 2.0781197547912598f, 0.3384469747543335f, 2.451687812805176f, 0.8741421699523926f, -1.1156256198883057f, 2.987971782684326f, -0.38629695773124695f, -0.40037402510643005f, 0.6131168603897095f, -2.1982641220092773f, -0.013880431652069092f, 0.270192950963974f, 1.224388837814331f, 0.9828166365623474f, 0.14855839312076569f, -0.3008553981781006f, -1.145631194114685f, -1.4944006204605103f, 1.4077693223953247f, 1.3621615171432495f, -0.3435654640197754f, -1.3775255680084229f, 1.1739144325256348f, -2.713552474975586f, -0.3768728971481323f, -2.2197647094726562f, -1.720730185508728f, 1.5712080001831055f, -0.8272654414176941f, -1.5406064987182617f, 0.9353013634681702f, 0.45845457911491394f, 0.7047691345214844f, -2.931375026702881f, -2.4600865840911865f, 2.2529046535491943f, -1.4087098836898804f, -2.428396463394165f, 2.2280170917510986f, 1.4742704629898071f, -0.4990805387496948f, 0.9881224632263184f, -0.20162270963191986f, 1.9527239799499512f, -1.983113408088684f, 2.7587976455688477f, -0.09773869812488556f, -0.343972772359848f, 0.770476222038269f, -3.4293622970581055f, -0.6077002286911011f, 0.5440202951431274f, 1.3869457244873047f, -2.258945941925049f, 1.4085501432418823f, 2.2759387493133545f, -0.7122079133987427f, 3.1757593154907227f, -1.0474672317504883f, 1.5873674154281616f, -2.462801694869995f, -1.2075119018554688f, 0.5939399600028992f, -0.851912796497345f, 2.6207008361816406f, 0.10855885595083237f, 2.9062323570251465f, 1.7640786170959473f, 0.622346043586731f, 2.958475112915039f, -1.9711805582046509f, 1.39749014377594f, 0.8569645881652832f, 3.043846368789673f, 0.8361638188362122f, -1.7446448802947998f, 2.550569534301758f, -0.3230951726436615f, 1.7977008819580078f, 1.0483319759368896f, 0.18745698034763336f, -1.3049867153167725f, -0.6048015356063843f, -1.4311401844024658f, -1.5483670234680176f, -0.19250750541687012f, -0.45402106642723083f, 0.1698150783777237f, 3.438084125518799f, 0.8022351264953613f, -1.032208800315857f, 0.011218604631721973f, 1.2182186841964722f, 1.5857939720153809f, -0.4393295645713806f, 2.2848947048187256f, 1.4168201684951782f, 0.21266445517539978f, 0.3240349590778351f, -1.9344542026519775f, 0.7261732816696167f, 0.970272958278656f, 0.6436184644699097f, -1.283249020576477f, 0.31017324328422546f, 3.171489953994751f, -1.6721113920211792f, -2.9016427993774414f, 0.9305906891822815f, 2.635066032409668f, -1.2850489616394043f, 1.4107699394226074f, -4.183760643005371f, 0.7290058732032776f, 0.6492540240287781f, 0.23303714394569397f, 2.0582523345947266f, 0.2051883339881897f, 1.239949345588684f, -1.564526081085205f, -0.3834347724914551f, 1.444972038269043f, 1.6201915740966797f, -1.7006957530975342f, 1.3455535173416138f, 4.017323970794678f, 1.5175890922546387f, -0.5070710778236389f, -1.687225580215454f, 1.9774689674377441f, 1.2285557985305786f, -1.6306250095367432f, 0.3122185468673706f, 0.13195253908634186f, -1.5741006135940552f, -1.212918758392334f, -2.0272433757781982f, -1.8842493295669556f, -0.17680096626281738f, 0.009419755078852177f, 2.2431321144104004f, -0.17751166224479675f, 1.1323118209838867f, -2.4627435207366943f, 0.2951948642730713f, -1.0098758935928345f, 0.3427474796772003f, -1.4192792177200317f, 2.2019121646881104f, 0.03940195590257645f, -1.5275471210479736f, -2.3005731105804443f, 2.5874576568603516f, 2.606403112411499f, -2.0160515308380127f, -0.005722173489630222f, 1.0009806156158447f, 0.7296555638313293f, 1.1777235269546509f, 1.2212997674942017f, 2.273977041244507f, -0.8380758762359619f, -0.7683720588684082f, -0.3644992709159851f, 2.1866819858551025f, 0.1553814709186554f, 0.4240960478782654f, 2.3788278102874756f, -0.5356194376945496f, 2.1958258152008057f, -0.19476230442523956f, -2.7253825664520264f, -0.8903874754905701f, 3.03058123588562f, -5.263023853302002f, -1.3899354934692383f, -2.5386791229248047f, -1.0694913864135742f, -0.49002349376678467f, -0.3764874041080475f, 1.7005645036697388f, 1.4001686573028564f, 0.4081076979637146f, 0.45690470933914185f, -1.5502333641052246f, 1.4564577341079712f, 2.510336399078369f, -1.361688256263733f, 0.7276411056518555f, 0.5158937573432922f, 1.4365417957305908f, -1.860796332359314f, -1.1624314785003662f, 2.2580482959747314f, 0.811722993850708f, 1.1515460014343262f, -0.65665602684021f, 1.7271429300308228f, 2.1179189682006836f, 1.4964410066604614f, -1.2465436458587646f, -0.7085688710212708f, 1.2955893278121948f, 1.4466062784194946f, 1.6399493217468262f, -0.6554232239723206f, 0.28828972578048706f, 1.7824556827545166f, -0.6156852841377258f, -1.7702715396881104f, -2.6473441123962402f, 0.5296773910522461f, 0.8251696825027466f, -2.034626007080078f, -0.6050838232040405f, -0.2600941061973572f, 0.9840983748435974f, -0.38797450065612793f, -1.005201816558838f, 1.4490171670913696f, 1.0986348390579224f, -1.3470470905303955f, 0.16852545738220215f, 0.3078501522541046f, -0.3880872428417206f, 0.4460238218307495f, -1.0750272274017334f, 0.865293562412262f, 1.9991122484207153f, -0.5555384159088135f, 1.4608426094055176f, 0.6442956924438477f, 1.2392278909683228f, 1.1821881532669067f, 1.348291277885437f, -1.4312418699264526f, -1.2846757173538208f, 4.516401290893555f, 0.3112221956253052f, -0.9661534428596497f, -0.8594771027565002f, 0.009351104497909546f, -1.1853681802749634f, -1.3091466426849365f, 1.9512815475463867f, -0.710463285446167f, 1.9703038930892944f, 1.1595282554626465f, -2.0759875774383545f, 1.908671498298645f, 2.2614803314208984f, 2.077578067779541f, -0.7140903472900391f, -0.7217109203338623f, 1.0638060569763184f, -1.7271101474761963f, -1.8724329471588135f, 1.2368687391281128f, 2.3167724609375f, 1.2186169624328613f, 1.5172866582870483f, 0.3216521739959717f, 0.6979479193687439f, 3.2295777797698975f, 0.34490126371383667f, 1.125335693359375f, 1.4189751148223877f, 1.415069580078125f, 0.9737157821655273f, 1.4031925201416016f, 1.5448651313781738f, 0.20925185084342957f, 5.366150856018066f, -0.6027255654335022f, -0.7641802430152893f, 0.41330933570861816f, -0.812014639377594f, 2.5304040908813477f, 0.6996742486953735f, -0.4756470322608948f, 0.6198514699935913f, -0.8551172614097595f, -0.6892600655555725f, -0.7572776675224304f, -3.3649721145629883f, -1.278398036956787f, -0.8326779007911682f, 2.446787118911743f, 2.6031806468963623f, -0.1405973881483078f, 1.7728828191757202f, -2.3422610759735107f, -1.3031938076019287f, 1.1612807512283325f, 1.7238367795944214f, 0.8117697238922119f, -2.6713688373565674f, 2.8453400135040283f, -0.0586848109960556f, 1.9440116882324219f, 1.0024117231369019f, 1.2736107110977173f, 1.2806252241134644f, 0.5697606205940247f, -4.84656286239624f, 2.1800293922424316f, -0.05069275572896004f, 0.8194566369056702f, 0.9955657720565796f, -0.6673928499221802f, 2.414405584335327f, -0.4925192892551422f, 0.18395011126995087f, -1.3546512126922607f, 1.6155550479888916f, -2.8608386516571045f, 0.008297513239085674f, 3.4135191440582275f, -3.257507562637329f, -0.8966005444526672f, -0.2979539632797241f, 3.554377317428589f, -0.3411637842655182f, -1.7900104522705078f, 1.260321855545044f, -0.9862643480300903f, -2.3611886501312256f, 0.8148470520973206f, 0.11340197920799255f, -2.9280951023101807f, -0.5865259170532227f, -1.2807286977767944f, -0.5248891115188599f, -0.46428126096725464f, -1.2822086811065674f, 0.08923797309398651f, 2.9537603855133057f, 0.6304956078529358f, 1.4563385248184204f, -0.37677809596061707f, 4.128081321716309f, 1.209622859954834f, -0.9812038540840149f, -2.8519537448883057f, 1.7070566415786743f, -0.48705825209617615f, -1.5162978172302246f, -1.6504004001617432f, -3.6826822757720947f, -0.7763208150863647f, -1.4239593744277954f, -1.2747541666030884f, 1.714098572731018f, -2.0099942684173584f, 0.25992509722709656f, -0.9966153502464294f, 0.830971360206604f, -1.4548527002334595f, 0.5102634429931641f, -0.24555452167987823f, -1.9423003196716309f, 1.2840576171875f, 2.211754560470581f, 1.502617597579956f, 0.3923414349555969f, 0.6573562622070312f, 0.5508577227592468f, -1.6313581466674805f, -2.7308526039123535f, 0.14377042651176453f, 0.8642686009407043f, 1.2789769172668457f, 1.1005923748016357f, 0.4391440451145172f, 1.6013880968093872f, -2.1652023792266846f, 1.4770539999008179f, -1.4704166650772095f, 2.4394888877868652f, -2.9790215492248535f, -2.268260955810547f, 0.3425634503364563f, -2.365485906600952f, -1.6487005949020386f, -0.6367309093475342f, 3.4448153972625732f, -0.6535109877586365f, -0.5174313187599182f, -0.3417726457118988f, 0.8280425071716309f, -2.452852487564087f, 0.4722440242767334f, -2.3159127235412598f, -2.384512424468994f, 2.463078022003174f, 0.18899142742156982f, -1.721315622329712f, -1.22493314743042f, -2.556112289428711f, 0.5084219574928284f, 0.9086924195289612f, -1.6905561685562134f, -0.8518974184989929f, 4.773860931396484f, 0.5448353290557861f, 1.0061366558074951f, 0.04645277559757233f, -3.0001657009124756f, -1.0266441106796265f, -0.5834593176841736f, -1.939898133277893f, -0.8256855010986328f, -1.6082684993743896f, -1.47538161277771f, -2.1805179119110107f, 2.0677602291107178f, -0.7429908514022827f, -1.6367148160934448f, 2.096390962600708f, 0.22738495469093323f, 0.4757618010044098f, -1.7269359827041626f, -0.8367882966995239f, -1.1047152280807495f, -0.6503949165344238f, 1.6928555965423584f, 1.5410947799682617f, -1.4950133562088013f, -1.4593958854675293f, 1.6617060899734497f, 1.6571757793426514f, -2.029662609100342f, -2.071434497833252f, -0.5169157981872559f, 2.2526915073394775f, -1.4361563920974731f, 1.1295506954193115f, 2.8687870502471924f, 4.289676189422607f, 1.9216511249542236f, 1.4585528373718262f, -1.4891437292099f, 1.3710532188415527f, 0.15393124520778656f, -1.5508800745010376f, -0.5812798142433167f, -2.3905253410339355f, -1.0796436071395874f, 0.1020975336432457f, 3.100883722305298f, -1.610037922859192f, -1.6379122734069824f, -4.094357967376709f, -1.7375959157943726f, 0.034543927758932114f, -0.7804356217384338f, -2.622403860092163f, 1.851251482963562f, 2.0679426193237305f, -2.0309364795684814f, -0.6401943564414978f };
alignas(16) float separable_conv2d_5_WEIGHTS[] = { -0.0032657261472195387f, -0.005471993237733841f, 0.007706088945269585f, 0.026176560670137405f, -0.014695292338728905f, -0.0072092292830348015f, 0.021964719519019127f, 0.010836829431355f, 0.04205502197146416f, -0.022224145010113716f, -0.03600332513451576f, 0.028831150382757187f, 0.0486641451716423f, 0.03898477181792259f, -0.012307724915444851f, -0.006138325668871403f, -0.007969123311340809f, -0.006890475749969482f, 0.014080808497965336f, -0.0553397461771965f, -0.002359227742999792f, 0.005408463533967733f, 0.03267902880907059f, -0.004206457640975714f, 0.00018770655151456594f, 0.010352123528718948f, -0.012271086685359478f, -0.012762335129082203f, -0.013170549646019936f, 0.04459540918469429f, -0.026849444955587387f, -0.029658623039722443f, 0.027745738625526428f, -0.021479681134223938f, 0.01524093933403492f, -0.006445692386478186f, 0.007165986578911543f, -0.005821137223392725f, 0.015803024172782898f, 0.020879030227661133f, -0.020791392773389816f, 0.017966782674193382f, -0.05242514982819557f, 0.0026430520229041576f, 0.012758792378008366f, -0.02422160468995571f, -0.05586230009794235f, 0.02384389564394951f, 0.024242334067821503f, 0.003797425189986825f, -0.006457676645368338f, -0.01981700398027897f, -0.029162321239709854f, -0.02277732826769352f, 0.03772999346256256f, -0.05524954944849014f, -0.029181737452745438f, 0.031634822487831116f, 0.032163869589567184f, 0.05619430914521217f, 0.04465939477086067f, -0.02023359015583992f, -0.018391814082860947f, 0.035759951919317245f, 0.003434498095884919f, -0.004610699135810137f, -0.03311103954911232f, 0.014190173707902431f, 0.008481508120894432f, 0.05013802647590637f, -0.0027246098034083843f, 0.04170144349336624f, -0.012762583792209625f, -0.03486723452806473f, -0.023765310645103455f, 0.004609495867043734f, -0.03405306488275528f, -0.027448488399386406f, -0.011081116273999214f, -0.030757874250411987f, 0.0262901708483696f, -0.005196013487875462f, 0.022569922730326653f, -0.0044719744473695755f, -0.02355068363249302f, -0.06023114547133446f, 0.023765897378325462f, -0.044391386210918427f, -0.021945804357528687f, 0.011187858879566193f, -0.03796781226992607f, 0.019214564934372902f, -0.008117759600281715f, -0.008541036397218704f, -0.012273559346795082f, 0.02203112281858921f, -0.038004521280527115f, 0.03161986544728279f, 0.0001614033244550228f, 0.01605231501162052f, -0.028711190447211266f, -0.028980925679206848f, -0.014295920729637146f, -0.028703927993774414f, 0.021169032901525497f, 0.006098887883126736f, 0.04420960322022438f, 0.039911337196826935f, 0.027292579412460327f, -0.02719477377831936f, -0.020381389185786247f, 0.03259817138314247f, -0.018159177154302597f, 0.0667455792427063f, 0.009540284983813763f, 0.022362936288118362f, 0.01740606501698494f, -0.007291398011147976f, 0.003932860679924488f, -0.02755705453455448f, 0.04988539591431618f, 0.009361418895423412f, -0.04978812485933304f, -0.0033227973617613316f, -0.02363298274576664f, -0.00588060962036252f, 0.013179748319089413f, -0.004213070031255484f, 0.032795555889606476f, -0.026896320283412933f, 0.007019999902695417f, 0.008452581241726875f, 0.012698246166110039f, -0.0003051311941817403f, -0.04898533225059509f, 0.010811069048941135f, 0.018492907285690308f, 0.03581421449780464f, -0.025123385712504387f, -0.025428378954529762f, 0.012861855328083038f, 0.007857116870582104f, 0.024809308350086212f, -0.01129278913140297f, 0.014187839813530445f, 0.04042606055736542f, -0.051595333963632584f, 0.004338821861892939f, -0.024641627445816994f, -0.03420823812484741f, 0.010735729709267616f, 0.02805325761437416f, -0.05484117940068245f, -0.01099206879734993f, -0.007852180860936642f, -0.0044755758717656136f, 0.004290862940251827f, -0.01750323735177517f, 0.015774590894579887f, -0.019660726189613342f, -0.008626277558505535f, -0.03840942308306694f, 0.020324578508734703f, 0.04834319278597832f, -0.02896084450185299f, -0.0014649610966444016f, 0.017790457233786583f, 0.004050961695611477f, -0.019699543714523315f, -0.019140150398015976f, -0.0032687317579984665f, 0.006336064077913761f, -0.05186690762639046f, 0.011565528810024261f, 0.09219633787870407f, 0.006651373580098152f, 0.002900312654674053f, 0.027982112020254135f, -0.006151759531348944f, -0.0357523150742054f, -0.0012927872594445944f, -0.05584752559661865f, -0.06257390230894089f, -0.015921227633953094f, -0.012086943723261356f, 0.009592434391379356f, -0.003579073818400502f, 0.03336022049188614f, 0.04512443393468857f, 0.0057555255480110645f, -0.016744600608944893f, 0.048838384449481964f, -0.02036137320101261f, -0.010474706068634987f, -0.008996817283332348f, 0.030831705778837204f, 0.012143506668508053f, -0.019280293956398964f, 0.01784052513539791f, 0.032859448343515396f, -0.018828989937901497f, -0.019237929955124855f, -0.021508021280169487f, -0.04236418381333351f, -0.03227367624640465f, -0.012076721526682377f, -0.063336081802845f, -0.03836294263601303f, 0.006845561321824789f, -0.008116037584841251f, 0.00600871117785573f, 0.033340390771627426f, 0.05894152447581291f, 0.024971352890133858f, -0.019765803590416908f, 0.021029191091656685f, -0.003682562615722418f, 0.02785106934607029f, -0.009702485986053944f, 0.037192583084106445f, 0.012192336842417717f, -0.02825511433184147f, -0.06828160583972931f, -0.030136696994304657f, 0.010331187397241592f, -0.03805118426680565f, 0.0560874380171299f, -0.017909497022628784f, 0.013686984777450562f, 0.0022051441483199596f, 0.007087047677487135f, -0.004080971237272024f, -0.03884236514568329f, 0.014370545744895935f, -0.019707297906279564f, 0.01509789377450943f, -0.010548035614192486f, -0.0024263823870569468f, 0.03002600558102131f, 0.016808949410915375f, -0.017122328281402588f, -0.0786379873752594f, 0.012879392132163048f, -0.026045840233564377f, 0.011728964745998383f, 0.031405869871377945f, 0.047100018709897995f, 0.05406473949551582f, 0.0007588236476294696f, 0.0024415957741439342f, 0.017315739765763283f, -0.040735792368650436f, 0.004164055921137333f, 0.01503162644803524f, 0.019017454236745834f, 0.007695272099226713f, 0.003913612570613623f, 0.0208428967744112f, 0.020734773948788643f, 0.03503752127289772f, -0.0027834803331643343f, -0.02455149032175541f, 0.027720142155885696f, 0.010880672372877598f, 0.024050407111644745f, -0.012882666662335396f, 0.011985691264271736f, -0.030932148918509483f, -0.006184630561619997f, 0.03214898332953453f, -0.08315332978963852f, 0.007389489095658064f, -0.008266921155154705f, -0.017329350113868713f, 0.00016368762589991093f, -0.0247834213078022f, -0.005470901727676392f, 0.047989606857299805f, 0.002417326904833317f, -0.035576190799474716f, -0.03186524286866188f, 0.026377765461802483f, -0.017004862427711487f, -0.025892358273267746f, -0.06390585005283356f, -0.01551818661391735f, -0.00897791888564825f, -0.020568765699863434f, -0.019974766299128532f, -0.029407935217022896f, 0.02860073931515217f, -0.005611603148281574f, -0.02431557886302471f, -0.03723819926381111f, -0.02852684259414673f, -0.005769682116806507f, -0.0036317300982773304f, 0.036068398505449295f, 0.017273960635066032f, -0.010649798437952995f, 0.006440437398850918f, -0.016227703541517258f, 0.08364851772785187f, -0.0027653865981847048f, -0.020650403574109077f, -0.006588486488908529f, -0.0170854814350605f, 0.04600091651082039f, -0.003557214979082346f, -0.032608527690172195f, -0.029233114793896675f, -0.02596963569521904f, 0.032731521874666214f, 0.004507167264819145f, -0.0030952198430895805f, 0.007458647713065147f, -0.02889203280210495f, -0.0014225399354472756f, 0.08987416326999664f, -0.005242307670414448f, 0.01140966359525919f, 0.009606944397091866f, -0.010955982841551304f, 0.02097379043698311f, 0.020837342366576195f, 0.008594359271228313f, 0.03501098230481148f, -0.014831551350653172f, 0.03324202820658684f, -0.0015409316401928663f, -0.016344496980309486f, 0.06238945946097374f, 0.03247256204485893f, 0.021258695051074028f, -0.040087733417749405f, -0.026986459270119667f, -0.01608084887266159f, 0.01704283244907856f, 0.007243708707392216f, 0.06294861435890198f, 0.02647152915596962f, -0.03613412380218506f, -0.026573043316602707f, -0.03962542489171028f, -0.01660064049065113f, 0.029450340196490288f, 0.02037712186574936f, 0.04752727970480919f, -0.01920372247695923f, 0.03256065025925636f, -0.0671657845377922f, -0.006322117056697607f, -0.030939510092139244f, -0.021909188479185104f, -0.011057819239795208f, 0.06721826642751694f, 0.0028124332893639803f, 0.004648766480386257f, 0.01194934081286192f, 0.027328645810484886f, 0.020055918022990227f, 0.0020558913238346577f, -0.055364638566970825f, 0.0029079169034957886f, -0.015599684789776802f, 0.04335247352719307f, 0.06206315755844116f, -0.02413571998476982f, 0.03879247605800629f, 0.025493094697594643f, 0.030174657702445984f, 0.014455996453762054f, -0.0064426870085299015f, -0.026167333126068115f, -0.048356831073760986f, 0.027043798938393593f, 0.0162468571215868f, -0.014731531031429768f, -0.006860638502985239f, 0.0004181943368166685f, 0.010545769706368446f, 0.020551498979330063f, 0.07126236706972122f, -0.006726264022290707f, 0.033860430121421814f, -0.0059783621691167355f, -0.012386048212647438f, -0.0368390753865242f, 0.016250625252723694f, 0.022466499358415604f, 0.011700854636728764f, 0.018443377688527107f, 0.010221670381724834f, 0.0046045053750276566f, 0.00026626623002812266f, -0.00829042587429285f, -0.030092643573880196f, 0.014101039618253708f, -0.07154260575771332f, 0.025192204862833023f, -0.0014119617408141494f, -0.00558724720031023f, -0.02792436257004738f, 0.032642662525177f, -0.02285652421414852f, -0.02709317021071911f, 0.0001323721226071939f, -0.012168449349701405f, 0.0032357804011553526f, -0.011492828838527203f, 0.007281462196260691f, -0.02198168635368347f, -0.06074100360274315f, -0.036985304206609726f, 0.11212915927171707f, 0.022326409816741943f, -0.016320407390594482f, -0.021063819527626038f, 0.014339035376906395f, 0.033546946942806244f, -0.0025654234923422337f, 0.039099834859371185f, 0.018913274630904198f, -0.0066574146039783955f, 0.033122360706329346f, 0.0012867258628830314f, -0.024202803149819374f, -0.020872812718153f, 0.015850523486733437f, -0.025817032903432846f, -0.03761487454175949f, -0.0285668782889843f, 0.012757708318531513f, 0.025542499497532845f, 0.01784222573041916f, 0.02672361209988594f, 0.007136974949389696f, 0.0014272769913077354f, 0.032068151980638504f, -0.01452682539820671f, 0.06072409078478813f, 0.015195747837424278f, 0.024040985852479935f, 0.02673349529504776f, 0.04307683929800987f, -0.0016851030522957444f, -0.019864806905388832f, 0.012213967740535736f, -0.05983036011457443f, -0.00047976200585253537f, -0.0036946511827409267f, -0.002321831416338682f, 0.015875663608312607f, 0.015459504909813404f, 0.05998149886727333f, 0.06185522302985191f, -0.06124471500515938f, -0.008990843780338764f, -0.039030205458402634f, 0.008273818530142307f, -0.007475597783923149f, -0.017260858789086342f, -0.023768212646245956f, -0.02148696780204773f, -0.06152009963989258f, -0.004448732361197472f, 0.013627849519252777f, -0.0012168855173513293f, 0.01592639647424221f, -0.013287575915455818f, -0.03304168954491615f, -0.01788284257054329f, 0.017145564779639244f, -0.048617977648973465f, 0.022678067907691002f, 0.02521882951259613f, -0.04105710983276367f, 0.031232841312885284f, 0.005631704349070787f, 0.02116769552230835f, 0.005610885564237833f, -0.002585649723187089f, -0.06092420592904091f, 0.04043564572930336f, -0.019720952957868576f, 0.03460537642240524f, 0.0035558517556637526f, 0.013169163838028908f, 0.04002916440367699f, -0.0015554443234577775f, -0.014999656938016415f, 0.004239899571985006f, -0.04967093840241432f, -0.05994591489434242f, -0.018008366227149963f, -0.02776690572500229f, 0.015125740319490433f, -0.006260573398321867f, 0.0203061755746603f, 0.003857571631669998f, 0.024132873862981796f, -0.013478229753673077f, -0.023115213960409164f, -0.045716769993305206f, 0.02213815227150917f, 0.009191165678203106f, -0.005573952570557594f, -0.005456652957946062f, -0.014874869957566261f, 0.05346363037824631f, 0.02899717539548874f, 0.08783243596553802f, -0.008318652398884296f, 0.051331643015146255f, -0.03520038723945618f, -0.04118431359529495f, -0.0012993074487894773f, -0.08847879618406296f, -0.04479042440652847f, -0.052140507847070694f, 0.015459957532584667f, -0.020038167014718056f, 0.009955971501767635f, 0.0256549883633852f, 0.04449762403964996f, -0.008674456737935543f, -0.005877458956092596f, 0.0411793552339077f, 0.07964178174734116f, 0.017377277836203575f, 0.03196647763252258f, -0.009687659330666065f, -0.015930533409118652f, 0.06213197857141495f, -0.04248913377523422f, -0.027862414717674255f, -0.022421007975935936f, -0.02969570830464363f, 0.011940918862819672f, -0.0201967004686594f, -0.0221430454403162f, -0.0038051214069128036f, 0.04348541796207428f, -0.016786713153123856f, -0.03168035298585892f, 0.0012478652643039823f, 0.056034017354249954f, 0.0031896522268652916f, -0.006844785530120134f, 0.0017111466731876135f, 0.010765214450657368f, 0.01832643337547779f, -0.0343867689371109f, 0.008810406550765038f, -0.03210156783461571f, -0.0333600752055645f, 0.009593328461050987f, 0.02599707432091236f, 0.0020354262087494135f, -0.018765904009342194f, -0.01089426875114441f, -0.03791099041700363f, 0.1027655154466629f, -0.0161104965955019f, 0.028076399117708206f, 0.03146427497267723f, 0.05523690581321716f, 0.0568455345928669f, -0.015203357674181461f, 0.017565695568919182f, 0.03137066215276718f, -0.05678538978099823f, -0.024362480267882347f, -0.010668540373444557f, 0.029313169419765472f, -0.030846981331706047f, 0.0442914254963398f, -0.030473705381155014f, 0.0035651368089020252f, -0.02258278988301754f, -0.00667328666895628f, -0.024376217275857925f, 0.023589173331856728f, -0.003802540944889188f, 0.035126637667417526f, 0.06682024896144867f, 0.012627982534468174f, 0.02274145744740963f, 0.027339456602931023f, 0.014282864518463612f, -0.005506859626621008f, 0.026773987337946892f, 0.016168827190995216f, 0.0013182293623685837f, -0.017618531361222267f, 0.018072310835123062f, 0.01831606961786747f, -0.011990707367658615f, -0.02211085520684719f, 0.03340637683868408f, 0.0515267476439476f, 0.028233928605914116f, -0.005357496906071901f, 0.001242428901605308f, 0.009378119371831417f, 0.02178189344704151f, -0.0179041288793087f, -0.014049739576876163f, 0.03399069979786873f, 0.008816472254693508f, -0.04719841480255127f, 0.004131047986447811f, -0.014357955195009708f, 0.03788771107792854f, -0.021096808835864067f, -0.0017834572354331613f, -0.01711689680814743f, -0.02011336013674736f, -0.01605614274740219f, -0.007609001826494932f, -0.005697377026081085f, -0.009734953753650188f, 0.0400269478559494f, 0.03238748759031296f, -0.025386925786733627f, 0.03712252527475357f, -0.02394108474254608f, 0.049105752259492874f, -0.022800708189606667f, 0.03294123336672783f, -0.00309159723110497f, 0.006611230317503214f, 0.010010291822254658f, -0.03486695885658264f, -0.02698148600757122f, 0.04082744941115379f, -0.018274754285812378f, 0.01825452223420143f, 0.027218321338295937f, -0.018844610080122948f, -0.019871708005666733f, 0.017476800829172134f, -0.020709168165922165f, 0.008762449026107788f, 0.003440393367782235f, 0.04843619838356972f, 0.012567557394504547f, 0.004261289723217487f, 0.017900429666042328f, -0.031133007258176804f, -0.04699504002928734f, -0.003736421698704362f, -0.00577288493514061f, -0.01053297333419323f, 0.011580879800021648f, -0.007293806876987219f, 0.011566204018890858f, -0.0029870003927499056f, -0.019939376041293144f, 0.07224427163600922f, -0.026605326682329178f, 0.02197383902966976f, 0.03105774149298668f, -0.014299996197223663f, -0.008514226414263248f, -0.022320479154586792f, -0.026345806196331978f, -0.043861258774995804f, -0.016922280192375183f, -0.034020230174064636f, 0.09296063333749771f, -0.021862590685486794f, -0.007925095036625862f, 0.00512336753308773f, -0.01794704981148243f, 0.021219808608293533f, -0.005891402717679739f, -0.0015031633665785193f, 0.04210991412401199f, -0.04146238788962364f, -0.019207654520869255f, 0.04103344678878784f, 0.0027787829749286175f, -0.01911749318242073f, -0.03773593530058861f, -0.019109439104795456f, -0.022604256868362427f, 0.0028358083218336105f, -0.02527795173227787f, -0.010179397650063038f, 0.012977158650755882f, -0.039306849241256714f, -0.006003505550324917f, 0.03168398141860962f, -0.019545698538422585f, -0.006290969904512167f, 0.04048851504921913f, 0.019756274297833443f, 0.012589928694069386f, 0.009163960814476013f, 0.009881056845188141f, 0.02207876183092594f, -0.0002221054892288521f, -0.05962153524160385f, -0.009708333760499954f, 0.02701873891055584f, -0.011019894853234291f, -0.013881915248930454f, 0.006623180583119392f, -0.012859330512583256f, 0.01345771737396717f, -0.042286038398742676f, -0.08656516671180725f, 0.04941028729081154f, 0.02334907092154026f, 0.02749749831855297f, -0.01801426149904728f, 0.013327056542038918f, 0.04433322325348854f, 0.030432824045419693f, -0.0028855791315436363f, -0.034095171838998795f, 0.029864156618714333f, -0.002049665665253997f, 0.014472180046141148f, -0.026625795289874077f, 0.0075263772159814835f, 0.003413390601053834f, 0.04450336471199989f, 0.022491125389933586f, -0.018055623397231102f, 0.01924419403076172f, -0.03585369139909744f, -0.04633793979883194f, 0.06141328811645508f, 0.0624675378203392f, 0.051719218492507935f, 0.002847028197720647f, -0.02433173917233944f, 0.03847222030162811f, -0.05012422055006027f, 0.005612208507955074f, 0.036643218249082565f, 0.055201221257448196f, 0.0016403371701017022f, -0.0180839654058218f, 0.018656674772500992f, -0.029934337362647057f, 0.0035637239925563335f, -0.014141202904284f, -0.039835475385189056f, -0.007297428324818611f, -0.024815550073981285f, 0.014353422448039055f, -0.017438065260648727f, -0.009028191678225994f, 0.0035460847429931164f, 0.027368269860744476f, 0.021900929510593414f, 0.022870508953928947f, 0.03502977266907692f, -0.021305210888385773f, -0.05221027880907059f, -0.01594482734799385f, -0.0313427560031414f, 0.02874644100666046f, -0.0207886453717947f, 0.0023659064900130033f, -0.0316326878964901f, -0.02100059948861599f, -0.002427062252536416f, -0.034645576030015945f, -0.00697166146710515f, -0.014325212687253952f, -0.012716660276055336f, -0.03251415491104126f, 0.016451166942715645f, 0.04005662351846695f, -0.10775049030780792f, 0.026884382590651512f, -0.028020573779940605f, 0.0032575582154095173f, -0.07124721258878708f, 0.007849259302020073f, -0.008956986479461193f, 0.018048861995339394f, -0.035530250519514084f, -0.004795131739228964f, 0.0086203059181571f, -0.008925730362534523f, -0.011020614765584469f, -0.024776887148618698f, -0.06004386767745018f, -0.004116571042686701f, -0.020108705386519432f, -0.04531693831086159f, -0.030257102102041245f, 0.03457965329289436f, 0.07879506796598434f, 0.0026684363838285208f, 0.011140268296003342f, -0.027499467134475708f, 0.005710722878575325f, 0.05235693231225014f, -0.022787347435951233f, -0.016059178858995438f, 0.011280335485935211f, 4.91521996082156e-06f, 0.0075469487346708775f, -0.040546417236328125f, -0.013669057749211788f, -0.0020115866791456938f, 0.043817196041345596f, 0.03550931438803673f, 0.05213392898440361f, -0.015397843904793262f, 0.034829217940568924f, 0.03103676065802574f, 0.010721585713326931f, -0.013977074064314365f, 0.01712947152554989f, 0.026546480134129524f, -0.00556492293253541f, -0.024311237037181854f, -0.025189952924847603f, 0.010141643695533276f, -0.0021201567724347115f, 0.028565194457769394f, -0.008272908627986908f, 0.04851096123456955f, 0.042113639414310455f, -0.06120351701974869f, 0.014180394820868969f, 0.0034302070271223783f, -0.016693666577339172f, -0.017915161326527596f, 0.01949814148247242f, -0.05059569329023361f, 0.016716156154870987f, -0.008973740972578526f, -0.04340248554944992f, -0.012933214195072651f, 0.01132962852716446f, 0.04531778767704964f, 0.06888071447610855f, 0.024566827341914177f, -0.04822411760687828f, 0.03011782094836235f, -0.0034720369148999453f, -0.004234215244650841f, -0.026794103905558586f, -0.017498522996902466f, 0.011972247622907162f, 0.037470780313014984f, 0.0013837548904120922f, 0.03696082532405853f, -0.034495316445827484f, -0.039677537977695465f, -0.03977515920996666f, 0.0324423648416996f, 0.0519564189016819f, 0.01465399470180273f, -0.024918274953961372f, -0.037756260484457016f, -0.007526695262640715f, 0.011303674429655075f, -0.014351782388985157f, -0.012030619196593761f, -0.004272816702723503f, 0.01756259985268116f, 0.03379390388727188f, 0.031581830233335495f, 0.011527322232723236f, -0.02332642860710621f, 0.07232467830181122f, -0.04557010903954506f, -0.012294462881982327f, -0.019582200795412064f, 0.09370076656341553f, -0.004020135849714279f, -0.011056769639253616f, -0.030785417184233665f, 0.01506503950804472f, -0.02304813638329506f, -0.008178765885531902f, 0.016487129032611847f, 0.018734779208898544f, -0.02911771461367607f, 0.006970025133341551f, -0.031830236315727234f, -0.0277877114713192f, 0.0016022184863686562f, -0.03205816447734833f, 0.03787999600172043f, 0.07594354450702667f, 0.0035011700820177794f, 0.04974665120244026f, 0.0005495466175489128f, 0.04054275527596474f, 0.005181048531085253f, 0.013131710700690746f, -0.024927986785769463f, -0.02428339049220085f, 0.015050102956593037f, -0.04019107297062874f, 0.06031990796327591f, 0.008130584843456745f, 0.00042265147203579545f, -0.031261295080184937f, 0.0012675462057814002f, 0.05934766307473183f, 0.019123945385217667f, 0.019158687442541122f, 0.02136690355837345f, -0.056557606905698776f, -0.019451215863227844f, 0.0047407858073711395f, -0.04112223908305168f, -0.005561829544603825f, 0.03324688598513603f, 0.03371503949165344f, -0.034066639840602875f, 0.0005613879766315222f, 0.02244432270526886f, -0.0010240951087325811f, -0.020028233528137207f, 0.008440151810646057f, 0.023003241047263145f, -0.04673556610941887f, -0.00360558251850307f, 0.022346287965774536f, 0.006168582942336798f, -0.027845339849591255f, -0.018579013645648956f, -0.03517942503094673f, -0.0134753892198205f, 0.027129139751195908f, 0.004428367596119642f, 0.031980887055397034f, 0.005877751391381025f, -0.02991919405758381f, -0.00792357511818409f, 0.10166584700345993f, 0.04157070443034172f, 0.005708430428057909f, 0.03619781509041786f, -0.01213519275188446f, -0.019635237753391266f, 0.03393221274018288f, 0.023453915491700172f, 0.006499236915260553f, 0.0029105525463819504f, -0.017911100760102272f, -0.043359436094760895f, 0.008469329215586185f, -0.03592115268111229f, -0.017729030922055244f, 0.0008298495085909963f, -0.011630356311798096f, 0.031578999012708664f, 0.033418674021959305f, 0.01412933599203825f, -0.04005996137857437f, 0.011539905332028866f, 0.021980218589305878f, 0.03663638234138489f, 0.024418476969003677f, -0.015420415438711643f, 0.03074786625802517f, -0.0680098682641983f, 0.01641877181828022f, 0.016008742153644562f, -0.01537446677684784f, 0.010309076867997646f, -0.08034149557352066f, -0.010987145826220512f, -0.014389591291546822f, -0.032467737793922424f, -0.022810664027929306f, -0.014165077358484268f, 0.01720883697271347f, -0.01065779197961092f, -0.005544071085751057f, -0.028487838804721832f, -0.04063484072685242f, -0.009014924056828022f, 0.012668649666011333f, -0.019797632470726967f, 0.06133466586470604f, -0.006885874550789595f, 0.027244960889220238f, -0.01749325543642044f, 0.009819546714425087f, 0.030746299773454666f, 0.026404554024338722f, 0.014724244363605976f, 0.00981880258768797f, -0.03749280050396919f, 0.007754027843475342f, -0.019911956042051315f, 0.024586128070950508f, -0.003290204331278801f, 0.011801421642303467f, 0.0561581514775753f, -0.0005490020848810673f, 0.02119131200015545f, 0.04192700609564781f, 0.03768952563405037f, 0.03292416036128998f, -0.04279770702123642f, -0.016452251002192497f, -0.03635042905807495f, 0.025126134976744652f, -0.004341836087405682f, -0.018022719770669937f, -0.0054739536717534065f, -0.02962038852274418f, 0.017350180074572563f, 0.008850064128637314f, -0.0044562784023582935f, -0.018504496663808823f, 0.020421700552105904f, -0.01359460037201643f, -0.0795666053891182f };
alignas(16) float separable_conv2d_5_BIAS[] = { 4.527463912963867f, 0.48680663108825684f, 1.2933993339538574f, -0.06386958807706833f, 5.310343265533447f, 1.831477403640747f, -2.5252366065979004f, -0.5253934860229492f, 5.473137378692627f, 0.3681063652038574f, 1.5705959796905518f, 0.821250855922699f, 3.1193301677703857f, 5.200494289398193f, -10.583624839782715f, 2.3859119415283203f };
