#ifdef CNN_TEST
#define CNN_STOPWATCH(name) // STOPWATCH(name)
#else
#define CNN_STOPWATCH(name) STOPWATCH(name)
#endif

#include <vector>

// dimensions
static const unsigned int input_height = 30;
static const unsigned int input_width = 40;
static const unsigned int input_channel = 3;
static const unsigned int output_height = 7;
static const unsigned int output_width = 10;
static const unsigned int output_channel = 7;
static const unsigned int num_of_boxes = 1;
static const unsigned int num_of_classes = 2;
static const unsigned int num_of_coords = 4;
static const std::vector<float> anchors = { 4.64f, 3.16f };

// includes
#include <emmintrin.h>
#include <math.h>

// buffers
alignas(16) float conv2d_1_WEIGHTS[] = { 1.7459906339645386f, -0.6250755190849304f, -1.342734932899475f, 1.5900431871414185f, -1.6486622095108032f, 1.33479905128479f, -0.9364364147186279f, -2.231679677963257f, 0.14908216893672943f, -0.011471176519989967f, -0.8922531008720398f, -1.4195376634597778f, -0.6995586156845093f, 1.5276390314102173f, -0.7627902626991272f, 2.2398335933685303f, -0.5159040093421936f, -0.2673194110393524f, 1.2933752536773682f, 1.6751255989074707f, 3.7419967651367188f, 0.8462939262390137f, -0.7823750376701355f, -1.2897281646728516f, 2.852768659591675f, -1.4249463081359863f, -1.063136100769043f, 1.8590426445007324f, -2.3210973739624023f, -0.7242671847343445f, -0.15257161855697632f, -2.4554123878479004f, 1.2141106128692627f, 0.1502590775489807f, -0.7017617225646973f, -1.4074134826660156f, -0.2585960924625397f, -0.2951273024082184f, -0.598131537437439f, 1.3728280067443848f, 0.45756322145462036f, -0.43371009826660156f, 1.1912204027175903f, 1.7701594829559326f, 3.5469799041748047f, -0.5450628399848938f, -0.6279178857803345f, 3.0044422149658203f, 1.4249911308288574f, -1.887637972831726f, -0.3378217816352844f, 1.1273192167282104f, -0.8143128752708435f, -0.5679898262023926f, 0.44325879216194153f, -1.8142436742782593f, 0.640312135219574f, -0.5357832908630371f, -1.043759822845459f, -1.5156852006912231f, -0.8715487718582153f, -0.9630294442176819f, 0.06653396040201187f, 0.7367717623710632f, 0.45367231965065f, -0.5687868595123291f, 0.8004797697067261f, 0.5877342820167542f, 2.2771248817443848f, -0.35117584466934204f, 0.1623845249414444f, 0.853331446647644f, 2.3365397453308105f, 0.6560643315315247f, -1.4497945308685303f, -2.1240599155426025f, -1.3267159461975098f, 1.308325171470642f, -0.882335901260376f, -2.075287342071533f, 0.9501236081123352f, 0.16660760343074799f, -0.09978459030389786f, -4.565659046173096f, 0.8553232550621033f, 1.5635343790054321f, -1.1826328039169312f, 2.186316967010498f, 0.037617381662130356f, 0.9099790453910828f, 0.18597154319286346f, 1.8212435245513916f, 1.1918809413909912f, 1.229077935218811f, -0.7259854078292847f, -0.3362230956554413f, 0.9352049231529236f, 0.5334605574607849f, -1.4342774152755737f, 1.0270755290985107f, -1.195422887802124f, -1.465228796005249f, 0.7554492354393005f, -4.10805606842041f, -1.2278028726577759f, -0.059859711676836014f, 0.625249981880188f, -1.2068039178848267f, 0.9513609409332275f, -1.599739909172058f, -0.637638509273529f, 4.3417158126831055f, 0.05931530147790909f, 1.0735915899276733f, -0.9072285294532776f, 0.9065380096435547f, -0.3905337452888489f, -0.33360734581947327f, 0.30422747135162354f, -0.44313186407089233f, -0.6132729053497314f, -0.5746411681175232f, -0.28993526101112366f, 1.3456614017486572f, -1.691413402557373f, -1.0368913412094116f, 1.6651591062545776f, -3.5290167331695557f, -1.4041074514389038f, -1.1784818172454834f, -0.6418139338493347f, 0.22089651226997375f, 1.000127911567688f, -1.4071836471557617f, -0.10108291357755661f, 3.599581241607666f, -0.9540121555328369f, 0.28247931599617004f, -0.3930560052394867f, -0.1751057654619217f, 0.9756611585617065f, -0.14843271672725677f, 0.7627812623977661f, -0.7537548542022705f, 0.1366867870092392f, 0.549723744392395f, -0.6866185665130615f, -0.9339227676391602f, -0.5363869071006775f, 0.2050308883190155f, -0.7001627087593079f, -1.0853703022003174f, -0.13719742000102997f, -0.48215651512145996f, -0.5858886241912842f, -3.407876968383789f, 1.4619349241256714f, 0.33680298924446106f, -0.6924996972084045f, 0.5434184074401855f, -0.7847346067428589f, 0.9237042665481567f, 0.3450770378112793f, 1.6076909303665161f, -1.0365846157073975f, -0.2698419690132141f, -0.21754755079746246f, -0.25559747219085693f, -1.2916302680969238f, 0.8831813335418701f, -0.3030106723308563f, 0.48202943801879883f, -0.12070199847221375f, -0.35394182801246643f, 0.7187562584877014f, -1.4725044965744019f, -2.177844524383545f, 0.5997369885444641f, 0.08419499546289444f, -0.5257605314254761f, 1.512521743774414f, 0.06162305921316147f, -0.4932694733142853f, 2.8890438079833984f, -0.9361414909362793f, 1.3871244192123413f, -0.005209189373999834f, 1.2118457555770874f, -0.9426584839820862f, -0.19005808234214783f, 0.5539193749427795f, -2.098778247833252f, -1.244629144668579f, -0.8860200047492981f, -1.1560380458831787f, 0.4655793011188507f, -0.14900469779968262f, -0.6031277179718018f, 1.2360173463821411f, -1.0038328170776367f, -1.7416162490844727f, -0.6655503511428833f, -0.4173121452331543f, 0.021798724308609962f, 0.1125849261879921f, -0.3893791735172272f, 0.05957416817545891f, 1.4786289930343628f, -0.6414262056350708f, 0.2978104054927826f, -0.7942985892295837f, -0.024254120886325836f, 0.6270807981491089f, 0.3693293035030365f, 1.1689848899841309f, -0.7650244235992432f };
alignas(16) float conv2d_1_BIAS[] = { -0.8010939359664917f, 0.8070635795593262f, 4.246776580810547f, 4.32100772857666f, -1.5189181566238403f, 0.9196914434432983f, 1.1862763166427612f, 1.3084989786148071f };
alignas(16) float conv2d_2_WEIGHTS[] = { -0.12658575177192688f, -0.07496385276317596f, -0.31126418709754944f, 0.025392569601535797f, 0.08684812486171722f, -0.03776274248957634f, 0.04662325978279114f, -0.1942126303911209f, -0.0016294914530590177f, 0.045441485941410065f, -0.11093269288539886f, 0.12470125406980515f, -0.04245244339108467f, -0.07351949065923691f, -0.08169678598642349f, -0.0007315814145840704f, -0.05933917686343193f, 0.06515362113714218f, 0.06126357242465019f, -0.213121697306633f, -0.03399965167045593f, -0.0737345814704895f, 0.16087092459201813f, -0.09415314346551895f, -0.08654496818780899f, -0.07817080616950989f, 0.15012982487678528f, 0.11780775338411331f, -0.12847894430160522f, -0.11132308840751648f, -0.08850925415754318f, -0.13871397078037262f, 0.11097148805856705f, -0.11918968707323074f, -0.07840339839458466f, 0.04960626736283302f, 0.028032073751091957f, -0.13499557971954346f, -0.05691045522689819f, -0.08624693751335144f, -0.005709296092391014f, -0.12347898632287979f, -0.07761327922344208f, 0.0898880809545517f, -0.006923247128725052f, 0.09394817054271698f, 0.07631624490022659f, -0.06117178127169609f, 0.013611650094389915f, -0.28414785861968994f, -0.44305694103240967f, -0.010358652099967003f, -0.04474375396966934f, 0.051188819110393524f, -0.2526138126850128f, 0.029998328536748886f, 0.07857661694288254f, -0.10631880164146423f, 0.034324489533901215f, -0.04534318298101425f, 0.01866360753774643f, -0.10159987211227417f, -0.1790275126695633f, -0.35657885670661926f, -0.23062625527381897f, -0.024154603481292725f, -0.10966285318136215f, -0.07154299318790436f, 0.019126126542687416f, 0.04218963161110878f, 0.13154254853725433f, -0.007505482062697411f, -0.1248827800154686f, 0.03482889384031296f, 0.3643985688686371f, 0.10356703400611877f, 0.008404413238167763f, -0.04394286870956421f, -0.06677306443452835f, 0.2793470621109009f, -0.132798433303833f, 0.08390175551176071f, 0.0020104930736124516f, -0.2647581100463867f, -0.43737274408340454f, 0.05132616311311722f, 0.1437206268310547f, 0.06683172285556793f, -0.006384494714438915f, 0.09886078536510468f, 0.018720993772149086f, -0.13098090887069702f, -0.1105666235089302f, -0.10371098667383194f, -0.14169971644878387f, -0.042228177189826965f, -0.026174210011959076f, -0.05345671996474266f, 0.09233123809099197f, -0.20189984142780304f, -0.021481694653630257f, 0.03825487568974495f, 0.012700967490673065f, -0.4690733253955841f, -0.07447845488786697f, 0.1368522047996521f, -0.05028410255908966f, 0.037864189594984055f, -0.004546283278614283f, 0.09825508296489716f, 0.02118496410548687f, 0.15061958134174347f, -0.06919782608747482f, -0.028414009138941765f, 0.07200124859809875f, -0.0030437849927693605f, -0.08287545293569565f, -0.17762994766235352f, -0.0300159715116024f, -0.0032910455483943224f, 0.06591733545064926f, -0.0923469215631485f, -0.0027447754982858896f, -0.12268009781837463f, -0.13165338337421417f, 0.08793340623378754f, 0.18688388168811798f, -0.1982516199350357f, 0.0933954119682312f, -0.0638187900185585f, 0.11666087061166763f, 0.24460649490356445f, 0.22404532134532928f, 0.05355941504240036f, -0.17385222017765045f, -0.22553016245365143f, -0.1185033768415451f, 0.058775030076503754f, -0.04106993228197098f, -0.017644494771957397f, 0.02466977946460247f, -0.0821789801120758f, -0.06747787445783615f, -0.01778603531420231f, -0.13730388879776f, 0.01885918714106083f, -0.06477814167737961f, -0.12874576449394226f, 0.00718088960275054f, 0.13425053656101227f, -0.04206663742661476f, 0.07442009449005127f, 0.046219754964113235f, 0.00810297206044197f, 0.0980154499411583f, 0.06315036118030548f, 0.1639971137046814f, 0.06336052715778351f, -0.07061425596475601f, -0.0478614903986454f, 0.15742109715938568f, 0.0142739899456501f, 0.09509644657373428f, -0.24120672047138214f, 0.21540643274784088f, 0.022090628743171692f, -0.05474241450428963f, 0.18694841861724854f, 0.14386679232120514f, 0.14207881689071655f, 0.04400348663330078f, -0.10412713140249252f, 0.025261905044317245f, -0.04186955839395523f, 0.013428411446511745f, -0.2195519506931305f, 0.17645123600959778f, -0.12823964655399323f, -0.011884157545864582f, 0.05763503164052963f, -0.13194799423217773f, -0.08568859100341797f, -0.005256872158497572f, -0.032089874148368835f, 0.03238854557275772f, 0.0894758403301239f, 0.10045696794986725f, -0.1029466763138771f, -0.20953531563282013f, -0.23508618772029877f, 0.0005698245367966592f, 0.05199160799384117f, -0.3137337565422058f, -0.04080650582909584f, -0.06482711434364319f, 0.10985809564590454f, -0.11469756811857224f, 0.002450253115966916f, 0.00020817690528929234f, -0.12655773758888245f, -0.11040793359279633f, -0.03426966071128845f, -0.01850683055818081f, -0.06590049713850021f, -0.07668048143386841f, 0.1219872310757637f, -0.15024062991142273f, -0.13069674372673035f, 0.10486753284931183f, -0.002183859469369054f, 0.03814677149057388f, 0.13236528635025024f, 0.13890302181243896f, -0.0468745157122612f, -0.07129154354333878f, -0.020822376012802124f, 0.05765463039278984f, -0.17435795068740845f, 0.084051214158535f, 0.19547924399375916f, -0.0998033955693245f, 0.09262922406196594f, 0.03432673215866089f, 0.058764733374118805f, 0.21863794326782227f, 0.06683249026536942f, 0.022507047280669212f, -0.035918936133384705f, -0.17295941710472107f, 0.16168691217899323f, -0.18621404469013214f, 0.03087923489511013f, -0.30453112721443176f, 0.03655873239040375f, 0.018900778144598007f, -0.08552560955286026f, -0.0013914185110479593f, 0.20637524127960205f, -0.028610283508896828f, -0.14972680807113647f, -0.10279424488544464f, 0.10002794116735458f, -0.04102808237075806f, -0.053601205348968506f, 0.20319963991641998f, -0.0469927154481411f, 0.13402529060840607f, 0.023399444296956062f, -0.02391425333917141f, -0.0049856496043503284f, 0.04559348523616791f, -0.17515434324741364f, 0.06553389877080917f, 0.04759985953569412f, -0.05713410675525665f, 0.10431752353906631f, -0.07523588836193085f, -0.05051376670598984f, -0.3155977725982666f, 0.07346705347299576f, 0.1262476146221161f, -0.12807445228099823f, 0.03225238248705864f, -0.15572670102119446f, -0.33052030205726624f, 0.029003191739320755f, -0.20270873606204987f, -0.15143412351608276f, 0.027145445346832275f, 0.006692038383334875f, -0.10026855766773224f, -0.26722344756126404f, 0.09729868173599243f, -0.04056659713387489f, -0.017106415703892708f, -0.08272556960582733f, -0.20398348569869995f, -0.23841989040374756f, -0.13607262074947357f, 0.11211364716291428f, 0.03794310614466667f, -0.15502697229385376f, -0.06535513699054718f, 0.0068123238161206245f, -0.3201237618923187f, -0.2544533610343933f, 0.13134557008743286f, 0.019054116681218147f, -0.0845690444111824f, 0.018580535426735878f, 0.07968848943710327f, 0.420196533203125f, -0.3540453612804413f, -0.04802371561527252f, 0.31904205679893494f, -0.3114142119884491f, -0.059118129312992096f, 0.10724281519651413f, -0.02061316929757595f, 0.12134537100791931f, 0.08680126070976257f, -0.02001412957906723f, 0.12315964698791504f, -0.04298439994454384f, -0.3349097967147827f, -0.05496494472026825f, 0.13421927392482758f, -0.26910558342933655f, 0.12369134277105331f, 0.031132638454437256f, 0.0718005895614624f, -0.05777992680668831f, 0.23829369246959686f, -0.1077374666929245f, -0.12434041500091553f, -0.018175262957811356f, 0.026127714663743973f, -0.12040960788726807f, 0.014067402109503746f, 0.16823430359363556f, 0.03734701871871948f, 0.07817553728818893f, -0.1859976202249527f, 0.09271147102117538f, -0.09459361433982849f, -0.06683278828859329f, -0.017135826870799065f, -0.025457212701439857f, -0.08279446512460709f, -0.07389286160469055f, 0.1545005887746811f, 0.1108185276389122f, -0.036041855812072754f, -0.011354818008840084f, 0.09478962421417236f, -0.08753692358732224f, -0.000949305307585746f, -0.13826242089271545f, -0.06812944263219833f, 0.11164768785238266f, 0.010753339156508446f, 0.011252939701080322f, 0.19263403117656708f, -0.09871334582567215f, 0.08245775103569031f, -0.02202160656452179f, 0.05468054115772247f, -0.10568967461585999f, -0.023333178833127022f, -0.09301545470952988f, -0.11844222992658615f, 0.11271575838327408f, -0.14549322426319122f, 0.05064748227596283f, 0.20353764295578003f, -0.14726637303829193f, 0.03238334506750107f, -0.016570936888456345f, 0.04429019242525101f, 0.022684894502162933f, 0.03754040226340294f, -0.044720035046339035f, 0.16324585676193237f, 0.07359878718852997f, 0.08449635654687881f, -0.01216643862426281f, -9.131136175710708e-05f, -0.04062069579958916f, -0.0013056399766355753f, -0.045347731560468674f, -0.11452268809080124f, 0.15842480957508087f, 0.005219882354140282f, 0.15557920932769775f, -0.3028509020805359f, -0.4403371810913086f, -0.02697237953543663f, 0.033446621149778366f, 0.054668162018060684f, 0.0884578749537468f, 0.04491451755166054f, 0.03273983299732208f, -0.5821442604064941f, 0.06615813821554184f, -0.0905536636710167f, 0.13530948758125305f, 0.07983949780464172f, -0.3378889560699463f, 0.06668274849653244f, 0.02001911588013172f, 0.1594649702310562f, -0.027035189792513847f, -0.09448210150003433f, 0.11986438184976578f, -0.028407523408532143f, -0.02459728717803955f, 0.08128931373357773f, 0.0773780569434166f, 0.05366462841629982f, 0.04009541496634483f, -0.11796510964632034f, -0.11437893658876419f, 0.04999423772096634f, 0.02066303975880146f, 0.09112996608018875f, 0.05352408066391945f, 0.019877975806593895f, 0.16750314831733704f, 0.39424461126327515f, -0.024930814281105995f, -0.006864970084279776f, -0.2358359843492508f, 0.05262437462806702f, -0.008331159129738808f, 0.03006947599351406f, -0.07339287549257278f, 0.0903983861207962f, 0.032784707844257355f, 0.025032278150320053f, 0.1889866143465042f, -0.11859098821878433f, 0.17553697526454926f, 0.12048891931772232f, 0.8784258365631104f, -0.11856688559055328f, 0.015127573162317276f, -0.033599961549043655f, -0.0659639909863472f, -0.021284669637680054f, -0.0023038804065436125f, -0.05862364172935486f, -0.06667452305555344f, -0.11242537945508957f, 0.02678873762488365f, -0.06876414269208908f, -0.15862809121608734f, 0.03954418748617172f, 0.03722833842039108f, 0.07474197447299957f, -0.06939046829938889f, 0.24653993546962738f, 0.03493095189332962f, 0.07044245302677155f, -0.006680199410766363f, 0.012608184479176998f, 0.0532028004527092f, 0.0005178914871066809f, -0.3827989995479584f, 0.17041294276714325f, 0.12189796566963196f, 0.08273779600858688f, -0.24625164270401f, -0.08330801129341125f, -0.05788138508796692f, -0.01693790592253208f, 0.1324792206287384f, 0.03031214512884617f, 0.13428661227226257f, 0.044976525008678436f, -0.11922457069158554f, -0.11497489362955093f, -0.028860652819275856f, 0.15215617418289185f, -0.21984703838825226f, 0.06543949246406555f, -0.10137560963630676f, -0.13186070322990417f, -0.07222674041986465f, 0.16013137996196747f, 0.11977102607488632f, -0.17513908445835114f, -0.3507574796676636f, -0.05466707795858383f, -0.1954294890165329f, 0.14319688081741333f, 0.13420630991458893f, -0.038402777165174484f, 0.005623897071927786f, -0.16595971584320068f, 0.1148926168680191f, 0.014382974244654179f, 0.2158082276582718f, 0.03186194226145744f, -0.04148296266794205f, -0.04670538753271103f, 0.00505234906449914f, -0.39757126569747925f, 0.15853171050548553f, -0.19609291851520538f, -0.061932917684316635f, -0.03734801709651947f, -0.24998651444911957f, -0.0799274891614914f, -0.051845476031303406f, 0.17054462432861328f, -0.026682985946536064f, -0.3340032398700714f, 0.07966114580631256f, 0.008212377317249775f, 0.040751922875642776f, 0.32201725244522095f, 0.07272922247648239f, 0.05595698207616806f, 0.11633813381195068f, 0.29451629519462585f, -0.13284948468208313f, -0.034007515758275986f, -0.05261993035674095f, 0.019823642447590828f, -0.21708212792873383f, 0.07032880932092667f, 0.18855592608451843f, 0.0331326425075531f, -0.031056135892868042f, 0.11364123225212097f, 0.03702780231833458f, -0.2099667191505432f, 0.2868281304836273f, 0.11877370625734329f, -0.08102533966302872f, 0.3630855083465576f, 0.03125367686152458f, -0.1235404834151268f, -0.27999767661094666f, -0.0124139953404665f, 0.047417812049388885f, 0.05093267560005188f, 0.08128727227449417f, -0.33784741163253784f, 0.18066366016864777f, 0.07321389019489288f, -0.10400766879320145f, 0.05189766734838486f, -0.031584274023771286f, -0.09545495361089706f, -0.07187054306268692f, 0.21287643909454346f, -0.09610509127378464f, -0.039320554584264755f, -0.16025051474571228f, 0.15375405550003052f, 0.013936317525804043f, -0.09815437346696854f, 0.04785851389169693f, -0.22806204855442047f, -0.0511062815785408f, 0.09192849695682526f, 0.34600067138671875f, -0.14163091778755188f, 0.022495459765195847f, 0.1025080531835556f, 0.11341353505849838f, 0.0014601557049900293f, -0.16049106419086456f, 0.026127371937036514f, -0.1672104001045227f, 0.11144615709781647f, 0.06226066127419472f, -0.4029502868652344f, 0.027629802003502846f, -0.04932690039277077f, 0.05559651926159859f, -0.017542563378810883f, 0.09661422669887543f, -0.021678123623132706f, -0.10361724346876144f, -0.05614485219120979f, 0.023832768201828003f, -0.09124031662940979f, -0.3495316207408905f, 0.14923328161239624f, 0.0327143631875515f, -0.2960357069969177f, -0.12882572412490845f, 0.17926393449306488f, -0.12761680781841278f, 0.07409165054559708f, -0.15377065539360046f, -0.11999748647212982f, -0.10092362016439438f, -0.05917707085609436f, -0.1399909257888794f, -0.18506795167922974f, -0.12010081112384796f, -0.1259000450372696f, 0.06330911070108414f, 0.16181859374046326f, -0.01509968750178814f, 0.22291244566440582f, -0.1749250441789627f, -0.01967717707157135f, 0.17317558825016022f, -0.1050495058298111f, 0.025331011041998863f, -0.04721231013536453f, 0.4037986099720001f, 0.04984490945935249f, -0.3136279284954071f, 0.08275099843740463f, -0.021213145926594734f, -0.08221913129091263f, 0.037947606295347214f, -0.22221937775611877f, -0.09768576174974442f, 0.3470053970813751f, -0.18573980033397675f, -0.0794040635228157f, 0.32875093817710876f, 0.09572979062795639f, 0.09037232398986816f, -0.2587879002094269f, -0.0724053606390953f, -0.051476750522851944f, -0.1259467452764511f, 0.020281868055462837f, 0.07226130366325378f, 0.0575026273727417f, -0.11541863530874252f, 0.12705180048942566f, 0.072716124355793f, 0.031766630709171295f, -0.22362466156482697f, -0.057779282331466675f, -0.05601652339100838f, 0.16227158904075623f, -0.09098093956708908f, 0.07091423869132996f, 0.15783052146434784f, -0.09001769125461578f, -0.048697907477617264f, 0.1354130357503891f, -0.023891648277640343f, 0.12688317894935608f, -0.12526433169841766f, 0.007949693128466606f, -0.3108397424221039f, 0.04436078667640686f, -0.14347834885120392f, 0.13676248490810394f, 0.08125600963830948f, -0.012295505963265896f, 0.17585407197475433f, -0.19988274574279785f, -0.12903302907943726f, 0.16595833003520966f, 0.08931893855333328f, 0.019907165318727493f, 0.1361299455165863f, -0.010690872557461262f, -0.25494223833084106f, -0.024551916867494583f, -0.10484228283166885f, 0.03015228547155857f, 0.05481592193245888f, -0.13762299716472626f, -0.06457564234733582f, 0.09114506840705872f, -0.2715006172657013f, -0.09084516763687134f, 0.009539754129946232f, 0.006774305831640959f, -0.05224474519491196f, -0.14972612261772156f, 0.21491269767284393f, -0.0152781642973423f, -0.002530239522457123f, -0.08634451776742935f, -0.0059647466987371445f, 0.07326889038085938f, -0.04142915457487106f, -0.08178852498531342f, -0.07220953702926636f, 0.10804352909326553f, -0.09092377126216888f, 0.0786563977599144f, 0.14083047211170197f, -0.27904194593429565f, -0.04618454724550247f, 0.11263030767440796f, 0.33532577753067017f, -0.23863902688026428f, 0.20246748626232147f, 0.11688244342803955f, -0.03269257768988609f, 0.3153502345085144f, 0.045022379606962204f, 0.14912445843219757f, -0.03964274749159813f, -0.19334028661251068f, 0.10363584756851196f, -0.04417634382843971f, 0.13549575209617615f, -0.03647089749574661f, -0.25966811180114746f, -0.14100340008735657f, -0.08273317664861679f, 0.007023214362561703f, 0.2323603481054306f, 0.035096652805805206f, -0.006990997586399317f, 0.19786712527275085f, -0.1243375688791275f, -0.1273665577173233f, 0.12154829502105713f, 0.1779242753982544f, -0.022336237132549286f, 0.012151336297392845f, -0.030246442183852196f, 0.015035507269203663f, -0.05810132250189781f, 0.02079940401017666f, -0.13012948632240295f, 0.2324945628643036f, 0.21073296666145325f, -0.13230915367603302f, 0.33264821767807007f, -0.05330017954111099f, -0.16259469091892242f, 0.0013076274190098047f, 0.14640727639198303f, 0.0373724140226841f, -0.08107297122478485f, -0.009402754716575146f, -0.20319990813732147f, 0.03842596709728241f, -0.013339623808860779f, -0.04193045198917389f, 0.1980527639389038f, 0.23917074501514435f, -0.06440777331590652f, 0.044874370098114014f, -0.20744140446186066f, -0.15817002952098846f, -0.10885588824748993f, 0.06727850437164307f, 0.04684440791606903f, -0.11333967745304108f, 0.03151308745145798f, 0.030632521957159042f, -0.3996748924255371f, -0.02527664415538311f, -0.31741800904273987f, 0.032437894493341446f, -0.07309460639953613f, -0.16597546637058258f, -0.17861278355121613f, -0.0324055552482605f, -0.17606712877750397f, -0.10491893440485f, 0.2713906168937683f, -0.2708975672721863f, -0.032340727746486664f, 0.019725210964679718f, -0.009464402683079243f, 0.008538366295397282f, -0.10789178311824799f, 0.1079532727599144f, 0.2205219715833664f, -0.02128666453063488f, -0.1147909015417099f, 0.01541227474808693f, -0.23478496074676514f, 0.03971361368894577f, 0.05618172138929367f, 0.1445426493883133f, 0.02094345912337303f, -0.03370765969157219f, -0.06447915732860565f, 0.02296583727002144f, 0.08134389668703079f, -0.007468977477401495f, -0.08413870632648468f, 0.02556944638490677f, -0.0013771883677691221f, -0.08101483434438705f, -0.07717101275920868f, -0.17796801030635834f, 0.020194226875901222f, -0.04768798500299454f, 0.05841786414384842f, 0.4633004665374756f, -0.08115685731172562f, 0.0010563679970800877f, -0.23884446918964386f, -0.17535407841205597f, -0.03268131613731384f, -0.033193252980709076f, -0.5660827159881592f, 0.01810254156589508f, -0.29848283529281616f, -0.07982994616031647f, -0.04968482255935669f, -0.20104537904262543f, 0.3395175039768219f, -0.1585431545972824f, 0.15212048590183258f, 0.198444202542305f, -0.2534696161746979f, -0.23958580195903778f, 0.15224304795265198f, -0.041487570852041245f, -0.20459780097007751f, 0.007299314718693495f, 0.06625065207481384f, -0.15886247158050537f, 0.008582188747823238f, -0.056115444749593735f, -0.24025247991085052f, -0.1778535097837448f, 0.05539426952600479f, 0.12822262942790985f, -0.12967073917388916f, 0.11690963804721832f, 0.017015142366290092f, 0.029755184426903725f, 0.09396255761384964f, -0.08999308943748474f, -0.05402550473809242f, -0.005677214358001947f, -0.4400913417339325f, 0.025385156273841858f, -0.03454321622848511f, -0.09991602599620819f, 0.18984338641166687f, 0.13306759297847748f, -0.026751147583127022f, -0.08346261829137802f, -0.25805655121803284f, -0.00046016156557016075f, -0.2732146978378296f, -0.06704085320234299f, -0.0370669960975647f, 0.10700829327106476f, 0.09368801862001419f, 0.007184204645454884f, 0.11313041299581528f, -0.09283163398504257f, -0.28277185559272766f, 0.047905828803777695f, 0.04663380607962608f, 0.10641415417194366f, -0.264045387506485f, 0.010476483032107353f, -0.3189050257205963f, -0.013804381713271141f, 0.07714495062828064f, -0.21742728352546692f, 0.029035042971372604f, -0.16572441160678864f, -0.08423037827014923f, 0.17918147146701813f, 0.12023327499628067f, -0.03956194594502449f, 0.16482007503509521f, 0.07599199563264847f, 0.12202367931604385f, -0.009067182429134846f, -0.15462030470371246f, 0.1093253642320633f, -0.13235785067081451f, -0.04860955849289894f, -0.2242603600025177f, 0.08654443919658661f, -0.27298372983932495f };
alignas(16) float conv2d_2_BIAS[] = { 1.5485327243804932f, -1.5957684516906738f, 2.017317295074463f, 0.5060640573501587f, 1.2961682081222534f, 1.9770299196243286f, -0.5599836111068726f, 0.4133506119251251f, -0.31269967555999756f, 3.4649925231933594f, 2.0847227573394775f, 1.3653818368911743f };
alignas(16) float conv2d_3_WEIGHTS[] = { -0.17791204154491425f, 0.11054488271474838f, 0.07833120226860046f, 0.046879321336746216f, 0.21932852268218994f, -0.059581149369478226f, 0.05177481472492218f, -0.08853564411401749f, 0.15282419323921204f, 0.2578250765800476f, -0.046126462519168854f, 0.14771558344364166f, -0.23850882053375244f, 0.1095508337020874f, -0.05832179635763168f, 0.04046403989195824f, 0.07583284378051758f, -0.02301126718521118f, -0.05951866880059242f, -0.06377767026424408f, 0.5068498253822327f, 0.20374487340450287f, 0.03790965676307678f, 0.3484795093536377f, -0.1363944709300995f, 0.12702713906764984f, 0.13355058431625366f, -0.007472680415958166f, -0.21022458374500275f, 0.25873398780822754f, 0.09398747980594635f, 0.05230008438229561f, -0.09867285192012787f, -0.09670967608690262f, 0.10468919575214386f, -0.0801125317811966f, 0.07194431126117706f, 0.04979473724961281f, -0.09871777147054672f, -0.22000133991241455f, -0.03046875074505806f, 0.0004165981663390994f, 0.019015170633792877f, -0.05487823858857155f, -0.3520963191986084f, 0.16812001168727875f, -0.0779256597161293f, -0.12363046407699585f, -0.05220406875014305f, -0.05103664845228195f, 0.02066003531217575f, -0.1380472183227539f, -0.23676621913909912f, 0.09138519316911697f, -0.0030088203493505716f, 0.2320881336927414f, -0.036583058536052704f, -0.07347835600376129f, -0.05484266206622124f, 0.049990080296993256f, 0.1849757879972458f, -0.016419237479567528f, 0.05492079257965088f, 0.08529365807771683f, -0.04445239156484604f, 0.05217127874493599f, -0.058682750910520554f, 0.03789488226175308f, -0.17648161947727203f, -0.10000360012054443f, -0.10350017249584198f, 0.04723401367664337f, -0.119175024330616f, 0.054600536823272705f, -0.1530207395553589f, -0.05222519859671593f, -0.07140784710645676f, -0.1106027141213417f, 0.018646540120244026f, -0.12903787195682526f, -0.025248568505048752f, 0.0714750736951828f, -0.32573848962783813f, 0.1769486963748932f, -0.34769928455352783f, -0.11804523319005966f, -0.030235623940825462f, 0.2534468173980713f, 0.07876879721879959f, -0.2695204019546509f, 0.26764562726020813f, -0.16329585015773773f, -0.008146337233483791f, -0.10120697319507599f, 0.14241109788417816f, 0.1544787585735321f, -0.10359153151512146f, -0.15737274289131165f, -0.15990079939365387f, -0.03757341206073761f, 0.08819331228733063f, -0.004468124359846115f, -0.053096968680620193f, -0.06373952329158783f, -0.17003695666790009f, 0.1398322880268097f, -0.14169445633888245f, -0.06819474697113037f, -0.04696450009942055f, 0.1197996735572815f, 0.0032116661313921213f, 0.06903015822172165f, -0.0054464684799313545f, -0.12387293577194214f, 0.1661820411682129f, -0.06973830610513687f, -0.07330722361803055f, 0.03855281323194504f, -0.016053149476647377f, 0.24556957185268402f, -0.06025625392794609f, 0.07179821282625198f, -0.002319691237062216f, -0.04510556533932686f, -0.08901529014110565f, -0.10590574145317078f, 0.09132150560617447f, -0.04045666381716728f, 0.007249743212014437f, -0.09407298266887665f, 0.0042873285710811615f, -0.023072509095072746f, 0.0201744195073843f, 0.020668916404247284f, -0.16761405766010284f, -0.12730683386325836f, 0.13717153668403625f, 0.06230004131793976f, 0.15752354264259338f, -0.016384128481149673f, -0.07884509116411209f, -0.052093636244535446f, 0.01741660386323929f, -0.02536655217409134f, -0.07188864052295685f, -0.034801334142684937f, 0.052809275686740875f, -0.18637537956237793f, -0.10205764323472977f, 0.06234506145119667f, 0.22145941853523254f, 0.12804757058620453f, -0.2060851752758026f, 0.034615419805049896f, -0.15687382221221924f, 0.3526190221309662f, 0.0012476418633013964f, -0.050477851182222366f, 0.03513854369521141f, 0.02360152080655098f, -0.03543633222579956f, -0.06640007346868515f, -0.005985872820019722f, -0.16557586193084717f, -0.39842814207077026f, -0.28846797347068787f, -0.14392989873886108f, 0.03198518604040146f, -0.0025221991818398237f, 0.07728997617959976f, 0.10399527847766876f, 0.1646655797958374f, -0.12334603071212769f, -0.016773071140050888f, -0.10227308422327042f, -0.13721351325511932f, 0.007007429376244545f, -0.03089962527155876f, -0.058945659548044205f, 0.012241109274327755f, -0.09812799096107483f, -0.002051561838015914f, -0.023192107677459717f, 0.051649048924446106f, 0.04855918511748314f, -0.08095861971378326f, -0.05448361113667488f, -0.09887582063674927f, 0.020153598859906197f, 0.21067006886005402f, 0.15582165122032166f, 0.22909030318260193f, -0.06889624893665314f, 0.09627291560173035f, -0.0010612033074721694f, -0.294595867395401f, 0.016340455040335655f, -0.10448314994573593f, 0.11130956560373306f, -0.06703588366508484f, 0.07481851428747177f, -0.08242903649806976f, -0.04415057227015495f, -0.0812717154622078f, -0.2273874133825302f, 0.060204774141311646f, 0.23759184777736664f, -0.02345629222691059f, 0.084487684071064f, 0.002363631734624505f, 0.0008391437586396933f, -0.12391547113656998f, -0.18257763981819153f, 0.007971751503646374f, 0.0157710500061512f, 0.23407739400863647f, -0.04378513991832733f, 0.019321726635098457f, 0.07860283553600311f, -0.07653042674064636f, 0.03871558979153633f, 0.0917736291885376f, 0.08192475140094757f, -0.06888353079557419f, -0.052295196801424026f, -0.021631741896271706f, -0.026746632531285286f, 0.08664309978485107f, 0.11695803701877594f, -0.04608272388577461f, -0.12680989503860474f, 0.039866119623184204f, 0.060443807393312454f, -0.044526129961013794f, 0.0744844526052475f, 0.11550696194171906f, -0.05460111424326897f, -0.015593789517879486f, -0.1689978837966919f, 0.15656737983226776f, -0.19113197922706604f, 0.0688072144985199f, 0.21120712161064148f, -0.27208641171455383f, 0.0873914361000061f, -0.019698789343237877f, 0.2636280059814453f, -0.0693291649222374f, -0.26482445001602173f, 0.01697470247745514f, -0.09432513266801834f, 0.22703701257705688f, -0.2877192199230194f, -0.06867282837629318f, 0.04440119490027428f, -0.10533856600522995f, 0.22443966567516327f, -0.14196744561195374f, -0.06103060767054558f, -0.06039945036172867f, -0.15486207604408264f, 0.0021591568365693092f, -0.09178884327411652f, 0.14086498320102692f, 0.0018141473410651088f, -0.0458531491458416f, -0.02614440582692623f, 0.11061050742864609f, 0.24303162097930908f, 0.09166155755519867f, -0.28629034757614136f, -0.13479207456111908f, -0.00772516056895256f, 0.028321165591478348f, 0.1415964961051941f, -0.007500746753066778f, 0.10722868889570236f, -0.015975868329405785f, 0.0349903404712677f, 0.06666883081197739f, 0.1255335658788681f, 0.1434042602777481f, 0.018633102998137474f, 0.06927865743637085f, -0.17649637162685394f, 0.004658336751163006f, -0.03423740714788437f, 0.12093227356672287f, -0.210266575217247f, -0.034594591706991196f, -0.13263064622879028f, 0.016849756240844727f, 0.05546911805868149f, -0.044199615716934204f, 0.1327265352010727f, -0.08921442180871964f, -0.08200991153717041f, 0.08497664332389832f, 0.23045894503593445f, 0.019548125565052032f, 0.1223137229681015f, -0.0761515274643898f, 0.10479527711868286f, -0.13881783187389374f, -0.06566620618104935f, -0.09599088877439499f, 0.04718465730547905f, 0.013621402904391289f, 0.001421661814674735f, 0.10755040496587753f, -0.1252705305814743f, -0.130711168050766f, -0.07025527209043503f, 0.22134281694889069f, 0.27333930134773254f, -0.14719820022583008f, 0.006523405201733112f, 0.1260881870985031f, 0.09762977063655853f, -0.135544091463089f, -0.20485512912273407f, -0.15359047055244446f, 0.174276664853096f, -0.06425436586141586f, 0.23432309925556183f, 0.13583862781524658f, 0.12070976197719574f, 0.008793032728135586f, -0.02516244910657406f, -0.04686480388045311f, 0.14117270708084106f, 0.019971201196312904f, -0.3321818709373474f, 0.11166370660066605f, 0.12158173322677612f, -0.041702479124069214f, -0.09120062738656998f, -0.008440024219453335f, -0.22963973879814148f, 0.15641666948795319f, -0.19531230628490448f, -0.017972514033317566f, -0.04057646542787552f, -0.14014789462089539f, -0.0715344026684761f, -0.09807956218719482f, -0.016800975427031517f, 0.06379056721925735f, 0.03379972279071808f, -0.08820903301239014f, -0.04012041166424751f, -0.15544790029525757f, -0.17526528239250183f, 0.026051823049783707f, -0.02581791765987873f, -0.02918539196252823f, 0.11299815028905869f, 0.05258971452713013f, -0.12684591114521027f, -0.03393824025988579f, -0.21482868492603302f, -0.0027446753811091185f, 0.23462718725204468f, -0.23057402670383453f, 0.285734623670578f, -0.019863566383719444f, 0.05685983970761299f, 0.029830915853381157f, -0.041533730924129486f, -0.011578794568777084f, -0.2638516128063202f, 0.09059590101242065f, -0.14896990358829498f, 0.18372361361980438f, -0.24476495385169983f, 0.15421676635742188f, -0.19830991327762604f, 0.01093034353107214f, 0.10628668963909149f, -0.1206984892487526f, 0.047940149903297424f, -0.016640232875943184f, 0.01803920790553093f, -0.2500165104866028f, -0.030769793316721916f, -0.11639953404664993f, 0.0899810716509819f, -0.1319330483675003f, -0.005862347315996885f, -0.16542817652225494f, -0.17524453997612f, -0.22358450293540955f, -0.1763085275888443f, 0.08273085951805115f, 0.11703531444072723f, -0.0901871845126152f, 0.22844502329826355f, 0.09425182640552521f, 0.023903947323560715f, -0.21073904633522034f, 0.06340862810611725f, -0.00185586407314986f, 0.034273646771907806f, -0.2060808688402176f, 0.19849422574043274f, 0.12141956388950348f, 0.010881426744163036f, 0.021767545491456985f, -0.046275828033685684f, 0.11098020523786545f, 0.1482853889465332f, -0.10640666633844376f, -0.025255095213651657f, 0.2575656771659851f, 0.17606571316719055f, 0.12953965365886688f, -0.08180540800094604f, -0.0799267366528511f, 0.031234782189130783f, -0.0873049795627594f, -0.1802973598241806f, 0.04460800066590309f, 0.0532381497323513f, -0.04687388613820076f, 0.00796811655163765f, -0.15053603053092957f, 0.13347899913787842f, 0.11511765420436859f, -0.014500540681183338f, 0.11824687570333481f, 0.32102125883102417f, 0.07974115759134293f, -0.20051804184913635f, -0.016313571482896805f, -0.07747675478458405f, 0.020151684060692787f, -0.09967856854200363f, 0.2601100206375122f, 0.04239065200090408f, -0.037580475211143494f, -0.09138000756502151f, -0.026601120829582214f, -0.22678665816783905f, 0.06346367299556732f, 0.291616290807724f, 0.034699052572250366f, -0.03197279945015907f, 0.023814979940652847f, 0.13922300934791565f, 0.03186706081032753f, 0.1391487717628479f, 0.0482417568564415f, 0.03782982379198074f, -0.1717473268508911f, -0.1522420197725296f, -0.18255369365215302f, 0.04109419137239456f, 0.047144677489995956f, -0.010746730491518974f, 0.011838680133223534f, 0.22807782888412476f, -0.08998171240091324f, -0.00737798074260354f, 0.022781115025281906f, -0.15012310445308685f, -0.030080830678343773f, -0.025070907548069954f, 0.15622864663600922f, 0.12092915177345276f, 0.34253230690956116f, -0.016542840749025345f, 0.014187983237206936f, -0.13312426209449768f, -0.16422094404697418f, 0.07233316451311111f, -0.03994201123714447f, 0.11464191973209381f, 0.06230540573596954f, 0.15902656316757202f, -0.11652275174856186f, -0.07159969955682755f, 0.025130879133939743f, -0.05327353626489639f, -0.20833081007003784f, -0.37572407722473145f, 0.14325405657291412f, 0.021233465522527695f, -0.030285589396953583f, -0.023496631532907486f, -0.04423276335000992f, -0.07192318141460419f, -0.17312783002853394f, 0.13256406784057617f, 0.2651445269584656f, -0.035355113446712494f, 0.11908332258462906f, 0.18272124230861664f, 0.05509867146611214f, 0.027080701664090157f, -0.11235687136650085f, 0.4266121983528137f, -0.07589881122112274f, 0.16894471645355225f, -0.14304058253765106f, -0.060820553451776505f, 0.17082521319389343f, 0.04382139444351196f, -0.125459685921669f, 0.029335975646972656f, 0.0804581493139267f, 0.19815446436405182f, 0.14441025257110596f, -0.13310018181800842f, -0.05995476245880127f, 0.1331615149974823f, 0.16063719987869263f, -0.09309442341327667f, 0.14093275368213654f, -0.22930051386356354f, 0.09638964384794235f, -0.003711194731295109f, -0.3998582661151886f, 0.21082885563373566f, -0.005302437115460634f, -0.020023953169584274f, -0.10148877650499344f, 0.11125630885362625f, 0.0486222542822361f, -0.14790105819702148f, 0.06658558547496796f, -0.10063442587852478f, -0.06651464849710464f, 0.07354196906089783f, -0.030310051515698433f, 0.1628352552652359f, 0.010777690447866917f, 0.10283305495977402f, -0.08822741359472275f, -0.13447867333889008f, 0.11992579698562622f, 0.17452307045459747f, -0.20825347304344177f, -0.043769579380750656f, 0.12587665021419525f, 0.30566221475601196f, -0.12352988123893738f, -0.10841163992881775f, -0.1393958479166031f, 0.33522331714630127f, -0.12925244867801666f, -0.13346120715141296f, -0.02683684602379799f, 0.0075004915706813335f, 0.08833617717027664f, 0.032508186995983124f, 0.07924006879329681f, -0.17136576771736145f, -0.13078990578651428f, -0.2435387372970581f, 0.027772365137934685f, -0.02615448273718357f, 0.005742405075579882f, 0.19945846498012543f, 0.1740393042564392f, 0.13100720942020416f, 0.15886110067367554f, 0.14227242767810822f, -0.008106710389256477f, -0.11518821865320206f, 0.02414328046143055f, -0.08707400411367416f, 0.00503038614988327f, 0.17044997215270996f, 0.02800266444683075f, 0.1065993383526802f, 0.03231711685657501f, -0.03176673501729965f, 0.04085863009095192f, -0.06904594600200653f, -0.06519126892089844f, 0.26452434062957764f, -0.2341349869966507f, 0.24328266084194183f, -0.07577671110630035f, 0.11686782538890839f, 0.04813169315457344f, 0.12511205673217773f, -0.1421411633491516f, -0.4230054020881653f, 0.13813558220863342f, 0.12951447069644928f, -0.021831858903169632f, -0.034735940396785736f, -0.04241695627570152f, -0.059137698262929916f, 0.022971883416175842f, 0.11609520018100739f, 0.11653870344161987f, 0.03537200763821602f, -0.3358980715274811f, 0.12093926221132278f, -0.03894857317209244f, 0.18793265521526337f, -0.10891308635473251f, 0.0696386843919754f, 0.23396191000938416f, 0.17128834128379822f, 0.1327909529209137f, -0.010414736345410347f, -0.01884816773235798f, 0.21122026443481445f, -0.02826514281332493f, -0.02319944091141224f, -0.12244357168674469f, -0.10402736067771912f, -0.12321554869413376f, -0.20357707142829895f, -0.3489580750465393f, -0.048219144344329834f, 0.13295382261276245f, -0.3014450967311859f, 0.1838368922472f, -0.21279087662696838f, -0.24958059191703796f, -0.026259202510118484f, 0.011030043475329876f, -0.23745721578598022f, 0.1603068709373474f, 0.03082025796175003f, -0.15378500521183014f, -0.22619134187698364f, -0.1642131805419922f, 0.036363258957862854f, -0.08889355510473251f, 0.024486413225531578f, 0.3615666329860687f, 0.13510969281196594f, -0.22216060757637024f, -0.04300052300095558f, 0.08825638145208359f, -0.010415010154247284f, -0.1489221304655075f, -0.12984590232372284f, -0.06403854489326477f, -0.1731196939945221f, 0.1275757998228073f, -0.21576039493083954f, -0.21742869913578033f, -0.01734946109354496f, 0.13662131130695343f, 0.2102302759885788f, -0.16057968139648438f, -0.37986084818840027f, 0.2018008679151535f, 0.09010820090770721f, 0.039094313979148865f, -0.11419439315795898f, -0.07313117384910583f, -0.36460018157958984f, 0.0691826269030571f, -0.2800345718860626f, 0.19683854281902313f, -0.12044030427932739f, 0.11505024135112762f, -0.198214590549469f, 0.002170633990317583f, 0.19117122888565063f, 0.12517349421977997f, -0.08681736886501312f, 0.15561270713806152f, -0.09044496715068817f, 0.25940895080566406f, 0.07958165556192398f, 0.06319203227758408f, -0.061092689633369446f, -0.13963402807712555f, 0.00291374116204679f, 0.08413472026586533f, 0.16348667442798615f, -0.24462246894836426f, 0.11436950415372849f, -0.080813929438591f, 0.04526481032371521f, 0.06373780220746994f, 0.313704252243042f, -0.12137804180383682f, -0.016272658482193947f, -0.19286273419857025f, 0.22456535696983337f, 0.03562572970986366f, -0.11942090839147568f, -0.17643289268016815f, -0.040164582431316376f, 0.18664728105068207f, 0.0001842087076511234f, -0.08337265253067017f, -0.01842336356639862f, 0.10427325963973999f, 0.2934550642967224f, -0.1122712790966034f, 0.0656857043504715f, 0.23598980903625488f, 0.18020601570606232f, 0.12905964255332947f, -0.14151886105537415f, -0.013194785453379154f, 0.2326369434595108f, -0.14804986119270325f, -0.036081958562135696f, 0.06281077116727829f, 0.3623459041118622f, 0.006178040988743305f, 0.05909879878163338f, -0.35471540689468384f, -0.004318572580814362f, 0.11811750382184982f, 0.2613399922847748f, -0.07623355835676193f, 0.06783432513475418f, -0.2770114839076996f, -0.010965106077492237f, 0.08131078630685806f, -0.173082634806633f, 0.06940149515867233f, 0.019049737602472305f, -0.15030816197395325f, -0.3119049370288849f, -0.19669750332832336f, 0.13052454590797424f, 0.01879119500517845f, -0.19611205160617828f, 0.14469420909881592f, 0.09640609472990036f, -0.29346171021461487f, -0.042729754000902176f, 0.05637916550040245f, -0.004251349717378616f, -0.0020369209814816713f, -0.15630413591861725f, -0.02444896660745144f, -0.014670881442725658f, -0.1103733479976654f, -0.35190922021865845f, -0.07570324093103409f, 0.043984245508909225f, 0.12301453948020935f, 0.147649347782135f, -0.15574954450130463f, -0.15433788299560547f, 0.17272058129310608f, -8.336062455782667e-05f, 0.06490175426006317f, -0.2951515018939972f, -0.028379099443554878f, -0.12664256989955902f, 0.17247334122657776f, 0.1527567207813263f, 0.21875710785388947f, -0.00925480853766203f, -0.047513388097286224f, -0.2887009084224701f, -0.03617014363408089f, -0.09847681224346161f, -0.0421215184032917f, -0.017707394436001778f, -0.05818725377321243f, 0.07384349405765533f, 0.09591612219810486f, 0.17326320707798004f, 0.22970359027385712f, -0.11560752242803574f, -0.19633886218070984f, -0.17567111551761627f, 0.15277978777885437f, 0.23821797966957092f, -0.2778439223766327f, 0.0701742023229599f, 0.03675736486911774f, -0.43823331594467163f, 0.03095719963312149f, 0.20344309508800507f, 0.04124319925904274f, -0.10440107434988022f, 0.08424443751573563f, 0.10690606385469437f, 0.1090579479932785f, 0.0026046375278383493f, 0.14167740941047668f, -0.039102569222450256f, -0.05625518411397934f, 0.2777477204799652f, -0.21595288813114166f, -0.08414927124977112f, -0.04131096601486206f, -0.028616663068532944f, -0.06575403362512589f, -0.034303952008485794f, -0.09704090654850006f, 0.3456326425075531f, 0.1981121301651001f, -0.17330384254455566f, -0.06424830853939056f, 0.15747743844985962f, 0.11716624349355698f, 0.09193414449691772f, 0.29975441098213196f, -0.1574019193649292f, 0.24460949003696442f, -0.03461408242583275f, -0.4284030497074127f, -0.04992102086544037f, 0.1383400857448578f, 0.06467732042074203f, -0.05226023122668266f, 0.15276844799518585f, -0.09573708474636078f, 0.09404609352350235f, 0.04480190575122833f, -0.173946350812912f, -0.11776496469974518f, 0.0467405766248703f, -0.03182678669691086f, -0.08846482634544373f, -0.15090350806713104f, 0.08066639304161072f, 0.07415404915809631f, -0.1212359294295311f, -0.017574314028024673f, 0.3997412919998169f, -0.16863344609737396f, -0.13524645566940308f, 0.09999614208936691f, -0.08193077147006989f, 0.0707535520195961f, 0.07730145752429962f, -0.1537577211856842f, 0.21094092726707458f, -0.20903131365776062f, -0.19447532296180725f, 0.023313291370868683f, 0.1656501591205597f, 0.19890014827251434f, -0.2040432244539261f, -0.09493973106145859f, -0.09175440669059753f, 0.17690230906009674f, -0.5002968907356262f, -0.004439167212694883f, 0.08036117255687714f, -0.16879796981811523f, 0.03417430445551872f, 0.2178046554327011f, 0.044756654649972916f, -0.07235629856586456f, 0.02340642549097538f, 0.026757216081023216f, -0.17122884094715118f, 0.11936617642641068f, -0.2874825596809387f, 0.1460200548171997f, 0.06323476135730743f, -0.22451411187648773f, 0.259461373090744f, 0.21786439418792725f };
alignas(16) float conv2d_3_BIAS[] = { 2.363541603088379f, 3.0046980381011963f, 1.991052508354187f, 1.2918909788131714f, -0.0691661462187767f, -1.0330098867416382f, 0.20181439816951752f, -0.3108997941017151f };
alignas(16) float conv2d_4_WEIGHTS[] = { -0.11379597336053848f, -0.011152013204991817f, -0.042583804577589035f, 0.025130508467555046f, -0.04014841839671135f, 0.014030646532773972f, -0.0901464968919754f, -0.11631469428539276f, 0.0064035807736217976f, -0.384772926568985f, 0.0031363179441541433f, 0.011115211993455887f, -0.0030673218425363302f, 0.003650797763839364f, -0.067174531519413f, 0.023404836654663086f, -0.07813987135887146f, -0.19035279750823975f, -0.07018648833036423f, 0.16106227040290833f, -0.16805776953697205f, 0.13991060853004456f, 0.04009098559617996f, -0.05632513388991356f, -0.15375077724456787f, -0.13592880964279175f, -0.10684548318386078f, -0.054673951119184494f, -0.025885282084345818f, -0.020359262824058533f, -0.12215331196784973f, 0.15934601426124573f, -0.10362367331981659f, -0.11778952181339264f, -0.04065702110528946f, 0.040076956152915955f, -0.10798197239637375f, 0.07846994698047638f, -0.12687407433986664f, -0.04026155546307564f, 0.12924811244010925f, -0.01386851817369461f, 0.06382047384977341f, 0.45193788409233093f, 0.08751413971185684f, 0.047582559287548065f, -0.013164970092475414f, 0.15774506330490112f, 0.08499249070882797f, 0.003960806410759687f, 0.007665260694921017f, 0.26974985003471375f, -0.08395452797412872f, 0.0649072602391243f, 0.11383607238531113f, -0.03612174838781357f, 0.06580304354429245f, -0.27251219749450684f, -0.07304846495389938f, -0.07823846489191055f, -0.0854494497179985f, 0.22751523554325104f, -0.10895049571990967f, 0.2193402200937271f, 0.06725793331861496f, 0.03368321806192398f, -0.17133548855781555f, -0.04799293354153633f, -0.04431401565670967f, -0.046314090490341187f, -0.001749267103150487f, -0.010957415215671062f, 0.21374903619289398f, -0.1301514059305191f, -0.018340762704610825f, 0.007725567556917667f, 0.13707983493804932f, -0.044418517500162125f, -0.14359785616397858f, -0.038913507014513016f, -0.05117829889059067f, 0.0448930487036705f, 0.1548549085855484f, -0.06613236665725708f, 0.020651938393712044f, -0.04438174515962601f, -0.04212012514472008f, -0.011377224698662758f, 0.01810786873102188f, 0.015412529930472374f, -0.17232757806777954f, 0.05671702325344086f, -0.00664318585768342f, 0.17330190539360046f, -0.1868640035390854f, -0.3503877818584442f, -0.004421222489327192f, -0.09299170970916748f, -0.056959155946969986f, -0.030931491404771805f, -0.09252293407917023f, -0.07389932125806808f, 0.04641013592481613f, -0.03553220257163048f, 0.014308890327811241f, -0.034243617206811905f, -0.12510830163955688f, 0.16079756617546082f, -0.02242044173181057f, 0.08352550864219666f, -0.04820415750145912f, 0.027636950835585594f, -0.09581273049116135f, 0.18171776831150055f, 0.2651733160018921f, -0.09295384585857391f, -0.05976591259241104f, 0.021869419142603874f, 0.11012294143438339f, -0.058962270617485046f, -0.32443302869796753f, 0.02794438600540161f, -0.08700138330459595f, -0.10917481034994125f, 0.018947942182421684f, -0.0791340321302414f, 0.14044393599033356f, -0.07707901298999786f, -0.03330487385392189f, -0.059301506727933884f, 0.06886225938796997f, 0.13697859644889832f, -0.04105482995510101f, -0.15159347653388977f, -0.009749433025717735f, -0.1701321005821228f, 0.21037563681602478f, 0.24957428872585297f, -0.15830670297145844f, -0.13526278734207153f, 0.048987340182065964f, 0.05958012863993645f, -0.11761721223592758f, 0.021842636168003082f, 0.053889524191617966f, 0.15791456401348114f, -0.011579473502933979f, 0.12754304707050323f, -0.0760868489742279f, 0.04895889014005661f, -0.32622194290161133f, -0.07316278666257858f, 0.060256388038396835f, -0.05251125991344452f, -0.17565687000751495f, 0.17565682530403137f, -0.0013476990861818194f, 0.12061609327793121f, -0.012166262604296207f, 0.04029092937707901f, 0.29059144854545593f, 0.062268003821372986f, -0.07512752711772919f, 0.16633149981498718f, -0.1666979044675827f, 0.007108596619218588f, -0.0690845176577568f, 0.07158903032541275f, 0.10728326439857483f, -0.1974315643310547f, 0.0006695588817819953f, 0.14872336387634277f, -0.13290540874004364f, -0.0829697921872139f, -0.044930338859558105f, -0.11749774217605591f, -0.10434125363826752f, 0.034341610968112946f, -0.1094336286187172f, 0.12908661365509033f, -0.02799101546406746f, -0.010136088356375694f, 0.03685687854886055f, 0.01281020138412714f, -0.034372128546237946f, 0.13420355319976807f, 0.032036613672971725f, 0.02118474431335926f, -0.08488951623439789f, -0.04065164178609848f, 0.08560404926538467f, 0.16807225346565247f, -0.03097723238170147f, 0.025753695517778397f, -0.07704322040081024f, -0.07936413586139679f, -0.05473264306783676f, -0.1273319125175476f, -0.072563037276268f, 0.13450589776039124f, 0.08301916718482971f, 0.14992764592170715f, 0.0332634299993515f, -0.25074511766433716f, 0.12374110519886017f, -0.06698081642389297f, 0.04676837846636772f, 0.10732343792915344f, -0.06369277834892273f, 0.042759235948324203f, 0.0398796945810318f, -0.010867895558476448f, -0.0033659518230706453f, 0.18069729208946228f, 0.09816927462816238f, -0.060155633836984634f, -0.12702971696853638f, 0.04794500768184662f, -0.09719675034284592f, 0.5603873133659363f, 0.003145605558529496f, 0.11204498261213303f, 0.07711564004421234f, -0.14204175770282745f, 0.01497885026037693f, -0.009592330083251f, 0.02183549478650093f, 0.001401194604113698f, -0.03890880569815636f, 0.02416243962943554f, 0.2570037841796875f, 0.03732674941420555f, -0.0789070650935173f, 0.08449039608240128f, -0.05783930793404579f, 0.1590903103351593f, -0.07044591754674911f, -0.007261105813086033f, -0.059320565313100815f, 0.019295044243335724f, 0.04086264595389366f, 0.06278276443481445f, 0.10034020245075226f, -0.10940935462713242f, 0.06321630626916885f, -0.018762938678264618f, -0.17401912808418274f, -0.09243834763765335f, 0.07222635298967361f, -0.05948769673705101f, 0.2845173478126526f, 0.1825086772441864f, 0.05230974406003952f, -0.07816961407661438f, -0.03301611542701721f, -0.09211218357086182f, -0.023649044334888458f, -0.24217744171619415f, 0.13194262981414795f, 0.10717544704675674f, -0.1100396141409874f, 0.013810249045491219f, 0.04628773406147957f, -0.06438665837049484f, 0.06907150894403458f, 0.285287469625473f, 0.06565802544355392f, 0.3839111924171448f, -0.12129724025726318f, -0.033582184463739395f, -0.24514010548591614f, -0.1114262193441391f, 0.03501391410827637f, 0.07317999005317688f, 0.08900342881679535f, 0.03089783899486065f, -0.15417322516441345f, 0.07109569013118744f, 0.029854057356715202f, 0.032962504774332047f, 0.06570088118314743f, 0.08516126126050949f, -0.02975185215473175f, 0.08724812418222427f, 0.03262006491422653f, -0.029116882011294365f, -0.10406456142663956f, 0.1190749853849411f, -0.1240728497505188f, -0.1363435685634613f, 0.10601729154586792f, 0.014086422510445118f, -0.07656396180391312f, -0.11238756775856018f, 0.2561911642551422f, 0.023013103753328323f, 0.101973757147789f, -0.3562120497226715f, -0.1290636658668518f, -0.28049853444099426f, -0.07225891202688217f, 0.1413530558347702f, 0.035197362303733826f, -0.00809217244386673f, 0.13716277480125427f, -0.02563207410275936f, -0.03386539965867996f, -0.00450549554079771f, -0.2197503000497818f, 0.030439844354987144f, 0.024929383769631386f, -0.07583224773406982f, 0.010867205448448658f, -0.0750875473022461f, -0.0504368394613266f, -0.07930053025484085f, -0.15898609161376953f, 0.3444964587688446f, 0.3085431158542633f, 0.14249926805496216f, 1.1249965609749779e-05f, -0.1861928403377533f, 0.13479450345039368f, -0.21060040593147278f, -0.08557253330945969f, 0.087110236287117f, 0.009609282948076725f, -0.048938192427158356f, 0.07609178870916367f, -0.18585743010044098f, 0.16841621696949005f, 0.17307400703430176f, -0.07082114368677139f, -0.008688628673553467f, -0.010419953614473343f, 0.11952833086252213f, 0.09288032352924347f, -0.07075680792331696f, 0.10906843841075897f, -0.12419687956571579f, -0.04809455946087837f, -0.05592099949717522f, 0.29168450832366943f, -0.22907036542892456f, -0.03575374186038971f, -0.059916459023952484f, -0.1178753599524498f, -0.06719198077917099f, -0.007738000713288784f, 0.10930894315242767f, -0.005701309069991112f, -0.1449218988418579f, -0.16164016723632812f, 0.007601509336382151f, 0.045403510332107544f, 0.07644132524728775f, 0.011196892708539963f, 0.15550513565540314f, 0.17118822038173676f, 0.044175632297992706f, -0.0538807138800621f, 0.094699427485466f, -0.0066753108985722065f, -0.21488149464130402f, 0.14917616546154022f, -0.13200800120830536f, -0.1932460367679596f, 0.06175168231129646f, -0.050347473472356796f, -0.09701017290353775f, 0.03969328850507736f, -0.20359250903129578f, -0.041211340576410294f, -0.19686199724674225f, 0.023719830438494682f, 0.004260307177901268f, 0.10208442807197571f, 0.020296206697821617f, 0.19570240378379822f, -0.09144143015146255f, -0.0660332664847374f, 0.041835833340883255f, 0.15221092104911804f, 0.08303706347942352f, 0.04425927251577377f, 0.03019966557621956f, 0.10430576652288437f, 0.021661173552274704f, 0.05000840127468109f, -0.02542390674352646f, -0.2868300676345825f, -0.12667103111743927f, -0.03422698751091957f, -0.2863844633102417f, 0.025016410276293755f, 0.018966153264045715f, 0.0968797579407692f, -0.002437925199046731f, -0.05746304616332054f, 0.08001985400915146f, -0.04955160245299339f, -0.02701088786125183f, -0.1581743061542511f, -0.05893710255622864f, -0.027356496080756187f, 0.2397729456424713f, -0.10460195690393448f, -0.008726397529244423f, 0.020611189305782318f, 0.08555928617715836f, 0.11807551234960556f, -0.07175015658140182f, -0.02100701816380024f, -0.1323694884777069f, -0.07116079330444336f, -0.18492832779884338f, -0.19397957623004913f, -0.06615012884140015f, 0.18873083591461182f, -0.005433976650238037f, -0.034308116883039474f, -0.010282269679009914f, -0.15231792628765106f, -0.024469614028930664f, 0.02825542353093624f, -0.08096295595169067f, 0.05122305452823639f, 0.1764349490404129f, 0.09023052453994751f, -0.053710851818323135f, -0.014119422994554043f, -0.00540292588993907f, -0.08584616333246231f, 0.058204155415296555f, 0.02756619080901146f, 0.013015196658670902f, 0.04745812341570854f, 0.09936511516571045f, 0.007823949679732323f, -0.005388109479099512f, -0.0024109261576086283f, 0.11083235591650009f, -0.04081716015934944f, -0.22241652011871338f, 0.08359146118164062f, 0.057916995137929916f, 0.012474223971366882f, 0.18891163170337677f, 0.1023900955915451f, -0.03131001815199852f, -0.016735900193452835f, -0.11380854994058609f, 0.017046285793185234f, -0.10868356376886368f, -0.11252555251121521f, 0.047568101435899734f, 0.2262273132801056f, -0.22548158466815948f, 0.15351003408432007f, -0.17283543944358826f, 0.0722075030207634f, -0.1760004311800003f, -0.12886564433574677f, -0.14217038452625275f, -0.11477161198854446f, 0.015108280815184116f, -0.09981032460927963f, -0.0754147469997406f, -0.08804336935281754f, 0.004144702106714249f, -0.250056654214859f, 0.03967166692018509f, 0.0029035380575805902f, 0.06981929391622543f, -0.06201519817113876f, -0.17749105393886566f, -0.027629539370536804f, 0.00654151476919651f, -0.015887854620814323f, -0.2666718661785126f, -0.20706741511821747f, -0.02276606671512127f, 0.009718179702758789f, 0.06186029314994812f, 0.01793954148888588f, 0.07907798886299133f, 0.0008049364550970495f, -0.0543661043047905f, 0.06783074885606766f, -0.06331321597099304f, -0.06562495231628418f, -0.06293502449989319f, 0.01857878640294075f, 0.0051682391203939915f, 0.00566776841878891f, 0.16407035291194916f, 0.07559560239315033f, 0.10504632443189621f, 0.10272970795631409f, -0.02398887276649475f, -0.08010616153478622f, -0.015290794894099236f, -0.14624933898448944f, 0.014244619756937027f, -0.060950733721256256f, -0.15219393372535706f, 0.06522411108016968f, -0.14120006561279297f, 0.04505274072289467f, 0.028718119487166405f, 0.03204423934221268f, -0.24847736954689026f, -0.10601083189249039f, -0.16599895060062408f, 0.05120348930358887f, -0.028224747627973557f, -0.017674831673502922f, -0.14285916090011597f, -0.06523103266954422f, -0.17111670970916748f, 0.13249239325523376f, 0.19472090899944305f, 0.23234087228775024f, -0.11572428047657013f, 0.05094534531235695f, -0.08615592867136002f, -0.08024010807275772f, -0.09018916636705399f, 0.11259043961763382f, 0.11453724652528763f, -0.1585143357515335f, -0.08500421047210693f, 0.04759294539690018f, 0.04740062355995178f, 0.08565104007720947f, -0.013600493781268597f, -0.07587417215108871f, -0.1717032939195633f, 0.15165984630584717f, 0.05601254105567932f, -0.015337437391281128f, -0.16618183255195618f, 0.03534835949540138f, -0.011334637179970741f, 0.15984761714935303f, -0.010459083132445812f, 0.01968737132847309f, 0.06718052178621292f, -0.039796795696020126f, -0.02991260401904583f, 0.1388840526342392f, 0.10361097007989883f, 0.01829727552831173f, 0.13170236349105835f, 0.08993785828351974f, -0.020150000229477882f, 0.027012942358851433f, -0.1485525369644165f, -0.12667736411094666f, 0.11053638160228729f, -0.02982543408870697f, 0.15822705626487732f, 0.027843104675412178f, -0.025625277310609818f, -0.0005236358265392482f, 0.0753430649638176f, -0.1603909134864807f, 0.08848317712545395f, 0.007384092081338167f, 0.10266923159360886f, 0.019216541200876236f, -0.16462476551532745f, 0.04364878684282303f, -0.13441188633441925f, 0.10736922919750214f, 0.14947466552257538f, 0.12038643658161163f, -0.11254268884658813f, -0.13165661692619324f, 0.04478241875767708f, 0.0434095673263073f, 0.04336091876029968f, -0.15998804569244385f, 0.08866504579782486f, 0.12808112800121307f, 0.16309040784835815f, 0.015114123933017254f, -0.001393713871948421f, -0.053575869649648666f, -0.014866487123072147f, -0.0604342557489872f, 0.043158117681741714f, 0.016951901838183403f, 0.054069649428129196f, -0.09469415992498398f, -0.07819775491952896f, 0.013056259602308273f, 0.06918004900217056f, -0.07260780781507492f, 0.09575290977954865f, 0.0002262531779706478f, -0.0028688092716038227f, -0.1418083906173706f, 0.23344965279102325f, -0.033177148550748825f, 0.1413615196943283f, -0.14569224417209625f, 0.10665160417556763f, -0.2821264863014221f, 0.021522754803299904f, -0.08610934764146805f, -0.03161938861012459f, 0.08260282874107361f, -0.049799878150224686f, 0.06295173615217209f, 0.1079278364777565f, -0.14292578399181366f, -0.08337746560573578f, 0.007384024560451508f, -0.31375718116760254f, 0.08760832250118256f, -0.04167445749044418f, -0.1406339406967163f, 0.03649090602993965f, -0.01594894751906395f, -0.007417839951813221f, 0.08571486175060272f, 0.10249558836221695f, 0.02006363682448864f, -0.058993954211473465f, 0.056143566966056824f, 0.021663522347807884f, 0.02838282287120819f, -0.016518816351890564f, 0.009048571810126305f, 0.09885522723197937f, 0.07408124953508377f, -0.06405119597911835f, -0.0847577154636383f, -0.21160008013248444f, -0.03986174985766411f, -0.14364732801914215f, 0.0946650430560112f, 0.004189553204923868f, 0.033325452357530594f, -0.05809842795133591f, -0.004261111840605736f, -0.09331488609313965f, -0.004034178331494331f, 0.038474589586257935f, 0.1634978950023651f, -0.10096447914838791f, -0.1382680982351303f, -0.18504181504249573f, 0.07676398754119873f, 0.15408679842948914f, 0.05999716743826866f, -0.0024952671956270933f, -0.047718629240989685f, -0.0068071563728153706f, -0.06652158498764038f, 0.07136213034391403f, 0.060756899416446686f, 0.06611748039722443f, -0.16033117473125458f, 0.1736837923526764f, 0.17277425527572632f, 0.17148201167583466f, 0.014192604459822178f, 0.020170049741864204f, 0.011848141439259052f, 0.303210973739624f, 0.03143282234668732f, -0.11937490105628967f, 0.1302221268415451f, -0.11993376165628433f, -0.049630023539066315f, 0.15477876365184784f, 0.23348034918308258f, -0.10141797363758087f, 0.07846749573945999f, -0.14049385488033295f, -0.11583578586578369f, -0.2626088857650757f, 0.0037372340448200703f, 0.0495939739048481f, 0.06127612292766571f, -0.02067859098315239f, -0.08012966811656952f, -0.04143023118376732f, 0.052493318915367126f, -0.008962403051555157f, 0.00512779550626874f, -0.09561257064342499f, -0.1748395562171936f, 0.024883227422833443f, 0.06234993040561676f, 0.029772846028208733f, 0.17847725749015808f, -0.22842736542224884f, -0.049484871327877045f, 0.06761443614959717f, -0.014061965979635715f, 0.13179108500480652f, 0.018916968256235123f, -0.031650085002183914f, 0.17105405032634735f, -0.1186530739068985f, 0.04552944004535675f, -0.10225306451320648f, -0.0775182843208313f, -0.16214309632778168f, 0.04070356860756874f, -0.16478730738162994f, 0.006683169864118099f, 0.18213394284248352f, -0.05504871904850006f, -0.0013639895478263497f, 0.06834430992603302f, 0.12524853646755219f, -0.11670366674661636f, -0.07280976325273514f, -0.008637695573270321f, 0.00985286571085453f, -0.05513176694512367f, 0.05567348375916481f, 0.2533925473690033f, -0.13434343039989471f, 0.00022711165365763009f, 0.08641023933887482f, 0.11911268532276154f, -0.11071395874023438f, -0.021110370755195618f, -0.06564155220985413f, -0.17657393217086792f, 0.28462615609169006f, -0.20263664424419403f, 0.022881465032696724f, -0.038365285843610764f, -0.030758412554860115f, 0.002162568038329482f, 0.20589137077331543f, 0.041784096509218216f, 0.03443386033177376f, -0.10380471497774124f, 0.0818287804722786f, -0.05349342152476311f, -0.18561574816703796f, 0.09431219100952148f, -0.1038992702960968f, -0.20636527240276337f, -0.0014800139470025897f, 0.028059272095561028f, 0.03164755925536156f, -0.0004464353551156819f, -0.008200421929359436f, 0.0163912083953619f, -0.12523268163204193f, 0.14480409026145935f, -0.11317338794469833f, -0.0128969457000494f, -0.10873087495565414f, 0.11813311278820038f, -0.1649436503648758f, -0.09575071930885315f, -0.0872698649764061f, -0.02283899113535881f, 0.0385931022465229f, 0.10947781056165695f, -0.024751732125878334f, 0.014742959290742874f, 0.035013966262340546f, 0.003217065241187811f, -0.10850463807582855f, 0.09246354550123215f, -0.03602626919746399f, 0.026705006137490273f, 0.005257615819573402f, -0.1377800554037094f, 0.13909471035003662f, 0.05899227410554886f, 0.1492028683423996f, -0.1165231317281723f, -0.0365544892847538f, -0.03509107604622841f, 0.14608588814735413f, 0.04689372330904007f, -0.23907779157161713f, -0.029579486697912216f, -0.009831005707383156f, 0.2894611656665802f, -0.04680619388818741f, -0.028229523450136185f, -0.1397235095500946f, -0.11772428452968597f, -0.10640472918748856f, 0.09786028414964676f, -0.04835759103298187f, -0.07252798229455948f, 0.007216614205390215f, -0.0296512171626091f, -0.04858323559165001f, 0.018519120290875435f, -0.09806498140096664f, -0.08279407024383545f, -0.035742051899433136f, -0.1421772688627243f, 0.05592525377869606f, 0.023187043145298958f, -0.06841803342103958f, -0.0278299730271101f, -0.26043030619621277f, 0.10469891130924225f, 0.21998447179794312f, -0.0784367024898529f, 0.15676608681678772f, -0.05723085626959801f, -0.004179184790700674f, 0.0921839103102684f, 0.10297475010156631f, -0.0209908876568079f, 0.05475470796227455f, -0.10620860010385513f, -0.07644263654947281f, -0.12232186645269394f, -0.24486061930656433f, -0.15706795454025269f, 0.18287748098373413f, 0.03945010527968407f, 0.08462739735841751f, 0.06163254380226135f, -0.3004415035247803f, 0.19488054513931274f, -0.144448921084404f, 0.012517263181507587f, -0.06378667801618576f, -0.0220184288918972f, -0.1313394010066986f, -0.276166170835495f, 0.08154935389757156f, 0.1772502064704895f, 0.004366125445812941f, -0.12130647152662277f, -0.08186223357915878f, -0.0446084626019001f, 0.09028779715299606f, -0.16179274022579193f, 0.02087966352701187f, -0.21326088905334473f, 0.0028135348111391068f, -0.03304627910256386f, 0.0939277932047844f, 0.15577279031276703f, -0.13043804466724396f, -0.248138889670372f, -0.14949744939804077f, -0.0077615403570234776f, 0.10736548900604248f, 0.033026911318302155f, 0.12719020247459412f, -0.02347353659570217f, -0.06211061775684357f, 0.20762360095977783f, 0.014636309817433357f, -0.09073079377412796f, -0.10061758756637573f, -0.1548466831445694f, -0.06470951437950134f, -0.04821445047855377f, 0.055528320372104645f, -0.0770171731710434f, 0.0912974551320076f, 0.07941313832998276f, 0.0701296254992485f, 0.22192944586277008f, -0.09748099744319916f, 0.007314445450901985f, 0.07361692935228348f, 0.014730021357536316f, 0.08767502009868622f, 0.16511444747447968f, 0.06250593066215515f, -0.2781204283237457f, 0.07239647209644318f, 0.04476561397314072f, 0.05564655736088753f, -0.04247239604592323f, 0.12410163134336472f, 0.10514609515666962f, -0.23334336280822754f, 0.14451611042022705f, -0.12196098268032074f, 0.03760935738682747f, 0.1630370169878006f, 0.015922488644719124f, -0.16381323337554932f, -0.06429952383041382f, -0.011198616586625576f, -0.15213756263256073f, 0.027031918987631798f, -0.06468230485916138f, -0.14571601152420044f, -0.4335213303565979f, -0.1207849457859993f, 0.01732119359076023f, 0.28805774450302124f, -0.18295778334140778f, -0.12811881303787231f, -0.012083516456186771f, 0.1023915484547615f, 0.08568337559700012f, -0.10065071284770966f, -0.1097966656088829f, 0.010429014451801777f, -0.13947337865829468f, -0.1789020597934723f, 0.09587220102548599f, -0.05873609334230423f, 0.255058228969574f, -0.06688462197780609f, -0.0048840842209756374f, -0.09717148542404175f, 0.03249455615878105f, -0.20291809737682343f, 0.19692052900791168f, -0.14376448094844818f, -0.1179523766040802f, 0.17460300028324127f, -0.121578149497509f, -0.10108493268489838f, 0.018239803612232208f, 0.0018697597552090883f, -0.14833879470825195f, -0.060567706823349f, -0.22475486993789673f, 0.048447899520397186f, 0.08179348707199097f, 0.009857101365923882f, 0.12020005285739899f, 0.0008588174823671579f, 0.027035383507609367f, 0.0396377332508564f, 0.029159458354115486f, 0.14690780639648438f, 0.006108182016760111f, -0.011819136328995228f, 0.02937314286828041f, -0.0796722024679184f, 0.01270320639014244f, 0.07396785914897919f, -0.07384520769119263f, 0.033030327409505844f, -0.04905276000499725f, -0.009483071975409985f, -0.23899699747562408f, -0.10592126101255417f, 0.05283227190375328f, 0.1277795135974884f, 0.06517886370420456f, -0.3551163673400879f, -0.06634096056222916f, -0.13046227395534515f, 0.008473824709653854f, 0.10035465657711029f, 0.010797071270644665f, -0.013800237327814102f, -0.34972333908081055f, -0.021402044221758842f, 0.06665284931659698f, 0.021656591445207596f, -0.07381743937730789f, -0.14223447442054749f, -0.12721900641918182f, 0.15526458621025085f, 0.03687150031328201f, -0.30075302720069885f, -0.21860294044017792f, -0.06745796650648117f, -0.028587576001882553f, -0.03432044759392738f, 0.15407095849514008f, 0.033726487308740616f, -0.016525940969586372f, 0.018128210678696632f, 0.021114278584718704f, -0.11166342347860336f, -0.15357007086277008f, 0.2250935286283493f, -0.05396242439746857f, -0.08149752020835876f, 0.14426188170909882f, 0.18993785977363586f, -0.1400710940361023f, -0.008905760012567043f, -0.051469769328832626f, 0.035011593252420425f, 0.009374772198498249f, -0.05033612251281738f, -0.5326440930366516f, 0.016890449449419975f, -0.041343122720718384f, -0.16276681423187256f, 0.13743747770786285f, -0.1521853655576706f, 0.008327668532729149f, 0.04705330729484558f, 0.04822516813874245f, 0.0755971297621727f, -0.20251144468784332f, 0.0005805330583825707f, -0.10190439224243164f, -0.019447656348347664f, 0.07665500789880753f, 0.0921613797545433f, 0.26678600907325745f, 0.016097165644168854f, -0.16456195712089539f, -0.38027262687683105f, -0.17937077581882477f, 0.2806234061717987f, -0.05859110876917839f, -0.033813755959272385f, -0.16911698877811432f, 0.050949882715940475f, 0.027041597291827202f, 0.071040078997612f, -0.07242387533187866f, -0.09286477416753769f, 0.041976749897003174f, -0.17863686382770538f, 0.17352010309696198f, -0.19640250504016876f, -0.1314612478017807f, 0.04095594212412834f, -0.17934255301952362f, -0.14540329575538635f, -0.03068249672651291f, -0.05899760499596596f, 0.06494404375553131f, 0.14138920605182648f, 0.2908230721950531f, 0.056199390441179276f, -0.13987618684768677f, -0.24389243125915527f, 0.06752488762140274f, 0.21897709369659424f, -0.12713108956813812f, -0.17112970352172852f, -0.14582592248916626f, 0.12451528012752533f, -0.02016960084438324f, 0.030743179842829704f, 0.08899591863155365f, 0.01041254960000515f, -0.08709898591041565f, 0.0672546997666359f, -0.07729742676019669f, 0.12747186422348022f, 0.07585069537162781f, -0.12886257469654083f, -0.028525011613965034f, 0.07086653262376785f, -0.07305837422609329f, -0.2185763418674469f, 0.07906796038150787f, -0.27031657099723816f, 0.08520528674125671f, 0.3571317493915558f, -0.003585983067750931f, -0.13295501470565796f, -0.1387585550546646f, -0.25803545117378235f, -0.044514626264572144f, -0.04485878348350525f, 0.0875524953007698f, -0.1431795060634613f, 0.034443482756614685f, 0.05168613791465759f, -0.2755967974662781f, 0.059045806527137756f, 0.04832465946674347f, -0.10986127704381943f, -0.1667945384979248f, 0.11277557164430618f, -0.037842560559511185f, 0.29203978180885315f, -0.0904972031712532f, -0.21894919872283936f, 0.03989068791270256f, -0.059234607964754105f, 0.050522029399871826f, -0.12594057619571686f, -0.13669392466545105f, 0.013070739805698395f, -0.24328593909740448f, 0.07573797553777695f, 0.05245991796255112f, -0.29062414169311523f, -0.16015686094760895f, 0.4319932162761688f, 0.07534953206777573f, 0.12889836728572845f, -0.05612002685666084f, 0.20463857054710388f, -0.0052218372002244f, -0.11889705061912537f, -0.038310471922159195f, 0.016520867124199867f, 0.11448132991790771f, 0.003094528568908572f, 0.006730685476213694f, -0.0621536485850811f, 0.08731639385223389f, -0.004432130139321089f, -0.16539445519447327f, 0.054827842861413956f, 0.044869180768728256f, -0.03758392855525017f, 0.19741062819957733f, 0.2123316526412964f, -0.16200335323810577f, 0.04603978618979454f, -0.0890013724565506f, 0.030210277065634727f, 0.11576293408870697f, 0.12959060072898865f, -0.4455973505973816f, -0.02865620329976082f, -0.18308047950267792f, -0.024054015055298805f, 0.036574527621269226f, -0.3852558732032776f, -0.020151350647211075f, -0.07474776357412338f, -0.23351813852787018f, -0.2191345989704132f, -0.08475960046052933f, 0.038030412048101425f, -0.16140083968639374f, 0.11499212682247162f, 0.0766303613781929f, -0.11284201592206955f, -0.09374798089265823f, -0.04273087903857231f, 0.03006957285106182f, -0.5516529083251953f, 0.0035363666247576475f, -0.26179999113082886f, 0.0035370392724871635f, -0.0990881621837616f, -0.062015388160943985f, 0.018116531893610954f };
alignas(16) float conv2d_4_BIAS[] = { 1.4043371677398682f, 1.081966519355774f, -0.39287304878234863f, 1.8976808786392212f, 2.3295936584472656f, -1.032543659210205f, 2.367872476577759f, 2.575016736984253f, -2.706174612045288f, 2.347104787826538f, 0.030731672421097755f, -0.7479125261306763f, -1.1521083116531372f, -0.941910982131958f, 2.6267576217651367f, -3.0288662910461426f };
alignas(16) float conv2d_5_WEIGHTS[] = { 0.022510819137096405f, 0.020227652043104172f, 0.09850765019655228f, -0.04803309589624405f, -0.10647127777338028f, -0.06898166984319687f, -0.023184578865766525f, -0.00548628531396389f, -0.004745557904243469f, -0.022847671061754227f, -0.13409161567687988f, -0.016164841130375862f, -0.0015580460894852877f, 0.11302661895751953f, 0.041802141815423965f, 0.005980948451906443f, -0.13008509576320648f, 0.0012752009788528085f, 0.013199861161410809f, 0.23436374962329865f, 0.006832098122686148f, -0.03586013615131378f, -0.06476700305938721f, -0.02240217849612236f, 0.15215888619422913f, -0.033753518015146255f, -0.042817238718271255f, 0.06593125313520432f, -0.0019237400265410542f, 0.05954433232545853f, -0.03399907797574997f, -0.011023493483662605f, 0.017779307439923286f, -0.10313396900892258f, -0.028422139585018158f, 0.03411122411489487f, -0.004781221970915794f, 0.02126413583755493f, 0.012799358926713467f, 0.0129917087033391f, -0.044446494430303574f, -0.050998102873563766f, 0.015572990290820599f, 0.032979194074869156f, 0.05533231794834137f, -0.018124718219041824f, 0.0011441970709711313f, -0.018915198743343353f, -0.03046002797782421f, -0.047041069716215134f, -0.019440535455942154f, 0.005961135495454073f, 0.02431422844529152f, -0.051297031342983246f, -0.1507684886455536f, -0.0008183980826288462f, 0.004782205913215876f, 0.005571089219301939f, -0.018970979377627373f, -0.0017203143797814846f, -0.04676465317606926f, 0.011417635716497898f, 0.044503603130578995f, -0.00573956873267889f, 0.02725951001048088f, -0.046676065772771835f, -0.05178944393992424f, 0.0177337396889925f, -0.03274723142385483f, -0.010135204531252384f, -0.04943716526031494f, 0.021773546934127808f, 0.025467799976468086f, 0.07918372005224228f, 0.10176140815019608f, 0.007709134835749865f, 0.01757431961596012f, -0.03730323165655136f, -0.008009118027985096f, -0.18273651599884033f, 0.008268546313047409f, 0.013662545010447502f, -0.010588379576802254f, 0.019096586853265762f, 0.00499226339161396f, -0.0008917940431274474f, 0.017862489446997643f, -0.029297877103090286f, -0.027419986203312874f, -0.028297074139118195f, 0.0034955355804413557f, -0.059352558106184006f, -0.009007415734231472f, -0.18257389962673187f, -0.006433333735913038f, -0.05360117927193642f, 0.05719161406159401f, -0.04090466722846031f, -0.009869525209069252f, -0.02111712098121643f, 0.049209900200366974f, -0.03226642310619354f, 0.08936362713575363f, 0.03164513781666756f, 0.026561088860034943f, 0.01522579975426197f, -0.027158871293067932f, -0.002770836930721998f, -0.012891517952084541f, 0.028572091832756996f, -0.07034273445606232f, -0.01959156058728695f, 0.014601733535528183f, 0.05011159926652908f, 0.07027984410524368f, -0.002462860429659486f, -0.12222401797771454f, 0.08711186796426773f, -0.006281132809817791f, -0.09411118924617767f, -0.04768703132867813f, -0.015423545613884926f, -0.026795044541358948f, -0.05072673410177231f, -0.02103428728878498f, 0.06446899473667145f, -0.012143364176154137f, -0.006115185096859932f, 0.006145828403532505f, -0.007996750995516777f, 0.07449428737163544f, 0.0775749534368515f, -0.03953498974442482f, -0.04299772530794144f, 0.040878284722566605f, 7.551865564892069e-05f, -0.03957856819033623f, -0.15307822823524475f, 0.03504253178834915f, -0.010772123001515865f, -0.04004000127315521f, 0.06872118264436722f, 0.05159170925617218f, -0.013071930967271328f, 0.0030776632484048605f, -0.0003145422670058906f, 0.010778076946735382f, -0.027044959366321564f, -0.007373563013970852f, -0.06197204440832138f, -0.10963686555624008f, 0.005386123899370432f, -0.00824806746095419f, 0.03149890527129173f, -0.057777877897024155f, 0.07179387658834457f, -0.04545440524816513f, 0.06926461309194565f, -0.010817674919962883f, 0.061339039355516434f, -0.005798636935651302f, 0.057597815990448f, 0.06519480049610138f, -0.0013553363969549537f, 0.006154753267765045f, -0.02826625108718872f, -0.010659770108759403f, -0.03433774411678314f, -0.018825514242053032f, -0.05143028497695923f, -0.06174909323453903f, -0.08937805145978928f, -0.0354873463511467f, -0.06934300810098648f, -0.10054338723421097f, -0.0025862897746264935f, 0.026486076414585114f, -0.09459295868873596f, 0.026941800490021706f, 0.06408648937940598f, -0.027725784108042717f, 0.06316884607076645f, 0.03391023725271225f, 0.013155820779502392f, 0.003430447541177273f, -0.003042452735826373f, 0.004197940230369568f, -0.05871247127652168f, 0.0029992451891303062f, -0.040587469935417175f, -0.09595081955194473f, -0.029645340517163277f, -0.023328358307480812f, -0.07915518432855606f, -0.08888054639101028f, 0.01707574352622032f, 0.019082242622971535f, 0.07549018412828445f, 0.036377355456352234f, -0.15681317448616028f, 0.014793852344155312f, -0.016841376200318336f, 0.0007151775062084198f, -0.01252797245979309f, 0.1496140956878662f, 0.07201365381479263f, 0.009304174222052097f, 0.03948631510138512f, -0.010498665273189545f, 0.04299429804086685f, -0.02384241297841072f, 0.03453444689512253f, 0.0019382635364308953f, -0.016873201355338097f, 0.0026222383603453636f, -0.007143996190279722f, 0.028605006635189056f, 0.07401983439922333f, -0.008611547760665417f, -0.03487132862210274f, 0.0009540220489725471f, 0.029547598212957382f, -0.026164067909121513f, 0.015448397025465965f, -0.038824114948511124f, -0.02592003159224987f, 0.006672700867056847f, -0.0007215345976874232f, 0.0028363345190882683f, -0.007530703209340572f, -0.05499465763568878f, -0.0038575211074203253f, 0.0035661780275404453f, 0.0717674046754837f, -0.0921054482460022f, 0.0035261521115899086f, 0.0251974705606699f, -0.09504373371601105f, -0.02047753892838955f, 0.1358395516872406f, -0.04877413436770439f, -0.007020452059805393f, -0.004101012367755175f, -0.022173671051859856f, 0.05993572995066643f, 0.022476190701127052f, -0.0011780093191191554f, 0.003943285439163446f, -0.040072765201330185f, -0.036615341901779175f, 0.022004947066307068f, -0.026791708543896675f, 0.01571080833673477f, -0.08235342800617218f, -0.0036379387602210045f, -0.013678332790732384f, -0.049649596214294434f, -0.17367033660411835f, 0.013646845705807209f, 0.03304889425635338f, -0.03934967890381813f, -0.01078706979751587f, 0.01369186956435442f, 0.0017207450000569224f, -0.04177923500537872f, 0.010565324686467648f, -0.017257535830140114f, 0.015469367615878582f, -0.020482758060097694f, 0.017039891332387924f, 0.07572132349014282f, 0.025361398234963417f, -0.007708522956818342f, 0.06651060283184052f, 0.06289860606193542f, 0.00787319429218769f, 0.03235606476664543f, -0.04928220063447952f, 0.0025206622667610645f, 0.025513285771012306f, -0.03672666475176811f, -0.00047908423584885895f, -0.014818912371993065f, 0.0013147392310202122f, 0.036069951951503754f, 0.04996682330965996f, 0.00400809571146965f, 0.07055562734603882f, -0.02351580187678337f, 0.04807121679186821f, 0.10549584776163101f, 0.056807611137628555f, 0.04195080325007439f, -0.020060470327734947f, 0.08069293946027756f, 0.013672956265509129f, -0.013789254240691662f, -0.014042365364730358f, 0.004489863757044077f, -0.1684073507785797f, 0.0006748677114956081f, 0.05157305672764778f, 0.011414791457355022f, -0.02648700214922428f, 0.005804584827274084f, 0.06318535655736923f, -0.012569046579301357f, -0.020498448982834816f, -0.020391326397657394f, -0.010897153988480568f, -0.0968647450208664f, -0.019455144181847572f, -0.012587527744472027f, -0.013408848084509373f, 0.11089795082807541f, -0.0027498912531882524f, -0.027205469086766243f, -0.02714509144425392f, 0.04288657382130623f, -0.22505173087120056f, 0.012258918955922127f, 0.014637405052781105f, -0.015373718924820423f, 0.0012486386112868786f, 0.04461914300918579f, 0.08266092836856842f, -0.004026772454380989f, 0.02207568660378456f, 0.02983774244785309f, -0.01617564633488655f, 0.026870807632803917f, 0.048303525894880295f, -0.0312855988740921f, -0.010259956121444702f, 0.017167598009109497f, -0.011340507306158543f, -0.008129017427563667f, -0.0570501908659935f, -0.018072620034217834f, -0.12785500288009644f, 0.001795966294594109f, 0.027524447068572044f, -0.06644952297210693f, 0.0026761386543512344f, 0.08023086190223694f, 0.007157029118388891f, -0.00936084147542715f, 0.014658703468739986f, 0.011751367710530758f, 0.041503749787807465f, 0.05274254083633423f, -0.004836888983845711f, -0.02420054003596306f, 0.03167538344860077f, -0.009180453605949879f, 0.040825482457876205f, -0.01956050843000412f, -0.008082172833383083f, -0.005682943854480982f, -0.13081899285316467f, -0.01680721901357174f, -0.05742393806576729f, -0.0425901785492897f, 0.015373250469565392f, -0.055471647530794144f, -0.04087069630622864f, 0.002181575633585453f, -0.05161392316222191f, -0.01336973812431097f, -0.06465525925159454f, 0.04622787982225418f, -0.005330862011760473f, 0.005578864365816116f, -0.009121323935687542f, -0.06750864535570145f, 0.005622744094580412f, 0.03426455706357956f, -0.00567515566945076f, -0.014187279157340527f, -0.04124585911631584f, 0.015278932638466358f, 0.0017926113214343786f, -0.007022662088274956f, -0.025883086025714874f, -0.02345360815525055f, -0.08167213946580887f, -0.044013019651174545f, 0.0005054869689047337f, -0.01256401278078556f, 0.041309863328933716f, -0.09714419394731522f, -0.03882729634642601f, -0.007733944803476334f, 0.09250616282224655f, 0.06648200750350952f, 0.01352762058377266f, 0.025797579437494278f, -0.034867264330387115f, 0.02313293144106865f, -0.1937999129295349f, -0.008739578537642956f, 0.004628779366612434f, -0.0133576150983572f, -0.025424610823392868f, -0.12979261577129364f, -0.02945117838680744f, 0.023796919733285904f, -0.016073234379291534f, -0.022356685250997543f, 0.0176410973072052f, 0.09359868615865707f, -0.004406637512147427f, 0.006657806225121021f, -0.12315080314874649f, 0.02156575582921505f, -0.03871786221861839f, 0.00389116327278316f, -0.017701368778944016f, 0.010131393559277058f, 0.05418895184993744f, -0.03861934691667557f, -0.010261640883982182f, 0.06842822581529617f, 0.021883564069867134f, 0.010056702420115471f, 0.028122279793024063f, -0.015582474879920483f, 0.021681511774659157f, 0.013913542032241821f, 0.03550659120082855f, 0.08318980038166046f, 0.013271700590848923f, 0.004754013381898403f, 0.12341121584177017f, 0.16339151561260223f, -0.025342198088765144f, -0.08104122430086136f, -0.007968307472765446f, -0.026133541017770767f, -0.09798812121152878f, -0.024545352905988693f, -0.03137335181236267f, -0.1026902124285698f, 0.0047660400159657f, -0.0007173851481638849f, 0.04373783990740776f, 0.011049233376979828f, -0.03685644268989563f, 0.006185016129165888f, -0.06885236501693726f, -0.114686518907547f, 0.059663571417331696f, -0.009124945849180222f, 0.06851596385240555f, -0.02255581133067608f, -0.03590211272239685f, -0.023675968870520592f, -0.04513389617204666f, -0.0355963408946991f, -0.1091904267668724f, -0.01113695278763771f, 0.007339776493608952f, 0.09067291021347046f, 0.013643099926412106f, 0.0005323403747752309f, 0.004401573911309242f, 0.005397818051278591f, 0.009234108030796051f, 0.01215351466089487f, -0.012511814944446087f, -0.03324458375573158f, -0.0059418752789497375f, -0.004775116685777903f, -0.02859962172806263f, -0.13866131007671356f, -0.000935906486120075f, -0.04415407404303551f, 0.09753479063510895f, 0.040994782000780106f, -0.0045017059892416f, -0.028715573251247406f, -0.01914350315928459f, 0.019115189090371132f, -0.055470190942287445f, 0.09026584029197693f, 0.0460747592151165f, -0.001676526851952076f, 0.03381458669900894f, -0.000970509136095643f, 0.010584755800664425f, 0.062650665640831f, 0.03711128979921341f, 0.012305904179811478f, 0.08208215981721878f, -0.01991880312561989f, -0.019077841192483902f, -0.021228661760687828f, 0.014569219201803207f, 0.007120131514966488f, -0.004576261155307293f, -0.052555061876773834f, -0.009411199949681759f, 0.021382436156272888f, -0.038374777883291245f, -0.11891353875398636f, 0.04479340463876724f, -0.005269473884254694f, -0.09892309457063675f, 0.010937689803540707f, -0.1633647382259369f, 0.02581188641488552f, 0.029872138053178787f, -0.030349688604474068f, -0.09505345672369003f, -0.026161834597587585f, 0.007833327166736126f, -0.006254361942410469f, 0.12409383803606033f, 0.04565860703587532f, -0.029879171401262283f, 0.008986435830593109f, -0.06579017639160156f, 0.0067848097532987595f, 0.012899722903966904f, 0.029877284541726112f, 0.035928793251514435f, 0.0020158656407147646f, 0.039061784744262695f, -0.0414513424038887f, 0.030475463718175888f, -0.013083791360259056f, 0.06130049377679825f, -0.00354464678093791f, -0.13319233059883118f, -0.019271740689873695f, -0.022096196189522743f, 0.05500754341483116f, -0.045382898300886154f, 0.0016877783928066492f, 0.1997746080160141f, -0.004390467889606953f, 0.0002280188346048817f, 0.11233656853437424f, 0.01945202797651291f, -0.15915903449058533f, -0.05277179181575775f, 0.0019634466152638197f, -0.07814180850982666f, 0.004043090157210827f, -0.04272953420877457f, -0.031861454248428345f, 0.03398531302809715f, -0.014265489764511585f, 0.06111595034599304f, 0.0983799621462822f, -0.014624809846282005f, -0.01195185910910368f, -0.1648688167333603f, 0.006082434207201004f, -0.13914494216442108f, 0.04599684849381447f, 0.029155004769563675f, 0.021726425737142563f, 0.018598876893520355f, -0.018779657781124115f, -0.03293786197900772f, 0.005007288884371519f, -0.021470246836543083f, -0.07015668600797653f, 0.039295852184295654f, 0.006592101883143187f, 0.0011549581540748477f, -0.0029820476192981005f, -0.0945015624165535f, -0.04792296886444092f, -0.0011444160481914878f, -0.015946393832564354f, 0.010815699584782124f, 0.04625677689909935f, 0.004998212214559317f, -0.02691446617245674f, -0.00020572557696141303f, -0.0029903866816312075f, -0.023286879062652588f, 0.05367467924952507f, 0.031061580404639244f, -0.014033077284693718f, 0.049590907990932465f, -0.0008773398585617542f, 0.04312733933329582f, -0.11062063276767731f, -0.006357012316584587f, 0.0168030746281147f, 0.026102421805262566f, 0.16168414056301117f, -0.0015331963077187538f, 0.0034375404939055443f, -0.01188254076987505f, -0.006217083428055048f, -0.15799720585346222f, -0.03894178569316864f, 0.025194166228175163f, 0.03600814938545227f, 0.025658762082457542f, 0.08215142041444778f, -0.017998145893216133f, -0.006729600485414267f, 0.10733073949813843f, -0.011789008975028992f, 0.0689961239695549f, -0.021599190309643745f, -0.029200799763202667f, -0.010471029207110405f, 0.04443703964352608f, -0.004323989152908325f, -0.011018497869372368f, 0.019098790362477303f, -0.008480064570903778f, -0.017224924638867378f, -0.09241306781768799f, 0.016433728858828545f, -0.019498581066727638f, -0.11656087636947632f, -0.011300146579742432f, 0.08879056572914124f, -0.007378838490694761f, -0.05794733390212059f, 0.07275210320949554f, -0.009682553820312023f, 0.08498027920722961f, -0.06718526780605316f, -0.026435816660523415f, 0.02188696525990963f, -0.015454942360520363f, 0.10662159323692322f, -0.07201090455055237f, -0.08476247638463974f, -0.09169918298721313f, -0.04310794919729233f, -0.170833557844162f, -0.00939192809164524f, 0.07836882025003433f, -0.036801327019929886f, -0.00806970801204443f, -0.12301120907068253f, -0.0009268216090276837f, -0.0004853132413700223f, 0.016283441334962845f, 0.01634432002902031f, -0.09983327239751816f, 0.01682191900908947f, 0.039508555084466934f, 0.021346814930438995f, 0.05188683792948723f, 0.05783776193857193f, 0.0033110177610069513f, 0.04541754350066185f, -0.06904686987400055f, -0.019340304657816887f, -0.05517733842134476f, -0.010228441096842289f, -0.05896718427538872f, -0.03821060061454773f, 0.06810318678617477f, 0.09287954121828079f, 0.018488489091396332f, -0.01535067055374384f, 0.002513866638764739f, 0.00453271484002471f, 0.03993040695786476f, 0.04251062124967575f, -0.047614820301532745f, -0.0009183798101730645f, 0.04082987457513809f, 0.0752587541937828f, -0.04301754757761955f, 0.008250609040260315f, -0.05165481939911842f, 0.004798032809048891f, 0.10094533860683441f, -0.024919016286730766f, 0.015704860910773277f, -0.018241209909319878f, -0.010930686257779598f, -0.1416073888540268f, -0.023761171847581863f, 0.009688385762274265f, -0.16391092538833618f, 0.002190049970522523f, -0.04852712154388428f, -0.04112827405333519f, -0.09550587832927704f, -0.03632966801524162f, -0.03361410275101662f, -0.11786266416311264f, -0.015929512679576874f, 0.03264210373163223f, 0.08696139603853226f, -0.05819324031472206f, -0.21370398998260498f, -0.07322920858860016f, -0.048305463045835495f, 0.0473015271127224f, 0.019037531688809395f, -0.04824452847242355f, 0.09517885744571686f, -0.03969728946685791f, -0.0323948934674263f, -0.025486499071121216f, -0.07769134640693665f, -0.027694392949342728f, -0.01582540012896061f, -0.009001976810395718f, 0.14748741686344147f, 0.04602857679128647f, -0.02507581189274788f, -0.002628109883517027f, 0.039505571126937866f, 0.032146990299224854f, -0.10860686749219894f, 0.013818477280437946f, -0.02835242822766304f, -0.024638185277581215f, -0.014175775460898876f, -0.01405742485076189f, 0.03729680925607681f, 0.020255446434020996f, -0.010183680802583694f, 0.0006344838766381145f, -0.0019402164034545422f, 0.004435961600393057f, 0.048163000494241714f, -0.007821936160326004f, -0.012271063402295113f, -0.05192570760846138f, 0.03464500606060028f, -0.008667669259011745f, -0.08929074555635452f, -0.012180350720882416f, 0.011056900955736637f, 0.0023294747807085514f, -0.034870658069849014f, -0.03599916025996208f, 0.0278268214315176f, -0.0883018746972084f, -0.025494297966361046f, -0.016694828867912292f, -0.02294260449707508f, 0.041049130260944366f, -0.03112577274441719f, 0.04969670996069908f, -0.0782788097858429f, -0.009568844921886921f, 0.007415296975523233f, 0.008145716972649097f, 0.004795970860868692f, -0.051571689546108246f, -0.10461577773094177f, -0.0102555425837636f, -0.1469213217496872f, 0.0056713842786848545f, 0.0394701212644577f, -0.03452533483505249f, -0.00922801811248064f, 0.011471088044345379f, 0.021610816940665245f, 0.010838344693183899f, -0.03223192319273949f, 0.010653275065124035f, -0.026535434648394585f, -0.12630948424339294f, 0.017566703259944916f, 0.001558999763801694f, -0.0046917712315917015f, 0.062201227992773056f, 0.01834942027926445f, -0.01390155591070652f, -0.05212762579321861f, -0.012682436034083366f, -0.12507806718349457f, 0.06006322056055069f, -0.07325942814350128f, -0.2172551155090332f, 0.037439990788698196f, 0.017016731202602386f, -0.050076477229595184f, -0.013454404659569263f, 0.007368201855570078f, 0.0012856830144301057f, 0.019161606207489967f, 0.036633651703596115f, -0.08488871157169342f, -0.005933832377195358f, -0.09415960311889648f, -0.05751451477408409f, -0.025718828663229942f, -0.09349587559700012f, 0.049026891589164734f, -0.01963086798787117f, -0.031855277717113495f, -0.0028406239580363035f, 0.021601973101496696f, 0.10613888502120972f, 0.012720100581645966f, 0.10101606696844101f, 0.03711673617362976f, -0.023246867582201958f, 0.049524419009685516f, -0.01725815050303936f, 0.044507529586553574f, 0.016163641586899757f, -0.0035034138709306717f, -0.02797606773674488f, 0.09622929990291595f, -0.07081478089094162f, -0.025910459458827972f, -0.1374378651380539f, -0.03350453823804855f, 0.00271559483371675f, -0.11491172015666962f, 0.052387531846761703f, 0.0045904493890702724f, -0.01604766584932804f, 0.013449378311634064f, -0.06359256058931351f, -0.010633347555994987f, -0.015509316697716713f, 0.10849765688180923f, -0.009871697053313255f, 0.025819461792707443f, 0.008684494532644749f, -0.037480972707271576f, 0.02969188243150711f, -0.017957815900444984f, 0.031842224299907684f, 0.01517562847584486f, -0.05929217487573624f, -0.06772976368665695f, -0.0175336766988039f, 0.1415235847234726f, -0.025475377216935158f, 0.047050364315509796f, -0.028500474989414215f, -0.06468671560287476f, 0.07093632966279984f, 0.04851815104484558f, 0.017498653382062912f, 0.011262515559792519f, 0.01706104166805744f, -0.045584701001644135f, -0.030658772215247154f, -0.058403026312589645f, 0.01592050865292549f, -0.05454963445663452f, -0.10661633312702179f, 0.03305859863758087f, 0.08325410634279251f, -0.08144256472587585f, -0.02794421650469303f, -0.10530315339565277f, 0.01480221189558506f, 0.013336003758013248f, -0.000716712384019047f, -0.023521117866039276f, -0.107604019343853f, -0.05271126702427864f, 0.007683058734983206f, -0.02281048148870468f, 0.006232116371393204f, 0.00640353886410594f, -0.04461701959371567f, -0.03709150105714798f, 0.003694240003824234f, 0.02708735689520836f, 0.10524121671915054f, 0.02727780118584633f, 0.02758479118347168f, -0.05498987436294556f, 0.01768280193209648f, -0.049775540828704834f, -0.0026561596896499395f, -0.07378808408975601f, -0.005863886792212725f, 0.019714394584298134f, -0.06971059739589691f, -0.021502234041690826f, -0.024449387565255165f, -0.019656213000416756f, -0.021163037046790123f, -0.04038621857762337f, 0.03161730617284775f, -0.10480762273073196f, 0.0005293591530062258f, -0.07450786978006363f, -0.1454104781150818f, -0.08159603923559189f, -0.004227856174111366f, 0.010787823237478733f, -0.023710258305072784f, 0.10238561779260635f, -0.010943605564534664f, -0.01876537688076496f, -0.06741897016763687f, 0.006966136395931244f, 0.053519248962402344f, 0.04591010510921478f, -0.009996986016631126f, 0.010727784596383572f, -0.011048388667404652f, 0.006876701023429632f, -0.05924313887953758f, 0.027569981291890144f, 0.00783930066972971f, 0.038686204701662064f, 0.0721987709403038f, -0.004293850157409906f, 0.04736272618174553f, -0.005648612044751644f, -0.00590452179312706f, -0.20611390471458435f, -0.048001933842897415f, 0.010908636264503002f, 0.06829404830932617f, -0.03284398838877678f, 0.14839673042297363f, -0.025372587144374847f, -0.005857802461832762f, 0.08052147924900055f, -0.009453038685023785f, 0.0439455546438694f, -0.04303857311606407f, -0.0005594856338575482f, -0.0020706963259726763f, 0.02981935255229473f, 0.05312595143914223f, 0.014581122435629368f, -0.02740004099905491f, 0.020313488319516182f, 0.003938683308660984f, 0.1908615380525589f, 0.04792948067188263f, -0.02975999191403389f, -0.031282294541597366f, -0.05922779440879822f, 0.033942777663469315f, 0.01853354275226593f, -0.022682057693600655f, 0.024830177426338196f, 0.018836280331015587f, 0.08860816806554794f, 0.027329862117767334f, -0.08759211003780365f, -0.0026457461062818766f, -0.02798398956656456f, 0.20224222540855408f, -0.02229921892285347f, -0.06963846832513809f, -0.05942776799201965f, -0.03808770701289177f, -0.20867134630680084f, -0.00078307103831321f, -0.011559109203517437f, -0.03778797760605812f, -0.0057272822596132755f, -0.004676476586610079f, -0.003705767448991537f, -0.00202096882276237f, 0.02210591733455658f, 0.0020503962878137827f, -0.033756788820028305f, -0.03366304188966751f, -0.038325995206832886f, 0.018078714609146118f, 0.041306834667921066f, -0.040842991322278976f, -0.012884607538580894f, -0.016133442521095276f, -0.06990334391593933f, -0.00994578842073679f, 0.005225616507232189f, -0.04000067710876465f, -0.011959463357925415f, -0.1407180279493332f, -0.03539339080452919f, 0.009235312230885029f, 0.0623716339468956f, -0.021689720451831818f, 0.08315550535917282f, 0.00865346472710371f, 0.03408673405647278f, -0.0038641064893454313f, 0.08638916164636612f, -0.008733866736292839f, -0.08053361624479294f, 0.12812955677509308f, -0.00347593380138278f, -0.04875143989920616f, 0.07123219221830368f, -0.004350170027464628f, 0.06559986621141434f, -0.02494007535278797f, -0.06113126128911972f, -0.052705150097608566f, -0.0043297428637743f, 0.009080449119210243f, 0.030656913295388222f, 0.01904263161122799f, -0.02519768290221691f, 0.01857404038310051f, -0.01983172446489334f, 0.0003679704386740923f, 0.1192324161529541f, 0.026456700637936592f, -0.0019217294175177813f, 0.09813498705625534f, -0.017462335526943207f, -0.046485405415296555f, 0.01354899536818266f, -0.012244937010109425f, 0.08053625375032425f, -0.04097018763422966f, -0.001379124354571104f, -0.0027865448500961065f, 0.04103386029601097f, -0.07573232054710388f, -0.021747400984168053f, -0.0031361584551632404f, -0.08517809957265854f, 0.006063433829694986f, -0.09774257242679596f, 0.008805821649730206f, 0.09339094161987305f, -0.0035758221056312323f, -0.10038956254720688f, -0.12953659892082214f, 0.025748930871486664f, -0.02709685079753399f, -0.024924347177147865f, -0.020230937749147415f, -0.048200152814388275f, 0.06632689386606216f, -0.02087825909256935f, -0.06352996081113815f, 0.01634232886135578f, 0.013473223894834518f, -0.029709437862038612f, 0.08155271410942078f, 0.01541154831647873f, -0.07189659774303436f, 0.03783653676509857f, -0.0023641991429030895f, -0.029746752232313156f, 0.014714691787958145f, -0.10922802239656448f, -0.003694868879392743f, -0.033680230379104614f, 0.04377862811088562f, -0.04353978484869003f, -0.01414250023663044f, 0.00348704238422215f, 0.010371269658207893f, -0.0364997461438179f, 0.10567490011453629f, -0.023539967834949493f, -0.03883519023656845f, -0.10909941047430038f, -0.04788908734917641f, 0.11642012745141983f, -0.03223482891917229f, 0.0922052413225174f, -0.07502181828022003f, -0.07364563643932343f, -0.004047790542244911f, 0.00967672560364008f, 0.22238944470882416f, -0.011602800339460373f, -0.0784434825181961f, 0.02266792766749859f, 0.02307194471359253f, 0.10825324803590775f, 0.015864582732319832f, 0.0008368701091967523f, -0.08010485768318176f, -0.05035902559757233f, 0.04031025618314743f, -0.01632878929376602f, -0.02348398230969906f, 0.06666901707649231f, -0.07805928587913513f, 0.07065903395414352f, -0.02256694622337818f, -0.039941057562828064f, 0.012038483284413815f, -0.19712603092193604f, 0.09522081166505814f, -0.0059503293596208096f, -0.08164871484041214f, -0.09500247985124588f, 0.0010036533931270242f, 0.03131529688835144f, 0.018372051417827606f, 0.039588622748851776f, 0.07425551116466522f, 0.003061984432861209f, -0.0764615386724472f, -0.026307400315999985f, 0.0011530948104336858f, -0.022650739178061485f, 0.002447553211823106f, 0.029345570132136345f, 0.016816047951579094f, -0.02417842485010624f, 0.00195936462841928f, -0.010061213746666908f, -0.017812054604291916f, 0.04050889611244202f, -0.06159624457359314f, 0.1646336019039154f, 0.008656931109726429f, 0.09165812283754349f, -0.014704937115311623f, 0.008697399869561195f, -0.11674923449754715f, -0.011429836042225361f, 0.03583358973264694f, -0.01750015653669834f, 0.005262146703898907f, -0.012843918986618519f, 0.031175315380096436f, -0.05192489176988602f, -0.12902645766735077f, -0.06995689868927002f, -0.0015664107631891966f, -0.0765811949968338f, -0.08661224693059921f, -0.05451962351799011f, -0.028646916151046753f, -0.060637351125478745f, 0.016385897994041443f, -0.09112957864999771f, -0.01554618775844574f, 0.027373356744647026f, -0.011740869842469692f, -0.05023947358131409f, 0.08250997215509415f, -0.031225422397255898f, -0.004700396675616503f, 0.010444343090057373f, -0.001344375661574304f, -0.002875391161069274f, 0.07254616171121597f, -0.01955135352909565f, 0.007186500821262598f, -0.04626232385635376f, -0.0482788011431694f, -0.012142439372837543f, -0.006284323055297136f, 0.09165123105049133f, -0.0005822913371957839f, 0.1210482195019722f, 0.02636314369738102f, -0.014289125800132751f, 0.057324446737766266f, 0.006802896503359079f, -0.07996737957000732f, -0.02009175717830658f, 0.006708175875246525f, -0.011627963744103909f, -0.06511752307415009f, 0.01002553477883339f, -0.10502936691045761f, -0.08706243336200714f, 0.027694933116436005f, -0.025356177240610123f, -0.02799905464053154f, -0.012495631352066994f, 0.04455419257283211f, -0.03103550896048546f, -0.03764231130480766f, -0.16990460455417633f, -0.0008327386458404362f, -0.04832850769162178f, 0.014639535918831825f, 0.008829280734062195f, -0.09745126217603683f, 0.047086939215660095f, 0.007450834847986698f, -0.020326722413301468f, 0.01725936494767666f, -0.010337435640394688f, -0.127476304769516f, -0.07260746508836746f, 0.00895061157643795f, 0.03490834683179855f, 0.11299785226583481f, -0.009884877130389214f, -0.004575887694954872f, 0.027545921504497528f, 0.00218086875975132f, -0.11536659300327301f, -0.03553609922528267f, -0.04793878272175789f, -0.06649716943502426f, 0.0326736718416214f, 0.009912670589983463f, 0.003869677660986781f, 0.01259109191596508f, -0.015291883610188961f, -0.025377262383699417f, -0.03599629923701286f, -0.09612059593200684f, 0.07845055311918259f, 0.021276632323861122f, -0.07004003971815109f, -0.005600519012659788f, -0.044056423008441925f, -0.01937517710030079f, -0.2065577208995819f, -0.005790247581899166f, -0.06805308163166046f, -0.03713824972510338f, -0.03158401697874069f, -0.09792493283748627f, 0.030121752992272377f, -0.19196458160877228f, 