#ifdef CNN_TEST
#define CNN_STOPWATCH(name) // STOPWATCH(name)
#else
#define CNN_STOPWATCH(name) STOPWATCH(name)
#endif

#include <vector>

// dimensions
static const unsigned int input_height = 60;
static const unsigned int input_width = 80;
static const unsigned int input_channel = 3;
static const unsigned int output_height = 7;
static const unsigned int output_width = 10;
static const unsigned int output_channel = 7;
static const unsigned int num_of_boxes = 1;
static const unsigned int num_of_classes = 2;
static const unsigned int num_of_coords = 4;
static const std::vector<float> anchors = { 4.64f, 3.16f };

// includes
#include <math.h>
#include <emmintrin.h>

// buffers
alignas(16) float conv2d_1_WEIGHTS[] = { -0.465929239988327f, -0.20173534750938416f, -0.5591899752616882f, 0.1342194527387619f, -1.0201703310012817f, -1.0078293085098267f, -0.28669416904449463f, -1.103608250617981f, 0.7479686141014099f, -1.6198456287384033f, -0.6163029074668884f, 0.9817216992378235f, -0.3751829266548157f, 0.4481252431869507f, 0.14514346420764923f, 1.3944764137268066f, -1.459441065788269f, -6.053004741668701f, -0.012524771504104137f, -0.005908275954425335f, -0.2771870195865631f, -0.6915997862815857f, -0.3856624960899353f, 0.37621915340423584f, -0.07411252707242966f, -1.0824129581451416f, -0.2961674630641937f, 0.3843303322792053f, -0.2984699010848999f, 0.47334903478622437f, 0.40892478823661804f, 0.2974727749824524f, 3.7174277305603027f, 3.771812915802002f, -0.3320470452308655f, 0.030985072255134583f, 2.1512162685394287f, 1.724391222000122f, 0.2626115083694458f, 0.38161149621009827f, 0.1254117488861084f, -2.104066848754883f, -0.3245519995689392f, 0.9188231229782104f, 0.283325731754303f, -0.015267145819962025f, -0.6038704514503479f, 1.1262563467025757f, 0.6885244250297546f, 0.6173930764198303f, -0.6639482378959656f, 0.10779663920402527f, -0.8093206286430359f, -0.7997062802314758f, -0.4524771273136139f, -2.4923014640808105f, 0.713320255279541f, 0.601507842540741f, -0.781629741191864f, -0.3760417401790619f, -0.5638437867164612f, -0.34904745221138f, -0.08770151436328888f, 2.059070110321045f, -1.0648273229599f, -5.480311393737793f, 0.07337753474712372f, 0.013217037543654442f, 0.6580422520637512f, -0.7096126675605774f, -0.6774536967277527f, 0.6658685207366943f, -0.14537504315376282f, 0.6527110934257507f, -0.5325674414634705f, -0.9976450800895691f, -0.9431118369102478f, -0.28253045678138733f, 0.3858451545238495f, 0.0882619321346283f, 4.265829086303711f, 2.9568750858306885f, -0.5609544515609741f, 0.0512617751955986f, 3.823659896850586f, 0.9826446175575256f, 0.2714541256427765f, -0.04085977375507355f, 0.13638868927955627f, -0.6334665417671204f, -0.5453060269355774f, -0.19729866087436676f, 0.32545629143714905f, -0.22758033871650696f, -0.7210546135902405f, 1.8229039907455444f, 0.9107607007026672f, 1.243948221206665f, -0.977706789970398f, 0.09069141745567322f, -1.807349681854248f, -2.6405858993530273f, -0.3092365860939026f, -2.6561625003814697f, 1.2119017839431763f, 1.8965941667556763f, -0.7752955555915833f, -0.7441006302833557f, -0.7161414623260498f, 0.5964160561561584f, -0.2869188189506531f, 0.7786672115325928f, 1.1499841213226318f, -3.600494623184204f, -0.1500534564256668f, -0.010026331059634686f, -0.8324339389801025f, -1.10746169090271f, -0.491562157869339f, 0.8237591981887817f, 0.09910742938518524f, 1.2667768001556396f, -0.4349597096443176f, -1.037340760231018f, -0.7691488265991211f, 1.2737592458724976f, 0.24872952699661255f, -1.13837468624115f, 2.7319493293762207f, 3.06103777885437f, -0.6913910508155823f, 0.04051252827048302f, 3.6618897914886475f, 2.583967685699463f, 0.036792539060115814f, 0.01657729782164097f, 0.09064997732639313f, 0.3960302174091339f, -0.5116273760795593f, -0.41163012385368347f, 0.090833380818367f, 0.817410409450531f, -0.9528234601020813f, 0.12345682084560394f, -1.9829517602920532f, -0.4476679265499115f, -0.8758878707885742f, 0.18313968181610107f, -1.1440175771713257f, -1.8813239336013794f, -0.2153739631175995f, -2.389939308166504f, 1.0080807209014893f, -1.5630568265914917f, 0.24911363422870636f, 1.9965506792068481f, -0.21442194283008575f, -0.6235806941986084f, 0.9731544256210327f, 0.8578686714172363f, -4.069914817810059f, -4.308492183685303f, 0.03472353518009186f, 0.0010238285176455975f, 0.00787653774023056f, 0.0019780404400080442f, -0.16191378235816956f, -0.19238844513893127f, 0.03288247063755989f, -1.6563326120376587f, -0.18023166060447693f, 0.5580102801322937f, 0.09631851315498352f, 0.3992285132408142f, 1.1113338470458984f, -0.6963270306587219f, 2.179265260696411f, 2.4277076721191406f, -0.7692307233810425f, 0.1506434679031372f, 0.3732551336288452f, 0.3266921639442444f, 0.1926310509443283f, -0.1864691972732544f, 0.2519213855266571f, -2.24696946144104f, 0.23437832295894623f, 1.39439857006073f, 0.2623961269855499f, -0.661819338798523f, 0.2402905523777008f, 0.5467764139175415f, -1.913369059562683f, 0.006510515697300434f, -1.1502996683120728f, 0.12561990320682526f, -2.6389331817626953f, -1.5184231996536255f, -0.4197486340999603f, -2.4167320728302f, 1.0464134216308594f, 0.5812505483627319f, 0.6506233215332031f, -0.363395094871521f, -0.33503231406211853f, 0.7340407967567444f, 0.6522456407546997f, -0.7176653742790222f, -4.632215976715088f, -4.639936447143555f, -0.4283313751220703f, 0.005043674260377884f, 1.1915489435195923f, -0.3071121275424957f, -0.41826653480529785f, -0.1817949116230011f, -0.39372560381889343f, -0.11039385199546814f, -0.2633163034915924f, -1.7819734811782837f, -0.3789590001106262f, 1.4257363080978394f, 1.0428874492645264f, -2.513529062271118f, 2.6652026176452637f, 2.235337972640991f, -1.312962532043457f, 0.09291190654039383f, 2.337822437286377f, 0.20888124406337738f, 0.021591927856206894f, -0.5295267105102539f, 0.14807598292827606f, -0.5692124962806702f, 0.5294329524040222f, -0.4630230963230133f, 0.04054933786392212f, 0.7084625959396362f, 0.13871382176876068f, -0.8336934447288513f, -1.0353034734725952f, 1.635437250137329f, -0.20593608915805817f, 0.14265912771224976f, -1.9436653852462769f, -1.3309253454208374f, -0.38167673349380493f, -2.0371334552764893f, 0.9471259117126465f, 2.6369898319244385f, 0.481085866689682f, -0.9978649020195007f, -0.8448222279548645f, 0.6473029255867004f, 0.536341667175293f, -0.928902268409729f, -2.9894754886627197f, -3.1521284580230713f, 0.1957961618900299f, 0.026885515078902245f, -0.09089237451553345f, -0.8284537196159363f, -0.3660210371017456f, 0.5874925851821899f, 0.020791303366422653f, 1.6025032997131348f, 0.13246148824691772f, -2.0859081745147705f, -0.10962752252817154f, 2.0673940181732178f, 0.7731143832206726f, -3.0973024368286133f, 3.639936923980713f, 2.6326026916503906f, -0.2701418697834015f, 0.09504532814025879f, 1.0945311784744263f, 0.4324294328689575f, -0.036363933235406876f, -0.10022282600402832f, 0.35045403242111206f, 1.1470237970352173f, 0.31165623664855957f, -1.096527099609375f, 0.5080707669258118f, 0.7947719097137451f, 0.0065309591591358185f, -1.3190772533416748f, -1.652294397354126f, 1.319266438484192f, -0.7586731314659119f, -0.022542065009474754f, -1.2102893590927124f, -2.040534257888794f, -0.31222453713417053f, 1.3308701515197754f, 0.22157375514507294f, -0.7620837688446045f, 0.7063707709312439f, 2.584592819213867f, -0.44791078567504883f, -0.7191030383110046f, 0.24472175538539886f, -0.04848801717162132f, -2.246004343032837f, -1.174731731414795f, -0.04810555279254913f, -0.5332615971565247f, 2.2970662117004395f, 0.9693419337272644f, -0.04910077899694443f, 1.9008452892303467f, -0.5289768576622009f, -0.5043290257453918f, -0.035815365612506866f, 0.5330756902694702f, -0.05935152992606163f, 0.3863960802555084f, -0.15662986040115356f, -1.636271357536316f, 1.5656565427780151f, 0.8000682592391968f, -0.8071954846382141f, -0.037559449672698975f, -0.4999549388885498f, 0.7656040191650391f, -0.045845407992601395f, 1.898725152015686f, -0.023775875568389893f, -2.0525004863739014f, 0.6012865900993347f, 0.872089147567749f, -0.157306507229805f, -1.926435112953186f, -0.23241712152957916f, -1.072884202003479f, -2.0868239402770996f, 2.206791877746582f, 0.15993139147758484f, 0.07762240618467331f, -3.0480048656463623f, -1.567476511001587f, -0.38495051860809326f, 1.1243915557861328f, 0.5618875622749329f, 0.8597068190574646f, 0.7545653581619263f, 1.4271389245986938f, -0.5320342779159546f, -1.8441866636276245f, 0.45523351430892944f, 0.1513112187385559f, -3.9510791301727295f, -1.1048057079315186f, 0.4472126066684723f, -0.13791154325008392f, 2.9639132022857666f, 0.9926340579986572f, -0.19676616787910461f, 1.7422994375228882f, -0.6235682964324951f, 0.2544361352920532f, -0.11213543266057968f, -0.00721639022231102f, -0.21602295339107513f, 0.05620793625712395f, 0.12038875371217728f, -2.3301987648010254f, 2.8123390674591064f, 1.9594887495040894f, 0.02104274183511734f, 0.06372136622667313f, -0.0698118582367897f, 0.15227852761745453f, -0.09595594555139542f, 1.4409840106964111f, -0.12268900126218796f, -1.169450044631958f, 0.7114923000335693f, 0.2911889851093292f, -0.1271100491285324f, -2.0031909942626953f, -0.5102924108505249f, -1.201212763786316f, -1.744979739189148f, 2.6108288764953613f, 1.718346357345581f, 0.043776702135801315f, -1.3403911590576172f, -0.9116691946983337f, -0.4356769621372223f, -0.35464006662368774f, 0.4380619525909424f, 2.0115156173706055f, 0.8072217106819153f, -0.06515652686357498f, -0.48056232929229736f, -1.5937448740005493f, 0.41236308217048645f, 0.9843846559524536f, -2.1732473373413086f, -0.20175409317016602f, 1.7838693857192993f, -0.06365947425365448f, 1.8285644054412842f, 0.39534199237823486f, -0.023438243195414543f, 0.6466841697692871f, -0.37464985251426697f, 0.8312268853187561f, -0.29501423239707947f, -1.0334429740905762f, 0.055648818612098694f, -0.18931803107261658f, 0.2793789207935333f, -0.9827569723129272f, 1.6782985925674438f, 1.5010651350021362f, 1.458662986755371f, 0.011203831993043423f, -0.32681742310523987f, 0.753534197807312f, 0.0382302924990654f, 0.29415786266326904f, -0.1196417286992073f, 0.23226581513881683f, 0.6507084965705872f, -1.1684056520462036f, -0.019945282489061356f, -1.361114501953125f, -0.19306547939777374f, -0.21219350397586823f };
alignas(16) float conv2d_1_BIAS[] = { 4.436042785644531f, 1.792407751083374f, 1.7182087898254395f, -1.3195579051971436f, -1.6205168962478638f, 2.282569408416748f, 1.95679771900177f, 1.716290831565857f, -2.667135238647461f, 0.23692184686660767f, -0.6671128273010254f, 2.441211223602295f, 1.880674123764038f, -0.002884749323129654f, -2.821331739425659f, 2.5881924629211426f };
alignas(16) float conv2d_2_WEIGHTS[] = { 0.006136349868029356f, 0.0571957491338253f, -0.017376048490405083f, -0.12503176927566528f, -0.12603415548801422f, -0.007180163636803627f, -0.03662024810910225f, -0.06770235300064087f, 0.07904145121574402f, 0.08691658824682236f, -0.1435314267873764f, 0.02910890430212021f, 0.0006502846372313797f, -0.1215117871761322f, 0.0564136877655983f, 0.014564381912350655f, -0.02201063558459282f, 0.08341898769140244f, -0.28713592886924744f, -0.015171396546065807f, 0.04019174724817276f, 0.0695197582244873f, 0.018531689420342445f, 0.013013239949941635f, 0.1925954520702362f, 0.014441575855016708f, -0.11784851551055908f, 0.03972099721431732f, -0.0182579904794693f, 0.009583547711372375f, -0.06472887098789215f, 0.0009634227608330548f, 0.07469402253627777f, -0.029033400118350983f, -0.07427498698234558f, 0.03957695513963699f, 0.035760801285505295f, -0.11833950877189636f, 0.028390944004058838f, 0.030893199145793915f, 0.04583832249045372f, -0.11748379468917847f, -0.0005862974212504923f, -0.08422394841909409f, -0.11985254287719727f, 0.05011661723256111f, -0.04866782948374748f, -0.08906559646129608f, -0.17222121357917786f, -0.07973328977823257f, 0.04530838504433632f, 0.13835382461547852f, 0.1485220193862915f, -0.05347077548503876f, 0.028282906860113144f, 0.05899098142981529f, -0.008610360324382782f, -0.0392114482820034f, -0.035829927772283554f, 0.015115603804588318f, 0.016567008569836617f, 0.014804552309215069f, 0.043828804045915604f, -0.09408209472894669f, 0.014689167030155659f, 0.07511108368635178f, 0.3537825644016266f, 0.03798361495137215f, -0.09846379607915878f, 0.04716825112700462f, -0.007006170693784952f, 0.0038530095480382442f, -0.07014753669500351f, -0.05797339975833893f, -0.03046022355556488f, -0.011985769495368004f, -0.038197122514247894f, 0.04910479113459587f, -0.01005462370812893f, -0.019469480961561203f, -0.03650122135877609f, 0.0617499016225338f, -0.06217074766755104f, 0.007212889846414328f, -0.05898553878068924f, -0.04160661995410919f, 0.024443356320261955f, 0.01675543561577797f, -0.022176679223775864f, 0.07725898921489716f, -0.14161019027233124f, 0.009323963895440102f, 0.04357234388589859f, 0.0478837825357914f, 0.046355780214071274f, -0.010518496856093407f, -0.04049775004386902f, -0.0036538816057145596f, 0.028168173506855965f, 0.006019698455929756f, -0.08045551925897598f, -0.020641189068555832f, 0.032410454005002975f, -0.02264232560992241f, 0.012421163730323315f, 0.10236749798059464f, -0.016525914892554283f, -0.05639035627245903f, 0.001069539226591587f, -0.1064382866024971f, -0.057914648205041885f, 0.01951916515827179f, -0.02736382558941841f, -0.0260048508644104f, -0.049966465681791306f, -0.04205161705613136f, -0.2374671846628189f, 0.043426819145679474f, -0.07328858226537704f, 0.025330567732453346f, 0.010807034559547901f, 0.005831774324178696f, 0.017901236191391945f, 0.09722461551427841f, 0.09649190306663513f, -0.09025245904922485f, -0.0347471609711647f, 0.017474673688411713f, -0.05227538198232651f, -0.045011311769485474f, 0.0036814056802541018f, 0.023551762104034424f, 0.03873913362622261f, 0.015609055757522583f, -0.015037991106510162f, -0.04291345924139023f, -0.05046718940138817f, 0.10923562198877335f, 0.07763418555259705f, 0.0030852369964122772f, -0.07858721911907196f, 0.08587254583835602f, 0.014200596138834953f, -0.1288437694311142f, 0.08769233524799347f, 0.030192906036973f, -0.028366995975375175f, 0.014872315339744091f, 0.16622310876846313f, -0.03938953951001167f, -0.08297782391309738f, -0.02022363990545273f, 0.013796565122902393f, -0.056899163872003555f, -0.004832294303923845f, 0.04801863804459572f, -0.01055740937590599f, -0.005369378253817558f, -0.0018985846545547247f, -0.10682302713394165f, -0.04442461207509041f, 0.0932764858007431f, -0.04225040599703789f, -0.0014786197571083903f, -0.037467826157808304f, 0.04536772146821022f, 0.026329725980758667f, -0.09303397685289383f, 0.04502888023853302f, 0.045658648014068604f, 0.008872884325683117f, -0.09114476293325424f, 0.006739960052073002f, -0.1559712439775467f, 0.06884945183992386f, -0.03314392641186714f, 0.02638205513358116f, -0.09093256294727325f, 0.04909592494368553f, -0.062398169189691544f, 0.09261501580476761f, -0.05565708503127098f, 0.040615737438201904f, -0.03181101381778717f, -0.06496944278478622f, -0.005620549898594618f, -0.0735955685377121f, 0.04224514216184616f, -0.07344619929790497f, 0.041600655764341354f, 0.027284545823931694f, 0.06799766421318054f, -0.055353038012981415f, -0.06369718909263611f, -0.13011905550956726f, 0.06777878850698471f, -0.062380898743867874f, 0.03602146357297897f, -0.07403584569692612f, -0.06611941009759903f, -0.11518342792987823f, 0.051726777106523514f, 0.042748529464006424f, -0.012311332859098911f, -0.17827445268630981f, -0.06248997524380684f, -0.029015593230724335f, 0.1158822700381279f, 0.009926827624440193f, 0.09115489572286606f, 0.1881299912929535f, -0.059636183083057404f, 0.014212491922080517f, 0.023277828469872475f, -0.054018232971429825f, -0.08265990763902664f, 0.07712141424417496f, -0.04635470733046532f, 0.024161843582987785f, 0.03599053621292114f, 0.08180195093154907f, -0.04913885146379471f, -0.05406327545642853f, 0.11705516278743744f, 0.051702361553907394f, 0.02391204610466957f, 0.009106523357331753f, 0.021700657904148102f, 0.05790001526474953f, -0.013816065154969692f, -0.03985446318984032f, -0.12409340590238571f, -0.057607196271419525f, -0.12762175500392914f, -0.037958838045597076f, 0.002852374454960227f, -0.04254833981394768f, 0.04807555302977562f, -0.1375773698091507f, -0.06171309947967529f, 0.03325140103697777f, 0.0613747239112854f, -0.08032358437776566f, -0.007258884143084288f, -0.0039540063589811325f, -0.0035615824162960052f, 0.014041801914572716f, -0.004127698950469494f, 0.053575798869132996f, -0.0016714474186301231f, 0.023496847599744797f, -0.11102626472711563f, -0.031194787472486496f, -0.10739801079034805f, 0.052520669996738434f, 0.028518129140138626f, -0.055400654673576355f, 0.018003420904278755f, 0.09480176866054535f, 0.014663472771644592f, 0.05719102546572685f, -0.05137663334608078f, -0.01162778027355671f, -0.004383966792374849f, 0.08728901296854019f, 0.12162204086780548f, -0.08329653739929199f, -0.19982151687145233f, -0.055085018277168274f, -0.017978649586439133f, 0.031501125544309616f, -0.03501911833882332f, -0.09748661518096924f, 0.04841750115156174f, 0.04019220545887947f, -0.012370266951620579f, -0.027659796178340912f, -0.135414257645607f, -0.026598474010825157f, -0.013343989849090576f, 0.03457710146903992f, 0.001458553015254438f, -0.3246932625770569f, -0.15679310262203217f, -0.12496311962604523f, 0.04157961532473564f, -0.09384530782699585f, -0.0983101949095726f, 0.09755904227495193f, 0.009488442912697792f, -0.012134670279920101f, 0.039305951446294785f, 0.14671988785266876f, -0.01914087124168873f, -0.08130961656570435f, -0.0050294972024858f, 0.014644409529864788f, -0.058380357921123505f, -0.014014245010912418f, 0.04470572993159294f, -0.016227928921580315f, 0.005720796529203653f, -0.001956501742824912f, -0.017007222399115562f, -0.05880609154701233f, 0.12200741469860077f, -0.01651841402053833f, 0.01604790799319744f, -0.022375576198101044f, 0.041980333626270294f, 0.030799319967627525f, -0.08364834636449814f, -0.057439930737018585f, -0.07857411354780197f, -0.008945196866989136f, -0.1538267433643341f, -0.04035165160894394f, 0.002305565634742379f, -0.036693722009658813f, -0.031723540276288986f, -0.09740070253610611f, 0.02931966818869114f, -0.010294183157384396f, -0.015398270450532436f, -0.034630898386240005f, -0.12786835432052612f, -0.004592529032379389f, 0.06538745015859604f, 0.048777662217617035f, 0.002723358804360032f, -0.0098100695759058f, 0.07822572439908981f, 0.11545351892709732f, 0.06342840194702148f, 0.03053576499223709f, -0.0308523066341877f, -0.06778886169195175f, -0.09771566092967987f, -0.10243532806634903f, 0.04069845378398895f, -0.09073081612586975f, 0.0281051192432642f, -0.0027656450401991606f, -0.06281286478042603f, -0.008158550597727299f, -0.009473529644310474f, 0.0049294112250208855f, -0.023355048149824142f, -0.08733311295509338f, -0.05853297933936119f, -0.03821128234267235f, 0.03882523626089096f, -0.0688987746834755f, 0.03678916022181511f, 0.0708848088979721f, -0.053408242762088776f, -0.016598882153630257f, -0.011016776785254478f, -0.028655847534537315f, 0.004882626701146364f, 0.02659417688846588f, 0.03180389106273651f, 0.09604468941688538f, 0.029520563781261444f, 0.04587230086326599f, 0.011097134090960026f, 0.02803932875394821f, -0.023175068199634552f, 0.026584235951304436f, 0.05722678825259209f, -0.025327524170279503f, 0.021765798330307007f, -0.0509503036737442f, 0.002312131691724062f, 0.12058036774396896f, 0.1361089050769806f, 0.07256259769201279f, 0.041342977434396744f, 0.2008984535932541f, 0.03611822426319122f, -0.06269285082817078f, -0.08609738945960999f, -0.013728702440857887f, -0.0690913125872612f, -0.07225359976291656f, 0.21476656198501587f, -0.018393253907561302f, 0.06289318948984146f, -0.044855229556560516f, -0.05294432118535042f, 0.006715869996696711f, 0.06179193779826164f, -0.11963795125484467f, 0.03565540164709091f, -0.13511717319488525f, 0.0127957072108984f, 0.026049571111798286f, -0.077342689037323f, -0.04618114233016968f, 0.007557668257504702f, 0.0007600583485327661f, 0.1249597817659378f, 0.042153824120759964f, 0.0037526425439864397f, -0.028348850086331367f, 0.05462977662682533f, 0.07934509962797165f, 0.0341804064810276f, 0.20092537999153137f, 0.11272690445184708f, 0.046860821545124054f, -0.002238620538264513f, 0.04539826884865761f, -0.0021034060046076775f, -0.16207747161388397f, 0.09231206774711609f, -0.08025473356246948f, 0.010712542571127415f, 0.001842853263951838f, -0.010203148238360882f, -0.03625554218888283f, -0.07145267724990845f, 0.01637953333556652f, 0.07178016752004623f, -0.027752870693802834f, -0.02593122608959675f, -0.1203477531671524f, -0.07356145977973938f, -0.04575594514608383f, 0.034333255141973495f, 0.009236715734004974f, -0.03427617996931076f, -0.02856830507516861f, -0.028002571314573288f, 0.018754787743091583f, 0.06622463464736938f, 0.13547329604625702f, 0.02222336269915104f, 0.09472650289535522f, -0.06301354616880417f, 0.006109217647463083f, -0.031221551820635796f, -0.09556640684604645f, 0.01696847938001156f, 0.02583346702158451f, -0.03770690783858299f, 0.01830076426267624f, -0.0685582160949707f, -0.06031342223286629f, 0.062034036964178085f, 0.0028655105270445347f, -0.0805753692984581f, 0.0016634248895570636f, 0.024770978838205338f, 0.04954155907034874f, -0.08144200593233109f, -0.13004142045974731f, 0.07885035127401352f, -0.017736664041876793f, 0.03990459442138672f, -0.01504406239837408f, 0.021317971870303154f, -0.15028846263885498f, -0.0115342503413558f, -0.07901224493980408f, 0.02690604142844677f, -0.041914183646440506f, -0.0008717421442270279f, -0.041106972843408585f, -0.042355772107839584f, 0.011887297965586185f, 0.017826739698648453f, 0.038919851183891296f, 0.1053178608417511f, 0.12836647033691406f, 0.05557907372713089f, 0.03751378878951073f, 0.004582208581268787f, 0.00843430869281292f, -0.018318835645914078f, 0.01244526356458664f, -0.04193369671702385f, -0.007943065837025642f, -0.11916515976190567f, -0.005072371102869511f, -0.01385094877332449f, 0.06187289208173752f, -0.008589716628193855f, -0.043306250125169754f, 0.05741512402892113f, -0.08832322806119919f, -0.017875753343105316f, 0.11719455569982529f, -0.08284775912761688f, -0.05032774806022644f, -0.0057212188839912415f, -0.06921360641717911f, -0.013445237651467323f, -0.1263817846775055f, -0.014744524843990803f, -0.06763394176959991f, 0.027810003608465195f, -0.03808457404375076f, 0.010009795427322388f, 0.020945435389876366f, -0.026094043627381325f, 0.007548417430371046f, 0.0936826840043068f, 0.06765560805797577f, -0.03285392373800278f, 0.025426706299185753f, -0.02908676490187645f, -0.15800578892230988f, -0.030685147270560265f, 0.019473915919661522f, 0.040450017899274826f, 0.03717675805091858f, -0.0010742482263594866f, -0.017519723623991013f, -0.1444447636604309f, -0.059309981763362885f, 0.048872336745262146f, -0.018716545775532722f, -0.06779909878969193f, -0.138891339302063f, 0.02910972572863102f, 0.08061014115810394f, -0.11642400920391083f, 0.05026504769921303f, 0.0206794124096632f, -0.0563848540186882f, 0.034778792411088943f, 0.17508718371391296f, 0.01588386483490467f, -0.06608089059591293f, -0.08192937821149826f, -0.06056671962141991f, -0.06099432334303856f, 0.0374881848692894f, 0.05101175606250763f, -0.0379166342318058f, 0.02538163773715496f, -0.02398308366537094f, -0.12543341517448425f, -0.07334474474191666f, 0.06148342043161392f, -0.08543730527162552f, -0.08283361047506332f, -0.08793956786394119f, -0.019420266151428223f, 0.1048850491642952f, -0.07913771271705627f, -0.021980615332722664f, -0.057146068662405014f, 0.03493746370077133f, -0.031210344284772873f, 0.00624207453802228f, -0.05969330295920372f, 0.16200658679008484f, 0.026888640597462654f, -0.0669420063495636f, -0.09317857027053833f, -0.030217386782169342f, 0.007180400658398867f, 0.08823368698358536f, 0.030276542529463768f, 0.09418902546167374f, -0.018176408484578133f, -0.0495016910135746f, -0.04691731929779053f, 0.11578306555747986f, -0.06403554975986481f, -0.14596104621887207f, -0.007033708970993757f, 0.08570244908332825f, 0.08105405420064926f, 0.006894548889249563f, 0.05644173547625542f, -0.0350688174366951f, 0.09048254042863846f, 0.0666596069931984f, 0.04615289345383644f, -0.23256483674049377f, -0.022982468828558922f, -0.11025438457727432f, 0.01977647840976715f, -0.04879915714263916f, 0.02701609395444393f, -0.07926741242408752f, -0.05179658532142639f, -0.10891294479370117f, 0.048185333609580994f, -0.037158772349357605f, 0.06519117951393127f, 0.17450131475925446f, 0.015822554007172585f, -0.017779355868697166f, 0.028327511623501778f, -0.016619835048913956f, -0.03164626657962799f, 0.11113905906677246f, 0.08796156197786331f, 0.054571617394685745f, -0.010847846046090126f, 0.06642239540815353f, -0.0077330684289336205f, 0.056062765419483185f, 0.06009602174162865f, 0.09498763829469681f, -0.021789144724607468f, -0.14702989161014557f, -0.015643829479813576f, -0.15953077375888824f, -0.039626024663448334f, -0.053035516291856766f, -0.16759678721427917f, 0.047918859869241714f, 0.042844682931900024f, -0.20044757425785065f, -0.020540183410048485f, 0.012044454924762249f, 0.0008257643203251064f, 0.02786731906235218f, -0.01713511347770691f, 0.04786071181297302f, 0.06708326190710068f, 0.002454337663948536f, 0.014017613604664803f, 0.03271020948886871f, 0.009890210814774036f, -0.08977144211530685f, 0.03222623094916344f, -0.030747687444090843f, -0.03434564173221588f, -0.0324336439371109f, -0.07878745347261429f, -0.0015131307300180197f, -0.06257440149784088f, 0.007641528733074665f, 0.037126246839761734f, -0.09044883400201797f, -0.012720517814159393f, 0.10668820142745972f, -0.02806476131081581f, -0.06619593501091003f, -0.006382884457707405f, -0.03288329392671585f, 0.12457074224948883f, -0.09876357018947601f, -0.014014819636940956f, -0.03222322463989258f, -0.09517683833837509f, -0.08601866662502289f, 0.00015237480693031102f, -0.02819313295185566f, 0.09400013089179993f, -0.010056745260953903f, 0.058742035180330276f, 0.05236561596393585f, -0.03351377695798874f, -0.07870064675807953f, -0.010752512142062187f, -0.03616037592291832f, 0.05533207580447197f, 0.004215046297758818f, -0.03252318874001503f, -0.1227319985628128f, -0.09388729929924011f, 0.11842478811740875f, -0.04373276233673096f, -0.07237312942743301f, 0.030987361446022987f, 0.00607334217056632f, 0.024791426956653595f, -0.057969752699136734f, 0.040964629501104355f, 0.14329619705677032f, 0.021130850538611412f, -0.04600916802883148f, -0.03169368952512741f, -0.06906509399414062f, -0.050718262791633606f, 0.04385188966989517f, 0.06534724682569504f, -0.044300924986600876f, 0.019818762317299843f, -0.015124902129173279f, -0.06681666523218155f, -0.06335140764713287f, 0.07165378332138062f, -0.12015867978334427f, -0.04224022105336189f, -0.07369519025087357f, -0.012347645126283169f, 0.06103374809026718f, -0.12355924397706985f, -0.17146576941013336f, -0.06279492378234863f, -0.02859831042587757f, -0.10959333926439285f, -0.07943753898143768f, 0.04484502971172333f, 0.08834058046340942f, -0.052405644208192825f, 0.044576872140169144f, -0.037678007036447525f, -0.05064360052347183f, -0.034169554710388184f, 0.010344241745769978f, -0.08605501055717468f, -0.00046101491898298264f, -0.001302886987105012f, 0.07098124921321869f, -0.0028111261781305075f, 0.07229618728160858f, -0.002499723806977272f, 0.07058144360780716f, -0.024238208308815956f, 0.04144154489040375f, -0.157096728682518f, 0.002364489482715726f, -0.012269493192434311f, -0.012074774131178856f, 0.03718442842364311f, 0.017709026113152504f, 0.014767232351005077f, -0.06955063343048096f, -0.03362623602151871f, -0.05551893264055252f, -0.037174008786678314f, -0.04096059501171112f, 0.042937204241752625f, -0.014827502891421318f, -0.049939561635255814f, -0.1018732413649559f, 0.026439130306243896f, -0.03306033834815025f, 0.0036778461653739214f, 0.07950769364833832f, 0.0035430830903351307f, -0.09051010012626648f, -0.00899836141616106f, 0.008306561969220638f, 0.019322196021676064f, -0.019524209201335907f, 0.015271583572030067f, -0.11320717632770538f, 0.21957166492938995f, 0.10782837122678757f, 0.025713039562106133f, -0.23347261548042297f, -0.03636382892727852f, -0.07079597562551498f, -0.025873035192489624f, -0.1074821874499321f, -0.002478434005752206f, -0.09774034470319748f, -0.012456085532903671f, -0.08283674716949463f, 0.06309617310762405f, -0.01981324702501297f, -0.09967532753944397f, 0.1385270357131958f, -0.13361702859401703f, -0.19739291071891785f, 0.003631241386756301f, -0.0622541606426239f, -0.06024347245693207f, -0.12985605001449585f, 0.12965013086795807f, 0.03834095969796181f, 0.03478829562664032f, -0.018114140257239342f, -0.0989721268415451f, 0.008449549786746502f, 0.09665964543819427f, -0.059207331389188766f, 0.03150699660181999f, -0.03487727791070938f, 0.0046354858204722404f, -0.07452330738306046f, -0.1312289983034134f, -0.04608451575040817f, -0.011568174697458744f, -0.11291252076625824f, -0.10013268142938614f, -0.10990449041128159f, -0.0243889931589365f, 0.0031883749179542065f, 0.055382728576660156f, 0.17954793572425842f, -0.03804371505975723f, 0.05853859335184097f, 0.01698702573776245f, 0.0697353184223175f, -0.0300319641828537f, 0.09925885498523712f, 0.020763663575053215f, -0.1634717881679535f, 0.053562846034765244f, -0.045578036457300186f, 0.02511702850461006f, 0.0944269448518753f, -0.0707198977470398f, -0.001948673976585269f, -0.11196272075176239f, 0.0051468838937580585f, 0.12053684890270233f, -0.020974447950720787f, -0.0033688119146972895f, -0.2374388426542282f, 0.014789952896535397f, 0.18802765011787415f, 0.05612131953239441f, 0.02093058079481125f, -0.10381031781435013f, -0.1231435090303421f, 0.01086423546075821f, -0.008969781920313835f, 0.016780907288193703f, 0.11151482164859772f, 0.05632377788424492f, -0.023935314267873764f, -0.13132146000862122f, 0.00933107826858759f, -0.054523441940546036f, -0.012961046770215034f, -0.04095908999443054f, -0.041827864944934845f, -0.17733654379844666f, 0.03662484511733055f, -0.06805970519781113f, -0.051717985421419144f, 0.023215221241116524f, -0.13888558745384216f, -0.04482651874423027f, 0.16283154487609863f, 0.015918564051389694f, -0.048355184495449066f, -0.18628937005996704f, -0.030647259205579758f, 0.039612989872694016f, 0.011778226122260094f, 0.11538837105035782f, 0.011473799124360085f, -0.021237321197986603f, -0.05462649092078209f, -0.02085987478494644f, -0.039859939366579056f, 0.020813535898923874f, -0.09817931056022644f, -0.008779503405094147f, 0.00031934003345668316f, 0.023575110360980034f, -0.04572819545865059f, -0.04814574494957924f, -0.0020178870763629675f, 0.023030489683151245f, 0.10863564163446426f, 0.0037754024378955364f, -0.024536365643143654f, -0.013960675336420536f, 0.0942293107509613f, -0.13101829588413239f, 0.009079293347895145f, -0.05684193596243858f, 0.033807460218667984f, -0.18214140832424164f, -0.0039299787022173405f, -0.01366579532623291f, 0.08621042966842651f, -0.0022558884229511023f, -0.054740339517593384f, 0.016568690538406372f, 0.01265893317759037f, -0.003848693100735545f, 0.00548955425620079f, -0.031901612877845764f, -0.054523661732673645f, -0.05835079401731491f, 0.004140033852308989f, -0.005931064020842314f, -0.11047802865505219f, 0.022852260619401932f, -0.02896692045032978f, 0.05495705083012581f, 0.04379669576883316f, -0.07660006731748581f, -0.024207545444369316f, -0.08928500860929489f, 0.002276552841067314f, 0.009592123329639435f, 0.07349583506584167f, 0.03356043994426727f, 0.005512282717972994f, -0.07488317787647247f, -0.08694171905517578f, -0.02878188155591488f, 0.019380323588848114f, -0.013790135271847248f, 0.03443622589111328f, -0.008388287387788296f, 0.05947158485651016f, -0.05750928446650505f, -0.051835112273693085f, -0.049820661544799805f, -0.008515849709510803f, -0.0627674013376236f, -0.03177497163414955f, -0.005190778989344835f, 0.06614312529563904f, -0.0023409612476825714f, -0.025245627388358116f, -0.09293191134929657f, -0.04204091429710388f, 0.025723055005073547f, 0.11805909126996994f, 0.027280166745185852f, -0.05068716034293175f, -0.06699208915233612f, 0.0648021325469017f, -0.0677650049328804f, 0.02143346332013607f, -0.0081122275441885f, -0.014104234054684639f, 0.02055032178759575f, 0.02635442465543747f, -0.035256121307611465f, -0.04883508384227753f, -0.01760135591030121f, 0.03914919123053551f, -0.04770447686314583f, 0.04554181173443794f, -0.041796837002038956f, 0.04802093654870987f, 0.1332051008939743f, -0.00747113348916173f, -0.0294367503374815f, 0.04566550999879837f, 0.009830951690673828f, -0.027339698746800423f, 0.011946924030780792f, 0.07084131985902786f, 0.04607681185007095f, -0.11363761126995087f, -0.08573999255895615f, 0.010839520022273064f, -0.008620928972959518f, 0.010846616700291634f, -0.2314075231552124f, 0.12662914395332336f, -0.03686237707734108f, -0.020829051733016968f, -0.1267147809267044f, -0.015396853908896446f, -0.10319259017705917f, 0.24312157928943634f, 0.05381489172577858f, 0.05311485752463341f, -0.019279198721051216f, 0.044749315828084946f, -0.027783984318375587f, 0.03371654078364372f, 0.029220325872302055f, 0.0506351962685585f, -0.025685666128993034f, -0.15913841128349304f, -0.107234887778759f, -0.0956975594162941f, 0.012613768689334393f, -0.015372835099697113f, 0.008436069823801517f, -0.07093223929405212f, -0.0011380041250959039f, -0.14272025227546692f, 0.024737786501646042f, -0.020631033927202225f, 0.07415878027677536f, 0.06768953800201416f, 0.01693716086447239f, -0.03408230468630791f, 0.07756754010915756f, 0.11162732541561127f, -0.11215424537658691f, 0.04580249264836311f, 0.024776875972747803f, 0.009689806029200554f, -0.07289671152830124f, -0.02793530374765396f, -0.02302739769220352f, 0.07679946720600128f, -0.016666365787386894f, 0.23877038061618805f, 0.11097006499767303f, -0.013310267589986324f, -0.05465615540742874f, -0.20516851544380188f, -0.03279761224985123f, 0.0364711694419384f, -0.0773632749915123f, 0.017820149660110474f, -0.07301642745733261f, -0.14509224891662598f, -0.06944514811038971f, 0.032816581428050995f, -0.03879811614751816f, -0.00537749333307147f, 0.03406029939651489f, 0.034996192902326584f, 0.04300127923488617f, 0.07301994413137436f, 0.05057089775800705f, 0.037136949598789215f, 0.04183148592710495f, -0.13863208889961243f, -0.041004348546266556f, -0.07208064943552017f, -0.04219256341457367f, -0.011246900074183941f, -0.04804627597332001f, -0.015558324754238129f, -0.16250182688236237f, 0.02598721534013748f, 0.051229964941740036f, -0.04576802998781204f, -0.03777838498353958f, 0.03523654490709305f, -0.0704871192574501f, 0.03318879380822182f, 0.18213000893592834f, -0.07707254588603973f, -0.07269737869501114f, -0.10528098046779633f, -0.053532399237155914f, -0.04291001334786415f, -0.05456003174185753f, -0.01333786640316248f, 0.015272959135472775f, -0.0835186243057251f, 0.054418809711933136f, 0.027270901948213577f, -0.022837353870272636f, 0.012353701516985893f, -0.10123304277658463f, -0.11771925538778305f, -0.14297425746917725f, 0.010146433487534523f, -0.042166635394096375f, 0.04979757219552994f, 0.005237682722508907f, 0.025669459253549576f, -0.02136889658868313f, 0.25403282046318054f, -0.031132064759731293f, -0.13542309403419495f, 0.19141392409801483f, -0.08110923320055008f, -0.06011969968676567f, -0.039953798055648804f, 0.017630459740757942f, 0.11496846377849579f, 0.05945117771625519f, -0.03900659829378128f, -0.033989839255809784f, 0.03949277475476265f, -0.07848528027534485f, 0.029002785682678223f, -0.01962410658597946f, -0.018239183351397514f, 0.016662931069731712f, 0.02850632183253765f, -0.04111285135149956f, -0.025758104398846626f, -0.007347481790930033f, 0.06360293179750443f, -0.04782413691282272f, 0.06263032555580139f, -0.048204418271780014f, 0.02148737572133541f, 0.0770801454782486f, -0.10588729381561279f, -8.587181946495548e-05f, 0.010797499679028988f, 0.011462190188467503f, -0.110431969165802f, 0.06049584969878197f, -0.012506449595093727f, -0.07264374941587448f, 0.07392768561840057f, 0.06797771900892258f, 0.03301096707582474f, -0.016262127086520195f, -0.07203873246908188f, -0.0722215473651886f, 0.04269754886627197f, -0.04364759847521782f, -0.07101713865995407f, -0.11510001868009567f, 9.044068065122701e-06f, -0.08250224590301514f, -0.0014439970254898071f, -0.05315251648426056f, 0.11737287044525146f, -0.2244790494441986f, 0.025297554209828377f, -0.045556940138339996f, -0.0009182735229842365f, -0.008359157480299473f, 0.006690924055874348f, -0.018160196021199226f, -0.0539848692715168f, -0.15033914148807526f, -0.10304903984069824f, -0.025017857551574707f, -0.03781124949455261f, 0.08371810615062714f, -0.0020693072583526373f, -0.019364260137081146f, -0.1031707152724266f, 0.01793932542204857f, -0.06942372769117355f, -0.026417691260576248f, 0.04401493817567825f, -0.04711555317044258f, -0.13430890440940857f, 0.09219616651535034f, 0.03902977332472801f, -0.08772996813058853f, -0.09293171018362045f, -0.042152777314186096f, -0.06935761868953705f, -0.018298201262950897f, 0.07961009442806244f, 0.07349630445241928f, -0.04195472225546837f, -0.12583786249160767f, 0.0661998763680458f, -0.03483329713344574f, 0.018362898379564285f, -0.06680191308259964f, -0.11428792774677277f, -0.036110468208789825f, -0.0578589104115963f, -0.009098374284803867f, -0.03585584834218025f, -0.08661767840385437f, -0.2810431718826294f, -0.1380029171705246f, 0.16616448760032654f, 0.018510863184928894f, -0.04247993603348732f, 0.09107741713523865f, -0.11758484691381454f, -0.16415058076381683f, -0.01959242671728134f, -0.056124236434698105f, -0.06365792453289032f, -0.03281814232468605f, 0.022829603403806686f, -0.03820173442363739f, 0.03860773891210556f, -0.004142445046454668f, 0.23386068642139435f, -0.014000325463712215f, 0.1229897066950798f, 0.026873094961047173f, 0.08215301483869553f, 0.12104065716266632f, 0.016805758699774742f, 0.05725017562508583f, 0.10670723766088486f, 0.017105845734477043f, 0.12770859897136688f, -0.028539275750517845f, -0.0506131574511528f, 0.015207341872155666f, 0.04686455801129341f, -0.06748514622449875f, -0.03447454422712326f, -0.033491477370262146f, -0.0069893174804747105f, -0.00582559360191226f, -0.07384061068296432f, -0.03827148675918579f, 0.12481284886598587f, -0.004136325791478157f, 0.006002173759043217f, -0.05381587892770767f, -0.007835330441594124f, 0.08679066598415375f, 0.06848213821649551f, 0.041311655193567276f, 0.0039758384227752686f, 0.08614330738782883f, -0.21150483191013336f, -0.03284136950969696f, 0.03122229501605034f, -0.013713154941797256f, -0.07579616457223892f, 0.11432233452796936f, -0.062147896736860275f, -0.23206625878810883f, -0.006002077367156744f, 0.08101925253868103f, 0.11320772022008896f, 0.033415015786886215f, -0.0172721054404974f, 0.0065958513878285885f, 0.004128929693251848f, -0.047602444887161255f, -0.03765520453453064f, 0.05761589854955673f, -0.10717055946588516f, 0.03014328144490719f, 0.10210451483726501f, -0.03647478669881821f, 0.059299286454916f, 0.03450851887464523f, 0.25822508335113525f, 0.00039388626464642584f, 0.09720994532108307f, -0.06035197898745537f, -0.025262169539928436f, -0.05290493741631508f, -0.01657920517027378f, -0.030355989933013916f, -0.0640893429517746f, -0.01506039034575224f, -0.051676832139492035f, 0.0036163092590868473f, 0.05680791288614273f, -0.04288237914443016f, -0.0356687568128109f, 0.007439941633492708f, 0.15214505791664124f, -0.0026206569746136665f, 0.010745333507657051f, 0.013728992082178593f, 0.014816612005233765f, 0.01634175516664982f, -0.00277148000895977f, 0.053045276552438736f, -0.11006686836481094f, -0.01741233840584755f, -0.00821033027023077f, -0.05805067718029022f, 0.02198142558336258f, 0.01279483549296856f, 0.03434811159968376f, 0.002378287957981229f, -0.01708552986383438f, 0.06746554374694824f, -0.022750617936253548f, -0.04429203271865845f, 0.003444490022957325f, -0.01625637710094452f, -0.0840950533747673f, 0.039462972432374954f, -0.012077655643224716f, -0.04590292647480965f, 0.033113494515419006f, -0.05119594931602478f, -0.09782896935939789f, 0.08171553164720535f, -0.07656008005142212f, -0.004642955027520657f, 0.0726691484451294f, -0.09720860421657562f, -0.18711252510547638f, 0.023592235520482063f, -0.06325558573007584f, 0.12342482060194016f, -0.09567482769489288f, -0.024051865562796593f, -0.015392226167023182f, -0.020731903612613678f, 0.003165516536682844f, 0.034865718334913254f, -0.10021191090345383f, -0.0012278042268007994f, -0.02489284612238407f, -0.05359569564461708f, -0.019938021898269653f, 0.018054461106657982f, 0.062110885977745056f, -0.016380326822400093f, -0.04899725690484047f, 0.03675057366490364f, 0.06330902129411697f, -0.03845549374818802f, -0.03356524929404259f, 0.017056167125701904f, 0.010289459489285946f, 0.06263543665409088f, -0.040834806859493256f, -0.2029927372932434f, -0.1085592582821846f, 0.009094906039536f, -0.01080237701535225f, -0.06436605751514435f, 0.0550614558160305f, 0.057787567377090454f, -0.15420767664909363f, 0.0003840963472612202f, 0.025583021342754364f, -0.04201299324631691f, -0.03194066137075424f, 0.0741247683763504f, 0.03233150392770767f, 0.018713973462581635f, -0.007436615880578756f, 0.044160883873701096f, 0.07190211117267609f, 0.014967496506869793f, -0.07647322118282318f, 0.03643115609884262f, 0.0339350625872612f, 0.0025878201704472303f, -0.03276543319225311f, -0.2571098208427429f, -0.05947807803750038f, -0.010862446390092373f, -0.026435716077685356f, -0.17995616793632507f, 0.08007432520389557f, -0.021229619160294533f, 0.10362513363361359f, -0.05469898879528046f, -0.002577113686129451f, -0.0797605887055397f, -0.04587552696466446f, -0.014764354564249516f, 0.104880191385746f, -0.04355226084589958f, 0.006919837556779385f, -0.07783015072345734f, -0.08776775002479553f, 0.009249309077858925f, -0.14233916997909546f, -0.04579104855656624f, -0.031114520505070686f, 0.029616983607411385f, 0.010018915869295597f, 0.1537213772535324f, 0.03821505606174469f, -0.005905219353735447f, -0.14449115097522736f, 0.06750213354825974f, -0.019794823601841927f, 0.04588285833597183f, -0.02900462970137596f, -0.07041803747415543f, -0.08043535053730011f, 0.024165920913219452f, 0.04372377693653107f, -0.12205871194601059f, -0.08525671809911728f, 0.04554502293467522f, -0.05551749840378761f, 0.020354317501187325f, 0.0046865493059158325f, 0.09865768253803253f, 0.09025371074676514f, -0.1255534440279007f, -0.04496049880981445f, 0.02165926806628704f, -0.034170400351285934f, 0.03362743556499481f, 0.01073458231985569f, -0.10285887122154236f, 0.010309215635061264f, 0.02971181832253933f, 0.0400577187538147f, -0.03427358344197273f, -0.04304972290992737f, 0.13454236090183258f, -0.0885963886976242f, 0.044150158762931824f, 0.0772123634815216f, -0.005313865840435028f, -0.010126866400241852f, 0.07027427852153778f, 0.09936785697937012f, -0.07236461341381073f, -0.08455046266317368f, 0.05936024710536003f, -0.07375605404376984f, -0.016142426058650017f, 0.021688515320420265f, -0.07616480439901352f, -0.15030613541603088f, 0.04479460045695305f, 0.04206763207912445f, -0.02488371729850769f, -0.11396043002605438f, -0.016826894134283066f, 0.0747193768620491f, -0.044441018253564835f, 0.05322397127747536f, -0.10402169078588486f, 0.08270318061113358f, -0.022290276363492012f, 0.06625707447528839f, -0.11575832217931747f, 0.03339604660868645f, 0.1158757209777832f, 0.015706781297922134f, 0.006015961058437824f, -0.08028628677129745f, -0.0189240500330925f, -0.002975658280774951f, -0.0017760604387149215f, -0.01919448934495449f, 0.023093990981578827f, 0.07547920197248459f, 0.217211052775383f, -0.12966123223304749f, 0.1777171492576599f, -0.1209866851568222f, 0.02251308411359787f, -0.004291733726859093f, -0.009662365540862083f, -0.009977270849049091f, -0.022870518267154694f, 0.014002968557178974f, 0.03649456426501274f, -0.07119668275117874f, -0.06286413222551346f, 0.14558620750904083f, -0.08379670977592468f, -0.014162627048790455f, -0.053572557866573334f, 0.014136106707155704f, 0.030573775991797447f, 0.13316328823566437f, -0.047364041209220886f, -0.0881296694278717f, 0.10051155090332031f, -0.1218651607632637f, -0.05529869347810745f, -0.09666582942008972f, 0.019380303099751472f, 0.023165199905633926f, -0.07946547120809555f, 0.07213924825191498f, 0.06343862414360046f, -0.15432654321193695f, 0.008972534909844398f, 0.051905978471040726f, -0.05991397798061371f, -0.08890989422798157f, 0.04861363768577576f, 0.01903708092868328f, 0.052094731479883194f, -0.015907006338238716f, 0.027035178616642952f, 0.03614316135644913f, 0.06326425820589066f, -0.1307293027639389f, 0.059656113386154175f, 0.03442514315247536f, -0.02999054081737995f, -0.01747526414692402f, -0.2615005671977997f, -0.04631314426660538f, 0.049108561128377914f, -0.023464260622859f, -0.1447281390428543f, -0.03080711141228676f, -0.03379403427243233f, -0.019477350637316704f, 0.10709862411022186f, 0.12322240322828293f, -0.021718347445130348f, 0.05367356911301613f, -0.05252485349774361f, 0.06130608916282654f, -0.02175402268767357f, -0.021117432042956352f, 0.027977632358670235f, 0.03687524050474167f, -0.08274425566196442f, -0.27567484974861145f, 0.003985532093793154f, -0.009003600105643272f, -0.020442500710487366f, -0.1674138456583023f, -0.04918922111392021f, 0.04572790116071701f, 0.018679531291127205f, -0.12048469483852386f, 0.029570812359452248f, 0.0016906845849007368f, 0.002645913977175951f, 0.06506013125181198f, -0.09386317431926727f, 0.019732115790247917f, 0.011853750795125961f, 0.038787052035331726f, -0.04618378356099129f, -0.033881232142448425f, 0.028251027688384056f, -0.04876590147614479f, -0.03590858727693558f, -0.047615017741918564f, -0.001230382127687335f, -0.014277249574661255f, -0.06656499207019806f, -0.08073679357767105f, -0.001775057753548026f, 0.015227996744215488f, 0.05061369389295578f, -0.14977116882801056f, -0.04610002413392067f, 0.0576884001493454f, -0.18318144977092743f, 0.09307348728179932f, -0.014707867987453938f, -0.07455457746982574f, -0.09810392558574677f, 0.2063177078962326f, 0.008132235147058964f, 0.05391879379749298f, -0.02358366921544075f, -0.03408339247107506f, -0.0043730721808969975f, -0.04150404781103134f, 0.04945963993668556f, 0.16206087172031403f, -0.11965636909008026f, 0.17534729838371277f, -0.010053463280200958f, 0.00567127950489521f, -0.11175941675901413f, -0.049263644963502884f, -0.06444882601499557f, -0.15360035002231598f, -0.043230168521404266f, 0.04355309158563614f, 0.12427397072315216f, -0.07984110713005066f, -0.0691063180565834f, -0.0435786247253418f, 0.048558060079813004f, -0.06730392575263977f, -0.08099289983510971f, -0.042669735848903656f, -0.006026818882673979f, 0.0566897876560688f, 0.04977540299296379f, -0.054283253848552704f, 0.0680311769247055f, 0.08672603964805603f, 0.04109080135822296f, 0.41577619314193726f, 0.11599881947040558f, 0.048864640295505524f, 0.06764192879199982f, -0.032039087265729904f, 0.06139085441827774f, -0.02840099111199379f, 0.09521102905273438f, 0.10588562488555908f, -0.04056080803275108f, 0.008470502682030201f, -0.03187015652656555f, -0.2514042258262634f, 0.05971914157271385f, 0.005377799738198519f, 0.00403438089415431f, -0.016477640718221664f, -0.0418413020670414f, -0.02136179246008396f, 0.12251391261816025f, 0.007841384038329124f, 0.039873600006103516f, -0.029113903641700745f, 0.12556694447994232f, 0.060739003121852875f, -0.007948928512632847f, -0.05721762031316757f, 0.03057401441037655f, -0.16790223121643066f, 0.030674492940306664f, 0.07218965888023376f, -0.11143417656421661f, -0.03752073645591736f, -0.029604516923427582f, -0.013907084241509438f, 0.08268510550260544f, 0.0456705242395401f, -0.09697479009628296f, -0.07574990391731262f, -0.11879138648509979f, -0.10614577680826187f, 0.027926325798034668f, 0.008753692731261253f, -0.0016486040549352765f, 0.022560857236385345f, -0.04231489077210426f, 0.030120499432086945f, 0.026163527742028236f, -0.04470955580472946f, -0.11929623037576675f, -0.05154862254858017f, -0.048081591725349426f, -0.014689073897898197f, -0.23786407709121704f, -0.05688295140862465f, -0.06743982434272766f, -0.0016194975469261408f, -0.0188301969319582f, -0.02552340179681778f, -0.05436064675450325f, -0.12604835629463196f, 0.07384426146745682f, -0.01554821990430355f, -0.023689672350883484f, 0.030388718470931053f, -0.04762586951255798f, 0.023123860359191895f, 0.05067113786935806f, -0.031246235594153404f, 0.02252517268061638f, 0.0113887470215559f, 0.002272818237543106f, 0.04876107722520828f, 0.003146464005112648f, -0.005442614201456308f, 0.010030229575932026f, -0.0568389967083931f, 0.004375878721475601f, -0.038692906498909f, -0.0636039599776268f, 0.02109174057841301f, -0.11031001061201096f, 0.004136733245104551f, -0.018720285966992378f, -0.042433518916368484f, 0.03033490851521492f, -0.1679721474647522f, -0.0238887220621109f, -0.08425046503543854f, -0.00420087855309248f, 0.10496322810649872f, -0.058445509523153305f, -0.08879303932189941f, 0.0837860032916069f, -0.08568207174539566f, -0.0491618886590004f, -0.1646871566772461f, -0.05392710492014885f, -0.18543830513954163f, 0.07878322154283524f, -0.06515943259000778f, 0.11748935282230377f, -0.13561950623989105f, 0.0012144800275564194f, 0.016030017286539078f, 0.01321649644523859f, 0.04036206752061844f, 0.06347478926181793f, -0.07570084184408188f, -0.03264205902814865f, -0.10025056451559067f, -0.08788267523050308f, -0.13197079300880432f, 0.04834463447332382f, 0.13403572142124176f, -0.05913117527961731f, -0.14147578179836273f, -0.036999139934778214f, 0.06700415164232254f, -0.09041549265384674f, 0.08181555569171906f, -0.026247449219226837f, -0.13831844925880432f, 0.060676027089357376f, -0.007898708805441856f, -0.045315198600292206f, -0.15380221605300903f, 0.08285561949014664f, -0.03480993211269379f, 0.02137278951704502f, 0.08681041747331619f, 0.07777021825313568f, -0.10861498862504959f, -0.08376415073871613f, -0.062053851783275604f, -0.08610300719738007f, -0.1128423810005188f, 0.05933766067028046f, 0.0024896441027522087f, 0.007296336814761162f, -0.09163938462734222f, -0.06550735235214233f, 0.03532516211271286f, -0.044917427003383636f, 0.0886644795536995f, -0.0028464598581194878f, -0.04526570066809654f, -0.004051709547638893f, 0.03663897514343262f, -0.05099475383758545f, -0.21259412169456482f, 0.036242250353097916f, -0.04890260845422745f, -0.04746948182582855f, -0.0674806609749794f, 0.06098822504281998f, 0.12265615165233612f, -0.021183645352721214f, -0.09163578599691391f, -0.09792064875364304f, -0.06457550078630447f, 0.06270510703325272f, 0.07806218415498734f, 0.04068746417760849f, 0.012437842786312103f, -0.03586648032069206f, 0.05863061547279358f, -0.07642167061567307f, 0.043249793350696564f, -0.1017427071928978f, -0.1424330770969391f, -0.02398916520178318f, 0.020414939150214195f, -0.10224857926368713f, 0.018948884680867195f, -0.033330246806144714f, 0.010601462796330452f, -0.007347907405346632f, 0.0003409520722925663f, -0.00012238812632858753f, -0.14626045525074005f, -0.01249251700937748f, -0.1422511637210846f, 0.013208969496190548f, 0.009914387948811054f, -0.08944158256053925f, -0.04427671432495117f, 0.053086236119270325f, -0.1800827831029892f, 0.04099922627210617f, -0.0560564324259758f, 0.07490378618240356f, 0.0336042083799839f, -0.0372815877199173f, -0.15363459289073944f, 0.010752223432064056f, -0.055120281875133514f, -0.006539999507367611f, -0.06521983444690704f, 0.03153796121478081f, 0.03334711864590645f, -0.05111446604132652f, -0.02250869944691658f, -0.02203233540058136f, 0.07344803959131241f, 0.03642197698354721f, -0.00856790691614151f, -0.03530170023441315f, -0.0503750815987587f, -0.025448793545365334f, -0.1250903308391571f, 0.0029110561590641737f, 0.07359036058187485f, -0.10313922166824341f, 0.061807770282030106f, 0.08858579397201538f, -0.008615362457931042f, 0.007713953033089638f, 0.05122528225183487f, 0.024926383048295975f, -0.09044500440359116f, -0.06597734242677689f, 0.05285221338272095f, -0.00887668039649725f, -0.03498407453298569f, -0.02268989570438862f, -0.012239858508110046f, -0.04603942111134529f, -0.026821382343769073f, 0.041278500109910965f, -0.10461962223052979f, -0.026132427155971527f, 0.022998737171292305f, -0.05844013765454292f, -0.06839362531900406f, 0.12291450053453445f, -0.010223847813904285f, 0.06909660995006561f, -0.07254485040903091f, -0.05365357547998428f, 0.047013964504003525f, -0.022190740332007408f, -0.08403492718935013f, -0.04654054343700409f, -0.03798544406890869f, -0.020419485867023468f, -0.07432686537504196f, 0.13558708131313324f, -0.03705175966024399f, 0.018502937629818916f, -0.0949023887515068f, -0.032195474952459335f, 0.04457954317331314f, 0.03226766735315323f, 0.030474629253149033f, -0.04694955796003342f, 0.011387367732822895f, -0.09553005546331406f, -0.05035111680626869f, 0.148543119430542f, -0.00925122294574976f, -0.07135282456874847f, -0.0718383863568306f, -0.06373899430036545f, -0.04004251956939697f, -0.09802422672510147f, -0.15789532661437988f, -0.04198265075683594f, -0.10761597007513046f, 0.10289673507213593f, -0.17820671200752258f, 0.08227172493934631f, -0.0321793407201767f, 0.0350271612405777f, 0.10919128358364105f, 0.08973141759634018f, -0.09368591755628586f, -0.026979338377714157f, -0.034031134098768234f, -0.08592323958873749f, -0.1581842601299286f, 0.04478367418050766f, -0.009373980574309826f, -0.0016540095675736666f, -0.07781212776899338f, -0.11228382587432861f, -0.004858789965510368f, -0.04156417399644852f, 0.044735368341207504f, -0.011213011108338833f, -0.1007060632109642f, -0.011692567728459835f, 0.014928746968507767f, -0.06361053884029388f, -0.054053228348493576f, 0.009595892392098904f, -0.06406297534704208f, -0.08581317216157913f, -0.054558515548706055f, -0.009784048423171043f, -0.015527152456343174f, 0.06939688324928284f, 0.0719359740614891f, -0.043640200048685074f, -0.09261846542358398f, 0.013951468281447887f, -0.001147937960922718f, -0.01087918970733881f, -0.06400194764137268f, 0.06309850513935089f, 0.04321950301527977f, -0.15618407726287842f, -0.06096639856696129f, -0.06438130140304565f, 0.008939426392316818f, 0.0719565749168396f, -0.10044004768133163f, -0.2012367993593216f, -0.00863134115934372f, -0.061126645654439926f, -0.028841601684689522f, -0.09535295516252518f, -0.0257886815816164f, -0.027234751731157303f, -0.010270537808537483f, -0.006696605123579502f, -0.029502183198928833f, -0.0006661901716142893f, 0.009310304187238216f, -0.03599223867058754f, -0.030103249475359917f, 0.06501655280590057f, -0.18120719492435455f, 0.0032229723874479532f, -0.052313294261693954f, -0.018765272572636604f, -0.08903221786022186f, -0.010711654089391232f, -0.15320295095443726f, -0.0532493032515049f, 0.03667321056127548f, -0.009488395415246487f, 0.08015161752700806f, 0.027210460975766182f, -0.03147667646408081f, -0.01913604699075222f, 0.08498825132846832f, 0.003718191757798195f, -0.020721785724163055f, -0.0025437138974666595f, 0.007647434715181589f, -0.0404549315571785f, -0.11097695678472519f, 0.00033181265462189913f, -0.011574042029678822f, 0.07669570297002792f, -0.0940394476056099f, 0.02713738940656185f, -0.019273381680250168f, -0.15582385659217834f, 0.06322416663169861f, -0.19933179020881653f, -0.20048856735229492f, -0.06297693401575089f, -0.18744906783103943f, -0.03818652778863907f, 0.1313750296831131f, 0.037436652928590775f, 0.07032325863838196f, 0.22023680806159973f, 0.027311714366078377f, -0.1086702048778534f, -0.034780025482177734f, 0.006405236199498177f, -0.05760171264410019f, -0.02759198099374771f, -0.15632066130638123f, 0.009078450500965118f, 0.017460353672504425f, -0.02708759531378746f, -0.03693190589547157f, 0.08112035691738129f, -0.10344945639371872f, -0.033862799406051636f, 0.16981233656406403f, 0.05566007271409035f, -0.031146392226219177f, 0.08302048593759537f, 0.002979055279865861f, -0.019240552559494972f, -0.12061076611280441f, 0.0958477184176445f, 0.08358398079872131f, 0.052066050469875336f, 0.02689102478325367f, -0.06870627403259277f, -0.29835379123687744f, 0.09678541868925095f, -0.025998875498771667f, -0.0017037478974089026f, -0.005177721381187439f, -0.058324240148067474f, -0.09292946010828018f, 0.018407072871923447f, -0.05796334519982338f, 0.051733583211898804f, -0.045076098293066025f, 0.014143859967589378f, -0.045205458998680115f, -0.007131845690310001f, -0.10218746215105057f, 0.049485232681035995f, -0.24873234331607819f, 0.02599947154521942f, 0.006753258872777224f, -0.011085557751357555f, -0.01108977198600769f, -0.005350047722458839f, -0.02449019066989422f, 0.06554017215967178f, 0.07704814523458481f, -0.10414187610149384f, -0.05543889105319977f, -0.06771299988031387f, -0.033377036452293396f, -0.006873017642647028f, 0.07369790971279144f, 0.005456554237753153f, -0.05733656883239746f, -0.021495699882507324f, -0.032002076506614685f, -0.02558640018105507f, -0.008856994099915028f, -0.08790876716375351f, -0.07670310139656067f, -0.026589350774884224f, -0.03293263539671898f, -0.02673540636897087f, 0.1115088164806366f, -0.11686432361602783f, 0.0030627036467194557f, -0.027853185310959816f, -0.028738543391227722f, -0.10116568952798843f, -0.12781034409999847f, 0.012284782715141773f, -0.017717910930514336f, 0.03743160888552666f, -0.11981578171253204f, -0.002756405621767044f, -0.024965448305010796f, 0.0343334786593914f, -0.04379117861390114f, 0.04596491530537605f, -0.019622255116701126f, -0.01657918095588684f, 0.09585337340831757f, -0.012187734246253967f, -0.06608337163925171f, 0.01860537752509117f, -0.07721718400716782f, -0.07931766659021378f, -0.07378678023815155f, -0.14463071525096893f, 0.0022605028934776783f, -0.11120056360960007f, 0.04214416444301605f, 0.006736413110047579f, -0.04868362098932266f, 0.011742162518203259f, -0.14163832366466522f, -0.005766649264842272f, -0.05365194380283356f, 0.01467056479305029f, 0.13680370151996613f, 0.0035390083212405443f, -0.2466936856508255f, 0.06546486169099808f, -0.026473842561244965f, -0.017764810472726822f, -0.041991397738456726f, -0.0290103517472744f, -0.09747803956270218f, 0.20263265073299408f, 0.026045028120279312f, -0.05193771421909332f, -0.019355766475200653f, -0.07587532699108124f, 0.0066665345802903175f, -0.00971136149019003f, 0.0008354033925570548f, 0.12211428582668304f, -0.09792237728834152f, -0.03049592860043049f, -0.07101667672395706f, -0.027372868731617928f, -0.015163023956120014f, -0.013854251243174076f, 0.09825336933135986f, -0.006181879434734583f, -0.07327764481306076f, -0.015962818637490273f, -0.009621151722967625f, -0.13989494740962982f, -0.03753868117928505f, -0.20582598447799683f, -0.18365150690078735f, 0.05419202148914337f, 0.05956621468067169f, 0.06851765513420105f, -0.053899507969617844f, -0.041097600013017654f, -0.029809752479195595f, 0.012466619722545147f, 0.05550336092710495f, 0.12747986614704132f, -0.05698341131210327f, -0.06324774026870728f, 0.004719352815300226f, -0.03770442306995392f, -0.013042614795267582f, -0.001838069874793291f, 0.009848919697105885f, 0.032540105283260345f, -0.06417518854141235f, 0.009196723811328411f, -0.042383354157209396f, -0.12520606815814972f, 0.01605609618127346f, -0.07501056045293808f, -0.11162732541561127f, -0.004289081320166588f, 0.020249316468834877f, 0.15432259440422058f, -0.04175557196140289f, 0.02229865826666355f, -0.08957014232873917f, -0.22027204930782318f, -0.1411828249692917f, 0.08456224203109741f, 0.1261225938796997f, 0.10932713001966476f, -0.16698499023914337f, -0.07273844629526138f, -0.07738593220710754f, -0.0006512252148240805f, -0.045075129717588425f, -0.07175484299659729f, 0.05624397471547127f, -0.09639016538858414f, -0.0016075442545115948f, -0.21775862574577332f, -0.14601363241672516f, -0.1828685700893402f, -0.16186442971229553f, -0.059271398931741714f, 0.0931372344493866f, -0.19452548027038574f, -0.0005581260193139315f, -0.07444694638252258f, 0.02904161810874939f, -0.05643355846405029f, 0.004744985606521368f, -0.027148278430104256f, -0.13918831944465637f, 0.00040232983883470297f, -0.14030423760414124f, 0.020200712606310844f, -0.004928308539092541f, -0.07979262620210648f, -0.05622723698616028f, -0.019776472821831703f, -0.14726762473583221f, 0.0655578002333641f, -0.06261429935693741f, 0.06998310983181f, 0.04428442195057869f, -0.021994035691022873f, -0.18107153475284576f, 0.07644747197628021f, -0.06803517788648605f, -0.12880942225456238f, -0.17283010482788086f, 9.426184078620281e-06f, 0.02192656695842743f, -0.13148602843284607f, -0.07304712384939194f, -0.07956580817699432f, 0.04305582866072655f, -0.021430687978863716f, 0.11473985761404037f, 0.06290159374475479f, -0.13213089108467102f, -0.11801578849554062f, -0.18985366821289062f, -0.08265780657529831f, -0.035968951880931854f, -0.06018953397870064f, 0.08486204594373703f, -0.05989545211195946f, 0.24077175557613373f, 0.03998228907585144f, -0.05192385986447334f, -0.01877738907933235f, -0.16251608729362488f, -0.0351598858833313f, 0.0033760168589651585f, -0.004793478175997734f, -0.014051718637347221f, -0.050415460020303726f, -0.05071829631924629f, -0.05028785392642021f, -0.10805149376392365f, 0.08895903825759888f, -0.12915942072868347f, -0.0620211623609066f, -0.08695900440216064f, -0.053389277309179306f, -0.07766619324684143f, 0.009950346313416958f, -0.0598248690366745f, 0.050165727734565735f, -0.1133248507976532f, -0.04491179808974266f, -0.19987311959266663f, -0.008486342616379261f, 0.09659874439239502f, -0.04041344299912453f, -0.013792666606605053f, -0.20251603424549103f, 0.053524456918239594f, 0.014422447420656681f, 0.01703336276113987f, -0.08892592787742615f, -0.026644598692655563f, -0.035340338945388794f, 0.007889846339821815f, 0.09958331286907196f, 0.046823713928461075f, -0.0013091937871649861f, 0.017554519698023796f, -0.0990622341632843f, -0.15355651080608368f, 0.015609399415552616f, 0.058350708335638046f, -0.03200226649641991f, 0.016026385128498077f, 0.0043818335980176926f, -0.08564092218875885f, -0.07966010272502899f, 0.057808443903923035f, -0.09452316164970398f, -0.05740688368678093f, 0.10894367843866348f, -0.06259607523679733f, -0.046961259096860886f, -0.049871839582920074f, 0.03007436729967594f, 0.05240756645798683f, 0.14157013595104218f, -0.061262957751750946f, -0.016271250322461128f, 0.00824956875294447f, -0.04678942263126373f, -0.006539613474160433f, 0.0029342202469706535f, 0.017856428399682045f, 0.051036156713962555f, -0.07407236099243164f, -0.018663547933101654f, -0.026510456576943398f, -0.09859147667884827f, -0.041625287383794785f, -0.09554900974035263f, -0.10434871166944504f, -0.010048992931842804f, 0.028932292014360428f, 0.1753672957420349f, 0.09910411387681961f, 0.07288084179162979f, -0.04285785183310509f, -0.04988019913434982f, 0.003925570286810398f, 0.0012861558934673667f, 0.06747464835643768f, -0.018071148544549942f, 0.1460459977388382f, 0.03839654102921486f, -0.05893373116850853f, -0.048712581396102905f, -0.0929461345076561f, -0.0590360201895237f, 0.07020292431116104f, 0.07436622679233551f, 0.008746386505663395f, -0.07983529567718506f, -0.16499224305152893f, -0.16881856322288513f, 0.04627416655421257f, 0.05212489515542984f, -0.08381063491106033f, -0.23603089153766632f, -0.06322363018989563f, -0.08620533347129822f, -0.040370792150497437f, -0.1663292944431305f, -0.0370539166033268f, -0.03508571535348892f, -0.06009737774729729f, -0.004999371711164713f, -0.11052107065916061f, -0.002684097969904542f, -0.041783757507801056f, -0.0246453694999218f, -0.02591864950954914f, -0.01286564115434885f, -0.15352971851825714f, -0.0009387822938151658f, -0.10398072004318237f, 0.0055226352997124195f, 0.02083888091146946f, -0.0650172308087349f, -0.057998817414045334f, -0.02290734462440014f, 0.014633224345743656f, -0.1372317373752594f, 0.019109899178147316f, 0.06869236379861832f, 0.00721775833517313f, -0.00783982127904892f, 0.028647666797041893f, 0.04172179102897644f, -0.055827684700489044f, -0.022079965099692345f, 0.05231298878788948f, 0.03319333866238594f, 0.006266986485570669f, -0.03981669992208481f, -0.055074434727430344f, -0.02236398123204708f, 0.002919727237895131f, 0.01810179091989994f, -0.08146058022975922f, 0.020717492327094078f, -0.4496654272079468f, -0.08736246824264526f, -0.013271289877593517f, 0.001258891075849533f, -0.05926596373319626f, 0.10761898010969162f, -0.045109741389751434f, 0.017589392140507698f, -0.06210343912243843f, -0.10632973164319992f, -0.029496829956769943f, -0.03114265203475952f, -0.06509556621313095f, -0.045596133917570114f, -0.10536625981330872f, -0.033471766859292984f, 0.13843056559562683f, -0.05921696871519089f, 0.10190343856811523f, 0.1246301606297493f, -0.027063272893428802f, 0.0776643380522728f, 0.030934102833271027f, -0.05086151137948036f, -0.04896686598658562f, -0.024094903841614723f, -0.01900978572666645f, -0.07790017127990723f, 0.03485875949263573f, -0.005142461974173784f, -0.17061106860637665f, -0.1379268318414688f, -0.03682662174105644f, -0.04920773208141327f, -0.013163282535970211f, -0.03831544890999794f, 0.12126430869102478f, -0.13669730722904205f, 0.03837527334690094f, 0.0030446695163846016f, 0.1633768379688263f, -0.1164439246058464f, 0.0629943385720253f, 0.010054207406938076f, 0.15120556950569153f, -0.0406581349670887f, 0.04023098200559616f, 0.109581857919693f, 0.06238417327404022f, 0.06106650084257126f, -0.0023782772477716208f, -0.02129899337887764f, 0.033713262528181076f, -0.17428326606750488f, -0.021458443254232407f, -0.080525703728199f, -0.08500196039676666f, -0.1299552619457245f, 0.024385981261730194f, 0.0006638949271291494f, -0.007331260945647955f, -0.010519527830183506f, -0.10443874448537827f, -0.07606673985719681f, -0.01690990850329399f, -0.03612840548157692f, -0.17258888483047485f, -0.024746345356106758f, 0.05748235061764717f, -0.02255120314657688f, 0.03645537793636322f, 0.010518810711801052f, -0.22692371904850006f, -0.04678226262331009f, -0.008908655494451523f, -0.0010224423604086041f, -0.000351021095411852f, -0.03932759910821915f, -0.027897613123059273f, 0.019858093932271004f, -0.01825369894504547f, 0.024110881611704826f, -0.00246028951369226f, -0.018524019047617912f, -0.04212231934070587f, 0.00933225080370903f, 0.05520286783576012f, -0.0031521650962531567f, 0.04675804078578949f, -0.07708645612001419f, 0.01225541066378355f, 0.05126386135816574f, -0.03624546527862549f, 0.01781647652387619f, 0.010534290224313736f, -0.013576977886259556f, -0.05174737051129341f, -0.023511238396167755f, 0.012228337116539478f, -0.006161017809063196f, 0.026138825342059135f, -0.017625795677304268f, 0.02269751951098442f, -0.0024049824569374323f, 0.010924155823886395f, 0.019933568313717842f, 0.030499793589115143f, 0.018484318628907204f, -0.03613169863820076f, -0.07645927369594574f, 0.05107683688402176f, 0.051999107003211975f, -0.0391780324280262f, -0.042964499443769455f, 0.014704493805766106f, 0.034368373453617096f, -0.0739993080496788f, -0.04255351051688194f, -0.06819906830787659f, 0.026782521978020668f, 0.13702990114688873f, -0.06364784389734268f, -0.05116381496191025f, -0.1598261147737503f, -0.06911750137805939f, 0.25852206349372864f, -0.01151958480477333f, -0.03221774473786354f, -0.0652313381433487f, -0.029807202517986298f, -0.02702018991112709f, 0.005396007094532251f, -0.1911831647157669f, -0.003741265507414937f, -0.22044870257377625f, -0.029170913621783257f, 0.023289337754249573f, -0.05512247234582901f, 0.012682030908763409f, 0.019697029143571854f, 0.027915121987462044f, 0.06768421083688736f, 0.07632619142532349f, -0.09045170247554779f, -0.28563013672828674f, -0.01441503968089819f, 0.06745723634958267f, 0.017787529155611992f, -0.10497914999723434f, -0.036984480917453766f, -0.03960975259542465f, 0.004015747457742691f, -0.07034258544445038f, -0.06870444864034653f, 0.013863330706954002f, 0.00484192231670022f, -0.15656645596027374f, 0.012339893728494644f, -0.12733307480812073f, -0.015150357969105244f, 0.09823422133922577f, -0.034886911511421204f, -0.01774156093597412f, -0.0017883923137560487f, -0.0013175879139453173f, 0.060566496104002f, 0.1316150724887848f, -0.12325511872768402f, -0.12326689809560776f, 0.09445105493068695f, 0.0073208194226026535f, 0.016776779666543007f, -0.0922340527176857f, -0.17418427765369415f, -0.12089189887046814f, -0.1181713417172432f, -0.03572242707014084f, -0.07257413864135742f, -0.04529154300689697f, 0.050284747034311295f, -0.0371696837246418f, -0.012061471119523048f, -0.08376109600067139f, 0.024923769757151604f, 0.06877334415912628f, -0.03538286313414574f, 0.033381566405296326f, -0.04475235566496849f, 0.04836851730942726f, -0.01022996474057436f, -0.016562145203351974f, 0.10957605391740799f, 0.007308867294341326f, 0.04743802174925804f, 0.08934909105300903f, -0.05415333807468414f, -0.027666205540299416f, 0.04079939052462578f, -0.028797825798392296f, 0.008632589131593704f, -0.09815522283315659f, 0.026205390691757202f, 0.0260902252048254f, 0.00023792665160726756f, 0.024136310443282127f, -0.07625649124383926f, -0.007919435389339924f, 0.02359740063548088f, -0.0008271386031992733f, -0.1474597305059433f, -0.05048218369483948f, 0.0465492308139801f, -0.05293300747871399f, -0.04166806861758232f, -0.032559674233198166f, -0.001596009940840304f, -0.10947772115468979f, -0.13056980073451996f, -0.13924388587474823f, 0.05028250068426132f, -0.020814910531044006f, -0.05410360172390938f, 0.06842105835676193f, 0.038411255925893784f, 0.03221888840198517f, -0.08316511660814285f, -0.011213863268494606f, -0.06269419938325882f, -0.09490198642015457f, 0.06659011542797089f, -0.284760445356369f, 0.057557642459869385f, 0.12593814730644226f, 0.02140665054321289f, -0.05531015619635582f, 0.022123342379927635f, 0.09605935961008072f, -0.150039941072464f, -0.036073483526706696f, 0.013759210705757141f, -0.00263481424190104f, 0.006621058098971844f, 0.013638164848089218f, -0.21258066594600677f, -0.0017589967465028167f, -0.1519949585199356f, -0.1272740215063095f, -0.043659720569849014f, -0.04224314168095589f, -0.06760240346193314f, 0.06119846552610397f, 0.007234921678900719f, 0.09003279358148575f, -0.0587749220430851f, 0.06112677976489067f, 0.020274147391319275f, -0.07024390995502472f, -0.14242903888225555f, 0.00789318885654211f, -0.01182776503264904f, 0.010682291351258755f, -0.09264805912971497f, -0.10474682599306107f, 0.13542260229587555f, -0.11156327277421951f, -0.04765530303120613f, -0.04510071873664856f, 0.006937118712812662f, 0.04521157220005989f, -0.06267265230417252f, 0.059591326862573624f, -0.08889787644147873f, -0.07343017309904099f, -0.0012316103093326092f, 0.01972859725356102f, -0.016918063163757324f, -0.06275203824043274f, -0.037176817655563354f, -0.029143832623958588f, 0.04291314631700516f, -0.035585835576057434f, -0.10635554045438766f, 0.1440267562866211f, -0.015292874537408352f, 0.007636367809027433f, 0.012432295829057693f, -0.036216773092746735f, -0.037258293479681015f, 0.1739160716533661f, 0.004130680114030838f, -0.1471782922744751f, 0.07858969271183014f, 0.008328380063176155f, -0.06830524653196335f, -0.07277531176805496f, 0.00739078177139163f, -0.011420422233641148f, -0.06404715776443481f, 0.018166478723287582f, 0.035507094115018845f, -0.14722639322280884f, 0.0028514284640550613f, -0.11767832189798355f, -0.029834184795618057f, 0.08855164051055908f, -0.03620050102472305f, -0.02144516073167324f, 0.004677073564380407f, -0.03560630977153778f, 0.06700543314218521f, 0.0834420770406723f, -0.13054896891117096f, -0.11905045062303543f, 0.06114868074655533f, 0.047317881137132645f, -0.011910916306078434f, -0.09204144775867462f, -0.12138642370700836f, -0.022096604108810425f, 0.0643986165523529f, -0.058919407427310944f, 0.013688688166439533f, -0.03152961656451225f, -0.023114550858736038f, -0.0006871498189866543f, 0.1428356021642685f, -0.08080776780843735f, 0.07984378188848495f, -0.013890485279262066f, -0.032507993280887604f, 0.005873904097825289f, 0.09608418494462967f, -0.010844615288078785f, 0.12263797968626022f, 0.0274016372859478f, 0.04816918075084686f, 0.17049463093280792f, -0.010386629961431026f, 0.1636986881494522f, -0.12088224291801453f, -0.10005046427249908f, 0.06557626277208328f, -0.06392823904752731f, 0.04978906735777855f, -0.07790017127990723f, -0.033021166920661926f, 0.059942685067653656f, 0.007751117926090956f, 0.04076046869158745f, -0.05580563098192215f, 0.05120989307761192f, 0.03639750927686691f, -0.10564880818128586f, -0.05969241261482239f, -0.026188097894191742f, 6.641848449362442e-05f, -0.09604683518409729f, -0.0006423083832487464f, -0.11360041797161102f, -0.05032716691493988f, -0.28355225920677185f, -0.21583214402198792f, -0.069728322327137f, -0.008109772577881813f, -0.04242337867617607f, -0.058267202228307724f, -0.16131256520748138f, -8.884810085874051e-05f, 0.0028369526844471693f, -0.3736615478992462f, 0.04079798236489296f, 0.012634157203137875f, -0.006699177902191877f, -0.0913168340921402f, -0.09365298599004745f, -0.00965856947004795f, 0.03248751536011696f, -0.11988043785095215f, 0.07175599783658981f, -0.062279097735881805f, -0.01996837928891182f, 0.052076276391744614f, 0.005502136889845133f, -0.06988529860973358f, -0.14047640562057495f, 0.039544008672237396f, -0.01764453761279583f, 0.008197793737053871f, -0.03036399371922016f, -0.057972341775894165f, 0.03238648548722267f, -0.1569671481847763f, -0.00562924612313509f, -0.062475722283124924f, 0.010384966619312763f, -0.06423387676477432f, -0.03865591064095497f, 0.05579931661486626f, -0.14210712909698486f, -0.05182460695505142f, 0.06925434619188309f, -0.03834639489650726f, 0.03856109455227852f, 0.1228063777089119f, -0.05564873665571213f, 0.03495628014206886f, 0.015049142763018608f, -0.12126830965280533f, -0.05298914760351181f, 0.05142606422305107f, -0.020273076370358467f, -0.03242337331175804f, 0.05490339919924736f, 0.005877701099961996f, -0.16809223592281342f, -0.13323909044265747f, 0.10918449610471725f, 0.09525403380393982f, 0.002639328595250845f, -0.06915440410375595f, 0.031967077404260635f, -0.048981674015522f, -0.06291712075471878f, -0.025019194930791855f, 0.010052988305687904f, -0.1333116888999939f, -0.07447043061256409f, 0.07629073411226273f, 0.04139232262969017f, -0.05198046192526817f, -0.00445960508659482f, 0.11487729847431183f, 0.30621224641799927f, 0.06587518751621246f, -0.019894273951649666f, -0.05251910537481308f, -0.029855526983737946f, -0.03753385320305824f, 0.08329784125089645f, -0.06554897129535675f, -0.008811045438051224f, -0.11899397522211075f, -0.04578250274062157f, 0.01865544728934765f, 0.0036264106165617704f, -0.12426432967185974f, -0.17540164291858673f, -0.03824763000011444f, -0.03320992365479469f, -0.06581159681081772f, -0.11740382760763168f, 0.03127570077776909f, -0.08273496478796005f, -0.009564734995365143f, 0.09415566921234131f, -0.05249421298503876f, -0.24015048146247864f, -0.1248435229063034f, 0.005100839305669069f, 0.04391608014702797f, 0.01704399660229683f, 0.09274107962846756f, -0.06159128248691559f, 0.01785667985677719f, 0.0521368533372879f, -0.04786120355129242f, -0.0382046140730381f, -0.03382454439997673f, -0.002949796849861741f, 0.04309867322444916f, 0.04305722564458847f, -0.035430677235126495f, 0.05856433883309364f, -0.06979697197675705f, 0.003814292373135686f, 0.032647907733917236f, -0.12082765996456146f, -0.007199396844953299f, -0.020968807861208916f, -0.09767040610313416f, -0.12580730020999908f, -0.0196544099599123f, -0.07535884529352188f, -0.041299767792224884f, -0.0012552618281915784f, -0.13358640670776367f, -0.07260379195213318f, -0.031814057379961014f, 0.07230563461780548f, 0.0030957176350057125f, 0.03416617959737778f, 0.04599078372120857f, -0.009461193345487118f, 0.018938621506094933f, -0.12123870104551315f, -0.0022693676874041557f, 0.007038706913590431f, 0.022508887574076653f, 0.03061678633093834f, 0.04817691817879677f, -0.10707242041826248f, -0.055783215910196304f, 0.01290059369057417f, -0.054136186838150024f, -0.10192348808050156f, -0.04551759734749794f, -0.17010411620140076f, -0.07108531892299652f, -0.08126059919595718f, 0.17721495032310486f, -0.0512063130736351f, -0.055990420281887054f, -0.008460438810288906f, -0.012463650666177273f, 0.014620746485888958f, 0.07690408080816269f, -0.22224830090999603f, -0.012984417378902435f, -0.16787390410900116f, -0.003429439617320895f, -0.03269075229763985f, -0.018621422350406647f, 0.07018466293811798f, -0.01712763123214245f, -0.06595022231340408f, 0.05519089847803116f, 0.13790926337242126f, -0.11369267106056213f, -0.16600747406482697f, -0.026785822585225105f, 0.016556547954678535f, 0.025459032505750656f, -0.026131365448236465f, 0.1034211814403534f, -0.006312704179435968f, -0.010320339351892471f, -0.084855817258358f, 0.02123604528605938f, 0.034504253417253494f, 0.048293691128492355f, -0.10786187648773193f, 0.017124518752098083f, -0.2643801271915436f, 0.0018650249112397432f, -0.052195947617292404f, -0.023985382169485092f, -0.03718212991952896f, -0.0017626200569793582f, -0.059426043182611465f, 0.07675807923078537f, 0.06424345076084137f, -0.1887919008731842f, -0.03113563172519207f, 0.036211300641298294f, 0.0054968795739114285f, 0.03030601143836975f, -0.02756386250257492f, 0.01635657623410225f, -0.1716507375240326f, 0.026051167398691177f, -0.013414472341537476f, 0.22659248113632202f, -0.03405795618891716f, 0.08699630200862885f, 0.04625267535448074f, -0.040315769612789154f, -0.11414419114589691f, -0.019549766555428505f, -0.15426279604434967f, -0.013418121263384819f, 0.0372358039021492f, 0.09250111877918243f, -0.041484467685222626f, -0.006664823275059462f, 0.04484733194112778f, -0.047872330993413925f, 0.16509583592414856f, -0.016859708353877068f, -0.0318404920399189f, -0.022435609251260757f, -0.0007487131515517831f, 0.0011776145547628403f, -0.10927329957485199f, 0.0597454234957695f, 0.06428521871566772f, -0.030141066759824753f, 0.03278610482811928f, -0.031323958188295364f, 0.03400493785738945f, -0.03518353030085564f, -0.10166788101196289f, 0.020557532086968422f, -0.03364759683609009f, -0.08417802304029465f, -0.0402696393430233f, 0.02559472620487213f, -0.15552611649036407f, -0.07225075364112854f, -0.08946473896503448f, -0.007545070722699165f, -0.1017250120639801f, -0.058370910584926605f, -0.1930084079504013f, -0.02531859278678894f, -0.1276952177286148f, -0.20111142098903656f, -0.035588327795267105f, -0.056781936436891556f, 0.045020122081041336f, -0.1719851940870285f, -0.1117568388581276f, -0.07028526812791824f, 0.05690981075167656f, -0.009391835890710354f, -0.021097954362630844f, -0.07976963371038437f, 0.12577390670776367f, -0.05686700716614723f, -0.16183814406394958f, -0.0015839646803215146f, 0.02137887477874756f, -0.19523289799690247f, 0.04475117102265358f, -0.03713315725326538f, -0.03700973093509674f, 0.02699795365333557f, -0.030071429908275604f, -0.0469474121928215f, -0.026322251185774803f, 0.05237897112965584f, -0.16239753365516663f, 0.15590432286262512f, 0.05169820785522461f, 0.0751863569021225f, -0.005953844171017408f, -0.01579909212887287f, 0.07378126680850983f, 0.02636847272515297f, -0.07395970076322556f, 0.0004362400795798749f, -0.13785810768604279f, -0.034421294927597046f, -0.013833032920956612f, 0.060615818947553635f, -0.03792298957705498f, -0.09752550721168518f, -0.07864927500486374f, 0.024849001318216324f, -0.0274029728025198f, -0.017940618097782135f, -0.03250323608517647f, -0.013045194558799267f, -0.013733737170696259f, -0.116775281727314f, 0.19962114095687866f, 0.09789498895406723f, 0.004150846507400274f, 0.11547201126813889f, -0.009718201123178005f, -0.0535627081990242f, 0.11315979808568954f, -0.07610860466957092f, -0.05787144973874092f, 0.010531079955399036f, -2.9053568141534925e-05f, -0.0983867347240448f, -0.018886374309659004f, 0.0639130249619484f, 0.015942038968205452f, -0.17823338508605957f, -0.12229660153388977f, -0.05563805624842644f, -0.12536445260047913f, -0.0894363597035408f, -0.07861509174108505f, 0.03402550518512726f, 0.05850152671337128f, 0.018106842413544655f, 0.006875492166727781f, -0.04686474800109863f, -0.04514801874756813f, 0.011373628862202168f, 0.051433246582746506f, 0.0444059744477272f, -0.12392351776361465f, 0.022745979949831963f, -0.17893794178962708f, -0.015131033025681973f, -0.05149532109498978f, -0.012495503760874271f, -0.03718968480825424f, -0.022051647305488586f, -0.06990750879049301f, -0.028361713513731956f, 0.03597055748105049f, -0.214445099234581f, 0.02724309451878071f, 0.0378488190472126f, 0.003032218897715211f, 0.001970841083675623f, -0.028450312092900276f, -0.02565043792128563f, -0.03061160072684288f, -0.0002965076419059187f, 0.008551112376153469f, -0.008627967908978462f, -0.02206883206963539f, -0.012263943441212177f, 0.0987316220998764f, 0.09444181621074677f, -0.0629194974899292f, 0.013344566337764263f, -0.04454929009079933f, -0.06451058387756348f, 0.04122578352689743f, 0.04006114974617958f, 0.0022002537734806538f, 0.05863521620631218f, 0.06589540094137192f, -0.0869518518447876f, -0.07844199240207672f, 0.01619226112961769f, 0.05112485587596893f, -0.03920808061957359f, -0.17341068387031555f, -0.0791575238108635f, -0.1885685920715332f, 0.14022275805473328f, 0.02576787956058979f, -0.05863524600863457f, 0.009811840020120144f, -0.029339589178562164f, 0.0021289861761033535f, -0.028750745579600334f, -0.026518862694501877f, 0.0376351922750473f, -0.027785630896687508f, 0.0010057048639282584f, -0.055720988661050797f, -0.019160831347107887f, -0.13747268915176392f, -0.023655787110328674f, -0.10842574387788773f, -0.05732155963778496f, -0.24635617434978485f, -0.09397149085998535f, -0.09411198645830154f, -0.024997325614094734f, -0.06845133751630783f, -0.23943163454532623f, 0.07284798473119736f, -0.0703556090593338f, 0.014397152699530125f, -0.043573811650276184f, 0.09458651393651962f, 0.029716968536376953f, -0.038034215569496155f, -0.018881134688854218f, -0.16731515526771545f, 0.05527613312005997f, -0.08408087491989136f, -0.016613593325018883f, -0.003780199447646737f, 0.0667189285159111f, 0.04968812316656113f, 0.01883445680141449f, -0.014946325682103634f, -0.014869337901473045f, -0.06376691162586212f, -0.07299071550369263f, 0.05311664938926697f, -0.009171238169074059f, -0.04122907295823097f, 0.04728683456778526f, 0.1553160399198532f, -0.161187082529068f, 0.006325487047433853f, -0.10113280266523361f, 0.05466436967253685f, -0.06571117788553238f, 0.016253797337412834f, 0.017884576693177223f, -0.1328580379486084f, -0.026156753301620483f, -0.02867811545729637f, 0.005460722371935844f, 0.06050741299986839f, -0.02301095239818096f, -0.014769675210118294f, 0.0010089232819154859f, -0.024316079914569855f, -0.031000688672065735f, 0.027765434235334396f, 0.031049542129039764f, -0.022786462679505348f, -0.02203344739973545f, 0.0007401475450024009f, -0.09628818184137344f, -0.022680016234517097f, -0.049052219837903976f, 0.09777601063251495f, 0.1861046701669693f, 0.016453942283988f, -0.06396538019180298f, 0.018073944374918938f, -0.06239103153347969f, -0.06289792060852051f, 0.006178432144224644f, -0.04648523032665253f, 0.005003516096621752f, -0.11563308537006378f, -0.13980522751808167f, 0.012198333628475666f, -0.06628241389989853f, -0.06567493081092834f, 0.04426412284374237f, 0.1457754224538803f, -0.02251480333507061f, -0.09724035114049911f, 0.012532250955700874f, -0.0665014237165451f, 0.11287987977266312f, -0.025583447888493538f, -0.005548002663999796f, 0.008388670161366463f, -0.0051553333178162575f, -0.015536366030573845f, 0.025704115629196167f, 0.03351227566599846f, -0.04949701577425003f, -0.13618192076683044f, -0.005103696137666702f, 0.060664448887109756f, -0.004193753935396671f, 0.0034684757702052593f, -0.04530481994152069f, -0.010232944041490555f, 0.10684457421302795f, 0.058344196528196335f, -0.04389380291104317f, -0.13256537914276123f, -0.05993600934743881f, 0.06211867183446884f, 0.07518289983272552f, 0.022039739415049553f, 0.0820881798863411f, -0.006352175958454609f, -0.0617590956389904f, 0.021711939945816994f, -0.08137097954750061f, -0.0028757909312844276f, -0.060674313455820084f, -0.06595630943775177f, 0.055948805063962936f, 0.013961235992610455f, -0.030934739857912064f, -0.039275653660297394f, 0.012635678052902222f, -0.04443072900176048f, 0.025386445224285126f, -0.05722075700759888f, -0.05031508207321167f, -0.0034626766573637724f, -0.059045784175395966f, -0.1512446254491806f, -0.02354181744158268f, -0.062069423496723175f, -0.030156951397657394f, 0.0071342987939715385f, -0.16413919627666473f, -0.10085421055555344f, -0.09915010631084442f, 0.024398768320679665f, -0.0825917199254036f, 0.023274052888154984f, 0.03597564250230789f, -0.008576293475925922f, 0.014521829783916473f, -0.18517571687698364f, -0.014870389364659786f, 0.004028183873742819f, -0.017768392339348793f, 0.11760073900222778f, 0.051819395273923874f, -0.12577489018440247f, -0.017960211262106895f, 0.0522809661924839f, -0.027838971465826035f, 0.018933231011033058f, 0.006151753943413496f, -0.18360735476016998f, 0.08428321778774261f, -0.02288970537483692f, -0.10603690892457962f, -0.006008536089211702f, -0.06655119359493256f, -0.02453477680683136f, 0.04824145510792732f, -0.0009838662808761f, 0.07068972289562225f, -0.14359191060066223f, -0.03676296025514603f, -0.2509792745113373f, 0.028557445853948593f, 0.024552224203944206f, -0.06023695319890976f, 0.15602827072143555f, -0.019404573366045952f, -0.02453010529279709f, 0.07207174599170685f, -0.009877905249595642f, 0.04754459857940674f, -0.04938485845923424f, -0.04497087374329567f, -0.014468176290392876f, 0.08263591676950455f, -0.026534080505371094f, 0.08844535797834396f, 0.10484994947910309f, 0.002310615498572588f, -0.1042041927576065f, 0.05550899729132652f, 0.025941332802176476f, 0.0639459565281868f, -0.16102653741836548f, -0.018794404342770576f, -0.14691348373889923f, 0.022370578721165657f, 0.054977089166641235f, -0.0631217285990715f, 0.010176152922213078f, -0.02393641322851181f, -0.02399883233010769f, 0.08029337972402573f, -0.05495714768767357f, -0.011733017861843109f, -0.04171678051352501f, -0.054999593645334244f, -0.041105661541223526f, 0.05816042423248291f, -0.03168097883462906f, 0.1305052787065506f, -0.0037636952474713326f, -0.008686834946274757f, -0.03850104659795761f, 0.2614465057849884f, -0.060601819306612015f, 0.09479531645774841f, 0.06057332456111908f, -0.001170230214484036f, -0.21714600920677185f, 0.014116070233285427f, 0.005624733865261078f, 0.010237473994493484f, -0.021480072289705276f, 0.0489349402487278f, 0.0003081528702750802f, -0.07801448553800583f, 0.052035149186849594f, -0.14768970012664795f, 0.012993800453841686f, -0.12723472714424133f, -0.02741401083767414f, 0.07297618687152863f, 0.0036722212098538876f, -0.049842603504657745f, -0.11196014285087585f, -0.038275014609098434f, 0.0542384535074234f, -0.12145406007766724f, 0.029989473521709442f, -0.04593631625175476f, -0.04244695231318474f, 0.00021816149819642305f, -0.1431015431880951f, -0.014867255464196205f, 0.017974019050598145f, -0.005664261989295483f, -0.17029763758182526f, -0.015069161541759968f, -0.15677647292613983f, -0.06877800077199936f, -0.05467440187931061f, 0.003763488493859768f, -0.09479092061519623f, -0.02870647981762886f, -0.2133319228887558f, 0.02967219240963459f, -0.07508057355880737f, -0.25361672043800354f, -0.011307699605822563f, -0.1359456479549408f, 0.0029904984403401613f, -0.20577368140220642f, -0.07853925973176956f, -0.07889114320278168f, 0.07041434943675995f, -0.09701158106327057f, 0.031935349106788635f, 0.09247389435768127f, -0.04969378560781479f, -0.011229312047362328f, -0.17545472085475922f, -0.1616864800453186f, 0.07724224776029587f, -0.14614419639110565f, 0.11130866408348083f, -0.1710030883550644f, 0.1429125964641571f, 0.04748286306858063f, -0.03694862499833107f, 0.004584454465657473f, 0.0037091423291713f, 0.145119309425354f, -0.1473829299211502f, 0.013323655351996422f, 0.06315775215625763f, 0.09358818084001541f, -0.016979960724711418f, -0.007297040428966284f, 0.08231837302446365f, 0.0013930718414485455f, -0.20039963722229004f, -0.02707069367170334f, -0.08151660859584808f, 0.0762033686041832f, -0.25434190034866333f, -0.007051500026136637f, 0.006459957454353571f, -0.1700180321931839f, 0.002661737846210599f, -0.11152996867895126f, -0.11881253123283386f, -0.01412875484675169f, -0.14786085486412048f, -0.005804651882499456f, -0.00938347540795803f, -0.06469373404979706f, 0.1263512223958969f, -0.06026962026953697f, -0.030378179624676704f, 0.02822917513549328f, 0.04390272870659828f, -0.04069967940449715f, 0.08214999735355377f, -0.004241911228746176f, 0.038903627544641495f, -0.03261757642030716f, 0.016863534227013588f, -0.09484215080738068f, -0.050101883709430695f, -0.08577700704336166f, 6.148113607196137e-05f, -0.09734116494655609f, -0.007820039987564087f, 0.008008482865989208f, -0.08659927546977997f, -0.09301876276731491f, -0.005446113180369139f, -0.006178415380418301f, 0.03599730506539345f, -0.11404599249362946f, 0.10489653795957565f, 0.01700025610625744f, -0.09163688868284225f, 0.05064868927001953f, 0.021928492933511734f, 0.05505723878741264f, -0.15807248651981354f, -0.016515998169779778f, -0.1174105778336525f, 0.01200906839221716f, 0.02966221794486046f, -0.04759395495057106f, -0.04205988720059395f, -0.028130436316132545f, -0.020703837275505066f, 0.033807627856731415f, -0.0382721982896328f, -0.0047775860875844955f, -0.06116527318954468f, -0.04700462520122528f, -0.03762705624103546f, 0.0178315918892622f, -0.03778804838657379f, 0.1499793827533722f, -0.0005870687891729176f, -0.03413962945342064f, -0.07823669910430908f, 0.024123378098011017f, 0.013849308714270592f, -0.013760106638073921f, 0.06336141377687454f, 0.0462639182806015f, -0.026920819655060768f, 0.011457899585366249f, -0.015842309221625328f, -0.13056251406669617f, 0.06796354055404663f, 0.07129045575857162f, 0.0964207723736763f, 0.003531968453899026f, 0.06876776367425919f, -0.048413533717393875f, -0.04399130120873451f, -0.00045826093992218375f, 0.03466053679585457f, -0.03354780375957489f, -0.2125239223241806f, -0.1399097591638565f, -0.1500394642353058f, -0.005282131023705006f, -0.009911514818668365f, -0.06094730272889137f, -0.0020090891048312187f, -0.0455336757004261f, -0.01828084886074066f, -0.011258439160883427f, -0.1610012650489807f, -0.018193718045949936f, -0.02002912573516369f, 0.037281036376953125f, -0.15777823328971863f, -0.0478614903986454f, -0.07453247159719467f, -0.05953224375844002f, -0.02528960071504116f, -0.06849172711372375f, -0.1354408860206604f, -0.02942696399986744f, -0.20811067521572113f, 0.033744823187589645f, -0.04446607083082199f, -0.11924777925014496f, -0.005241370759904385f, 0.07242795079946518f, -0.06414230167865753f, 0.05586661770939827f, 0.11548606306314468f, 0.06352290511131287f, 0.10471098870038986f, -0.03645392507314682f, -0.010991524904966354f, 0.014530584216117859f, -0.18338114023208618f, -0.05571577697992325f, 0.004291769117116928f, 0.005065550096333027f, 0.03934776037931442f, 0.12582673132419586f, 0.021581139415502548f, 0.050375405699014664f, 0.1277880072593689f, -0.09288223087787628f, 0.011689403094351292f, 0.013575061224400997f, -0.060998644679784775f, 0.23110821843147278f };
alignas(16) float conv2d_2_BIAS[] = { 1.360305905342102f, 1.3993690013885498f, 2.070492744445801f, 0.6404551863670349f, -0.983921229839325f, -0.22519539296627045f, -0.3622438311576843f, -0.193261981010437f, 4.544435501098633f, 1.832634687423706f, 0.7158119082450867f, 3.416135549545288f, 0.023465367034077644f, 1.6121584177017212f, 0.3339031934738159f, 1.0693000555038452f, 0.192580446600914f, 1.2780137062072754f, -0.161588653922081f, 3.1123242378234863f, 2.069960355758667f, -2.038043260574341f, 1.489797830581665f, 0.958332359790802f };
