#ifdef CNN_TEST
#define CNN_STOPWATCH(name) // STOPWATCH(name)
#else
#define CNN_STOPWATCH(name) STOPWATCH(name)
#endif

#include <vector>

// dimensions
static const unsigned int input_height = 120;
static const unsigned int input_width = 160;
static const unsigned int input_channel = 3;
static const unsigned int output_height = 8;
static const unsigned int output_width = 10;
static const unsigned int output_channel = 6;
static const unsigned int num_of_boxes = 1;
static const unsigned int num_of_classes = 1;
static const unsigned int num_of_coords = 4;
static const std::vector<float> anchors = { 1.29f, 2.24f };

// includes
#include <emmintrin.h>

// buffers
alignas(16) float separable_conv2d_1_depthwise_WEIGHTS[] = { -0.029403919354081154f, -0.0690745934844017f, 0.7966625690460205f, 0.02179439179599285f, -1.1282076835632324f, -1.0353525876998901f, -0.8903840780258179f, 0.10377603024244308f, -1.2641392946243286f, -0.033804960548877716f, -1.1541932821273804f, 0.3599966764450073f, 0.04480992257595062f, 0.011221352964639664f, 1.0470141172409058f, -1.3040682077407837f, -1.3584558963775635f, -0.9547963738441467f, 0.7931993007659912f, -0.16506095230579376f, -1.5503493547439575f, -0.0013193319318816066f, -1.2920337915420532f, 1.4482556581497192f, -0.049882322549819946f, 0.057104941457509995f, 0.40218088030815125f, 0.1681946963071823f, -0.5279621481895447f, -0.48584264516830444f, 0.0014556522946804762f, -0.1582615226507187f, -0.6943796277046204f, -0.18052451312541962f, -0.5187304019927979f, 0.56788170337677f, -0.05184466391801834f, 0.0801764503121376f, 1.870059609413147f, 0.6343454122543335f, -1.6746493577957153f, -1.4415830373764038f, -0.007182382047176361f, -0.11155495047569275f, -1.4041026830673218f, 0.001042315037921071f, -1.0821937322616577f, 0.028896905481815338f, -0.05284207686781883f, -0.16219192743301392f, 2.178713321685791f, 0.750531017780304f, -1.9273300170898438f, -2.0040173530578613f, -0.3275182247161865f, 0.2479764223098755f, -2.1007754802703857f, 0.23694871366024017f, -1.733178973197937f, -0.02992899715900421f, 0.19438335299491882f, 0.11282263696193695f, 0.6535120010375977f, 0.0832931324839592f, -0.7237451076507568f, -0.8269273638725281f, 0.12040600925683975f, 0.27129924297332764f, -0.946185290813446f, 0.13515719771385193f, -0.6912645101547241f, -0.32475554943084717f, 0.11943206936120987f, -0.04607999324798584f, 1.819589614868164f, -0.33292844891548157f, -1.1641688346862793f, -1.104022741317749f, 0.5785155296325684f, 0.1804022341966629f, -0.8932316303253174f, 0.08119241893291473f, -0.7254278063774109f, -0.5486408472061157f, 0.02816796861588955f, 0.28793853521347046f, 2.0644237995147705f, -0.8279282450675964f, -1.5941840410232544f, -1.487313151359558f, 0.1560530811548233f, -0.3448505699634552f, -1.0688414573669434f, -0.11852665990591049f, -0.7755179405212402f, -0.6869974732398987f, -0.2107001692056656f, -0.225516676902771f, 0.5710754990577698f, 0.5310441851615906f, -0.739558756351471f, -0.6803189516067505f, -0.7256544828414917f, -0.016156230121850967f, -0.664728045463562f, -0.060592494904994965f, -0.4850938618183136f, -0.7728520631790161f };
alignas(16) float separable_conv2d_1_WEIGHTS[] = { 0.006930969189852476f, 0.0038203448057174683f, 0.01078268326818943f, 0.005588947329670191f, 0.0046638608910143375f, 0.035802021622657776f, 0.274052232503891f, -0.2485293298959732f, -1.5183961391448975f, 0.035520561039447784f, 0.08573509007692337f, -0.005105264950543642f, 0.4566088914871216f, -0.14757660031318665f, 0.012732978910207748f, 0.4457828402519226f, -0.17212483286857605f, 0.08774909377098083f, 0.002237156964838505f, -0.042508315294981f, -0.013583129271864891f, 0.0074233696796f, 0.00603750254958868f, 0.0005806008703075349f, -0.408768892288208f, -0.21497684717178345f, -0.3920830190181732f, 0.008914017118513584f, -0.004243996925652027f, -0.0038182493299245834f, -0.3435415029525757f, -0.19996094703674316f, -0.3858799636363983f, -0.010819202288985252f, -0.0644274577498436f, 0.41789212822914124f };
alignas(16) float separable_conv2d_1_BIAS[] = { 1.7253913879394531f, 0.41590985655784607f, 2.530750274658203f };
alignas(16) float conv2d_1_WEIGHTS[] = { -0.2449912279844284f, -0.7595016956329346f, 1.0963916778564453f, -0.04399288818240166f, 0.7366049885749817f, -0.5398125648498535f, 0.5111727714538574f, 0.524656355381012f, 0.4764038026332855f, 1.4720182418823242f, -1.541877269744873f, 1.546573519706726f, 0.44263267517089844f, 1.2864699363708496f, -1.3005214929580688f, -0.1444641649723053f, -0.12664352357387543f, -1.8473652601242065f, -0.8356561660766602f, -1.1054880619049072f, 0.7705686688423157f, 0.9790319800376892f, -0.35572075843811035f, 1.7995622158050537f, -0.22380614280700684f, 0.09446126967668533f, -0.3503069281578064f, -0.15246789157390594f, 1.1827515363693237f, -1.8933541774749756f, 0.16413672268390656f, 0.7876189351081848f, -5.136923789978027f, -0.5492910146713257f, 0.02437468431890011f, -2.2700531482696533f, -0.0687393844127655f, -0.5384131669998169f, -2.264305830001831f, -0.36567527055740356f, -1.4568397998809814f, 0.5246444940567017f, 1.0305209159851074f, -0.08841389417648315f, 0.5372813940048218f, 0.331182599067688f, -0.20447365939617157f, 1.1037958860397339f };
alignas(16) float conv2d_1_BIAS[] = { 0.4470953643321991f, 4.63896369934082f, 1.2321193218231201f, 2.0248706340789795f, -4.500457763671875f, -1.5561835765838623f, -0.1620088815689087f, -1.54208242893219f, 0.4121578335762024f, -1.8058477640151978f, 2.9772002696990967f, -1.8854490518569946f, -2.6806373596191406f, 0.8654611706733704f, 0.47206202149391174f, -2.3001694679260254f };
alignas(16) float separable_conv2d_2_depthwise_WEIGHTS[] = { -0.5202103853225708f, -0.4308907091617584f, 0.14257371425628662f, 1.9357428550720215f, 2.5298876762390137f, 0.9987125992774963f, -0.3620738685131073f, 0.7022120356559753f, 2.205810785293579f, 0.11493872851133347f, -1.6347239017486572f, -0.9758252501487732f, 1.4779729843139648f, 1.6026034355163574f, 1.440307855606079f, 2.2671775817871094f, -1.4384137392044067f, -1.9936648607254028f, -1.6680082082748413f, 0.33087673783302307f, -1.0329618453979492f, -1.1769747734069824f, -0.6518375873565674f, 0.11277880519628525f, -0.5163413882255554f, 0.8629043698310852f, -1.8221986293792725f, 0.7452365756034851f, -0.9981909990310669f, -0.6420057415962219f, 0.7162248492240906f, -0.12069442123174667f, -1.5126680135726929f, -0.33017268776893616f, 0.16333861649036407f, -2.274477243423462f, -0.8134788870811462f, -1.8464792966842651f, 0.5165635347366333f, 0.927131712436676f, 0.9863342046737671f, -0.42636916041374207f, 1.6873137950897217f, 1.0135849714279175f, -0.22113502025604248f, -0.2957695722579956f, -0.6159760355949402f, 1.8124446868896484f, -2.2306761741638184f, -1.2528184652328491f, -0.3253368139266968f, 0.20341503620147705f, 0.732042670249939f, 1.2391877174377441f, -2.430692195892334f, 0.7211077809333801f, -1.1248964071273804f, 0.33532387018203735f, 1.7210437059402466f, -0.4965164065361023f, -0.8385640978813171f, 0.42801299691200256f, 0.4594709277153015f, 0.9270218014717102f, -0.033021897077560425f, 0.05927024781703949f, -1.6337584257125854f, 2.936897039413452f, 2.118105173110962f, -1.431108832359314f, -0.5572606921195984f, 1.7057852745056152f, 0.24420003592967987f, 0.04378175735473633f, -2.7640318870544434f, -0.4025573134422302f, 0.2528625726699829f, -0.4134613275527954f, 1.046401023864746f, 1.9905426502227783f, 1.537301778793335f, -2.3559927940368652f, 0.03950867801904678f, 1.307465672492981f, -0.8096531629562378f, -1.384203553199768f, -0.7788365483283997f, 0.6770700812339783f, 0.5400654077529907f, 0.7314525246620178f, -0.8920081257820129f, -0.12693023681640625f, -0.512164831161499f, -2.970043659210205f, 0.1293434500694275f, -0.3112674951553345f, 0.3677709400653839f, 1.1197422742843628f, 0.21297799050807953f, -1.3107199668884277f, -0.9311038255691528f, 0.3270280361175537f, -0.39981234073638916f, -0.936308741569519f, -0.8846588730812073f, -2.457028388977051f, 1.6473166942596436f, -0.08553304523229599f, -0.5363666415214539f, -1.046492099761963f, -0.9015944004058838f, 2.020134210586548f, -1.8963772058486938f, 1.3341784477233887f, 0.5204204320907593f, 0.5537915229797363f, -0.7463536262512207f, 0.14425772428512573f, -1.2908225059509277f, -0.7224825620651245f, -1.7729899883270264f, 1.2704613208770752f, 1.151687741279602f, -0.8517298102378845f, -0.48255154490470886f, 1.1232010126113892f, -1.0416160821914673f, -0.4679372310638428f, 0.16834451258182526f, 0.7165805101394653f, -0.5271773338317871f, 1.1941908597946167f, 0.6173231601715088f, -1.7405989170074463f, -0.04818751662969589f, -0.32901129126548767f, -0.09396860003471375f, -1.075618028640747f, -1.414538860321045f, -0.5569643974304199f, -0.7834761738777161f, -3.412402391433716f, 1.043736219406128f, 2.231677532196045f, -0.908583402633667f, -0.46227362751960754f, 0.6945200562477112f, 0.3308483064174652f, -0.08102717995643616f, -0.949266254901886f, -0.9473610520362854f, -0.5771746635437012f, 2.388373613357544f, -0.9536474347114563f, -0.00246712239459157f, 0.15910089015960693f, 0.7379891276359558f, -1.5270715951919556f, -0.6640610098838806f, -0.40431976318359375f, 1.9272148609161377f, 0.5752036571502686f, -0.5452549457550049f, -0.7410801649093628f, -0.5277199149131775f, 1.9196445941925049f, -1.371382713317871f, -0.4912329912185669f, -0.44949615001678467f, -1.8532947301864624f, -0.08576943725347519f, 0.18020690977573395f, -0.4002048373222351f, 1.3898918628692627f, 3.6995902061462402f, 1.4187016487121582f, -1.1225107908248901f, 0.13896797597408295f, -0.37978217005729675f, 0.9564723372459412f, -0.16502222418785095f, -0.0506087988615036f, -0.553342878818512f, -2.333441734313965f, -1.3234161138534546f, 0.9391581416130066f, -0.5128157734870911f, 1.3533953428268433f, 0.05359601229429245f, 0.6275700330734253f, -1.6659753322601318f, 0.040211375802755356f, -2.7702672481536865f, -0.4895588159561157f, 1.0933804512023926f, -1.5721975564956665f, 0.24342025816440582f, 2.341829299926758f, -1.7947417497634888f, -0.40678703784942627f, 0.6727350354194641f, 1.084127426147461f, -0.11346989125013351f, 0.5942635536193848f, -0.16314619779586792f, 2.305143356323242f, -1.1302838325500488f, 1.327405571937561f, -1.1719152927398682f, 0.30302438139915466f, -1.5296545028686523f, -0.9289327263832092f, -1.1980512142181396f, -0.9160735011100769f, 1.849840521812439f, -1.9014439582824707f, 0.08905556797981262f, 1.2480021715164185f, -1.6915849447250366f, -0.05533852055668831f, -1.7900505065917969f, 1.6031334400177002f, -0.280926376581192f, 1.4196211099624634f, -2.051020383834839f, -1.089983582496643f, -0.45393210649490356f, -1.7073866128921509f, -1.352457046508789f, -2.0249826908111572f, 0.6877508759498596f, 0.22548334300518036f, 2.755704164505005f, 1.1244394779205322f, 1.2423105239868164f, -0.24606077373027802f, -0.8395233750343323f, 0.06023596599698067f, -0.6731733679771423f, 0.20893260836601257f, 1.7092664241790771f, 0.1503094881772995f, -0.48488831520080566f, 0.12410714477300644f, 1.7523493766784668f, 1.3081713914871216f, -2.4789905548095703f, 2.056344509124756f, 0.8789845108985901f, 0.3663541376590729f, -0.07639991492033005f, -0.262933611869812f, -1.6752432584762573f, 0.16456517577171326f, 2.0895886421203613f, 0.7189002633094788f, -1.43646240234375f, 0.6017159223556519f, -1.4859812259674072f, -3.1852567195892334f, -1.0599207878112793f, -0.2636650502681732f, -1.4347469806671143f, 0.613396942615509f, 0.029113875702023506f, 0.37810277938842773f, -0.4458390772342682f, 1.2399760484695435f, 0.45520126819610596f, 0.24919523298740387f, -1.160239815711975f, 1.008945107460022f, 2.616149425506592f, 0.9640881419181824f, 0.27201613783836365f, -0.06870797276496887f, -1.8459017276763916f, 2.007469654083252f, 0.9731761813163757f, -1.684394121170044f, 1.4036709070205688f, 1.5140069723129272f, -0.6586333513259888f, -1.0156632661819458f, 0.18323476612567902f, 0.8975045680999756f, -0.08440019190311432f, 2.864145278930664f, 0.3920445144176483f, 0.7691564559936523f, 0.463314026594162f, 0.31659525632858276f, -1.2323660850524902f, -0.08504122495651245f, 0.0944041758775711f, -0.5498951077461243f, -0.24938033521175385f, 0.3346615731716156f, -0.48743072152137756f, -1.8747398853302002f, -0.6981782913208008f, -1.165199637413025f, -1.0680714845657349f, -0.3849414885044098f, 2.3486695289611816f, 0.24110351502895355f, 0.06684824824333191f, -0.19764968752861023f, -0.4121710956096649f, -1.2249040603637695f, 0.531340479850769f, 0.6845206022262573f, 0.2892083525657654f, 0.48470011353492737f, -1.3761848211288452f, -1.371514916419983f, -1.4149763584136963f, -0.5014651417732239f, 0.40178659558296204f, 0.6232954859733582f, -0.03093069978058338f, -0.05856797471642494f, -1.705325961112976f, -2.1887571811676025f, -0.5501599311828613f, -1.720361590385437f, 0.7344017028808594f, -0.6370502710342407f, 0.17629414796829224f, -1.7690773010253906f, 0.13453945517539978f, 0.5352880954742432f, 0.2293783724308014f, -1.5355618000030518f, -0.9959015846252441f, 0.06883945316076279f, -1.0211806297302246f, 0.4521055221557617f, -0.6663895845413208f, -1.4562110900878906f, 0.5703052282333374f, 2.09149169921875f, -1.3126031160354614f, -1.0522394180297852f, 1.873592495918274f, 0.5698012709617615f, 0.011265438981354237f, -0.652228593826294f, 1.5052255392074585f, 0.26345154643058777f, -0.12228010594844818f, 1.3051869869232178f, 1.8987854719161987f, 0.2557990550994873f, 0.3776448667049408f, 0.9918543100357056f, -0.748347818851471f, 1.819124460220337f, 0.8535873293876648f, -0.00950621347874403f, -0.5193111300468445f, -1.4611855745315552f, -2.551875114440918f, -0.6540079712867737f, -0.3564743399620056f, 0.4663829505443573f, -0.41514456272125244f, -0.0633939653635025f, 1.0962148904800415f, -0.5576138496398926f, -0.528215229511261f, 0.08805686235427856f, -0.5910846590995789f, -1.5581462383270264f, 0.5945367217063904f, -2.4026710987091064f, 1.1405081748962402f, -0.5135242938995361f, -2.5420799255371094f, 1.4795359373092651f, 0.13002566993236542f, -1.5432262420654297f, -1.44694983959198f, 0.9827450513839722f, 0.26314225792884827f, 0.9294893741607666f, 2.10029673576355f, 0.27906185388565063f, -1.2253131866455078f, 1.5051348209381104f, -1.3288682699203491f, -1.3919035196304321f, -1.3167362213134766f, 1.8272475004196167f, 2.0356736183166504f, 0.7053419947624207f, -2.644011974334717f, 1.5694808959960938f, -0.7056624889373779f, -0.11086425930261612f, 0.029631517827510834f, 0.9075143337249756f, -1.3643492460250854f, -0.19346825778484344f, -0.47901004552841187f, -0.9534726142883301f, 1.3045610189437866f, 0.8054556846618652f, -2.3184611797332764f, 0.6466286778450012f, 1.0529810190200806f, -0.7224083542823792f, -1.3827332258224487f, 0.6478175520896912f, -0.7035427093505859f, -1.632284164428711f, -0.9098442792892456f, -0.7854763269424438f, -0.42754030227661133f, -1.3178746700286865f, 1.084787130355835f, -1.9391298294067383f, -0.9079511761665344f, 0.7289981245994568f, 0.733731210231781f, 1.7643429040908813f, 1.5748834609985352f, 0.12038519978523254f, -1.5029574632644653f, 1.221026062965393f, 0.6187320947647095f, -1.1124176979064941f, 0.1614813357591629f, 1.0805046558380127f, 0.42815840244293213f, 1.7123826742172241f, 0.5624894499778748f, 0.933151125907898f, -1.4280418157577515f, 2.00103759765625f, -0.32380375266075134f, -0.16320917010307312f, -0.2549976408481598f, 0.2955195903778076f, 2.0310168266296387f, 1.109204649925232f, 0.7821645140647888f, 0.5694056749343872f, 2.409817934036255f, 0.19520030915737152f, 1.6595306396484375f, 0.1985943466424942f, -2.4373412132263184f, 0.13803409039974213f, -0.8731967210769653f, -0.04096583276987076f, -1.0774754285812378f, 0.5376930236816406f, 1.8737398386001587f, 1.5337947607040405f, -2.0429129600524902f, 1.0053837299346924f, -1.4590189456939697f, -0.49524882435798645f, 1.667097568511963f, 2.0815773010253906f, 0.6224931478500366f, 1.1946303844451904f, -1.142208218574524f, 0.13943444192409515f, 0.4953480362892151f, 1.8781410455703735f, -1.853756070137024f, 1.2199194431304932f, 2.5706140995025635f, -2.7459499835968018f, 0.7274588942527771f, 0.717448353767395f, 0.3868934214115143f, -2.45758318901062f, 0.22942176461219788f, -0.18979042768478394f, 0.7071587443351746f, 0.07854554802179337f, 2.2955210208892822f, -0.7464451193809509f, -0.7961890697479248f, -1.1418085098266602f, -1.506352186203003f, 2.407639265060425f, -0.706161379814148f, -1.3557276725769043f, -0.8644962310791016f, 0.09858527779579163f, 0.05239580199122429f, -2.542940378189087f, 0.6188782453536987f, -0.09348881989717484f, 1.0945959091186523f, 1.8124308586120605f, -1.4805184602737427f, -0.8930021524429321f, 2.048231363296509f, 1.5318573713302612f, -0.7991766929626465f, -0.5026493668556213f, -1.3028608560562134f, -1.3825907707214355f, 1.7500437498092651f, 0.2747199237346649f, 1.024209976196289f, 0.39633941650390625f, 1.9665703773498535f, -1.27530837059021f, 0.18832266330718994f, 0.32030171155929565f, -0.598926305770874f, -0.30968448519706726f, 0.365278959274292f, -0.6824106574058533f, -0.6168206930160522f, -1.077148199081421f, 1.9964853525161743f, 1.3459596633911133f, -1.2583884000778198f, -0.3595311939716339f, -0.14658983051776886f, -1.855239748954773f, -0.42378202080726624f, 0.45792779326438904f, -0.41392141580581665f, -0.36600372195243835f, -0.19823183119297028f, 1.2217544317245483f, -0.8938214182853699f, 1.873987078666687f, -0.4095667600631714f, 0.4694647789001465f, 2.4686131477355957f, -2.112837791442871f, 1.7652785778045654f, 0.457440584897995f, 0.49093106389045715f, -0.8266728520393372f, 0.6919917464256287f, -0.5207989811897278f, -0.5388689637184143f, 0.9604244828224182f, 1.4552124738693237f, 1.1353703737258911f, 0.9658458232879639f, 0.3299207091331482f, -1.6854315996170044f, 0.04498067498207092f, -1.7024301290512085f, -0.26266637444496155f, -0.21886685490608215f, -0.8969148397445679f, -0.43978580832481384f, -1.5628697872161865f, -0.19086042046546936f, -1.1376928091049194f, -0.10048416256904602f, 0.333392858505249f, -1.2852169275283813f, -1.2921130657196045f, 1.4717915058135986f, -0.610882043838501f, 0.7905324697494507f, -1.1531656980514526f, -1.1517300605773926f, 1.2468429803848267f, 1.3120659589767456f, -1.3070672750473022f, -1.38947331905365f, 0.9726259112358093f };
alignas(16) float separable_conv2d_2_WEIGHTS[] = { 0.012204517610371113f, 0.08827783167362213f, 0.09446755796670914f, -0.18792632222175598f, -0.0035988646559417248f, 0.1236690804362297f, 0.00033205817453563213f, -0.015415255911648273f, 0.04035907983779907f, -0.08381275832653046f, -0.06310755014419556f, 0.03532737120985985f, -0.053394608199596405f, 0.06144171580672264f, -0.07893338799476624f, 0.0030091803055256605f, -0.009787327609956264f, 0.002857311861589551f, -0.008480818942189217f, -0.0011791932629421353f, 0.016523517668247223f, -0.013759304769337177f, -0.040046580135822296f, 0.009413189254701138f, -0.01125983614474535f, 0.013643876649439335f, -0.03195950761437416f, -0.006921479012817144f, 0.023012738674879074f, -0.00689280591905117f, 0.01036788895726204f, 0.0072913444600999355f, 0.024502016603946686f, 0.10448414832353592f, -0.151862233877182f, -0.10078415274620056f, 0.03783462941646576f, 0.0662342756986618f, 0.0008508671307936311f, -0.03758952021598816f, 0.009037623181939125f, 0.06303796917200089f, 0.007305686827749014f, -0.017533063888549805f, -0.06614836305379868f, -0.05229979753494263f, 0.09948530793190002f, -0.02380504086613655f, -0.054985687136650085f, -0.13211795687675476f, -0.031427014619112015f, -0.2646826505661011f, 0.04237666353583336f, -0.04265117272734642f, -0.02752223052084446f, 0.01662941463291645f, 0.3465203046798706f, -0.03871617838740349f, -0.02390229143202305f, 0.0754789188504219f, 0.13500559329986572f, 0.02597206085920334f, 0.030714012682437897f, -0.09235867857933044f, 0.021333761513233185f, -0.04916869103908539f, -0.04847992956638336f, 0.031590014696121216f, 0.07901272177696228f, 0.12265762686729431f, -0.031209325417876244f, -0.0498289056122303f, -0.08082104474306107f, -0.1258258819580078f, -0.0755176991224289f, 0.07482495903968811f, 0.046851836144924164f, -0.004145338665693998f, 0.026679592207074165f, -0.15955069661140442f, -0.01436290331184864f, -0.020574746653437614f, 0.17858365178108215f, -0.05326452851295471f, 0.05422137305140495f, -0.05150812119245529f, -0.03952496498823166f, 0.038999103009700775f, 0.002179382834583521f, -0.07214406877756119f, -0.09440267831087112f, 0.04478615149855614f, 0.065148264169693f, 0.07498139142990112f, 0.02017289213836193f, 0.027800099924206734f, 0.02059340290725231f, -0.02143639698624611f, -0.01809568889439106f, -0.015446859411895275f, -0.01906696893274784f, -0.005187989678233862f, -0.03754705563187599f, 0.03319602087140083f, 0.021799255162477493f, -0.05808356776833534f, -0.04595627263188362f, -0.036465756595134735f, -0.22113445401191711f, -0.021526018157601357f, 0.1313355565071106f, -0.058554232120513916f, 0.006089901551604271f, -0.03824460506439209f, -0.020301340147852898f, -0.027417907491326332f, 0.024277791380882263f, 0.035369955003261566f, -0.022104041650891304f, -0.022403515875339508f, -0.005914598237723112f, 0.03892690688371658f, -0.007411747705191374f, 0.02624179981648922f, -0.024724630638957024f, -0.046073395758867264f, -0.01454226952046156f, -0.05615493282675743f, -0.003835621988400817f, 0.033292148262262344f, 0.007024099584668875f, -0.008706447668373585f, -0.034212496131658554f, 0.015396502800285816f, 0.020856516435742378f, -0.01770460419356823f, -0.044036366045475006f, -0.019123323261737823f, -0.023387962952256203f, -0.040411315858364105f, 0.07553154230117798f, 0.04358751326799393f, 0.04982433840632439f, -0.05373204126954079f, 0.024098150432109833f, -0.03541012853384018f, 0.08777853101491928f, 0.00915388111025095f, -0.00176851951982826f, -0.03714172542095184f, -0.06049304082989693f, -0.011364043690264225f, 0.027290431782603264f, -0.11797577887773514f, 0.04065657779574394f, -0.040393270552158356f, -0.04918545484542847f, 0.0028892136178910732f, 0.030671391636133194f, 0.0340002104640007f, 0.0551600307226181f, -0.10258111357688904f, -0.03608052060008049f, 0.022119803354144096f, 0.025607310235500336f, -0.0407196506857872f, -0.14531144499778748f, 0.008651657029986382f, 0.17082923650741577f, 0.08681926876306534f, 0.07397690415382385f, 0.021716708317399025f, -0.05299302563071251f, -0.05613695830106735f, -0.03663467988371849f, 0.0950225368142128f, 0.011606344021856785f, -0.02088446542620659f, -0.00294489786028862f, -0.01979081518948078f, -0.12864325940608978f, 0.02422555908560753f, 0.0033258392941206694f, -0.053013093769550323f, 0.03653065860271454f, 0.05222705379128456f, -0.10719719529151917f, 0.00034867023350670934f, 0.037491124123334885f, -0.03174763172864914f, 0.036563437432050705f, 0.12650682032108307f, 0.0015503843314945698f, -0.004333704710006714f, 0.05662285163998604f, 0.008985206484794617f, -0.09248054027557373f, -0.015081582590937614f, 0.017930135130882263f, -0.004973710514605045f, -0.01082755159586668f, 0.04169023782014847f, 0.13730983436107635f, -0.024595582857728004f, 0.08798269182443619f, 0.08133671432733536f, 0.1293906271457672f, -0.10347512364387512f, -0.04671521857380867f, -0.049917541444301605f, 0.0894024670124054f, 0.02811308763921261f, 0.14744102954864502f, -0.010427250526845455f, -0.0582229383289814f, -0.10744231194257736f, -0.03988896310329437f, -0.18731679022312164f, -0.1347060203552246f, -0.04074874892830849f, 0.05478830263018608f, 0.01942264288663864f, 0.038780901581048965f, -0.047984275966882706f, 0.058974165469408035f, 0.013740665279328823f, 0.035126879811286926f, -0.0289920587092638f, -0.011861505918204784f, -0.020442359149456024f, 0.03840212896466255f, 0.051696598529815674f, -0.002347297500818968f, 0.04972393438220024f, 0.07709821313619614f, -0.06635716557502747f, 0.0674656480550766f, 0.05690416321158409f, 0.047725144773721695f, -0.11249867081642151f, -0.08622793853282928f, -0.015969038009643555f, -0.027043644338846207f, -0.043666817247867584f, 0.01686541549861431f, 0.06861806660890579f, 0.1796058714389801f, -0.04596932604908943f, 0.029098976403474808f, 0.05218355730175972f, -0.15369677543640137f, -0.025014694780111313f, -0.018139276653528214f, -0.05521353706717491f, -0.056570738554000854f, 0.03407574072480202f, -0.11976739764213562f, -0.027669984847307205f, 0.1672251671552658f, 0.035356421023607254f, 0.012859776616096497f, 0.009906480088829994f, 0.019236018881201744f, 0.0075156670063734055f, -0.015701381489634514f, 0.15666408836841583f, 0.1670064628124237f, 0.059352628886699677f, -0.05859198793768883f, 0.02066199481487274f, -0.05855223536491394f, 0.0015758173540234566f, 0.026198789477348328f, -0.015574284829199314f, 0.046061497181653976f, 0.1489257514476776f, 0.053791094571352005f, 0.05995545536279678f, -0.056343454867601395f, -0.012577374465763569f, -0.10261481255292892f, 0.058999404311180115f, -0.0370212160050869f, 0.06202954798936844f, 0.11546947062015533f, 0.05657406896352768f, 0.008266621269285679f, -0.12603724002838135f, 0.11014989763498306f, -0.0319102443754673f, 0.05744396895170212f, -0.014315365813672543f, -0.0706944689154625f, -0.009299760684370995f, 0.08783156424760818f, -0.06519348919391632f, -0.009228559210896492f, 0.03975473344326019f, -0.11042379587888718f, -0.018983058631420135f, 0.02817405015230179f, 0.07269667088985443f, -0.07827654480934143f, -0.03989874944090843f, -0.0015068809734657407f, 0.036518607288599014f, 0.05385357886552811f, -0.029332483187317848f, -0.05784539878368378f, -0.02310089021921158f, 0.0020768551621586084f, -0.004831954836845398f, -0.007375387009233236f, 0.030202247202396393f, -0.05261269584298134f, -0.0011904097627848387f, -0.026750653982162476f, 0.019612152129411697f, -0.015880759805440903f, 0.011011315509676933f, -0.019046634435653687f, -0.008352761156857014f, 0.02981172874569893f, 0.016167042776942253f, -0.08422842621803284f, 0.00228475546464324f, -0.014480894431471825f, -0.19702379405498505f, 0.004073452670127153f, -0.007835161872208118f, -0.03065596893429756f, 0.03372245654463768f, -0.031229835003614426f, 0.07072115689516068f, 0.055411599576473236f, -0.026814859360456467f, 0.003932327032089233f, -0.010864748619496822f, 0.074692502617836f, 0.08846826106309891f, 0.07968020439147949f, 0.07721332460641861f, 0.033022940158843994f, -0.019316041842103004f, -0.06050445884466171f, -0.09502703696489334f, 0.05651472136378288f, -0.12106869369745255f, -0.04639685899019241f, 0.02369108982384205f, 0.0557924285531044f, -0.03428765386343002f, 0.028807375580072403f, 0.0021430968772619963f, -0.05266626551747322f, 0.010446256957948208f, -0.012151451781392097f, 0.03966294601559639f, 0.053481973707675934f, 0.001634271815419197f, -0.03952282294631004f, 0.1379002332687378f, -0.019707007333636284f, -0.012162579223513603f, 0.030192457139492035f, -0.0311655905097723f, -0.07870887964963913f, 0.014354795217514038f, 0.011499117128551006f, 0.09811808168888092f, 0.051741670817136765f, -0.17152518033981323f, 0.002366142114624381f, 0.06663455069065094f, 0.012698262929916382f, -0.03071446716785431f, -0.01081151980906725f, -0.02700009010732174f, 0.07167727500200272f, -0.015870949253439903f, 0.028905333951115608f, 0.07448466867208481f, 0.03018670529127121f, -0.04262155666947365f, -0.05595710128545761f, -0.058163080364465714f, 0.04414065554738045f, 0.10241815447807312f, -0.04698187857866287f, -0.026079261675477028f, -0.02055136300623417f, 0.053771011531353f, -0.03289339318871498f, 0.060573212802410126f, -0.18810264766216278f, 0.15313483774662018f, -0.015887761488556862f, 0.1369832158088684f, -0.026231717318296432f, 0.06846462190151215f, -0.14276543259620667f, -0.027611324563622475f, 0.008823677897453308f, -0.0050757769495248795f, -0.04887641593813896f, -0.00808041263371706f, 0.0768023282289505f, 0.03412657603621483f, -0.029911305755376816f, 0.0063042654655873775f, 0.072625532746315f, 0.08824189007282257f, 0.013702319003641605f, -0.03356487676501274f, 0.1546381711959839f, 0.023740721866488457f, -0.0437300018966198f, 0.13261261582374573f, 0.03384116664528847f, -0.17405599355697632f, 0.03318842872977257f, 0.0862300843000412f, -0.06006046384572983f, -0.02572948858141899f, -0.010044666938483715f, 0.009836355224251747f, 0.025957034900784492f, 0.15293841063976288f, -0.08873026818037033f, -0.16703619062900543f, -0.033496856689453125f, 0.036779288202524185f, 0.13720156252384186f, -0.0005199415609240532f, -0.02016061171889305f, 0.05017782747745514f, 0.028699440881609917f, -0.03939877077937126f, -0.042182840406894684f, -0.02192477323114872f, 0.03443046659231186f, -0.023193513974547386f, -0.05095849558711052f, -0.13846616446971893f, 0.012534124776721f, 0.08875750005245209f, -0.08677712827920914f, -0.0451352521777153f, 0.00976797379553318f, 0.0029524629935622215f, 0.11817015707492828f, 0.00761321559548378f, 0.07034847140312195f, 0.02776695415377617f, 0.029941199347376823f, 0.01908412203192711f, -0.007654683664441109f, -0.18967999517917633f, -0.04304666072130203f, 0.057465676218271255f, 0.012656408362090588f, -0.0023440609220415354f, 0.015613353811204433f, -0.03665194660425186f, -0.002858029445633292f, -0.011057183146476746f, -0.07501024007797241f, 0.11965636909008026f, -0.016226932406425476f, 0.10678638517856598f, 0.045771222561597824f, -0.014825230464339256f, -0.13915930688381195f, 0.019531909376382828f, 0.035948533564805984f, -0.01710042916238308f, -0.011174464598298073f, -0.026457753032445908f, -0.01736789010465145f, -0.079375721514225f, 0.012043649330735207f, 0.0019136726623401046f, 0.00624982500448823f, -0.001125522656366229f, -0.016509143635630608f, 0.012002388015389442f, 0.0021861481945961714f, 0.004596568178385496f, 1.606904447726265e-06f, -0.008454479277133942f, 0.005862032528966665f, -0.0026067800354212523f, -0.0003031863016076386f, -0.002190574072301388f, 0.003930354490876198f, 0.010486387647688389f, 0.02402322180569172f, -0.1906072348356247f, 0.05100015550851822f, 0.2410440593957901f, 0.007675045635551214f, -0.0996238961815834f, 0.0032601256389170885f, -0.02983974479138851f, 0.034811150282621384f, -0.016399282962083817f, -0.019587120041251183f, -0.08813074231147766f, -0.20772811770439148f, 0.03197508677840233f, 0.023531809449195862f, 0.09587828814983368f, -0.013115258887410164f, 0.011175692081451416f, 0.14826881885528564f, -0.01601158082485199f, 0.026735633611679077f, 0.035287365317344666f, -0.027970315888524055f, 0.006296743173152208f, -0.012934453785419464f, -0.06948062777519226f, -0.16445304453372955f, 0.09925635159015656f, 0.018537983298301697f, 0.0025609463918954134f, -0.08608220517635345f, 0.05367511883378029f, -0.024749115109443665f, -0.028211265802383423f, 0.042209312319755554f, 0.009367603808641434f, -0.004409618675708771f, 0.0333099290728569f, -0.021541478112339973f, -0.006554306950420141f, 0.010577980428934097f, -0.0267745740711689f, -0.03659383952617645f, -0.0013453610008582473f, 0.02921970933675766f, 0.02397344447672367f, -0.028634456917643547f, 0.04185289889574051f, 0.005624947603791952f, -0.006682100240141153f, -0.0023079777602106333f, 0.007366784382611513f, -0.008776356466114521f, 0.016153791919350624f, -0.019496114924550056f, -0.0074210274033248425f, -0.004888095427304506f, -0.004711490590125322f, 0.013911373913288116f, 0.002968833316117525f, 0.006568548269569874f, -0.0007396211149170995f, -0.007774206344038248f, 0.007278182543814182f, 0.15033771097660065f, 0.016793616116046906f, 0.053009577095508575f, 0.03506987914443016f, -0.0338539257645607f, 0.0652342215180397f, -0.019811179488897324f, -0.05479362979531288f, -0.010399896651506424f, -0.02007923275232315f, 0.09848719835281372f, 0.013191510923206806f, -0.005480900406837463f, 0.012370350770652294f, -0.1615312546491623f, -0.04729427397251129f, 0.024292094632983208f, -0.03526213765144348f, 0.012403310276567936f, 0.001215752330608666f, 0.021736321970820427f, 0.02450757846236229f, -0.07944727689027786f, 0.0354149267077446f, -0.04933639615774155f, -0.011399206705391407f, 0.08723585307598114f, 0.16236503422260284f, 0.05920523405075073f, -0.04949185624718666f, -0.013946937397122383f, -0.04465847462415695f, -0.004994024522602558f, -0.005420211236923933f, 0.00440257741138339f, 0.010818849317729473f, -0.005102618131786585f, 0.008468355983495712f, 0.165803000330925f, 0.062437575310468674f, 0.03375617414712906f, 0.04422268643975258f, -0.12618541717529297f, 0.1757623702287674f, -0.011467094533145428f, 0.04866515472531319f, -0.13005883991718292f, 0.04224199429154396f, 0.013967241160571575f, -0.014620177447795868f, -0.02187761291861534f, -0.013036154210567474f, -0.0018985739443451166f, -0.004044550471007824f, 0.035018227994441986f, -0.005087385885417461f, 0.02972630225121975f, 0.005996911320835352f, 0.05746060237288475f, 0.00844823569059372f, 0.008541888557374477f, 0.013712391257286072f, 0.027105459943413734f, 0.013134543783962727f, 0.00025282803107984364f, 0.02402070164680481f, -0.020057592540979385f, 0.0008929326431825757f, -0.014670289121568203f, -0.0030982522293925285f, -0.017116885632276535f, 0.021746182814240456f, -0.007161847781389952f, -0.005747590679675341f, 0.14362527430057526f, -0.01736876554787159f, -0.007845633663237095f, 0.01640070416033268f, -0.02078353613615036f, -0.028728922829031944f, -0.0010846407385542989f, 0.013086890801787376f, 0.11229366809129715f, -0.032469242811203f, 0.007890739478170872f, 0.12321021407842636f, -0.018486417829990387f, 0.03233955800533295f, 0.008977767080068588f, -0.07125785201787949f, -0.0424664132297039f, -0.027064509689807892f, -0.004946914501488209f, 0.030371282249689102f, -0.0972834900021553f, 0.07970205694437027f, 0.014211739413440228f, 0.037069398909807205f, 0.09473838657140732f, -0.03599352389574051f, -0.013663139194250107f, -0.11029355227947235f, 0.11075171083211899f, -0.0457448810338974f, 0.04829255864024162f, 0.0639510378241539f, -0.048730943351984024f, -0.0260842926800251f, 0.021649807691574097f, 0.11735550314188004f, -0.09198800474405289f, 0.0865529403090477f, 0.07568060606718063f, -0.047342319041490555f, 0.16150715947151184f, 0.03635507449507713f, -0.009219390340149403f, 0.04122545197606087f, 0.008017740212380886f, 0.01453540101647377f, -0.0337471105158329f, -0.09716518968343735f, -0.011952190659940243f, 0.12031082808971405f, -0.011328838765621185f, 0.007973178289830685f, -0.09056852012872696f, 0.06190840154886246f, -0.05047035217285156f, -0.016159139573574066f, 0.017239395529031754f, 0.040193237364292145f, -0.03911899775266647f, 0.09667792916297913f, -0.006196886766701937f, -0.025225190445780754f, 0.01716468669474125f, -0.02255282737314701f, -0.10473915189504623f, -0.06276962906122208f, -0.058365095406770706f, -0.0005106777534820139f, -0.030189577490091324f, 0.07536311447620392f, 0.014078313484787941f, 0.02162730135023594f, 0.028783120214939117f, -0.009575029835104942f, -0.014515535905957222f, 0.018640771508216858f, 0.041662681847810745f, 0.06175615265965462f, -0.0015360979596152902f, 0.043148547410964966f, 0.07038165628910065f, -0.0023865592665970325f, -0.03223171830177307f, 0.05259902402758598f, -0.11189009994268417f, -0.10957781970500946f, -0.01755221001803875f, 0.004447021521627903f, -0.023399505764245987f, 0.019045785069465637f, -0.010602789930999279f, -0.0446292981505394f, -0.03395774960517883f, -0.0071857888251543045f, -0.02142968960106373f, 0.00953592173755169f, -0.052382733672857285f, -0.02813459001481533f, 0.01442212238907814f, -0.06030694767832756f, -0.018430039286613464f, -0.0434100516140461f, -0.02850261889398098f, 0.008060162886977196f, 0.010173296555876732f, 0.008252806030213833f, 0.04204130917787552f, -0.014354582875967026f, -0.05047179386019707f, -0.0038752597756683826f, -0.003315971465781331f, 0.036660343408584595f, -0.22303688526153564f, -0.02932080626487732f, -0.03575419262051582f, -0.06074921041727066f, -0.09376458823680878f, 0.006954222451895475f, -0.019164521247148514f, 0.13441389799118042f, -0.0460350476205349f, 0.014919725246727467f, -0.0013169953599572182f, -0.05341712757945061f, 0.1890002340078354f, 0.01915019564330578f, 0.02887127362191677f, 0.015628596767783165f, 0.008839095942676067f, -0.17993535101413727f, 0.008187267929315567f, 0.01800212636590004f, -0.05771170184016228f, 0.08954457938671112f, -0.0429287850856781f, -0.15968742966651917f, 0.016761276870965958f, 0.20403696596622467f, 0.07003205269575119f, 0.028096700087189674f, 0.06581994146108627f, -0.04458371177315712f, -0.0666583701968193f, 0.007662535645067692f, -0.030537035316228867f, -0.04815446957945824f, -0.023640574887394905f, -0.12070197612047195f, -0.004942723084241152f, -0.047437235713005066f, -0.031031936407089233f, -0.016703732311725616f, 0.0017534970538690686f, -0.003107232740148902f, 0.009953555651009083f, 0.029904354363679886f, 0.0033371516037732363f, -0.008221692405641079f, 0.0013502618530765176f, 0.037954747676849365f, 0.007111839484423399f, 0.000859034014865756f, 0.04917484149336815f, 0.058196164667606354f, -0.031226538121700287f, -0.022449025884270668f, -0.01965530589222908f, 0.020111214369535446f, -0.009190832264721394f, -0.014984818175435066f, 0.029972907155752182f, 0.019708041101694107f, 0.0002454188361298293f, 0.0069641852751374245f, -0.017355255782604218f, 0.025529956445097923f, -0.004747627303004265f, 0.012140164151787758f, 0.023981908336281776f, -0.07860225439071655f, 0.01527906022965908f, -0.0015257818158715963f, -0.044356029480695724f, 0.014307883568108082f, 0.003083383897319436f, -0.02319672890007496f, 0.08614528179168701f, -0.03658045455813408f, -0.018477914854884148f, -0.018320126459002495f, 0.015385615639388561f, 0.022385140880942345f, -0.1088724136352539f, -0.014565493911504745f, 0.03591011092066765f, -0.20773820579051971f, 0.045014720410108566f, 0.016297612339258194f, -0.02051621489226818f, 0.0816289633512497f, 0.052541494369506836f, 0.01184109877794981f, 0.0071220374666154385f, 0.03516972064971924f, -0.02459026873111725f, -0.03243542090058327f, 7.964216638356447e-05f, -0.06522873789072037f, 0.10561208426952362f, -0.031988758593797684f, -0.05812479555606842f, 0.05019057169556618f, -0.029223589226603508f, -0.035159628838300705f, -0.023684414103627205f, 0.050081007182598114f, 0.0857882872223854f, 0.06527889519929886f, 0.01460228767246008f, 0.022350795567035675f, -0.03897476568818092f, -0.030682077631354332f, -0.024847449734807014f, -0.07509661465883255f, 0.06796137988567352f, -0.048011671751737595f, -0.05722179636359215f, 0.0504920519888401f, -0.03611600026488304f, -0.03675587847828865f, -0.018218904733657837f, -0.04274643957614899f, -0.05593712255358696f, 0.0010742639424279332f, 0.09275063127279282f, -0.12551122903823853f, 0.051590412855148315f, 0.029354548081755638f, 0.054330095648765564f, 0.1252557933330536f, 0.0627998486161232f, 0.13510006666183472f, -0.16299164295196533f, 0.06404024362564087f, 0.017585912719368935f, -0.0191348884254694f, -0.0033980971202254295f, -0.018697837367653847f, 0.09607788920402527f, -0.02120174840092659f, -0.042292188853025436f, 0.01523253321647644f, -0.10013679414987564f, -0.07104381918907166f, 0.04211663827300072f, 0.0024200899060815573f, 0.07230972498655319f, -0.18653371930122375f, 0.02464369870722294f, -0.07466370612382889f, -0.13530871272087097f, 0.06518654525279999f, -0.012500752694904804f, 0.07140569388866425f, 0.01174856722354889f, -0.03530452400445938f, -0.013150982558727264f, -0.05042361840605736f, -0.03932387754321098f, 0.006327055860310793f, -0.0037277445662766695f, 0.014401665888726711f, -0.2145443707704544f, -0.03235394507646561f, -0.00473730219528079f, 0.0021719541400671005f, -0.0281828586012125f, -0.04788149893283844f, -0.0013969577848911285f, -0.009060168638825417f, -0.023812836036086082f, -0.008016474545001984f, 0.013963873498141766f, 0.05341300368309021f, -0.004795213229954243f, 0.006510226521641016f, -4.633923526853323e-05f, 0.011622456833720207f, 0.15245704352855682f, 0.02993403747677803f, 0.046001262962818146f, -0.016024857759475708f, 0.00889895111322403f, 0.037272363901138306f, 0.05080665647983551f, -0.005856924690306187f, 0.057837922126054764f, 0.0654505267739296f, -0.05395781993865967f, -0.02399391308426857f, 0.013537155464291573f, 0.04145973548293114f, -0.027317089959979057f, 0.15290433168411255f, -0.1287037432193756f, 0.03158460557460785f, -0.005382308270782232f, 0.007991715334355831f, -0.10193122178316116f, -0.04658755287528038f, -0.0511140339076519f, -0.008992531336843967f, 0.00048476908705197275f, 0.01310470700263977f, 0.019748901948332787f, -0.03423333913087845f, -0.04550473019480705f, -0.008289565332233906f, -0.013163549825549126f, -0.04202418401837349f, 0.01384377758949995f, -0.028741009533405304f, 0.03250442445278168f, 0.039775341749191284f, 0.03524334728717804f, -0.13366587460041046f, -0.0772189199924469f, 0.06975124031305313f, -0.031153308227658272f, -0.07170913368463516f, -0.04791375249624252f, 0.028717832639813423f, 0.041659560054540634f, 0.04017594829201698f, 0.04591645672917366f, -0.1095259040594101f, 0.05414124205708504f, 0.01319911703467369f, -0.035046812146902084f, -0.03943351283669472f, -0.06705554574728012f, 0.0164397731423378f, -0.010815347544848919f, 0.03168982267379761f, 0.03537556529045105f, -0.06578165292739868f, 0.0604458823800087f, 0.05374603718519211f, -0.01016579195857048f, -0.030096538364887238f, 0.011563105508685112f, 0.05921582877635956f, 0.014505729079246521f, -0.00933371763676405f, 0.04102170467376709f, -0.08439839631319046f, -0.002972253132611513f, -0.00419845525175333f, -0.0722668468952179f, 0.009856460615992546f, 0.05340244621038437f, 0.04389769956469536f, 0.11502561718225479f, -0.07876430451869965f, -0.09692328423261642f, -0.024808911606669426f, 0.0022053634747862816f, 0.013183120638132095f, -0.08180900663137436f, -0.015209287405014038f, 0.07068542391061783f, 0.018106281757354736f, -0.020971670746803284f, 0.02929121069610119f, 0.004027772694826126f, -0.051270317286252975f, -0.023210514336824417f, -0.0362020805478096f, 0.016633275896310806f, 0.05013328790664673f, 0.018195919692516327f, -0.03037848509848118f, 0.008856404572725296f, -0.06842316687107086f, -0.09855981916189194f, -0.038125813007354736f, -0.08699221163988113f, -0.13987420499324799f, -0.007921081967651844f, 0.028908709064126015f };
alignas(16) float separable_conv2d_2_BIAS[] = { 1.5277668237686157f, 0.07651706039905548f, -0.3427254557609558f, 0.21282343566417694f, -0.6084638237953186f, 0.6872331500053406f, 0.7026424407958984f, 1.3768037557601929f, 0.09447082132101059f, -0.2605734169483185f, 1.1995418071746826f, 0.9738706350326538f, -0.5230125188827515f, 2.020744562149048f, -0.38338297605514526f, -0.16936184465885162f };
alignas(16) float conv2d_2_WEIGHTS[] = { -0.09753527492284775f, -0.15427912771701813f, -0.21346613764762878f, -0.24235856533050537f, 0.03738810494542122f, -0.6134308576583862f, -0.22488680481910706f, 0.13402287662029266f, -0.289459764957428f, 0.25086143612861633f, 0.19264446198940277f, 0.6839938163757324f, 0.19933898746967316f, -0.571342945098877f, -0.8100139498710632f, 0.18966764211654663f, 0.1210281178355217f, 0.40519461035728455f, 0.3650982081890106f, 0.024803753942251205f, 0.2508489489555359f, -0.0488424077630043f, -0.14245256781578064f, 0.5259565114974976f, -0.7795296907424927f, 0.3523801267147064f, 0.08089227974414825f, 0.1914883702993393f, -0.040431417524814606f, -0.6054008603096008f, 0.010583456605672836f, 0.14719833433628082f, 0.28776517510414124f, -0.5133572220802307f, -0.0704781636595726f, -0.05022556334733963f, 0.30659884214401245f, -0.11960028856992722f, -0.2045944333076477f, -0.042298272252082825f, -0.010347818024456501f, -0.2742808163166046f, 0.03508197143673897f, -0.23457308113574982f, 0.08502867817878723f, -0.09433839470148087f, 0.2754121720790863f, 0.952243447303772f, -0.2848454713821411f, -0.2045498788356781f, 0.34573373198509216f, 0.12556448578834534f, -0.6642187833786011f, 0.19961614906787872f, -0.32695555686950684f, -0.11818025261163712f, 0.5181266069412231f, -0.03674497455358505f, 0.042522918432950974f, 0.18958665430545807f, -0.1303887814283371f, -0.30050113797187805f, -0.2036556750535965f, 0.09365004301071167f, -0.12869054079055786f, 0.30370038747787476f, 0.2852765619754791f, 0.267818421125412f, -1.4936689138412476f, 0.18148666620254517f, 0.11082613468170166f, -0.022270940244197845f, -0.7500724196434021f, 0.02751292660832405f, -0.472557008266449f, 0.15367282927036285f, 0.2615540623664856f, -0.9365816712379456f, -0.0944635272026062f, 0.14169375598430634f, -0.4235433340072632f, 0.09399016201496124f, -0.055511511862277985f, 0.10757476836442947f, 0.4452894628047943f, -0.1752101331949234f, -0.20158496499061584f, 0.04599199444055557f, -0.03310602158308029f, -0.32721978425979614f, 0.058656562119722366f, 0.07633541524410248f, -0.20537470281124115f, -0.1421528160572052f, 0.5432150959968567f, 0.265534907579422f, -0.2107824683189392f, 0.28104013204574585f, -0.05406685918569565f, -0.01505446806550026f, -0.6410923600196838f, 0.008225413039326668f, 0.26213502883911133f, 0.582193911075592f, 0.18114036321640015f, -0.11438912898302078f, 0.22188694775104523f, 0.2857779860496521f, -0.31424739956855774f, 0.3721405267715454f, -0.3346116244792938f, -0.03891356289386749f, -0.4650934040546417f, 0.11698925495147705f, 0.03269851580262184f, 0.3963887095451355f, 0.48874080181121826f, 0.026613229885697365f, -0.35584425926208496f, 0.10990466922521591f, -0.3690648376941681f, -0.5967780947685242f, -0.3273008167743683f, 0.19428886473178864f, 0.6002992987632751f, -0.2592913508415222f, -0.16390812397003174f, 0.362155944108963f, -0.7078073024749756f, 0.1702899932861328f, -0.002292538760229945f, -0.30062371492385864f, -0.31290408968925476f, 0.0029305522330105305f, -0.00210960884578526f, -0.5846686363220215f, -0.30123141407966614f, -0.3395794630050659f, 0.3119140565395355f, -0.004939605016261339f, -0.12150778621435165f, -2.7782025426859036e-05f, -0.47142940759658813f, -0.035083599388599396f, 0.24002496898174286f, 0.4475712180137634f, -0.044035766273736954f, 0.07923728972673416f, 0.2207537740468979f, -0.11212591826915741f, -0.17909519374370575f, -0.27212175726890564f, 0.26113027334213257f, -0.9526147246360779f, 0.023448361083865166f, 0.26721376180648804f, -0.007159658707678318f, 0.5747730135917664f, -0.615874171257019f, -0.28680041432380676f, -0.6517816781997681f, 0.26861247420310974f, -0.13614915311336517f, 0.009157228283584118f, -0.11597257852554321f, 0.033680710941553116f, -0.08394619822502136f, -0.3497421443462372f, -0.06635879725217819f, -0.09769275784492493f, -0.06251257658004761f, -0.5931937098503113f, -0.019305957481265068f, -0.13936008512973785f, 0.6738601922988892f, 0.06890739500522614f, -0.4267652630805969f, 0.5329083800315857f, 0.25641363859176636f, 0.3729465901851654f, 0.021007876843214035f, -0.32972070574760437f, -0.41780489683151245f, -0.1053018718957901f, -0.5920193791389465f, 0.03048662655055523f, 0.2520761489868164f, -0.2532627582550049f, 0.2211458683013916f, 0.022753585129976273f, 0.4301200807094574f, -0.7000508904457092f, -0.704035222530365f, 0.25573042035102844f, -0.0635301023721695f, 0.2790082097053528f, -0.3330391049385071f, -0.8102173209190369f, 0.07375368475914001f, 0.15852180123329163f, -0.42546695470809937f, -0.05309018865227699f, -0.6352859735488892f, -0.10174944996833801f, 0.3139876127243042f, -0.30221277475357056f, -0.11514955013990402f, -0.055995259433984756f, 0.023726297542452812f, 0.012990288436412811f, -0.22334899008274078f, 0.12871329486370087f, -0.39305800199508667f, -0.05718689411878586f, 0.4952317476272583f, 0.5669866800308228f, 0.008184469304978848f, -0.01542806439101696f, 0.733801007270813f, 0.02640778012573719f, -0.5269618630409241f, -0.35263508558273315f, 0.02211952582001686f, 0.18481628596782684f, -0.0854351669549942f, 0.43580201268196106f, -0.05992783233523369f, -0.0714191347360611f, 0.32096266746520996f, -0.06733362376689911f, 0.2511065900325775f, -0.2656736671924591f, -0.1839832067489624f, 0.3397258222103119f, -0.24763624370098114f, -0.09133156388998032f, -1.0927035808563232f, 0.050653085112571716f, -0.40865546464920044f, -0.02027151547372341f, 0.0370078980922699f, -0.2286624014377594f, 0.040429968386888504f, -0.255543977022171f, -0.5132176876068115f, -0.5058353543281555f, -0.00140945625025779f, 0.5718092322349548f, 0.3058986961841583f, -0.37874165177345276f, 0.1585816740989685f, -0.4361080825328827f, -0.004782394506037235f, 0.4396922290325165f, 0.38161590695381165f, 0.7644054293632507f, -0.2385571151971817f, 0.2576460540294647f, -0.6481852531433105f, -0.574270486831665f, -0.35679101943969727f, -0.009790639393031597f, -0.13405214250087738f, 0.12454837560653687f, 0.017980100587010384f, -0.6427485942840576f, -0.024743078276515007f, -0.13485300540924072f, 0.21343554556369781f, -0.1719202697277069f, -0.14724992215633392f, 0.5115060210227966f, -0.7275392413139343f, -0.3352295756340027f, 0.42327335476875305f, 0.6191684007644653f, -0.3229560852050781f, -0.06390281021595001f, -0.35037627816200256f, 0.16182519495487213f, 0.3735893666744232f, -0.02941182814538479f, 0.07036799192428589f, -0.14368267357349396f, -0.38359248638153076f, -0.09217262268066406f, 0.07049304246902466f, -0.245602548122406f, -0.10779689997434616f, -0.019325533881783485f, -0.6520970463752747f, -0.12668119370937347f, -0.03558587282896042f, -0.7541502714157104f, -0.31728070974349976f, -0.23735004663467407f, -0.19733132421970367f, 0.7235471606254578f, 0.10460694879293442f, -0.4920545220375061f, -0.03933914750814438f, 0.9095214009284973f, -0.3773922622203827f, 0.007922753691673279f, -0.01740068756043911f, 0.28401100635528564f, -0.11736071109771729f, 0.2242274433374405f, -0.05125965178012848f, -0.04556860029697418f, 0.18940643966197968f, -0.5426894426345825f, -0.09326569736003876f, 0.32334986329078674f, -0.41296011209487915f, -0.2619607448577881f, -0.34052804112434387f, 0.09893034398555756f, -0.3095412254333496f, 0.1120714545249939f, -0.18314406275749207f, 0.06795778125524521f, 0.029348887503147125f, -0.018825415521860123f, 0.910871148109436f, -0.7527528405189514f, -0.3985827565193176f, 0.02870091050863266f, -0.5536667704582214f, 0.09199368208646774f, -0.12410768121480942f, -0.5539119243621826f, 0.303917795419693f, 0.0914754644036293f, 0.2330338954925537f, -0.34449732303619385f, -0.05739559605717659f, -0.17469792068004608f, -0.17060278356075287f, 0.4474778175354004f, -0.08418615907430649f, -0.2265729010105133f, -0.07930710166692734f, -0.5976205468177795f, -0.13417494297027588f, -0.4682239294052124f, 0.5343436002731323f, -0.4987800419330597f, -0.03655463084578514f, -0.6071359515190125f, -0.03425133228302002f, 0.37066277861595154f, -0.03702784702181816f, -0.009829183109104633f, -0.4808970093727112f, 0.03474854305386543f, -0.7998161315917969f, -0.04885704815387726f, -0.19679167866706848f, -0.41458410024642944f, 0.24978391826152802f, 0.11316663026809692f, 0.15867368876934052f, 0.39711257815361023f, -0.34567025303840637f, -0.5315123200416565f, -0.036407314240932465f, -0.6480494141578674f, 0.23458673059940338f, 0.3968944847583771f, 0.020499566569924355f, -0.05241569131612778f, -0.3474878668785095f, 0.8691254258155823f, -0.6703407168388367f, 0.16327689588069916f, 0.01406171079725027f, -0.1860818713903427f, -0.16847196221351624f, -1.058712363243103f, 0.12775680422782898f, 0.008278951048851013f, 0.37929055094718933f, -0.21674463152885437f };
alignas(16) float conv2d_2_BIAS[] = { 1.9867479801177979f, -0.015929806977510452f, 0.5003481507301331f, 0.25754836201667786f, 1.0267014503479004f, 4.6813130378723145f, 2.0359184741973877f, -0.27916938066482544f, 1.4223649501800537f, -0.862564206123352f, -0.6795578598976135f, -1.0305390357971191f, -1.3915704488754272f, -0.8710253238677979f, 3.7609293460845947f, -0.49584129452705383f, 4.580324649810791f, 0.09940353035926819f, -0.5465646982192993f, 1.73082435131073f, 1.967363715171814f, 5.722318172454834f, -1.6525334119796753f, 0.23588749766349792f };
alignas(16) float separable_conv2d_3_depthwise_WEIGHTS[] = { 0.8820936679840088f, 0.53094482421875f, -1.6829336881637573f, 2.302701234817505f, -1.076891303062439f, -1.0872857570648193f, -0.02807438001036644f, -1.0743560791015625f, 1.6366474628448486f, -0.27924513816833496f, 1.9165202379226685f, 2.123831033706665f, 1.4669034481048584f, -0.36729103326797485f, 2.3547565937042236f, -1.419236660003662f, 1.0890783071517944f, -2.9077274799346924f, 1.7796512842178345f, -0.9585658311843872f, -1.5900222063064575f, -0.5065492391586304f, -1.9866197109222412f, 1.9216676950454712f, 1.707222580909729f, 1.6513347625732422f, -1.379616141319275f, -1.3996838331222534f, 1.0799309015274048f, -2.2387380599975586f, 0.948634147644043f, -1.6207079887390137f, 0.9592247605323792f, 0.5134791135787964f, 1.1778106689453125f, 0.44904208183288574f, -0.011529953218996525f, -1.7229866981506348f, 0.17944584786891937f, -0.8603318333625793f, 0.7358628511428833f, -0.2791041433811188f, -0.8162978887557983f, 0.44901973009109497f, -1.2827850580215454f, -0.33991703391075134f, -0.5107196569442749f, -2.562563180923462f, -0.006770686712116003f, -0.07562948763370514f, 1.2973511219024658f, 1.6176217794418335f, -0.5615549087524414f, -1.8208003044128418f, -0.4770313799381256f, -1.703236699104309f, -0.3416638672351837f, -2.4521708488464355f, -0.15147845447063446f, -1.179450511932373f, 0.18642427027225494f, 1.4297077655792236f, 0.7891709208488464f, 0.8172457218170166f, 0.9856128692626953f, 0.8959488272666931f, 2.0998971462249756f, -1.6952451467514038f, 1.5698764324188232f, -0.34737932682037354f, 0.12359412759542465f, -0.1826784610748291f, 2.182572364807129f, 1.7975894212722778f, 1.2129637002944946f, -0.47224876284599304f, 2.0917069911956787f, 0.39346596598625183f, 0.387574702501297f, -0.6529366374015808f, -0.7414646744728088f, -1.8082642555236816f, -0.029007192701101303f, -1.3180605173110962f, -1.319890022277832f, 1.2585645914077759f, 0.17388269305229187f, -1.2000112533569336f, -2.597705125808716f, 0.8476716876029968f, 0.8660793900489807f, 1.602912187576294f, -0.7423710823059082f, -0.20307156443595886f, 0.38340309262275696f, -1.8088595867156982f, 1.810369610786438f, 0.7812895774841309f, -0.1684359461069107f, 2.566699981689453f, -1.4424482583999634f, -1.3509224653244019f, 0.018383504822850227f, -1.2562317848205566f, 0.8329695463180542f, -0.54460608959198f, 2.798762559890747f, -0.26786231994628906f, 1.067003846168518f, -0.22618097066879272f, -0.8678759932518005f, -1.8692535161972046f, -0.2316453605890274f, -0.5613086819648743f, -0.12090031057596207f, -2.487337827682495f, -2.0392613410949707f, -0.2658635377883911f, -0.5948166251182556f, 1.2504857778549194f, -0.6955111026763916f, 0.6065195202827454f, -2.433835029602051f, -1.1796367168426514f, 1.6615580320358276f, -1.6972135305404663f, -0.7582158446311951f, -0.2960832417011261f, 0.5314527750015259f, 2.0257742404937744f, 1.1791647672653198f, 1.4960037469863892f, -1.3074475526809692f, -1.4566291570663452f, 0.9283090233802795f, 0.30936169624328613f, -0.536952793598175f, -0.6071553230285645f, -1.9759540557861328f, -0.12018246203660965f, -0.8710802793502808f, -0.639100193977356f, -2.895493507385254f, -0.575567901134491f, 0.19805721938610077f, -1.0536247491836548f, 2.5028419494628906f, 0.14486059546470642f, 1.0112172365188599f, -3.05111026763916f, -1.5521838665008545f, 0.6830549836158752f, -2.1777329444885254f, -2.0441648960113525f, -0.8115312457084656f, 0.7298150658607483f, 0.4714827835559845f, 0.9388368725776672f, -0.9249035120010376f, 0.8564618825912476f, 1.8155643939971924f, 1.4746803045272827f, -0.4649565517902374f, -1.112954020500183f, 1.339682698249817f, 0.09611072391271591f, 1.2382595539093018f, -0.5764018893241882f, 1.1194283962249756f, 2.861656904220581f, 0.7189404368400574f, 0.9927972555160522f, 0.0472102165222168f, -0.7404954433441162f, 0.39929649233818054f, -2.391777753829956f, -0.07841082662343979f, -2.426283121109009f, -1.3913143873214722f, -1.3473198413848877f, -3.244300127029419f, 0.3608390688896179f, -0.4195077419281006f, -1.9761618375778198f, -2.3313446044921875f, 0.89920973777771f, 0.9540968537330627f, 0.16960181295871735f, 0.673652172088623f, 1.6501530408859253f, 1.8732154369354248f, -1.5081605911254883f, -0.6559374928474426f, 1.3757543563842773f, 1.9622118473052979f, 0.5003367066383362f, -0.701972484588623f, -1.1700078248977661f, 1.4043720960617065f, -0.804587185382843f, -1.004974603652954f, -1.3770073652267456f, 1.8382408618927002f, -0.07271430641412735f, 0.26138836145401f, 0.4652482867240906f, 0.20712386071681976f, -0.7506100535392761f, -1.0673218965530396f, 0.12124044448137283f, -1.2620701789855957f, -1.6723650693893433f, -2.2105257511138916f, 0.007543295156210661f, 1.1644798517227173f, -1.6646806001663208f, -1.3288860321044922f, -0.6996771693229675f, -2.0115346908569336f, -1.2823046445846558f, 1.0223841667175293f, -0.20216280221939087f, -2.6290316581726074f, 0.7299014329910278f, -1.2263658046722412f, -0.9486691951751709f, 1.6438103914260864f, 1.9339350461959839f, 1.0126854181289673f, -1.5277745723724365f, 1.0002282857894897f, -0.30772483348846436f, -1.5774672031402588f, 0.4421226978302002f, -0.6249957084655762f, 1.8528343439102173f, -0.8112440705299377f, -2.111997127532959f, -1.1712291240692139f, -0.9953261613845825f, -0.8156222701072693f, -1.9116771221160889f, 1.8382493257522583f, -0.6930340528488159f, -0.27286964654922485f, -1.6608718633651733f, 0.4526821970939636f, 1.200181007385254f, -0.8184096217155457f, -0.7921193242073059f, -0.2050451785326004f, 1.3111902475357056f, 2.359804153442383f, 0.5093333721160889f, -1.9176470041275024f, 0.20936116576194763f, 0.9646626710891724f, -0.014158627018332481f, -1.0483813285827637f, 0.07889532297849655f, 0.17181476950645447f, -0.2244599461555481f, 2.5462536811828613f, -0.4313402771949768f, 0.06481633335351944f, 0.7380437254905701f, -0.5670248866081238f, 2.4389383792877197f, -1.9086514711380005f, -2.1742639541625977f, 0.47593405842781067f, -1.982986330986023f, -0.14078949391841888f, 0.5975835919380188f, -1.3301728963851929f, -1.3922412395477295f, -1.3454821109771729f, -1.6591594219207764f, -0.44142404198646545f, -1.951924204826355f, -1.8533135652542114f, -0.5038845539093018f, 0.0020843972451984882f, -2.3624205589294434f, 1.1170382499694824f, 2.3964648246765137f, 0.8485451340675354f, -1.081782341003418f, 1.1350630521774292f, 0.18364453315734863f, 0.17954957485198975f, 0.2299293875694275f, -1.0126099586486816f, 0.29962509870529175f, -2.152340888977051f, -1.2870672941207886f, -1.4017462730407715f, 0.9269433617591858f, 0.2659771144390106f, 1.9607340097427368f, -1.6723679304122925f, 0.41651782393455505f, 0.4503038227558136f, -1.33322012424469f, 0.9896812438964844f, -0.009629910811781883f, 2.2956416606903076f, -0.6732632517814636f, -0.7658127546310425f, -1.8202184438705444f, -1.4026775360107422f, 0.12809184193611145f, 1.2336909770965576f, 1.69328773021698f, -0.878078043460846f, 0.7102775573730469f, 1.5623027086257935f, -1.0774734020233154f, 2.260843276977539f, -0.04821540787816048f, 0.8182656168937683f, 0.22988735139369965f, 1.9323663711547852f, 0.42899537086486816f, 0.6412145495414734f, 0.46072348952293396f, -0.47117310762405396f, -1.7290515899658203f, 1.2740217447280884f, 0.10700016468763351f, -1.0811922550201416f, -1.338913917541504f, -1.8563861846923828f, 0.4476802945137024f, 0.3589959740638733f, -0.16152842342853546f, 1.8777397871017456f, 0.4257449507713318f, -0.061917174607515335f, 1.171429991722107f, -1.8639726638793945f, 0.09475315362215042f, -0.5890036225318909f, -1.1854870319366455f, 0.31656908988952637f, -0.6246978044509888f, -1.491498351097107f, -1.6297880411148071f, 0.9451770782470703f, 1.9958173036575317f, 2.564438581466675f, -0.026785939931869507f, -0.460317999124527f, 1.4457502365112305f, -0.7151658535003662f, -1.4653434753417969f, 0.8661956787109375f, 0.036008793860673904f, -1.6676186323165894f, -1.5106912851333618f, 0.7848533391952515f, 0.5039953589439392f, 2.4441025257110596f, -0.9791067838668823f, 1.5123499631881714f, -1.3990153074264526f, 1.337127685546875f, 0.5566677451133728f, -1.9199720621109009f, -2.0101325511932373f, 1.2763930559158325f, 0.6931033134460449f, -1.6027237176895142f, 0.7166891098022461f, -0.017860503867268562f, -1.0207829475402832f, -1.0772262811660767f, 1.1894125938415527f, -1.3381794691085815f, -0.025233333930373192f, -2.286257266998291f, 0.8397583961486816f, -0.253019779920578f, -1.2637947797775269f, 2.606199026107788f, 1.3129299879074097f, 1.012597680091858f, 0.08355942368507385f, -2.0204200744628906f, -0.8063666224479675f, -2.6257433891296387f, 0.7533422708511353f, -1.1762665510177612f, 0.3879348635673523f, 1.5516303777694702f, -0.4239639937877655f, -0.40495967864990234f, 2.003305196762085f, -1.1342144012451172f, -1.3062397241592407f, 0.5587218999862671f, 0.35328370332717896f, -0.03909246623516083f, -2.5385019779205322f, -0.295693039894104f, -1.807687759399414f, 0.14399057626724243f, 1.2080740928649902f, -0.7830209136009216f, 0.6921460628509521f, -0.5819633603096008f, -0.4292369484901428f, 1.8022820949554443f, -0.5454409122467041f, 0.34000930190086365f, 1.0046099424362183f, -0.5612832903862f, -0.17461556196212769f, 2.632789134979248f, -0.4818078875541687f, 0.2906688153743744f, 0.9019179344177246f, 1.2241168022155762f, 0.04050343483686447f, -1.5858733654022217f, -0.6011340022087097f, -0.09508933126926422f, -0.5491190552711487f, -1.5786586999893188f, 1.5993132591247559f, -1.2580991983413696f, -0.11816269159317017f, 1.9905405044555664f, 0.572184145450592f, 1.2181580066680908f, -0.524888813495636f, 0.05224437639117241f, 0.20484673976898193f, -2.3345346450805664f, 1.0960668325424194f, 1.3245145082473755f, -0.7940474152565002f, -0.6194460988044739f, 0.812110424041748f, -1.3331584930419922f, 0.9653863906860352f, -0.5043249726295471f, -0.2784205675125122f, 0.5511319637298584f, 0.9177830815315247f, -1.1909067630767822f, 0.8382583260536194f, -1.1931504011154175f, 0.5548458099365234f, -0.19344200193881989f, -1.9250284433364868f, 0.1856837421655655f, 1.5669571161270142f, 1.0632219314575195f, 0.3382391631603241f, 0.11228001862764359f, 1.6508126258850098f, 1.560605525970459f, -1.4904230833053589f, -1.1510109901428223f, -0.4137589931488037f, -1.770140528678894f, 0.8803800940513611f, -1.7262470722198486f, -0.3485832214355469f, -1.4577497243881226f, -1.4724096059799194f, -1.456701397895813f, 2.445662260055542f, -0.5550910234451294f, -0.5374670028686523f, -1.1916240453720093f, 2.836016893386841f, 0.6839368343353271f, 0.8671106100082397f, 0.22840693593025208f, 1.454487919807434f, 1.255416989326477f, -0.37175679206848145f, -1.1213099956512451f, -1.1172051429748535f, 0.47105172276496887f, 1.0179353952407837f, -1.611653208732605f, 0.11428514868021011f, 1.4349902868270874f, -1.0950819253921509f, 0.8498707413673401f, 0.8865600824356079f, 0.08680728822946548f, 0.7361381649971008f, 1.278171420097351f, 0.2554705739021301f, -1.855304479598999f, -0.9746260643005371f, -0.35725298523902893f, -0.7012811899185181f, 2.4523205757141113f, 0.03892827406525612f, -0.37388572096824646f, -0.040270447731018066f, 0.30155375599861145f, -0.7040131688117981f, 0.611327052116394f, 1.5799745321273804f, -1.6587527990341187f, 0.45730578899383545f, -1.793527364730835f, -0.11333490908145905f, 1.3975275754928589f, 0.6766204833984375f, 2.119145393371582f, -0.37835267186164856f, 2.004513740539551f, -0.13144759833812714f, -1.306701421737671f, 0.09512488543987274f, -0.041619591414928436f, 1.094768762588501f, -0.8587972521781921f, -0.11951659619808197f, -0.17685262858867645f, 0.36192557215690613f, 1.863241195678711f, -1.8548896312713623f, 0.14307062327861786f, -0.8254143595695496f, 0.17775556445121765f, 0.7709356546401978f, -0.07329320907592773f, 2.091804027557373f, 1.5310778617858887f, -1.130833387374878f, 0.3053244650363922f, 2.119053602218628f, 1.0018210411071777f, -0.33572453260421753f, -0.6115642786026001f, -2.1808252334594727f, 0.6622573733329773f, -0.06822600215673447f, 0.24121981859207153f, 1.658626914024353f, -0.8360498547554016f, 1.6839178800582886f, 1.8751063346862793f, -0.20916761457920074f, -0.003438166808336973f, -0.4826565086841583f, 0.2546595335006714f, 0.3603602647781372f, -1.1967428922653198f, 0.531273365020752f, 1.0478323698043823f, -0.45489558577537537f, -0.6497300863265991f, 1.3981189727783203f, -1.3422681093215942f, -0.31895655393600464f, -0.9635095596313477f, -1.8599607944488525f, -1.7512320280075073f, -2.0926265716552734f, -1.526769757270813f, 0.5920342803001404f, 0.8577097058296204f, -0.9372589588165283f, 0.412886381149292f, 1.484452247619629f, 0.1620618849992752f, 1.788900375366211f, 1.2727075815200806f, 0.8685636520385742f, -0.8752984404563904f, -2.335258722305298f, -0.2948130667209625f, 1.554349660873413f, -1.8673930168151855f, -1.642377495765686f, -0.19671782851219177f, 1.6206485033035278f, 0.35365766286849976f, 0.5116280913352966f, -2.292146682739258f, 0.03147906810045242f, -0.17242035269737244f, 0.7214468717575073f, -0.45249098539352417f, 2.2877867221832275f, 1.7100934982299805f, -0.2765487730503082f, 1.4992599487304688f, -1.6132303476333618f, -1.4155819416046143f, -1.2156810760498047f, -0.3418872058391571f, 0.8404495120048523f, 1.066628336906433f, 2.5649337768554688f, 0.24255655705928802f, -0.08442126214504242f, 2.18003249168396f, 0.8957948088645935f, 0.8369065523147583f, -0.41556206345558167f, 1.4526376724243164f, -0.43700355291366577f, -1.2424393892288208f, 2.1859331130981445f, -1.8192518949508667f, -2.104008197784424f, 0.7225146293640137f, 1.7033929824829102f, 0.8586059212684631f, -3.3122968673706055f, -1.5640490055084229f, 0.6098838448524475f, 1.1823046207427979f, -0.1673785299062729f, 0.5655544400215149f, -0.5354511141777039f, -0.02298545278608799f, -1.9132435321807861f, -1.9139233827590942f, 1.9066215753555298f, -0.9556676745414734f, -0.3176305294036865f, 0.3987429141998291f, 1.294549584388733f, -2.2177772521972656f, -0.8318626880645752f, 0.28140610456466675f, -1.8247214555740356f, 1.4605454206466675f, 1.9521024227142334f, -2.924494743347168f, -0.6828116774559021f, -0.13894186913967133f, 0.1218937486410141f, 1.3258569240570068f, 1.0135183334350586f, -2.405010938644409f, -0.5446426272392273f, -0.8912087678909302f, -1.304428219795227f, 2.779836416244507f, 0.7356223464012146f, 0.21174773573875427f, 0.16274075210094452f, 1.6171432733535767f, 0.5289360284805298f, -2.8156492710113525f, -0.6132702231407166f, 2.1391007900238037f, 1.660899043083191f, -0.33872467279434204f, 1.406029462814331f, 1.2339386940002441f, -1.8867042064666748f, -0.765669047832489f, -0.473613440990448f, -2.0579867362976074f, 0.5391225218772888f, -0.751091718673706f, 0.8385976552963257f, -1.387700080871582f, -0.12916459143161774f, 1.114245891571045f, 1.8933204412460327f, -0.585058331489563f, -1.5669138431549072f, 0.06024378165602684f, 0.3088247776031494f, -1.6278297901153564f, -0.6260444521903992f, -0.6087620258331299f, 2.298553228378296f, 0.7056174874305725f, 0.5595515966415405f, 0.3632630407810211f, 2.3192055225372314f, -0.7411351203918457f, 2.198385238647461f, 1.907206416130066f, 0.858018159866333f, 0.020105700939893723f, -0.3407129645347595f, 2.2918143272399902f, -2.0002787113189697f, 0.8775155544281006f, -0.3147769570350647f, -0.2952050566673279f, 1.049108862876892f, 2.4050073623657227f, 1.4789730310440063f, 1.0051926374435425f, 1.5726704597473145f, 1.0123010873794556f, 0.09063383936882019f, 0.016999393701553345f, -0.95970219373703f, 1.4328315258026123f, -1.5251858234405518f, -0.3800189793109894f, 2.4261419773101807f, -0.7546926736831665f, -0.6513001322746277f, -1.1303422451019287f, -1.1575305461883545f, 1.6569974422454834f, -2.1214730739593506f, -1.8682337999343872f, 0.027912739664316177f, 1.6207988262176514f, 1.4126523733139038f, 0.810361921787262f, 2.334416389465332f, 1.332067608833313f, -1.267937421798706f, -0.5488758683204651f, 1.3073261976242065f, -0.24856048822402954f, 0.4723232090473175f, 0.0702991858124733f, 2.0668420791625977f, -2.5998432636260986f, 1.3622101545333862f, -1.0010406970977783f, -1.7115834951400757f, 0.3212939500808716f, 0.007078135386109352f, -2.3685414791107178f, -0.05825701728463173f, 0.6454862356185913f, 1.778375267982483f, -1.487811803817749f, 0.3041797876358032f, -1.3990631103515625f, -2.0475707054138184f, -2.0446817874908447f, -0.14803361892700195f, 1.4895864725112915f, -1.0056486129760742f, -1.1288236379623413f, 0.26258328557014465f, 1.4108481407165527f, 1.607998251914978f, -2.1828420162200928f, 1.5103156566619873f, -0.2830471396446228f, 1.4454472064971924f, 0.8097823858261108f, -0.989984393119812f, 2.6071417331695557f, -0.46889200806617737f, -0.08462551981210709f, 1.1388452053070068f, -1.406591773033142f, -0.5830629467964172f, -0.6840935945510864f, 1.0892961025238037f, -1.3922916650772095f, 1.2226941585540771f, 0.043462999165058136f, 1.999577283859253f, 0.15276072919368744f, -0.7284447550773621f, 2.174070119857788f, -1.9312844276428223f, -0.6115134954452515f, -0.12012441456317902f, 0.3592813313007355f, 1.6277804374694824f, 0.9804202914237976f, -1.426262378692627f, 1.0630451440811157f, 2.0778846740722656f, 1.481001615524292f, 2.417539596557617f, 1.6605677604675293f, -0.02544417977333069f, -1.9380381107330322f, 0.3089047372341156f, 1.2200533151626587f, -0.3176719546318054f, 2.6007003784179688f, 1.2187230587005615f, 0.5649126768112183f, 0.3336995244026184f, 1.9524410963058472f, -0.27750036120414734f, 0.5935522317886353f, 2.06368350982666f, 0.1137537881731987f, -1.145802617073059f, -1.2693990468978882f, 0.9705025553703308f, 1.1132354736328125f, -1.97133469581604f, -0.9753470420837402f, 1.4812780618667603f, 1.3926234245300293f, -0.5204119086265564f, -1.3759829998016357f, 0.6817766427993774f, 2.0403342247009277f, 0.5645431876182556f, -1.3570374250411987f, -0.6607590913772583f, 1.1996192932128906f, 1.858697772026062f, 1.3712191581726074f, 0.7620773911476135f, 0.0560380183160305f, -0.5678714513778687f, -0.07786092162132263f, 1.8574345111846924f, 0.15307052433490753f, -0.027719855308532715f, 0.5567023754119873f, 1.1239620447158813f, -0.6273338198661804f, 1.6345335245132446f, -0.17624199390411377f, -2.614010810852051f, 0.024764690548181534f, -1.1733155250549316f, -0.08268316090106964f, 0.1256992369890213f, 1.4652900695800781f, 2.3842859268188477f, -1.421410083770752f, 1.6936473846435547f, -0.11075776815414429f, -0.19327853620052338f, 1.2184655666351318f, -1.252445101737976f, -0.006370958872139454f, -1.3116912841796875f, -0.24998359382152557f, -0.1550574004650116f, 1.0446841716766357f, 1.766931176185608f, -1.7271244525909424f, 1.6349376440048218f, -0.1531943529844284f, 0.3462591767311096f, 1.1689870357513428f, -2.6879842281341553f, 1.7349797487258911f, -1.0792757272720337f, 1.0571972131729126f, 2.348937749862671f, 1.395540475845337f, -0.18127253651618958f, 1.3970082998275757f, 0.40336358547210693f, -1.8454622030258179f, 1.0291341543197632f };
alignas(16) float separable_conv2d_3_WEIGHTS[] = { -0.04428678750991821f, -0.021099219098687172f, -0.03143179044127464f, -0.04708916321396828f, -0.023116394877433777f, 0.005525145214051008f, -0.05093831196427345f, -0.02439436875283718f, 0.06759972870349884f, 0.03896937146782875f, 0.02526252530515194f, -0.025979390367865562f, -0.010994668118655682f, 0.02758442610502243f, 0.0005530829075723886f, 0.04231569543480873f, 0.010731896385550499f, -0.006664531771093607f, 0.020473632961511612f, 0.017479758709669113f, 0.007538118865340948f, 0.048405759036540985f, -0.03607224300503731f, -0.01883198320865631f, -0.06561904400587082f, -0.028440356254577637f, 0.014438343234360218f, -0.037156954407691956f, -0.030358625575900078f, 0.024362189695239067f, -0.024417906999588013f, -0.012740476056933403f, 0.05544336140155792f, 0.007637714967131615f, 0.004622022155672312f, -0.03620464354753494f, -0.00031122390646487474f, 0.02662103995680809f, -0.025752447545528412f, 0.03334834799170494f, -0.0213839840143919f, -0.040718868374824524f, 0.0033125190529972315f, -0.012963390909135342f, 0.009296560660004616f, 0.05773261561989784f, -0.003972291946411133f, -0.013235841877758503f, -0.021521346643567085f, -0.0010620468528941274f, 0.051316287368535995f, -0.002826416166499257f, 0.0273759663105011f, 0.0038695475086569786f, -0.02905394323170185f, -0.023518456146121025f, 0.04246869683265686f, -0.010691349394619465f, 0.01564815267920494f, -0.07834914326667786f, 0.02892475202679634f, 0.004828956443816423f, -0.03258563205599785f, -0.001541133620776236f, 0.010190234519541264f, -0.05131380632519722f, -0.026282258331775665f, -0.005475670099258423f, -0.008296607993543148f, 0.004394947085529566f, 0.00025771549553610384f, -0.02092086337506771f, -0.005605092737823725f, 0.0370955616235733f, -0.007370780687779188f, 0.0025961236096918583f, -0.013360008597373962f, -0.016779357567429543f, -0.05989557132124901f, -0.008004519157111645f, 0.045218490064144135f, -0.03369225561618805f, 0.07089178264141083f, 0.02019161358475685f, -0.005118312314152718f, 0.02794942632317543f, 0.002052971161901951f, 0.03604115545749664f, -0.014055312611162663f, 0.00786694698035717f, -0.028512466698884964f, 0.037430718541145325f, -0.0499485619366169f, -0.08270850777626038f, 0.010870587080717087f, 0.011286644265055656f, 0.01430693082511425f, 0.04962310940027237f, 0.0024031142238527536f, -0.021171599626541138f, 0.008975783362984657f, -0.058945633471012115f, -0.015869345515966415f, -0.011525202542543411f, -0.0006563814822584391f, 0.040962014347314835f, -0.025573160499334335f, 0.008852203376591206f, -0.04060224071145058f, 0.009671061299741268f, -0.021176915615797043f, 0.05471029505133629f, 0.0214944276958704f, -0.00511673791334033f, 0.0019530697027221322f, 0.0008702233317308128f, 0.015891900286078453f, -0.007260250858962536f, -0.023417983204126358f, 0.045295845717191696f, 0.012448684312403202f, -0.005320209078490734f, 0.025705283507704735f, -0.06267378479242325f, 0.023892948403954506f, -0.044309891760349274f, -0.024401340633630753f, 0.04417330399155617f, -0.031120041385293007f, -0.010566162876784801f, -0.030954865738749504f, 0.020064102485775948f, -0.004647745285183191f, 0.011288626119494438f, -0.00828884169459343f, 0.050818268209695816f, 0.047294847667217255f, 0.026381254196166992f, 0.016217071563005447f, 0.031166300177574158f, -0.001826704596169293f, -0.015628201887011528f, -0.02200309745967388f, -0.005176779348403215f, -0.012406454421579838f, 0.02242920733988285f, -5.822831008117646e-05f, 0.02682783268392086f, 0.03816579654812813f, -0.016946442425251007f, -0.003990194760262966f, -0.048687856644392014f, -0.04369000717997551f, -0.006490490864962339f, 0.022881299257278442f, -0.05273658409714699f, -0.016289327293634415f, -0.026847250759601593f, 0.03758208453655243f, 0.06488517671823502f, 0.021665971726179123f, 0.004391625057905912f, 0.01482392381876707f, 0.03431089594960213f, -0.018869590014219284f, -0.005726187955588102f, -0.04706133157014847f, 0.09208796173334122f, -0.003151989309117198f, 0.0332268550992012f, 0.013270658440887928f, -0.03250839188694954f, 0.0017470893217250705f, -0.028633348643779755f, 0.009401466697454453f, -0.020230872556567192f, 0.032573189586400986f, -0.008852600120007992f, 0.030215006321668625f, 0.003960816189646721f, -0.0029131677001714706f, 0.006289426703006029f, -0.004641364794224501f, 0.008880242705345154f, -0.0054804980754852295f, 0.050200868397951126f, -0.012961585074663162f, 0.032622307538986206f, -0.017774859443306923f, -0.018267208710312843f, 0.037550538778305054f, 0.08584608137607574f, 0.004823743365705013f, -0.00012355411308817565f, 0.03338971734046936f, -0.010768844746053219f, -0.08367787301540375f, -0.001881214790046215f, 0.009965825825929642f, -0.007374966517090797f, 0.011170938611030579f, 0.00864272378385067f, 0.00642748037353158f, -0.02622181549668312f, -0.03705042228102684f, 0.017685988917946815f, 0.02015559747815132f, -0.014555959962308407f, 0.024532297626137733f, 0.007812228985130787f, 0.03064115345478058f, 0.000703534868080169f, -0.005737665109336376f, 0.020755641162395477f, 0.029574722051620483f, 0.06757931411266327f, 0.03160782903432846f, -0.020168570801615715f, -0.0335017554461956f, 0.05429458245635033f, 0.023851584643125534f, 0.010415849275887012f, -0.04390188306570053f, -0.021747518330812454f, 0.014515203423798084f, -0.009366448037326336f, -0.051081784069538116f, -0.008863885886967182f, 0.054822877049446106f, -0.0432867705821991f, -0.011621353216469288f, 0.028849532827734947f, 0.018557047471404076f, 0.007656061556190252f, -0.0004099321668036282f, -0.018266431987285614f, 0.016387315467000008f, -0.0529518760740757f, 0.016948899254202843f, -0.017743686214089394f, 0.03789087384939194f, -0.0008643683977425098f, -0.024429021403193474f, 0.06503313034772873f, 0.011944408528506756f, 0.010554742999374866f, -0.021132072433829308f, -0.011120212264358997f, -0.059710852801799774f, -0.019806528463959694f, 0.016214461997151375f, -0.007888714782893658f, 0.04712189361453056f, -0.05622405931353569f, -0.021119294688105583f, 0.03469013795256615f, 0.0005419921944849193f, -0.008294915780425072f, -0.013755577616393566f, 0.023175247013568878f, -0.03803772106766701f, 0.03695613145828247f, -0.028538258746266365f, -0.019188255071640015f, 0.018868548795580864f, -0.016396023333072662f, 0.0006275309133343399f, 0.020913613960146904f, -0.004421827383339405f, 0.0006001531146466732f, 0.0010761662852019072f, -0.0010054742451757193f, 0.04350990429520607f, 0.038478873670101166f, 0.013532723300158978f, -0.0379750020802021f, -0.02875271625816822f, -0.0956798568367958f, -0.04124371334910393f, 0.04543256759643555f, 0.00196037907153368f, 0.023397088050842285f, -0.0170559361577034f, -0.017324432730674744f, -0.031156999990344048f, -0.010381276719272137f, -0.01573486253619194f, 0.039305467158555984f, -0.003364630974829197f, 0.016674736514687538f, -0.022060584276914597f, 0.005948017816990614f, 0.008186479099094868f, -0.026575719937682152f, 0.05707234889268875f, 0.032508112490177155f, 0.013252283446490765f, -0.011870215646922588f, 0.002774412278085947f, -0.021631872281432152f, 0.010957205668091774f, 0.0504663810133934f, 0.038464587181806564f, 0.005505135282874107f, -0.016400888562202454f, -0.004288266878575087f, 0.041968222707509995f, -0.004608985502272844f, -0.03809051215648651f, 0.029813284054398537f, -0.08259843289852142f, -0.018274661153554916f, -0.005569146014750004f, -0.03989206999540329f, -0.002383230486884713f, 0.031938012689352036f, -0.03360026329755783f, -0.030099133029580116f, -0.04301975667476654f, -0.0636979192495346f, -0.011929999105632305f, -0.014538656920194626f, 0.005827547516673803f, 0.021938815712928772f, 0.006757349707186222f, 0.02427266165614128f, -0.008882365189492702f, -0.015939293429255486f, 0.06098411977291107f, 0.010199138894677162f, 0.023895371705293655f, -0.02872791886329651f, 0.016050100326538086f, 0.0387733168900013f, -0.03577551245689392f, -0.03270065039396286f, -0.05489882454276085f, -0.029756227508187294f, 0.0460953451693058f, -0.008293471299111843f, -0.005881468765437603f, -0.03407154977321625f, 0.030093679204583168f, 0.01004157867282629f, -0.03338361158967018f, -0.007569739129394293f, -0.0013779917499050498f, 0.021882977336645126f, -0.007081053219735622f, -0.0037961832713335752f, -0.011891700327396393f, 0.024769935756921768f, -0.02092372626066208f, -0.0021580527536571026f, 0.009947806596755981f, -0.026402421295642853f, 0.003242219565436244f, -0.016902007162570953f, -0.03524437174201012f, -0.05171012133359909f, 0.0020493853371590376f, 0.00937439315021038f, -0.00489397905766964f, -0.0506913922727108f, -0.022463439032435417f, -0.11196193844079971f, -0.0304926298558712f, 0.013605783693492413f, 0.044903893023729324f, -0.038797520101070404f, 0.05989265814423561f, 0.0005120921996422112f, 0.0160976629704237f, 0.029047446325421333f, -0.00197809049859643f, 0.027147872373461723f, 0.01958121359348297f, -0.008921686559915543f, -0.016979767009615898f, 0.016385773196816444f, -0.004769304767251015f, 0.02408825047314167f, 0.042999591678380966f, 0.04855702817440033f, 0.005368492100387812f, 0.01256675086915493f, 0.00823215488344431f, -0.03309330716729164f, 0.013466580770909786f, -0.010395475663244724f, 0.003420936642214656f, 0.005877339281141758f, -0.016225222498178482f, -0.015134356915950775f, 0.04473162814974785f, -0.023813674226403236f, 0.011580168269574642f, 0.061208467930555344f, -0.021833252161741257f, -0.047785066068172455f, -0.020955640822649002f, 0.026686517521739006f, -0.018596293404698372f, 0.014794877730309963f, 0.05292521417140961f, 0.028768891468644142f, 0.03315286710858345f, -0.024780821055173874f, 0.002386307343840599f, 0.003121360205113888f, 0.009637863375246525f, -0.019148224964737892f, 0.004027765244245529f, -0.027079859748482704f, 0.0097206961363554f, 0.08789089322090149f, -0.05788053199648857f, -0.031209047883749008f, 0.03782397136092186f, -0.010158718563616276f, 0.0014170213835313916f, -0.04208740219473839f, 0.01921706460416317f, -0.03597215935587883f, -0.022841600701212883f, -0.0022733632940799f, 0.0034710101317614317f, -0.003233016934245825f, 0.0049028764478862286f, 0.012538804672658443f, 0.005902411881834269f, 0.08939237892627716f, 0.052175018936395645f, 0.01735740341246128f, 0.05542612448334694f, 0.029272789135575294f, -0.00695599801838398f, -0.008156614378094673f, 0.03939226642251015f, -0.056920625269412994f, 0.008675165474414825f, -0.04496625065803528f, -0.07150590419769287f, -0.04093528538942337f, 0.0023044245317578316f, 0.01708095148205757f, -0.028924835845828056f, 0.003425988368690014f, 0.012158087454736233f, 0.01964757777750492f, 0.03443023934960365f, 0.023419421166181564f, -0.0059252772480249405f, 0.04128759726881981f, -0.038378771394491196f, 0.024242524057626724f, -0.004078568425029516f, -0.003605206962674856f, 0.007231999188661575f, 0.019795086234807968f, 0.011178730987012386f, 0.028863215819001198f, -0.03798917308449745f, 0.04268869385123253f, 0.0022040933836251497f, -0.048915449529886246f, -0.061375878751277924f, 0.04965429753065109f, 0.011280162259936333f, 0.00672439718618989f, 0.06495095044374466f, 0.0463339202105999f, 0.021984320133924484f, -0.040631361305713654f, 0.004384968895465136f, -0.036726292222738266f, -0.013423658907413483f, -0.015394262038171291f, 0.023984992876648903f, 0.052304353564977646f, -0.017459005117416382f, 0.03064720518887043f, 0.02883179485797882f, 0.026906806975603104f, 0.01234503649175167f, 0.011826465837657452f, -0.0026739740278571844f, -0.03448973968625069f, -0.023338831961154938f, -0.00858820416033268f, 0.03247617557644844f, 0.013116644695401192f, -0.039227891713380814f, -0.018060173839330673f, -0.05004987120628357f, -0.07092270255088806f, -0.028891760855913162f, 0.014179776422679424f, 0.05033295229077339f, 0.03737322613596916f, 0.055604238063097f, -0.02100188098847866f, -0.03372251242399216f, 0.014072603546082973f, 0.0007401081384159625f, 0.043035827577114105f, -0.023377085104584694f, 0.0355951264500618f, -0.04008267819881439f, -0.0050244708545506f, -0.03805152699351311f, -0.0021187830716371536f, -0.05673378333449364f, -0.0020613784436136484f, -0.04806514084339142f, 0.034161586314439774f, 0.006469272077083588f, -0.017420586198568344f, -0.01759624108672142f, -0.056962382048368454f, 0.048735566437244415f, 0.012187947519123554f, -0.009274645708501339f, -0.015141147188842297f, 0.004738474264740944f, -0.03297571837902069f, -0.031251367181539536f, 0.0012862235307693481f, -0.025723064318299294f, -0.03821144998073578f, 0.08106092363595963f, -0.03461330011487007f, 0.0325603261590004f, 0.06404131650924683f, 0.019680434837937355f, -0.005547745618969202f, 0.0057731629349291325f, 0.023637820035219193f, 0.021500447764992714f, -0.018997736275196075f, -0.056376926600933075f, 0.036845769733190536f, -0.04536880552768707f, 0.011100311763584614f, 0.02614421956241131f, 0.01708810217678547f, -0.037988223135471344f, -0.017081202939152718f, -0.014744206331670284f, 0.007838050834834576f, -0.03431881219148636f, 0.004630034789443016f, -0.02229423075914383f, -0.021651912480592728f, -0.06223347783088684f, -0.023875311017036438f, 0.019019560888409615f, -0.03349098563194275f, 0.012150825932621956f, 0.013745848089456558f, 0.045594025403261185f, 0.018121182918548584f, 0.03222379833459854f, -0.04085080698132515f, -0.03157040476799011f, -0.019781941547989845f, 0.012243412435054779f, 0.05145135149359703f, -0.0019916791934520006f, -0.00653648329898715f, -0.029640747234225273f, 0.004494400694966316f, -0.03147368133068085f, 0.01198250986635685f, 0.014771036803722382f, -0.0063699898310005665f, 0.00286443205550313f, -0.00024710895377211273f, 0.02474318817257881f, -0.007534370757639408f, -0.03241800144314766f, -0.007969613187015057f, -0.0032179588451981544f, 0.03649584949016571f, -0.0030909248162060976f, 0.011704383417963982f, 0.024426402524113655f, 0.017608216032385826f, 0.015116975642740726f, -0.06244362145662308f, -0.019642166793346405f, 0.0269259512424469f, -0.04785173386335373f, 0.01602952741086483f, -0.023734943941235542f, 0.019836511462926865f, 0.0020611020736396313f, -0.013797496445477009f, 0.022763371467590332f, -0.02877693623304367f, 0.030573170632123947f, -0.02306293323636055f, -0.011076265014708042f, 0.022112563252449036f, -0.010661597363650799f, -0.010508185252547264f, 0.0007047909894026816f, 0.04696240648627281f, 0.016297467052936554f, -0.00296399206854403f, 0.026818038895726204f, -0.13824604451656342f, -0.008514787070453167f, -0.03747894987463951f, 0.04760827496647835f, -0.0035108064766973257f, -0.027795232832431793f, 0.025991644710302353f, -0.012068506330251694f, 0.00028982883668504655f, -0.010233198292553425f, -0.009598375298082829f, -0.011591949500143528f, -0.014376233331859112f, -0.0011042143451049924f, 0.003659226931631565f, 0.03798342123627663f, -0.02876783348619938f, 0.0574701763689518f, -0.03634368255734444f, 0.007621807977557182f, -0.010782991535961628f, 0.0033830758184194565f, 0.005856500007212162f, -0.016612116247415543f, 0.022381387650966644f, -0.045706119388341904f, -0.024110138416290283f, -0.057074952870607376f, -0.06852607429027557f, -0.07434245198965073f, -0.010197469033300877f, 0.06654659658670425f, -0.06437063962221146f, 0.05608227476477623f, 0.016186174005270004f, 0.04016045853495598f, -0.00616417545825243f, 0.033251989632844925f, 0.008300808258354664f, -0.0071314130909740925f, -0.03974201902747154f, 0.01517025101929903f, 0.02394145540893078f, -0.012177255935966969f, 0.010599811561405659f, -0.0006053464021533728f, 0.0001034448723657988f, -0.0007306922925636172f, -0.03734983503818512f, -0.02630787342786789f, 0.0062510729767382145f, -0.025528069585561752f, -0.01006500143557787f, -0.057160355150699615f, -0.017017481848597527f, 0.031091133132576942f, 0.0020523446146398783f, 0.055450376123189926f, -0.010770900174975395f, 0.07082217186689377f, -0.04797852039337158f, -0.013566034846007824f, 0.015275903046131134f, -0.018286162987351418f, -0.006583353504538536f, -0.06879566609859467f, -0.013615841045975685f, -0.01805105432868004f, 0.04300994798541069f, -0.0311087965965271f, -0.050701748579740524f, 0.004740796983242035f, -0.012200864031910896f, -0.03929353877902031f, 0.046111591160297394f, 0.009489404037594795f, 0.01288105919957161f, -0.005405406001955271f, -0.00990208052098751f, -0.02626587450504303f, -0.019758526235818863f, 0.026997150853276253f, 0.03886191174387932f, 0.030306929722428322f, -0.002001715824007988f, -0.019014624878764153f, 0.009231261909008026f, -0.044732172042131424f, 0.02917640097439289f, 0.004117314703762531f, 0.0478692501783371f, 0.015125565230846405f, 0.025834521278738976f, 0.0260934941470623f, 0.03372964635491371f, 0.007854389026761055f, 0.022226352244615555f, -0.0029773125424981117f, -0.0989096537232399f, 0.024091197177767754f, 0.011503413319587708f, -0.006060628220438957f, 0.0006995287840254605f, 0.08512380719184875f, -0.0397915355861187f, -0.0063699460588395596f, 0.0073722233064472675f, -0.0398193895816803f, 0.02160623110830784f, -0.009393936023116112f, 0.033371467143297195f, 0.024240776896476746f, -0.0946793481707573f, 0.03256816416978836f, 0.02052319049835205f, 0.025413094088435173f, -0.019567865878343582f, 0.061964381486177444f, 0.04068884998559952f, 0.013440758921205997f, -0.043882936239242554f, 0.02515154518187046f, 0.0677499994635582f, 0.038069404661655426f, -0.014848703518509865f, -0.007613274734467268f, -0.007672104053199291f, -0.04483151435852051f, -0.05071048066020012f, 0.0389455147087574f, 1.7895648852572776e-05f, 0.014620373025536537f, -0.05123855173587799f, -0.0221687164157629f, 0.003847616957500577f, -0.004795354790985584f, -0.011997049674391747f, -0.010366607457399368f, -0.032222915440797806f, -0.050594963133335114f, 0.004389423411339521f, -0.03101927600800991f, -0.016791092231869698f, -0.000819048669654876f, 0.00667375884950161f, 0.05786323919892311f, -0.014591802842915058f, 0.007217749487608671f, 0.006216779351234436f, 0.014929731376469135f, 0.008191020227968693f, 0.014650342054665089f, -0.018027404323220253f, 0.0010776696726679802f, 0.010330826975405216f, -0.012272273190319538f, -0.00993137527257204f, -0.02346792258322239f, 0.027575358748435974f, -0.01351794321089983f, 0.06020861864089966f, 0.029373619705438614f, -0.010655561462044716f, 0.04058949276804924f, -0.004410251975059509f, -0.009541318751871586f, 0.046983156353235245f, 0.014922745525836945f, 0.048876091837882996f, 0.0025778580456972122f, -0.038033127784729004f, 0.0095544857904315f, -0.03550655022263527f, 0.007749476935714483f, 0.02200952358543873f, -0.008580771274864674f, -0.022911978885531425f, -0.0018243462545797229f, -0.002252486301586032f, 0.017442766577005386f, 0.004697798751294613f, 0.0035434842575341463f, 0.01787503995001316f, 0.025534044951200485f, 0.005015750881284475f, 0.03942437469959259f, 0.0020046376157552004f, 0.0019350348738953471f, 0.04901018738746643f, 0.037270478904247284f, 0.02510370872914791f, 0.006403653882443905f, 0.0010943857487291098f, -0.008000063709914684f, -0.01568024419248104f, -0.019684381783008575f, -0.000456948735518381f, 0.021610615774989128f, -0.02347276173532009f, 0.0032782938797026873f, 0.010224849916994572f, 0.00727502815425396f, -0.025561880320310593f, 0.037862323224544525f, -0.05027662590146065f, 0.004615204408764839f, -0.00820823572576046f, 0.012565817683935165f, 0.004326900001615286f, 0.06095533445477486f, 0.07397481799125671f, -0.031135553494095802f, -0.008252564817667007f, -0.007260199170559645f, 0.003492478048428893f, 0.01195067074149847f, 0.009189872071146965f, 0.04486173018813133f, -0.006739599164575338f, -0.0065445806831121445f, 0.060076043009757996f, -0.01776675134897232f, 0.0033091488294303417f, -0.023347893729805946f, -0.07245717197656631f, -0.016988521441817284f, -0.01735265925526619f, -0.03817024454474449f, 0.010696561075747013f, 0.0669855996966362f, 0.018734045326709747f, 0.05217979848384857f, -0.020689813420176506f, -0.015334858559072018f, 0.018643293529748917f, 0.03841933235526085f, 0.019353259354829788f, -0.029293864965438843f, 0.002052748342975974f, -0.05281823128461838f, 0.01626674458384514f, 0.015410173684358597f, -0.01664026267826557f, 0.02177659049630165f, -0.00861378200352192f, -0.009968669153749943f, -0.048473458737134933f, 0.00023609081108588725f, 0.0006420073914341629f, -0.02911585196852684f, 0.006018353626132011f, 0.012165654450654984f, -0.0006179900956340134f, 0.03131268918514252f, 0.010662991553544998f, -0.047950949519872665f, 0.04082468897104263f, 0.011271370574831963f, -0.011422314681112766f, 0.04845954850316048f, 0.020026637241244316f, 0.03708519786596298f, -0.05567341670393944f, 0.0013648619642481208f, -0.0279247984290123f, -0.03432691469788551f, -0.0223048385232687f, 0.029799191281199455f, 0.01237923838198185f, 0.015307185240089893f, -0.01863740384578705f, 0.00048683022032491863f, 0.02648278698325157f, -0.0034511093981564045f, -0.027710603550076485f, 0.04012196138501167f, 0.03181447088718414f, -0.07189932465553284f, -0.01690811850130558f, 0.01023836899548769f, 0.013077626936137676f, -0.00493015069514513f, -0.006866120733320713f, -0.07180584967136383f, 0.028553681448101997f, -0.017139723524451256f, 0.03683653101325035f, 0.04004451632499695f, 0.013995260931551456f, 0.04407354071736336f, -0.002234805142506957f, -0.008628142066299915f, 0.03931010887026787f, -0.003924948628991842f, -0.037855856120586395f, -0.03176476061344147f, 0.04559110105037689f, -0.049101341515779495f, 0.021234342828392982f, 0.022213976830244064f, -0.05695164203643799f, 0.003476647427305579f, 0.019251246005296707f, -0.019982192665338516f, -0.017549918964505196f, -0.004282928071916103f, -0.005799775943160057f, 0.0011449629673734307f, -0.039222437888383865f, 0.04881905019283295f, -0.0492577999830246f, -0.02878337912261486f, -0.03398064523935318f, 0.009547383524477482f, -0.010227597318589687f, 0.04073081165552139f, 0.00834361556917429f, -0.05825096741318703f, -0.01798827387392521f, 0.060971613973379135f, 0.039748575538396835f, 0.003346369368955493f, -0.0094929663464427f, -0.0013186123687773943f, 0.034693218767642975f, 0.03552914783358574f, 0.0021143541671335697f, -0.040450502187013626f, -0.028299609199166298f, 0.01388067938387394f, 0.014145434834063053f, 0.008694503456354141f, 0.028496738523244858f, -0.030839521437883377f, 0.0059118266217410564f, 0.035238586366176605f, -0.04900969937443733f, -0.03070232644677162f, 0.01594163104891777f, 0.02979671023786068f, -0.021071994677186012f, 0.0516684353351593f, -0.011123519390821457f, 0.021924005821347237f, -0.05793933942914009f, 0.01036912389099598f, 0.0032011810690164566f, 0.009614553302526474f, -0.004626589827239513f, 0.034675389528274536f, -0.04024025425314903f, -0.02349763736128807f, -0.009618382900953293f, -0.009617531672120094f, 0.03638262674212456f, 0.0029880485963076353f, 0.014312856830656528f, 0.014806113205850124f, -0.029700351879000664f, -0.01799878478050232f, 0.01635373942553997f, -0.002858174266293645f, 0.015333042480051517f, 0.017114795744419098f, 0.037300579249858856f, -0.02378707006573677f, 0.004061605781316757f, -0.03210187330842018f, 0.06158757954835892f, -0.009707055985927582f, -0.03491456061601639f, 0.053929951041936874f, -0.04478505626320839f, -0.013487283140420914f, -0.019294224679470062f, -0.004854846280068159f, 0.024311712011694908f, 0.023755233734846115f, -0.00104198744520545f, 0.0022454478312283754f, -0.02158428728580475f, 0.012916309759020805f, 0.020238017663359642f, -0.0052824174053967f, -0.00019302764849271625f, -0.018918225541710854f, -0.026057109236717224f, -0.006757830269634724f, -0.023373035714030266f, -0.019873762503266335f, -0.013427456840872765f, -0.012972983531653881f, -0.020713230594992638f, 0.031171005219221115f, -0.00013739988207817078f, 0.032210055738687515f, -0.0024545579217374325f, 0.02353973500430584f, 0.01149465050548315f, 0.012882874347269535f, 0.002051394432783127f, 0.03279798850417137f, 0.003526341635733843f, -0.04049425944685936f, -0.04332425817847252f, -0.0022569866850972176f, -0.015456754714250565f, 0.02161867544054985f, 0.07399769127368927f, -0.005526274908334017f, 0.03202341869473457f, -0.042837921530008316f, -0.005313428118824959f, 0.002184113720431924f, -0.02210375852882862f, 0.001117353793233633f, -0.061125803738832474f, 0.051518093794584274f, -0.013255761936306953f, 0.032052960246801376f, 0.019777264446020126f, 0.026238257065415382f, -0.015990011394023895f, -0.002721809782087803f, 0.022903095930814743f, -0.020940259099006653f, 0.05329349637031555f, 0.03409220278263092f, 0.04954010248184204f, -0.007446548901498318f, 0.014632067643105984f, 0.012523346580564976f, 0.025051049888134003f, 0.0003166947572026402f, -0.0023787724785506725f, 0.03730862960219383f, 0.03308136761188507f, 0.0029482494574040174f, 0.02824203483760357f, -0.015881959348917007f, -0.001640634029172361f, -0.03073418140411377f, 0.026883797720074654f, -0.0543222613632679f, 0.10819564759731293f, 0.02263473905622959f, 0.002115257317200303f, -0.00011151628859806806f, 0.005862435791641474f, -0.01567688025534153f, 0.02886267565190792f, 0.04708247631788254f, -0.015483018010854721f, 0.0865892842411995f, -0.03337094187736511f, -0.034552209079265594f, 0.013514364138245583f, 0.06750988215208054f, 0.004324978683143854f, 0.023474466055631638f, -0.016687458381056786f, -0.021231649443507195f, 0.02350153960287571f, 0.03563613072037697f, 0.06804843246936798f, -0.0009488692739978433f, -0.008102807216346264f, 0.04056062549352646f, 0.03529420122504234f, 0.012788747437298298f, 0.02979515865445137f, -0.04582475870847702f, -0.0008935119840316474f, 0.01774618960916996f, 0.005019264295697212f, -0.05420731380581856f, 0.044865649193525314f, 0.03480430319905281f, 0.012642947025597095f, 0.02257949858903885f, -0.02677329070866108f, 0.0039926315657794476f, -0.0216511357575655f, -0.004276605322957039f, -0.00018677800835575908f, 0.029483340680599213f, 0.03168216720223427f, -0.0019664783030748367f, 0.005508100613951683f, 0.023843418806791306f, -0.01741201803088188f, 0.0011110721388831735f, -0.007718611042946577f, -0.03328277915716171f, -0.011932511813938618f, -0.03908434137701988f, -0.01839151605963707f, 0.007333777844905853f, 0.05404025688767433f, 0.04758872091770172f, 0.009906131774187088f, 0.0752771869301796f, -0.04171016067266464f, 0.015665335580706596f, 0.014515019953250885f, -0.021234648302197456f, -0.005356885492801666f, -0.0049354881048202515f, 0.003406043630093336f, -0.0133191654458642f, 0.030566366389393806f, 0.04075279086828232f, -0.04801223427057266f, 0.04158158227801323f, 0.023585574701428413f, -0.03659233823418617f, -0.03218037262558937f, 0.003303073113784194f, -0.008528024889528751f, 0.07812181115150452f, -0.026883207261562347f, -0.019841372966766357f, 0.0692078024148941f, -0.0149513715878129f, 0.011210490949451923f, 0.07604867219924927f, 0.01854449138045311f, 0.01880352757871151f, 0.025041813030838966f, -0.011111482977867126f, -0.04055650904774666f, 0.006938183214515448f, -0.019467800855636597f, -0.019900301471352577f, 0.016720779240131378f, -0.011591292917728424f, -0.004862240049988031f, -0.0020049072336405516f, 0.019901998341083527f, -0.04322602599859238f, 0.026937155053019524f, -0.03676976263523102f, 0.0046550133265554905f, -0.009886348620057106f, 0.007231238763779402f, -0.040837936103343964f, 0.003858553944155574f, -0.011885452084243298f, -0.03806919604539871f, 0.002275140956044197f, 0.030168049037456512f, -0.01978013478219509f, 0.02183571085333824f, 0.0067906505428254604f, 1.2940841770614497e-05f, -0.013556553982198238f, 0.009838040918111801f, -0.02035660296678543f, -0.06865932047367096f, -0.017045561224222183f, -0.0003461755986791104f, -0.06303101032972336f, -0.019851641729474068f, 0.004407490603625774f, -0.05515601858496666f, 0.03734825551509857f, -0.006966801360249519f, 0.03269575163722038f, 0.016957705840468407f, -0.028527019545435905f, 0.0534478984773159f, 0.01624820940196514f, -0.07660163938999176f, 0.0058288960717618465f, 0.04369955509901047f, -0.017293080687522888f, 0.016867950558662415f, -0.002797157736495137f, 0.04266819730401039f, 0.01267165970057249f, 0.04459695890545845f, 0.03354635089635849f, -0.007496919482946396f, -0.013354822993278503f, -0.05214936286211014f, 0.018244216218590736f, 0.0011903392150998116f, 0.021750546991825104f, -0.018448421731591225f, -0.012246076948940754f, -0.0032825246453285217f, -0.02029721811413765f, -0.035050876438617706f, -0.04478386044502258f, -0.038475148379802704f, 0.0174492709338665f, -0.012844068929553032f, -0.02366570755839348f, 0.010166116990149021f, -0.004031155724078417f, -0.0016312149818986654f, -0.010014344938099384f, 0.008903170004487038f, -0.0035012310836464167f, -0.027716347947716713f, -0.008232311345636845f, -0.0606907494366169f, 0.016043292358517647f, 0.013378968462347984f, -0.05544445663690567f, 0.03324606642127037f, 0.016672199591994286f, -0.047642096877098083f, -0.00531140249222517f, 0.004217363428324461f, 0.015367509797215462f, -0.0252477265894413f, 0.06717781722545624f, -0.013405289500951767f, -0.013951876200735569f, 0.027643054723739624f, -0.019560659304261208f, -0.01569586992263794f, -0.037452343851327896f, -0.002011980628594756f, 0.01284994836896658f, -0.002124494407325983f, 0.04747661203145981f, 0.021866539493203163f, 0.019667230546474457f, 0.04750889912247658f, -0.018420618027448654f, 0.002422749763354659f, -0.018896043300628662f, 0.020056704059243202f, 0.01246543787419796f, 0.08081979304552078f, 0.06061716750264168f, -0.025776417925953865f, -0.02462233044207096f, -0.009501438587903976f, -0.03750503435730934f, -0.005523900967091322f, 0.04489702358841896f, -0.02616814710199833f, -0.005189189687371254f, 0.050051432102918625f, -0.015706868842244148f, 0.028906745836138725f, 0.009982200339436531f, -0.016841338947415352f, -0.03281969577074051f, -0.009280609898269176f, 0.014564696699380875f, 0.015010918490588665f, -0.0006775145302526653f, 0.08799844980239868f, -0.02868763729929924f, -0.0014920373214408755f, -0.007949897088110447f, 0.017187561839818954f, 0.005601711105555296f, 0.01628621108829975f, -0.05289991945028305f, -0.045532360672950745f, 0.018864089623093605f, 0.007279218640178442f, -0.0894506424665451f, 0.07646647095680237f, 0.05511309951543808f, 0.02864605188369751f, 0.02711986005306244f, -0.04244958236813545f, 0.02508542314171791f, -0.006729773245751858f, 0.052724964916706085f, 0.0008690396789461374f, 0.04747580736875534f, 0.042804427444934845f, -0.024310598149895668f, 0.00933126825839281f, -0.016611069440841675f, 0.0063655492849648f, -0.020112428814172745f, 0.025535181164741516f, 0.010141451843082905f, -0.01866205781698227f, -0.04778563603758812f, -0.02530117705464363f, 0.0013626385480165482f, 