[
  [
    {
      "activation": "selu",
      "biases": [
        -0.037298839539289474,
        -0.08476071059703827,
        -0.10477881133556366,
        -0.011355378665030003,
        0.14745111763477325,
        0.17970485985279083,
        -0.07762256264686584,
        0.13960224390029907,
        -0.1397285908460617,
        -0.22842323780059814,
        -0.014589626342058182,
        0.01062742993235588,
        -0.06962956488132477,
        -0.08242885023355484,
        0.047715168446302414,
        0.028879771009087563
      ],
      "weights": [
        [
          0.07927492260932922,
          0.2644459307193756,
          0.14214089512825012,
          0.5399633049964905,
          -0.553199052810669,
          0.5181664228439331,
          -0.33787089586257935,
          0.5138661861419678,
          0.23003581166267395,
          0.2944736182689667,
          -0.007336447946727276,
          0.029921984300017357,
          0.021475858986377716,
          0.2973610758781433,
          0.3634016513824463,
          -0.18631941080093384
        ],
        [
          -0.18645375967025757,
          0.021594170480966568,
          -0.23671701550483704,
          -0.23639973998069763,
          -0.8010607957839966,
          0.26377665996551514,
          -0.21123699843883514,
          -0.488061785697937,
          0.5477942824363708,
          0.36244916915893555,
          0.08560595661401749,
          -0.2201835811138153,
          0.6074559688568115,
          0.06220228597521782,
          0.189637690782547,
          0.18761451542377472
        ],
        [
          0.44425082206726074,
          -0.18507006764411926,
          0.22818513214588165,
          0.13770230114459991,
          -0.18528422713279724,
          0.20894624292850494,
          -0.6004858613014221,
          0.5090320706367493,
          -0.28626272082328796,
          0.31506550312042236,
          -0.26115164160728455,
          0.2705880403518677,
          -0.07251223176717758,
          0.5887365937232971,
          0.44416388869285583,
          0.0987374484539032
        ],
        [
          0.0,
          0.0,
          0.0,
          0.0,
          0.0,
          0.0,
          0.0,
          0.0,
          0.0,
          0.0,
          0.0,
          0.0,
          0.0,
          0.0,
          0.0,
          0.0
        ],
        [
          0.6632460951805115,
          -0.08303128182888031,
          -0.5704794526100159,
          0.24576067924499512,
          -0.16643011569976807,
          0.09446360915899277,
          -0.29572272300720215,
          -0.07797912508249283,
          -0.1921050101518631,
          0.3206366002559662,
          -0.29811379313468933,
          0.0050393142737448215,
          -0.452908992767334,
          -0.5465291142463684,
          0.2625533640384674,
          -0.17444458603858948
        ],
        [
          -0.295723021030426,
          0.07145809382200241,
          0.4150419533252716,
          -0.7074293494224548,
          -0.09945764392614365,
          -0.13906767964363098,
          0.3382521867752075,
          0.09827859699726105,
          0.2660844624042511,
          0.06544535607099533,
          0.31645458936691284,
          -0.1292870044708252,
          -0.04480766877532005,
          -0.20481306314468384,
          -0.19518005847930908,
          -0.567738950252533
        ],
        [
          -0.059443991631269455,
          0.12735053896903992,
          0.6078968644142151,
          -0.18082211911678314,
          0.35395440459251404,
          -0.3071410357952118,
          0.005499702412635088,
          0.1846916377544403,
          -0.1467464715242386,
          0.16595526039600372,
          -0.31622013449668884,
          -0.30942028760910034,
          0.5408899188041687,
          -0.0335385799407959,
          -0.04420978203415871,
          0.059513453394174576
        ],
        [
          0.0,
          0.0,
          0.0,
          0.0,
          0.0,
          0.0,
          0.0,
          0.0,
          0.0,
          0.0,
          0.0,
          0.0,
          0.0,
          0.0,
          0.0,
          0.0
        ],
        [
          0.022194908931851387,
          0.44847798347473145,
          -0.2073850929737091,
          0.3808574676513672,
          -0.2776854336261749,
          -0.6088056564331055,
          -0.1664307415485382,
          -0.07323624193668365,
          0.2349845916032791,
          -0.11098922789096832,
          0.2992725670337677,
          0.3404662311077118,
          0.11232761293649673,
          0.05163120850920677,
          -0.6879554986953735,
          0.04711950570344925
        ],
        [
          -0.6169502139091492,
          0.527036726474762,
          0.01661018654704094,
          0.24084992706775665,
          0.13168726861476898,
          0.20338074862957,
          0.37039729952812195,
          0.136404886841774,
          0.0615801066160202,
          0.13858185708522797,
          0.06763608753681183,
          -0.6503506898880005,
          0.26477354764938354,
          0.4223521649837494,
          -0.5899634957313538,
          0.3530133366584778
        ],
        [
          0.20188292860984802,
          0.05381501466035843,
          0.4090607762336731,
          -0.3778074085712433,
          0.2716313302516937,
          -6.3921237597242e-05,
          -0.05938338488340378,
          0.13588114082813263,
          -0.08487410843372345,
          0.2259879857301712,
          -0.07478974014520645,
          0.48048681020736694,
          -0.33737698197364807,
          -0.18730448186397552,
          -0.34746575355529785,
          0.3757859170436859
        ],
        [
          0.0,
          0.0,
          0.0,
          0.0,
          0.0,
          0.0,
          0.0,
          0.0,
          0.0,
          0.0,
          0.0,
          0.0,
          0.0,
          0.0,
          0.0,
          0.0
        ],
        [
          0.17782337963581085,
          -0.1318930834531784,
          0.0824771523475647,
          0.08847612887620926,
          0.04487140104174614,
          -0.21735872328281403,
          -0.19941674172878265,
          -0.02112555131316185,
          -0.563425600528717,
          0.4241412580013275,
          0.19509510695934296,
          0.4531126916408539,
          -0.24634568393230438,
          0.2762514352798462,
          -0.26124024391174316,
          0.5218701362609863
        ],
        [
          -0.00041428557597100735,
          -0.43033790588378906,
          -0.3776836395263672,
          -0.17101380228996277,
          -0.030808236449956894,
          -0.37810924649238586,
          0.3866891860961914,
          -0.17603355646133423,
          0.3076840937137604,
          0.37721407413482666,
          0.4717591106891632,
          -0.04339098557829857,
          -0.21707646548748016,
          -0.48080360889434814,
          0.2737053632736206,
          0.07326903939247131
        ],
        [
          0.1192716658115387,
          -0.21440652012825012,
          0.16088956594467163,
          0.10491663217544556,
          0.35964590311050415,
          -0.009958664886653423,
          0.36097902059555054,
          -0.13403771817684174,
          -0.7362895011901855,
          -0.03779837489128113,
          0.16299207508563995,
          -0.0539800226688385,
          -0.42634350061416626,
          0.6360601186752319,
          0.3002599775791168,
          -0.4518863260746002
        ],
        [
          0.0,
          0.0,
          0.0,
          0.0,
          0.0,
          0.0,
          0.0,
          0.0,
          0.0,
          0.0,
          0.0,
          0.0,
          0.0,
          0.0,
          0.0,
          0.0
        ],
        [
          -0.4034596085548401,
          0.3445369303226471,
          0.02015553042292595,
          -0.06511335074901581,
          0.2399398237466812,
          -0.3535686731338501,
          -0.02989603579044342,
          0.20963984727859497,
          -0.10300028324127197,
          0.24920909106731415,
          -0.006351598538458347,
          -0.050507061183452606,
          -0.4268774688243866,
          -0.2797700762748718,
          0.3707081973552704,
          -0.16117587685585022
        ],
        [
          0.014006474055349827,
          -0.10397329926490784,
          0.11796808242797852,
          0.1179032251238823,
          0.6442489624023438,
          -0.1761626899242401,
          0.2923320531845093,
          -0.23419249057769775,
          -0.051587168127298355,
          0.2144363820552826,
          0.563244104385376,
          0.04635125398635864,
          0.3843000829219818,
          0.08021779358386993,
          -0.47352999448776245,
          -0.349092572927475
        ],
        [
          -0.2259635478258133,
          -0.2473505288362503,
          -0.1619131714105606,
          0.3314529061317444,
          0.5228778123855591,
          0.3882477581501007,
          -0.19717063009738922,
          -0.5137643814086914,
          0.28528350591659546,
          -0.5248773097991943,
          0.3137294352054596,
          -0.03066951036453247,
          0.18567942082881927,
          -0.12740033864974976,
          -0.04588654637336731,
          0.2777090072631836
        ],
        [
          0.0,
          0.0,
          0.0,
          0.0,
          0.0,
          0.0,
          0.0,
          0.0,
          0.0,
          0.0,
          0.0,
          0.0,
          0.0,
          0.0,
          0.0,
          0.0
        ]
      ]
    }
  ],
  [
    {
      "activation": "selu",
      "biases": [
        0.14927899837493896,
        -0.07820732146501541,
        0.0820542499423027,
        0.026220373809337616,
        -0.0220793429762125,
        -0.029644645750522614,
        -0.056435342878103256,
        -0.14623130857944489,
        -0.02609027735888958,
        -0.22958293557167053,
        -0.009065170772373676,
        0.05813458934426308,
        -0.19598816335201263,
        -0.04270351305603981,
        -0.0398409441113472,
        0.07474368065595627
      ],
      "weights": [
        [
          0.014257023110985756,
          0.07908304035663605,
          -0.09690451622009277,
          0.08013074100017548,
          0.12537623941898346,
          -0.46500250697135925,
          -0.20033569633960724,
          0.06608603149652481,
          0.2459924966096878,
          -0.006811090745031834,
          0.25962957739830017,
          0.17482581734657288,
          0.5693947672843933,
          0.1252138465642929,
          -0.11028541624546051,
          0.049258433282375336
        ],
        [
          -0.011870802380144596,
          -0.13758112490177155,
          0.2319248914718628,
          -0.26701226830482483,
          -0.1880202293395996,
          -0.23600630462169647,
          -0.1753063052892685,
          0.019137009978294373,
          -0.09212636947631836,
          0.057170569896698,
          0.12948812544345856,
          -0.1944633573293686,
          -0.11538064479827881,
          -0.05336558446288109,
          0.2063596248626709,
          0.2674526274204254
        ],
        [
          0.07613389194011688,
          0.13306447863578796,
          0.041420262306928635,
          0.2085477113723755,
          0.3347718119621277,
          -0.2879163324832916,
          -0.30909979343414307,
          0.049988336861133575,
          0.01548127643764019,
          -0.04702267050743103,
          -0.08956818282604218,
          -0.24513930082321167,
          -0.04168952256441116,
          0.3089179992675781,
          -0.009447910822927952,
          -0.11482580006122589
        ],
        [
          0.18623818457126617,
          0.20905350148677826,
          -0.10313745588064194,
          0.13504627346992493,
          -0.03900826349854469,
          -0.5545526146888733,
          -0.07883210480213165,
          -0.13606035709381104,
          0.04380790889263153,
          -0.5352447628974915,
          0.09655734896659851,
          -0.12576255202293396,
          -0.04792831465601921,
          -0.05810210108757019,
          0.10686483234167099,
          0.07456623017787933
        ],
        [
          0.0907207727432251,
          0.09599322080612183,
          0.15200917422771454,
          0.4778543710708618,
          0.08616375178098679,
          0.18258404731750488,
          -0.2897370755672455,
          -0.07384543865919113,
          -0.1539640575647354,
          -0.17564743757247925,
          -0.21200832724571228,
          -0.05801543965935707,
          0.0241608377546072,
          0.040702708065509796,
          -0.03399243205785751,
          -0.10769867897033691
        ],
        [
          -0.06482727825641632,
          -0.24298341572284698,
          -0.058448854833841324,
          -0.1828518658876419,
          0.0892827957868576,
          -0.11983318626880646,
          -0.020368989557027817,
          -0.1511722058057785,
          0.1048508733510971,
          0.03266076371073723,
          -0.03343409672379494,
          0.26634302735328674,
          -0.19172285497188568,
          0.14042764902114868,
          0.07320171594619751,
          0.056131646037101746
        ],
        [
          -0.02754906192421913,
          0.037121329456567764,
          0.3103649616241455,
          0.17192065715789795,
          0.2342846691608429,
          0.43097802996635437,
          -0.07175569236278534,
          0.11112605035305023,
          -0.1954653561115265,
          0.19862087070941925,
          0.19149541854858398,
          -0.14491207897663116,
          0.17805856466293335,
          -0.02502683363854885,
          -0.1552412360906601,
          0.2647092044353485
        ],
        [
          -0.017015215009450912,
          -0.24476884305477142,
          -0.05277610570192337,
          -0.006585102528333664,
          -0.04864613339304924,
          -0.3858816623687744,
          -0.3122319281101227,
          0.0532040148973465,
          -0.10257255285978317,
          0.07732561975717545,
          0.14203952252864838,
          0.19273997843265533,
          -0.03694286569952965,
          0.08806008100509644,
          0.17497026920318604,
          0.021602338179945946
        ],
        [
          -0.04626358300447464,
          0.007967163808643818,
          0.3511921167373657,
          -0.23210816085338593,
          -0.15781642496585846,
          0.2783769965171814,
          0.0946749746799469,
          0.09574325382709503,
          0.16302338242530823,
          0.29271113872528076,
          0.03925870358943939,
          0.06905583292245865,
          -0.147844597697258,
          -0.035612620413303375,
          0.07829941809177399,
          -0.16809214651584625
        ],
        [
          0.17340822517871857,
          0.15926200151443481,
          0.3799414038658142,
          -0.04871048778295517,
          -0.051178887486457825,
          -0.16062547266483307,
          0.27560487389564514,
          0.044638872146606445,
          -0.04300759732723236,
          -0.14774703979492188,
          0.11537958681583405,
          0.2681823670864105,
          0.12291441857814789,
          0.06857964396476746,
          0.0800415575504303,
          0.11499939858913422
        ],
        [
          0.06700307130813599,
          0.18733830749988556,
          0.14557719230651855,
          0.13049185276031494,
          -0.14700475335121155,
          -0.19042764604091644,
          0.19227543473243713,
          -0.04224675893783569,
          0.10896388441324234,
          -0.2713409662246704,
          0.10652187466621399,
          -0.1624171882867813,
          0.044533684849739075,
          0.06606758385896683,
          0.1903998851776123,
          0.1515110582113266
        ],
        [
          -0.22456949949264526,
          -0.17900611460208893,
          -0.17183898389339447,
          0.21141935884952545,
          -0.19734157621860504,
          0.01924767717719078,
          0.16549435257911682,
          0.0146558228880167,
          0.174528107047081,
          -0.22609183192253113,
          0.18993771076202393,
          -0.1367436796426773,
          0.33553335070610046,
          -0.10854127258062363,
          -0.2072647213935852,
          -0.05607949569821358
        ],
        [
          0.16081051528453827,
          0.20555005967617035,
          0.358663409948349,
          -0.05305221676826477,
          0.2672296166419983,
          0.2665702700614929,
          0.07742595672607422,
          -0.028788475319743156,
          0.3005223870277405,
          0.043881725519895554,
          0.15226159989833832,
          -0.5285519361495972,
          -0.2259303778409958,
          -0.3336564600467682,
          -0.21913720667362213,
          0.15421728789806366
        ],
        [
          0.09705157577991486,
          -0.03303566202521324,
          0.110456183552742,
          -0.13588304817676544,
          -0.10603919625282288,
          -0.3255324959754944,
          0.06654424220323563,
          -0.07574720680713654,
          0.1023097112774849,
          -0.1365921050310135,
          -0.1575489491224289,
          -0.4382189214229584,
          0.11244284361600876,
          -0.09901577234268188,
          -0.12564565241336823,
          0.31588515639305115
        ],
        [
          0.10145602375268936,
          0.14358209073543549,
          -0.1961047202348709,
          0.042589206248521805,
          -0.14158493280410767,
          -0.06953570991754532,
          -0.05617932602763176,
          -0.1918005645275116,
          0.1236475333571434,
          0.23659346997737885,
          0.0135567057877779,
          0.49614813923835754,
          0.4415951669216156,
          0.14763705432415009,
          0.06355325877666473,
          -0.205072283744812
        ],
        [
          0.304500937461853,
          -0.0063620624132454395,
          -0.1259438544511795,
          -0.09877101331949234,
          -0.31580811738967896,
          0.15808895230293274,
          0.5512958765029907,
          0.1118115484714508,
          -0.41226425766944885,
          -0.11808009445667267,
          0.09071335196495056,
          -0.15126770734786987,
          0.11825313419103622,
          -0.22253181040287018,
          -0.3340286314487457,
          0.1890489012002945
        ],
        [
          -0.1972980797290802,
          -0.02360222488641739,
          -0.15893039107322693,
          0.021978989243507385,
          0.17061327397823334,
          0.09673024713993073,
          0.04747883230447769,
          -0.023877516388893127,
          0.20623165369033813,
          -0.06766609847545624,
          0.16925670206546783,
          0.12389237433671951,
          0.3333989083766937,
          -0.5226109623908997,
          0.08006103336811066,
          0.08275487273931503
        ],
        [
          -0.0305634718388319,
          0.10670572519302368,
          0.2172495275735855,
          0.10207182168960571,
          0.07979188114404678,
          -0.19285321235656738,
          -0.005943651776760817,
          0.09260236471891403,
          -0.17891179025173187,
          -0.017147427424788475,
          0.0848473608493805,
          -0.05273311212658882,
          0.0027662883512675762,
          0.140261709690094,
          -0.037272535264492035,
          -0.027283217757940292
        ],
        [
          0.28952500224113464,
          0.23878681659698486,
          -0.15554790198802948,
          0.19193191826343536,
          0.33153754472732544,
          -0.0761118084192276,
          -0.13517943024635315,
          0.2070775330066681,
          -0.10262233018875122,
          0.22096465528011322,
          0.14998307824134827,
          -0.11050660163164139,
          0.028330454602837563,
          0.165507510304451,
          0.02839520201086998,
          0.1752268224954605
        ],
        [
          -0.13606004416942596,
          0.1008114144206047,
          0.0960938110947609,
          0.13779719173908234,
          -0.10725803673267365,
          -0.3352981209754944,
          0.07489366084337234,
          -0.033373359590768814,
          0.21157778799533844,
          -0.027109703049063683,
          -0.11228156089782715,
          0.18645428121089935,
          0.019891154021024704,
          0.10906564444303513,
          0.0707307755947113,
          0.07975217700004578
        ],
        [
          0.14901505410671234,
          0.015477931126952171,
          -0.3684466481208801,
          -0.1911652535200119,
          -0.013414351269602776,
          0.09560981392860413,
          0.4347460865974426,
          -0.05494099482893944,
          -0.044493429362773895,
          -0.08514607697725296,
          0.16099360585212708,
          -0.026793478056788445,
          -0.0008713708957657218,
          0.3058023154735565,
          -0.14210793375968933,
          -0.11396937072277069
        ],
        [
          -0.05257455259561539,
          0.05284309759736061,
          0.04774047061800957,
          0.26797157526016235,
          0.1700473576784134,
          -0.38007768988609314,
          -0.2597328722476959,
          -0.12163479626178741,
          -0.23168230056762695,
          0.11524415016174316,
          -0.06076212227344513,
          -0.0115327974781394,
          0.16847318410873413,
          -0.1271347552537918,
          -0.053653448820114136,
          0.030170749872922897
        ],
        [
          0.03660685941576958,
          -0.26989856362342834,
          0.2584007978439331,
          -0.43590834736824036,
          -0.3948152959346771,
          0.443320095539093,
          0.42923104763031006,
          -0.5910744667053223,
          -0.06366675347089767,
          -0.052396807819604874,
          0.1564878523349762,
          -0.36365967988967896,
          -0.1544782966375351,
          0.18802011013031006,
          -0.22343161702156067,
          0.21217307448387146
        ],
        [
          0.13918240368366241,
          0.05663647875189781,
          -0.047444164752960205,
          0.24709011614322662,
          0.25459709763526917,
          -0.03180578723549843,
          -0.26867997646331787,
          0.11713415384292603,
          0.05415922403335571,
          0.016726821660995483,
          0.1728975474834442,
          0.2495400756597519,
          0.0371839813888073,
          0.018741119652986526,
          0.004805451259016991,
          0.026317132636904716
        ],
        [
          0.1138593927025795,
          -0.0770372822880745,
          0.5108531713485718,
          -0.05880707502365112,
          0.02939988300204277,
          0.1475583165884018,
          -0.255525678396225,
          -0.18801149725914001,
          -0.21000121533870697,
          0.062438610941171646,
          -0.02681841142475605,
          -0.2126237154006958,
          0.04282740131020546,
          0.029844103381037712,
          -0.022098392248153687,
          -0.12166095525026321
        ],
        [
          0.19345562160015106,
          -0.15606364607810974,
          -0.05104724317789078,
          -0.0374818779528141,
          0.24803690612316132,
          -0.28276294469833374,
          -0.17603424191474915,
          0.139089897274971,
          0.14167924225330353,
          -0.1557672768831253,
          0.20245052874088287,
          -0.022291909903287888,
          0.10416281223297119,
          0.019445404410362244,
          0.13598795235157013,
          0.040407948195934296
        ],
        [
          -0.10081641376018524,
          0.06814814358949661,
          0.0484221912920475,
          -0.11194834858179092,
          0.044711705297231674,
          -0.3286798596382141,
          0.045970842242240906,
          -0.09655609726905823,
          0.025820719078183174,
          -0.11454323679208755,
          0.0341956727206707,
          0.052905939519405365,
          0.030931754037737846,
          0.26373183727264404,
          -0.0267473291605711,
          0.13706092536449432
        ],
        [
          -0.07956990599632263,
          0.20300349593162537,
          -0.039794836193323135,
          -0.1420878916978836,
          -0.2472936064004898,
          0.1853667050600052,
          0.17194603383541107,
          0.2002187818288803,
          0.3915647864341736,
          0.1639494001865387,
          0.4594244360923767,
          0.20605836808681488,
          -0.06794130802154541,
          -0.25054600834846497,
          -0.019201314076781273,
          0.13418374955654144
        ],
        [
          -0.06964907795190811,
          -0.0337103046476841,
          0.08186904340982437,
          0.2431737184524536,
          0.20520253479480743,
          0.5486182570457458,
          -0.21357297897338867,
          0.018895043060183525,
          -0.32116010785102844,
          0.300984263420105,
          0.3137436509132385,
          -0.125165194272995,
          -0.051173679530620575,
          -0.03502810373902321,
          -0.029326416552066803,
          0.23760689795017242
        ],
        [
          0.06397371739149094,
          0.055196840316057205,
          0.0006214376189745963,
          0.009867710061371326,
          0.2114226073026657,
          -0.48461586236953735,
          -0.037911202758550644,
          0.16028280556201935,
          0.018271563574671745,
          -0.03163152560591698,
          -0.20361682772636414,
          0.16451238095760345,
          0.33598726987838745,
          0.21870727837085724,
          -0.18768520653247833,
          0.30278053879737854
        ],
        [
          -0.01950470358133316,
          -0.013121986761689186,
          0.22355172038078308,
          0.1681624948978424,
          -0.0796007588505745,
          -0.017179541289806366,
          -0.07805809378623962,
          -0.08291815966367722,
          -0.13112777471542358,
          0.20258060097694397,
          0.2462732344865799,
          0.22412905097007751,
          0.11039526015520096,
          -0.27249327301979065,
          0.0931759774684906,
          0.10984683036804199
        ],
        [
          0.13683174550533295,
          0.10619127750396729,
          -0.08132316917181015,
          0.19531916081905365,
          0.09893351793289185,
          0.25508052110671997,
          0.0312376506626606,
          0.12401321530342102,
          -0.21769176423549652,
          0.16196998953819275,
          -0.037090979516506195,
          -0.13592255115509033,
          0.17660124599933624,
          0.19194084405899048,
          -0.26415303349494934,
          0.11744782328605652
        ],
        [
          -0.1681642383337021,
          -0.004790611565113068,
          0.27830269932746887,
          0.2839358150959015,
          0.14519688487052917,
          0.2661312520503998,
          0.12110578268766403,
          0.25077417492866516,
          -0.12824799120426178,
          0.05913384631276131,
          -0.05028121545910835,
          -0.23564863204956055,
          0.0629812628030777,
          -0.16334624588489532,
          -0.29441219568252563,
          0.18791818618774414
        ],
        [
          -0.0837690606713295,
          0.1801145076751709,
          -0.07263828814029694,
          -0.05810314044356346,
          0.10000493377447128,
          0.01101619191467762,
          -0.16478312015533447,
          -0.12922142446041107,
          -0.11930987983942032,
          -0.1410558521747589,
          0.17740969359874725,
          -0.09829261898994446,
          0.15525846183300018,
          0.10684230178594589,
          0.12091212719678879,
          -0.01795402728021145
        ],
        [
          0.18448957800865173,
          -0.11079437285661697,
          0.04642166569828987,
          0.2560439705848694,
          0.2166237235069275,
          0.3614465594291687,
          -0.019606037065386772,
          -0.14271414279937744,
          -0.05737657472491264,
          0.0402824841439724,
          -0.08855500817298889,
          0.11296725273132324,
          0.005984297953546047,
          0.016851574182510376,
          -0.1396300196647644,
          0.1288260817527771
        ],
        [
          -0.032549597322940826,
          0.22230662405490875,
          0.12826286256313324,
          -0.12111732363700867,
          0.125434011220932,
          -0.0031910354737192392,
          -0.017392240464687347,
          0.27587202191352844,
          0.38860902190208435,
          0.11806143075227737,
          -0.12201573699712753,
          -0.15964524447917938,
          0.17544227838516235,
          -0.09206212311983109,
          0.08219845592975616,
          -0.12003729492425919
        ],
        [
          0.0226353220641613,
          -0.17331057786941528,
          -0.08549698442220688,
          -0.06858468055725098,
          -0.0404311865568161,
          0.1336304098367691,
          -0.26464948058128357,
          0.025933953002095222,
          0.1556231528520584,
          0.058838121592998505,
          0.061344582587480545,
          0.1566781848669052,
          -0.02696438878774643,
          -0.01323921699076891,
          -0.14766517281532288,
          -0.1309303343296051
        ],
        [
          0.04283393174409866,
          -0.27421820163726807,
          -0.2147030532360077,
          -0.02576950378715992,
          -0.10978685319423676,
          0.02266952395439148,
          -0.16679291427135468,
          -0.017611538991332054,
          0.23819522559642792,
          0.2217073291540146,
          0.01341613195836544,
          -0.14229561388492584,
          -0.008550476282835007,
          -0.014651186764240265,
          0.016446053981781006,
          -0.10119690001010895
        ],
        [
          -0.11743099987506866,
          0.044312454760074615,
          -0.0794227346777916,
          -0.07470197230577469,
          0.0018060836009681225,
          -0.05464543029665947,
          -0.2882530689239502,
          -0.12919621169567108,
          -0.19815759360790253,
          0.2320222705602646,
          -0.08502677083015442,
          0.21095067262649536,
          0.19212451577186584,
          0.01630598120391369,
          0.021115006878972054,
          0.11260654777288437
        ],
        [
          -0.06748495250940323,
          -0.005827912595123053,
          0.09936783462762833,
          0.20054541528224945,
          0.02668079361319542,
          0.0709570124745369,
          0.09276684373617172,
          0.09161923825740814,
          -0.16304467618465424,
          -0.04451252892613411,
          -0.0028218317311257124,
          -0.3190685212612152,
          -0.14787442982196808,
          0.04540281742811203,
          0.06542583554983139,
          -0.27799224853515625
        ],
        [
          -0.1742333620786667,
          0.1838051676750183,
          0.24844714999198914,
          -0.24184294044971466,
          -0.13387958705425262,
          -0.11296695470809937,
          0.11642665416002274,
          -0.10134012252092361,
          -0.16591869294643402,
          0.21994560956954956,
          0.05935514718294144,
          -0.03443356975913048,
          0.1461171656847,
          -0.08215071260929108,
          -0.057961683720350266,
          -0.04485875740647316
        ],
        [
          -0.10379254072904587,
          -0.0859910249710083,
          -0.09151818603277206,
          0.002487902995198965,
          0.0966917872428894,
          0.08343865722417831,
          -0.09351258724927902,
          0.06483586132526398,
          0.06055808812379837,
          -0.0593213327229023,
          -0.051296621561050415,
          -0.14151492714881897,
          0.09468649327754974,
          0.06855375319719315,
          0.06447837501764297,
          0.08534906804561615
        ],
        [
          0.06239655241370201,
          -0.11723209172487259,
          0.10382566601037979,
          -0.09606055915355682,
          -0.197431743144989,
          -0.12165674567222595,
          -0.09114514291286469,
          -0.1115005761384964,
          -0.24141207337379456,
          -0.2250707894563675,
          -0.1517122983932495,
          0.05058087781071663,
          -0.23192274570465088,
          0.0029389220289885998,
          0.0269534382969141,
          0.20417574048042297
        ],
        [
          -0.13664786517620087,
          -0.00714104576036334,
          -0.015812594443559647,
          0.24414587020874023,
          0.07699635624885559,
          0.029024435207247734,
          0.41495007276535034,
          -0.2089274376630783,
          0.2303955852985382,
          0.0075934454798698425,
          0.29166123270988464,
          -0.19301672279834747,
          0.2600250244140625,
          -0.10368207097053528,
          -0.1831997185945511,
          0.10180991142988205
        ],
        [
          0.2402115762233734,
          0.14348366856575012,
          0.09351278096437454,
          -0.27963438630104065,
          0.007826268672943115,
          0.18126285076141357,
          -0.01878214068710804,
          -0.022725265473127365,
          -0.23946620523929596,
          0.26623791456222534,
          0.08584790676832199,
          0.09360089898109436,
          0.028861019760370255,
          -0.09975844621658325,
          -0.11122865974903107,
          0.16230353713035583
        ],
        [
          0.0831204280257225,
          -0.11454658955335617,
          0.18669641017913818,
          -0.012183506041765213,
          0.026245655491948128,
          0.12262925505638123,
          -0.282604455947876,
          -0.18363694846630096,
          -0.003931359387934208,
          -0.026503823697566986,
          0.11937151104211807,
          -0.4565878212451935,
          -0.00998641923069954,
          0.05618497356772423,
          0.09501464664936066,
          0.34001317620277405
        ],
        [
          0.48462826013565063,
          0.10183963924646378,
          -0.13750867545604706,
          -0.05590749531984329,
          0.01572454907000065,
          -0.18751296401023865,
          -0.15096241235733032,
          -0.18250392377376556,
          -0.096515953540802,
          0.17287977039813995,
          0.15571528673171997,
          -0.11497345566749573,
          0.18612442910671234,
          -0.07831468433141708,
          0.013831349089741707,
          0.13044896721839905
        ],
        [
          0.00858230795711279,
          0.06721968203783035,
          0.32173699140548706,
          0.22122344374656677,
          0.008001814596354961,
          -0.05437595397233963,
          0.027538618072867393,
          0.13555015623569489,
          -0.08489629626274109,
          -0.32918813824653625,
          -0.16216924786567688,
          0.023160256445407867,
          -0.023850874975323677,
          0.15963295102119446,
          0.06960909068584442,
          0.05284249782562256
        ],
        [
          0.2082086056470871,
          -0.054729387164115906,
          0.03971737623214722,
          -0.0008062877459451556,
          -0.008213592693209648,
          -0.31666767597198486,
          -0.06961666792631149,
          -0.20861095190048218,
          0.2098623663187027,
          0.01441396214067936,
          0.3511069416999817,
          -0.15999403595924377,
          0.06026015430688858,
          0.2354470044374466,
          0.033289775252342224,
          -0.14930777251720428
        ],
        [
          -0.09083546698093414,
          0.2880106270313263,
          -0.06475138664245605,
          0.12560763955116272,
          -0.02528677135705948,
          0.24773705005645752,
          -0.172749325633049,
          0.026350025087594986,
          -0.32270610332489014,
          -0.19191356003284454,
          0.06928523629903793,
          0.060169022530317307,
          -0.2800963222980499,
          0.09090355783700943,
          0.3110295534133911,
          -0.09149577468633652
        ],
        [
          0.19352827966213226,
          0.09378372132778168,
          0.24335068464279175,
          -0.10248157382011414,
          -0.10046475380659103,
          0.03882215544581413,
          0.028612980619072914,
          0.23435278236865997,
          -0.008385177701711655,
          0.10416693240404129,
          0.035676393657922745,
          -0.1021677777171135,
          0.2640804946422577,
          -0.20733754336833954,
          0.031906768679618835,
          -0.06848537176847458
        ],
        [
          -0.19288958609104156,
          0.3705155849456787,
          -0.20763814449310303,
          0.27739065885543823,
          0.2155640870332718,
          0.039980094879865646,
          -0.015157271176576614,
          -0.04348651319742203,
          -0.20464308559894562,
          -0.25961217284202576,
          -0.2681472897529602,
          -0.18227751553058624,
          0.07620858401060104,
          0.2808080315589905,
          0.1362960934638977,
          0.2632554769515991
        ],
        [
          0.30544206500053406,
          -0.16184841096401215,
          0.07105196267366409,
          0.04930086061358452,
          0.15011931955814362,
          0.16739818453788757,
          -0.15211614966392517,
          0.09019015729427338,
          0.1510913223028183,
          -0.2501501441001892,
          -0.053961701691150665,
          -0.10835491865873337,
          -0.10055132955312729,
          -0.14682458341121674,
          -0.002314450917765498,
          -0.2593078017234802
        ],
        [
          -0.0011622003512457013,
          -0.08318616449832916,
          -0.0642474964261055,
          -0.008219344541430473,
          0.05830114334821701,
          -0.2881709039211273,
          0.16012504696846008,
          -0.048005178570747375,
          -0.06795134395360947,
          -0.01600402034819126,
          0.20528577268123627,
          0.08193843811750412,
          0.05543934553861618,
          0.14797784388065338,
          -0.013685924001038074,
          0.05907699093222618
        ],
        [
          0.05878962203860283,
          0.022490765899419785,
          0.14121279120445251,
          -0.01055473368614912,
          -0.18785130977630615,
          0.157213494181633,
          -0.337860107421875,
          0.3241082727909088,
          0.021705958992242813,
          0.10101079940795898,
          0.18651548027992249,
          0.1849895715713501,
          -0.2364938110113144,
          -0.3142937421798706,
          -0.16997030377388,
          0.01653040386736393
        ],
        [
          0.11023358255624771,
          0.25456562638282776,
          -0.060349687933921814,
          -0.022995086386799812,
          0.14555415511131287,
          -0.0847267284989357,
          0.01920314133167267,
          -0.024604467675089836,
          -0.15069864690303802,
          0.3018414378166199,
          0.06846761703491211,
          0.013689265586435795,
          -0.05903095752000809,
          0.024228138849139214,
          0.1912824660539627,
          0.0558641292154789
        ],
        [
          -0.11823104321956635,
          0.11974412947893143,
          0.12649495899677277,
          0.035355377942323685,
          0.08795225620269775,
          0.32083603739738464,
          0.22401775419712067,
          0.03003787435591221,
          -0.22461608052253723,
          0.23623698949813843,
          0.43789806962013245,
          0.13005585968494415,
          -0.09824050217866898,
          0.051512859761714935,
          -0.08864834159612656,
          0.23717576265335083
        ],
        [
          -0.023504093289375305,
          -0.1098707765340805,
          0.28140679001808167,
          0.02991628088057041,
          -0.13612531125545502,
          0.009222735650837421,
          -0.008474119007587433,
          -0.2784099876880646,
          -0.22651633620262146,
          -0.19709189236164093,
          0.298715740442276,
          0.05522561073303223,
          -0.11787762492895126,
          0.09554639458656311,
          -0.0495615191757679,
          -0.04659627377986908
        ],
        [
          -0.04476579278707504,
          0.06340368092060089,
          0.24048221111297607,
          0.1650720089673996,
          0.050146330147981644,
          0.04040404409170151,
          0.1984490007162094,
          -0.054981742054224014,
          -0.044636983424425125,
          -0.2478513866662979,
          -0.035159215331077576,
          0.13873255252838135,
          -0.2615417540073395,
          -0.14020892977714539,
          -0.02257678657770157,
          0.13200972974300385
        ],
        [
          -0.35028567910194397,
          0.15302856266498566,
          -0.032335687428712845,
          -0.010952549986541271,
          0.16030924022197723,
          0.1363849639892578,
          0.19940811395645142,
          -0.23283784091472626,
          -0.12114541977643967,
          -0.007925094105303288,
          -0.10886865854263306,
          -0.5207586288452148,
          0.14013920724391937,
          0.25582799315452576,
          0.07647334784269333,
          0.13897676765918732
        ],
        [
          0.4255504012107849,
          -0.021685492247343063,
          0.23429793119430542,
          0.10340918600559235,
          -0.037000879645347595,
          0.27705588936805725,
          -0.07434079796075821,
          0.3802134096622467,
          0.19038599729537964,
          0.1672743260860443,
          0.2198498249053955,
          0.1096850112080574,
          0.16624727845191956,
          -0.1585906744003296,
          -0.18657049536705017,
          0.16072238981723785
        ],
        [
          0.09999439865350723,
          0.49168676137924194,
          0.04708273708820343,
          0.07109001278877258,
          0.220457062125206,
          0.28171098232269287,
          -0.04816610366106033,
          -0.06563528627157211,
          -0.20582695305347443,
          -0.08932467550039291,
          -0.29897743463516235,
          -0.08170486241579056,
          0.09525187313556671,
          -0.5097489356994629,
          -0.20659904181957245,
          0.3491421341896057
        ],
        [
          0.10390865057706833,
          0.0418221578001976,
          0.17372232675552368,
          0.13422565162181854,
          -0.012579414062201977,
          0.12922851741313934,
          0.3662751615047455,
          -0.11579570919275284,
          -0.1865507811307907,
          0.1677926927804947,
          0.25961676239967346,
          0.10744792968034744,
          0.3795022666454315,
          0.1716316193342209,
          0.27224695682525635,
          -0.04382883384823799
        ],
        [
          -0.19736741483211517,
          -0.13692253828048706,
          0.15359365940093994,
          0.08353519439697266,
          -0.1389029324054718,
          0.06251338869333267,
          -0.13553425669670105,
          -0.09840205311775208,
          -0.2915075123310089,
          0.1400255262851715,
          0.03229280188679695,
          0.058748528361320496,
          -0.08084312081336975,
          -0.2053983062505722,
          -0.4976412057876587,
          0.49306023120880127
        ],
        [
          0.06391686946153641,
          0.1331961452960968,
          0.19331806898117065,
          0.09199114888906479,
          -0.13211306929588318,
          -0.10872088372707367,
          0.010709857568144798,
          0.18330970406532288,
          0.01680593006312847,
          0.03234139084815979,
          0.06578998267650604,
          0.33960461616516113,
          0.07596606761217117,
          0.21826300024986267,
          -0.3166325092315674,
          0.059800419956445694
        ],
        [
          0.05667486786842346,
          -0.04164455831050873,
          0.10403098911046982,
          -0.15840016305446625,
          0.0746234804391861,
          -0.05797988921403885,
          0.014155087992548943,
          -0.19972653687000275,
          -0.012499315664172173,
          0.11464856564998627,
          -0.3562103807926178,
          0.17495638132095337,
          -0.22015652060508728,
          0.13011527061462402,
          0.0797225758433342,
          -0.05155886709690094
        ],
        [
          0.09352179616689682,
          0.1358128786087036,
          -0.2054450660943985,
          0.05292631313204765,
          0.1539992392063141,
          0.017301013693213463,
          0.11450178921222687,
          0.0631738230586052,
          -0.13530340790748596,
          -0.0017183964373543859,
          -0.175409197807312,
          0.01953096129000187,
          0.0579964779317379,
          -0.0017028502188622952,
          -0.10844222456216812,
          0.03034878335893154
        ],
        [
          -0.08570152521133423,
          0.31432268023490906,
          -0.20259015262126923,
          -0.2371572107076645,
          -0.5720298290252686,
          0.09925705939531326,
          -0.1552368402481079,
          -0.17310760915279388,
          -0.19875065982341766,
          -0.1512833684682846,
          0.10775057226419449,
          0.2535243332386017,
          -0.038310348987579346,
          -0.11087936908006668,
          0.07109192758798599,
          -0.23425228893756866
        ],
        [
          0.16454270482063293,
          0.1106434166431427,
          -0.23563121259212494,
          -0.30380553007125854,
          0.10921934247016907,
          0.032195985317230225,
          -0.022735774517059326,
          0.11077268421649933,
          -0.10141293704509735,
          0.20282785594463348,
          0.15066303312778473,
          -0.00011459453526185825,
          0.16419191658496857,
          0.08404712378978729,
          -0.15946339070796967,
          -0.12413357943296432
        ],
        [
          -0.027334894984960556,
          -0.18063126504421234,
          -0.11874734610319138,
          -0.05762761831283569,
          0.11957912892103195,
          0.0214157085865736,
          0.04362905025482178,
          0.06925973296165466,
          -0.22971300780773163,
          0.32375627756118774,
          -0.05734047666192055,
          -0.09464000165462494,
          0.21021123230457306,
          -0.10468874126672745,
          -0.0008925081929191947,
          -0.005202175583690405
        ],
        [
          0.01064063049852848,
          -0.185661181807518,
          0.6003682613372803,
          -0.22127088904380798,
          0.4855126142501831,
          0.3317495584487915,
          0.034918271005153656,
          0.3039359748363495,
          0.17433275282382965,
          -0.16720463335514069,
          0.1536455899477005,
          -0.4420910179615021,
          -0.25548577308654785,
          -0.10827033966779709,
          -0.1438809633255005,
          0.1807619333267212
        ],
        [
          0.15744978189468384,
          0.13092589378356934,
          0.05143985152244568,
          -0.208588108420372,
          -0.34436649084091187,
          0.24169500172138214,
          0.11458473652601242,
          -0.0990980714559555,
          -0.16545914113521576,
          -0.32358768582344055,
          -0.16946032643318176,
          0.03697047382593155,
          -0.08188077807426453,
          -0.10589061677455902,
          -0.07889170199632645,
          -0.05184033885598183
        ],
        [
          0.17857182025909424,
          0.17321065068244934,
          0.421862930059433,
          -0.07464969903230667,
          0.035307012498378754,
          0.020347224548459053,
          0.1059848889708519,
          0.11818840354681015,
          0.2832197844982147,
          0.11009141802787781,
          0.3543907105922699,
          0.1328999400138855,
          -0.29566484689712524,
          0.028201621025800705,
          0.14487414062023163,
          -0.015952439978718758
        ],
        [
          -0.043187275528907776,
          0.1285814344882965,
          0.12193340063095093,
          -0.07551015168428421,
          0.023031584918498993,
          -0.02755872532725334,
          -0.030290016904473305,
          -0.05090940371155739,
          0.21243411302566528,
          -0.29468202590942383,
          0.1530250906944275,
          0.30191314220428467,
          -0.05718688666820526,
          -0.14767397940158844,
          0.0005154416430741549,
          -0.03718041256070137
        ],
        [
          -0.10535117238759995,
          0.02517293207347393,
          0.1900680959224701,
          -0.07858648151159286,
          -0.06245781108736992,
          0.296470582485199,
          -0.15985478460788727,
          -0.04084622114896774,
          0.04122278094291687,
          0.08375941962003708,
          0.09641975909471512,
          -0.0580328106880188,
          -0.058678679168224335,
          0.16212262213230133,
          0.07104618102312088,
          0.02861034870147705
        ],
        [
          -0.2704106867313385,
          -0.08779804408550262,
          -0.4881616532802582,
          0.3490865230560303,
          0.030320556834340096,
          -0.30078932642936707,
          -0.3494720757007599,
          0.09678584337234497,
          -0.015124373137950897,
          -0.23238308727741241,
          -0.12460736930370331,
          0.4148784875869751,
          0.2747845947742462,
          0.3229343891143799,
          -0.015551568940281868,
          0.039084676653146744
        ],
        [
          -0.08517646789550781,
          0.22666580975055695,
          0.07382439076900482,
          0.22810958325862885,
          0.10781046748161316,
          -0.12244166433811188,
          -0.009856490418314934,
          -0.02450377494096756,
          0.014655523002147675,
          0.36563295125961304,
          0.1360749453306198,
          -0.2303718626499176,
          -0.2968333661556244,
          -0.3723319172859192,
          -0.008820916526019573,
          0.02495347149670124
        ],
        [
          -0.3083595037460327,
          -0.025409603491425514,
          -0.0044397590681910515,
          0.10843974351882935,
          0.5785761475563049,
          0.5843670964241028,
          0.20045821368694305,
          -0.17354179918766022,
          0.04256511479616165,
          -0.09430737793445587,
          -0.00545861478894949,
          0.08711819350719452,
          0.17001357674598694,
          -0.5484256148338318,
          -0.30609065294265747,
          0.43732479214668274
        ],
        [
          0.39733806252479553,
          0.11411922425031662,
          0.057916708290576935,
          0.18777212500572205,
          -0.11388659477233887,
          0.13975167274475098,
          -0.36002400517463684,
          -0.026758605614304543,
          -0.2059118151664734,
          0.06612858921289444,
          0.009327027946710587,
          0.11345549672842026,
          0.11429992318153381,
          0.07735904306173325,
          -0.2961394190788269,
          0.10550303757190704
        ],
        [
          0.3112597167491913,
          -0.03406625613570213,
          0.1800500452518463,
          0.06575921922922134,
          0.0425691120326519,
          0.06583534181118011,
          0.15403340756893158,
          -0.07901011407375336,
          -0.013676054775714874,
          0.14903372526168823,
          0.17594295740127563,
          0.15650759637355804,
          0.18650023639202118,
          -0.5427109003067017,
          -0.041627299040555954,
          0.05700478330254555
        ]
      ]
    }
  ],
  [
    {
      "activation": "selu",
      "biases": [
        -0.043984659016132355,
        -0.13701274991035461,
        -0.03563333675265312,
        -0.02349715121090412,
        -0.1648113876581192,
        -0.06306466460227966,
        0.03019481711089611,
        -0.030105741694569588,
        -0.1175139918923378,
        -0.06379927694797516,
        0.09512745589017868,
        0.0696600154042244,
        -0.06922046840190887,
        0.02611435018479824,
        0.12675973773002625,
        -0.18910075724124908
      ],
      "weights": [
        [
          -0.26242318749427795,
          0.0545361153781414,
          0.23588308691978455,
          0.22354374825954437,
          0.048246826976537704,
          -0.1747502237558365,
          -0.3116275668144226,
          0.03839016705751419,
          0.07058341801166534,
          -0.10859208554029465,
          -0.08335930109024048,
          -0.04584812745451927,
          0.0005531266797333956,
          0.14105339348316193,
          0.17484094202518463,
          -0.1650673896074295
        ],
        [
          0.21881796419620514,
          0.007394455838948488,
          -0.21870507299900055,
          0.06701237708330154,
          0.18659967184066772,
          -0.11535709351301193,
          -0.10901036858558655,
          -0.23846544325351715,
          -0.19962789118289948,
          -0.23079116642475128,
          -0.13308149576187134,
          -0.16840218007564545,
          0.10040266811847687,
          -0.09135294705629349,
          -0.13848960399627686,
          -0.13691601157188416
        ],
        [
          -0.22345250844955444,
          -0.21416707336902618,
          -0.2574270963668823,
          0.2742113471031189,
          -0.09750961512327194,
          0.0759948343038559,
          -0.07769948989152908,
          0.09191197901964188,
          0.21092866361141205,
          0.2341310679912567,
          -0.08695270866155624,
          -0.22883053123950958,
          -0.12262637168169022,
          0.054932840168476105,
          0.08930989354848862,
          0.1612662672996521
        ],
        [
          0.04107901081442833,
          -0.77430659532547,
          -0.011164188385009766,
          0.0701565220952034,
          0.06483345478773117,
          -0.19819779694080353,
          -0.18701604008674622,
          0.06148472800850868,
          -0.19558370113372803,
          -0.15939095616340637,
          0.08091443032026291,
          -0.09596263617277145,
          0.03938821703195572,
          0.19020402431488037,
          0.017829706892371178,
          -0.23237760365009308
        ],
        [
          0.15841779112815857,
          -0.19076573848724365,
          0.08473558723926544,
          -0.15120141208171844,
          0.09034080058336258,
          0.16751787066459656,
          -0.17403759062290192,
          0.003358424874022603,
          -0.2628374397754669,
          -0.006806888151913881,
          0.10177240520715714,
          0.02498355507850647,
          0.053845033049583435,
          -0.10250192880630493,
          -0.10465143620967865,
          0.09930427372455597
        ],
        [
          -0.25113654136657715,
          0.11061342805624008,
          -0.11505325138568878,
          -0.20831583440303802,
          -0.056054797023534775,
          -0.28427475690841675,
          0.15907283127307892,
          0.0038613758515566587,
          0.050366878509521484,
          -0.11722231656312943,
          0.07641932368278503,
          0.047223422676324844,
          -0.04070625081658363,
          0.351121723651886,
          0.3424643278121948,
          0.05110575631260872
        ],
        [
          0.20995688438415527,
          0.16005288064479828,
          0.09211307018995285,
          -0.1543419510126114,
          0.034599971026182175,
          -0.28022676706314087,
          -0.19606520235538483,
          0.22330091893672943,
          0.35468366742134094,
          0.12996721267700195,
          0.09017187356948853,
          -0.14362315833568573,
          -0.16673089563846588,
          -0.10740399360656738,
          0.1902126669883728,
          0.3258269131183624
        ],
        [
          0.025220846757292747,
          0.031360261142253876,
          0.2445743829011917,
          -0.12595844268798828,
          -0.2573006749153137,
          0.14971746504306793,
          0.2031518965959549,
          -0.0023417887277901173,
          -0.03983983024954796,
          -0.02316935546696186,
          -0.221281960606575,
          -0.08961542695760727,
          -0.35132551193237305,
          -0.188426673412323,
          -0.1387036293745041,
          -0.17536313831806183
        ],
        [
          0.128465935587883,
          0.5119856595993042,
          0.13783292472362518,
          0.13094478845596313,
          0.17320044338703156,
          0.2969587445259094,
          -0.04396842047572136,
          0.3140036463737488,
          0.2574159502983093,
          0.13746874034404755,
          -0.10012977570295334,
          -0.0420956090092659,
          -0.5749985575675964,
          -0.025040945038199425,
          -0.7942415475845337,
          0.04634188860654831
        ],
        [
          -0.07835936546325684,
          -0.04016933962702751,
          0.06445838510990143,
          -0.03828065097332001,
          -0.12021033465862274,
          0.023364733904600143,
          0.1934511810541153,
          -0.25117436051368713,
          -0.09621172398328781,
          -0.012956337071955204,
          -0.13368013501167297,
          0.008078101091086864,
          0.12169262021780014,
          0.0361514687538147,
          0.05843512341380119,
          -0.13055509328842163
        ],
        [
          -0.06906698644161224,
          -0.003041875781491399,
          -0.34308502078056335,
          0.025059808045625687,
          0.08196016401052475,
          -0.09379760175943375,
          0.049061257392168045,
          -0.16680605709552765,
          0.10939699411392212,
          -0.0577944740653038,
          0.10745391249656677,
          -0.25128722190856934,
          0.0019236149964854121,
          -0.04078209400177002,
          0.12249033898115158,
          0.1204070895910263
        ],
        [
          -0.007907968945801258,
          0.5217736959457397,
          0.18005190789699554,
          0.44556447863578796,
          -0.2877672612667084,
          -0.029058881103992462,
          0.1515764743089676,
          -0.03270980715751648,
          0.04474043473601341,
          -0.3950289785861969,
          0.08133924007415771,
          -0.32186079025268555,
          0.24789868295192719,
          0.14298054575920105,
          0.36064156889915466,
          0.03759186342358589
        ],
        [
          0.057928118854761124,
          -0.16238485276699066,
          0.05913800746202469,
          -0.07595188170671463,
          -0.09692678600549698,
          0.21292828023433685,
          0.02280440367758274,
          0.04475690424442291,
          -0.059945132583379745,
          -0.20301099121570587,
          0.06448681652545929,
          -0.035643450915813446,
          0.1161312684416771,
          -0.048898808658123016,
          -0.06860941648483276,
          0.17247551679611206
        ],
        [
          0.19557307660579681,
          -0.06953340768814087,
          0.09859035164117813,
          0.06301458925008774,
          -0.14531724154949188,
          0.05272350087761879,
          0.08966542780399323,
          -0.35792112350463867,
          -0.3969630002975464,
          -0.05603174492716789,
          0.06043151021003723,
          -0.004970388486981392,
          -0.045601896941661835,
          -0.20415669679641724,
          0.11612270772457123,
          -0.011357057839632034
        ],
        [
          0.19686375558376312,
          0.15568280220031738,
          0.1600697785615921,
          -0.09303798526525497,
          -0.1315375566482544,
          -0.26290133595466614,
          0.1920785903930664,
          -0.19335567951202393,
          0.01774759590625763,
          0.15112051367759705,
          0.11208336800336838,
          -0.09079109132289886,
          0.05866333097219467,
          0.06977309286594391,
          0.07020799070596695,
          0.10566948354244232
        ],
        [
          0.25988325476646423,
          -0.2558467984199524,
          -0.2296896129846573,
          0.03610280901193619,
          -0.1879018396139145,
          -0.09954740107059479,
          -0.04990125447511673,
          0.22204405069351196,
          -0.05903816223144531,
          -0.003773716278374195,
          0.1346254199743271,
          0.11862729489803314,
          -0.12197565287351608,
          0.0032037540804594755,
          -0.1363838165998459,
          -0.20997369289398193
        ],
        [
          0.15763837099075317,
          0.24150025844573975,
          -0.23076489567756653,
          -0.3125327229499817,
          0.052792444825172424,
          -0.14755430817604065,
          -0.009181424975395203,
          0.36232835054397583,
          -0.14011147618293762,
          0.47755828499794006,
          -0.31501704454421997,
          -0.25232377648353577,
          0.29315242171287537,
          0.11768494546413422,
          0.02103850431740284,
          0.2954733967781067
        ],
        [
          0.10872416198253632,
          0.20457397401332855,
          -0.26863130927085876,
          0.14817045629024506,
          -0.15377648174762726,
          -0.07342788577079773,
          -0.06638263165950775,
          -0.15535657107830048,
          0.07339409738779068,
          0.3209995627403259,
          -0.006964446045458317,
          -0.23277272284030914,
          -0.13709136843681335,
          0.0017723779892548919,
          0.052872464060783386,
          -0.1322506070137024
        ],
        [
          -0.18808677792549133,
          -0.027405498549342155,
          -0.23449788987636566,
          0.2701225280761719,
          -0.3431885838508606,
          0.4331028163433075,
          -0.07348617911338806,
          0.33169257640838623,
          0.1758950650691986,
          0.4524582028388977,
          -0.28478142619132996,
          -0.012094419449567795,
          0.15770673751831055,
          0.15775354206562042,
          -0.01564951241016388,
          0.006804898381233215
        ],
        [
          0.048416849225759506,
          0.08696954697370529,
          0.0886756107211113,
          0.03565504029393196,
          -0.037440601736307144,
          -0.24382758140563965,
          0.26083436608314514,
          -0.11451635509729385,
          0.020222868770360947,
          -0.05210856348276138,
          0.40099668502807617,
          -0.010202274657785892,
          -0.08691398799419403,
          -0.1842225342988968,
          -0.00817788764834404,
          -0.018917657434940338
        ],
        [
          0.13965333998203278,
          -0.051937948912382126,
          -0.29407745599746704,
          -0.4148654043674469,
          -0.17948538064956665,
          0.08676711469888687,
          -0.2363574057817459,
          -0.06602340191602707,
          -0.11335768550634384,
          0.11792558431625366,
          0.12006166577339172,
          -0.21030186116695404,
          0.44969719648361206,
          -0.03787257894873619,
          -0.08183715492486954,
          0.11247680336236954
        ],
        [
          -0.09240268915891647,
          0.024331511929631233,
          -0.02568647265434265,
          0.010440217331051826,
          0.19276650249958038,
          -0.11398491263389587,
          -0.02613181434571743,
          0.012814369052648544,
          0.1790672242641449,
          -0.1864379644393921,
          0.09447815269231796,
          0.030726809054613113,
          -0.20098920166492462,
          0.2602598965167999,
          0.1886233538389206,
          0.1780693382024765
        ],
        [
          -0.11028216034173965,
          0.49237585067749023,
          0.10258573293685913,
          0.08528617769479752,
          -0.34597787261009216,
          0.18890416622161865,
          -0.025382302701473236,
          0.02931256592273712,
          0.33076828718185425,
          0.16763965785503387,
          -0.2875312864780426,
          -0.06440574675798416,
          -0.11942452937364578,
          -0.14887866377830505,
          0.018584631383419037,
          0.24512654542922974
        ],
        [
          -0.13936392962932587,
          0.11433307081460953,
          -0.07814138382673264,
          -0.06195232644677162,
          -0.22042839229106903,
          0.01602238044142723,
          0.19377635419368744,
          -0.3049865663051605,
          0.031669143587350845,
          0.11369844526052475,
          0.16491971909999847,
          0.1030537337064743,
          -0.09824822843074799,
          0.04513167217373848,
          0.09333635121583939,
          0.013822137378156185
        ],
        [
          -0.009066067636013031,
          -0.35705453157424927,
          0.08141567558050156,
          -0.2616514265537262,
          -0.02994712069630623,
          0.2719896733760834,
          -0.11048895120620728,
          0.17770397663116455,
          -0.2418632060289383,
          0.09944110363721848,
          0.15454785525798798,
          0.17804880440235138,
          0.01843852736055851,
          -0.1304568201303482,
          -0.6380752921104431,
          0.17292538285255432
        ],
        [
          -0.12648455798625946,
          0.07211876660585403,
          -0.07278657704591751,
          -0.008904210291802883,
          0.17966093122959137,
          0.0484439954161644,
          -0.035857561975717545,
          -0.14197273552417755,
          -0.14036273956298828,
          0.13968539237976074,
          -0.09753970801830292,
          0.06770224124193192,
          0.01597822830080986,
          -0.09696467220783234,
          0.04937923327088356,
          0.4034981429576874
        ],
        [
          -0.02866819128394127,
          0.1157662495970726,
          -0.09810571372509003,
          0.26663556694984436,
          -0.006650021765381098,
          -0.021967576816678047,
          -0.09153144806623459,
          -0.13439542055130005,
          -0.11521902680397034,
          0.3000549376010895,
          -0.1589670479297638,
          -0.11682388931512833,
          0.2157071828842163,
          0.45400816202163696,
          0.019917426630854607,
          0.10664989799261093
        ],
        [
          -0.09680677950382233,
          -0.21745648980140686,
          -0.09253919869661331,
          0.03627248853445053,
          0.052747488021850586,
          -0.2164333164691925,
          0.08723058551549911,
          -0.024418246001005173,
          -0.3022167980670929,
          -0.14006386697292328,
          0.11388678103685379,
          -0.2641231119632721,
          -0.012193207629024982,
          0.10069414228200912,
          0.28673258423805237,
          0.22458340227603912
        ],
        [
          0.24770241975784302,
          0.2593279480934143,
          -0.09233696013689041,
          -0.06691636145114899,
          0.38925355672836304,
          0.30797770619392395,
          -0.004591676872223616,
          -0.05240117758512497,
          0.10518432408571243,
          -0.07626388221979141,
          -0.011375172063708305,
          0.038812875747680664,
          0.06711691617965698,
          0.027708202600479126,
          0.11573924124240875,
          -0.11149673163890839
        ],
        [
          -0.08230350911617279,
          0.11266673356294632,
          -0.12721852958202362,
          -0.18766142427921295,
          0.08105722814798355,
          0.04370732605457306,
          0.015007606707513332,
          -0.13651706278324127,
          0.02875778079032898,
          -0.10001488775014877,
          -0.1963946521282196,
          -0.21217568218708038,
          0.10953141003847122,
          0.04241827130317688,
          -0.23432841897010803,
          -0.3126024007797241
        ],
        [
          0.18964827060699463,
          -0.13768793642520905,
          0.30422142148017883,
          0.15078766644001007,
          -0.17293836176395416,
          0.09485730528831482,
          -0.10770726203918457,
          -0.21136699616909027,
          -0.16960489749908447,
          0.03642980009317398,
          -0.05538340285420418,
          0.045588795095682144,
          0.17073501646518707,
          -0.021519482135772705,
          0.11918481439352036,
          -0.22371138632297516
        ],
        [
          0.0210641548037529,
          0.09284853935241699,
          0.07188586890697479,
          -0.08335820585489273,
          -0.014245453290641308,
          -0.13798686861991882,
          0.032076358795166016,
          -0.2687007188796997,
          -0.06748531758785248,
          0.18468834459781647,
          -0.07950781285762787,
          -0.1334516406059265,
          0.03181041032075882,
          0.04473152011632919,
          0.07966171205043793,
          0.10094644874334335
        ],
        [
          -0.09929937869310379,
          0.10013456642627716,
          0.2963390350341797,
          0.051876772195100784,
          0.3378143012523651,
          0.2293621152639389,
          0.33084219694137573,
          0.06544796377420425,
          -0.43149662017822266,
          -0.2572692334651947,
          0.15516312420368195,
          -0.1274903267621994,
          -0.05959198996424675,
          0.1889001727104187,
          0.11114344000816345,
          -0.12153555452823639
        ],
        [
          0.05227268114686012,
          0.20130251348018646,
          -0.04153010994195938,
          0.17974023520946503,
          0.08867378532886505,
          0.1640080362558365,
          0.10563433915376663,
          -0.014874979853630066,
          0.021681731566786766,
          -0.004357549827545881,
          -0.07218049466609955,
          0.09377730637788773,
          -0.037534430623054504,
          0.0964834913611412,
          -0.0996524915099144,
          0.010863770730793476
        ],
        [
          0.4452210068702698,
          0.25044000148773193,
          -0.14082710444927216,
          0.16991642117500305,
          -0.17846426367759705,
          0.19547443091869354,
          -0.12509505450725555,
          -0.16164971888065338,
          0.03324122726917267,
          -0.1854420006275177,
          -0.13195639848709106,
          0.1017770916223526,
          0.28708669543266296,
          0.04939808323979378,
          0.3032165765762329,
          0.0824364647269249
        ],
        [
          -0.12422248721122742,
          0.24946457147598267,
          -0.03652580454945564,
          -0.14762474596500397,
          0.2874738276004791,
          -0.3553786277770996,
          -0.24797481298446655,
          0.37747079133987427,
          0.020758863538503647,
          -0.1604842096567154,
          -0.2621297538280487,
          0.20136217772960663,
          -0.16550205647945404,
          0.11465378850698471,
          0.05549483001232147,
          -0.1767541915178299
        ],
        [
          -0.20647041499614716,
          -0.06293193250894547,
          0.0789412185549736,
          -0.12615367770195007,
          -0.22438228130340576,
          0.5460690259933472,
          0.04031004384160042,
          0.27953073382377625,
          0.01614450477063656,
          0.1508404165506363,
          -0.018904145807027817,
          0.15832246840000153,
          -0.22620026767253876,
          -0.0007188133895397186,
          0.039890188723802567,
          -0.14889752864837646
        ],
        [
          -0.0860188901424408,
          -0.10722259432077408,
          0.026101509109139442,
          -0.06577347218990326,
          -0.2962111532688141,
          -0.23168215155601501,
          -0.03906766697764397,
          -0.03347507864236832,
          0.251396507024765,
          0.18616704642772675,
          0.33732616901397705,
          -0.18146398663520813,
          -0.2531135678291321,
          -0.03854970633983612,
          0.06977210938930511,
          0.1698766052722931
        ],
        [
          -0.08877580612897873,
          -0.29076075553894043,
          0.09342417120933533,
          0.22084946930408478,
          -0.39236265420913696,
          0.22255058586597443,
          -0.2987101674079895,
          -0.06958410143852234,
          0.15892766416072845,
          0.1999228447675705,
          -0.2824352979660034,
          0.08087611198425293,
          -0.30609071254730225,
          0.0800575241446495,
          0.2921024262905121,
          0.03790203854441643
        ],
        [
          -0.1155286654829979,
          -0.11954866349697113,
          -0.06979336589574814,
          -0.0012084606569260359,
          -0.13737018406391144,
          0.2563909590244293,
          0.188343346118927,
          -0.044732749462127686,
          0.3101702332496643,
          -0.0072944615967571735,
          -0.15884023904800415,
          0.10558564215898514,
          -0.10667303204536438,
          -0.36966052651405334,
          0.05149930715560913,
          0.04308493807911873
        ],
        [
          -0.07256433367729187,
          -0.19126982986927032,
          -0.05289272591471672,
          -0.14667253196239471,
          -0.19377370178699493,
          0.0466960147023201,
          0.08167370408773422,
          0.06169140711426735,
          0.1175389289855957,
          -0.06098903715610504,
          0.3563632071018219,
          -0.14673908054828644,
          -0.47269776463508606,
          0.1450028121471405,
          0.1926773488521576,
          0.1532883644104004
        ],
        [
          0.12274706363677979,
          -0.0917988196015358,
          -0.005570720415562391,
          0.07332997024059296,
          0.03033268451690674,
          0.11166990548372269,
          -0.11401988565921783,
          0.1295260787010193,
          -0.1325608640909195,
          -0.11305704712867737,
          -0.20876553654670715,
          -0.1220928505063057,
          -0.09799030423164368,
          -0.1695447713136673,
          0.01082584261894226,
          0.0314563624560833
        ],
        [
          0.17473991215229034,
          0.11302187293767929,
          -0.1429654210805893,
          -0.07972033321857452,
          -0.25808531045913696,
          0.25487080216407776,
          0.0431087464094162,
          0.15988527238368988,
          -0.1212046891450882,
          0.15492069721221924,
          -0.09101058542728424,
          -0.1690252423286438,
          -0.2966460883617401,
          -0.22927770018577576,
          0.16891694068908691,
          -0.15599825978279114
        ],
        [
          0.007903064601123333,
          -0.03872644528746605,
          -0.30985215306282043,
          0.2937157452106476,
          -0.37099021673202515,
          0.15658721327781677,
          0.30367618799209595,
          -0.20890669524669647,
          -0.13801835477352142,
          0.027492167428135872,
          -0.07884705811738968,
          -0.17092405259609222,
          0.1303078681230545,
          0.1815948337316513,
          0.1119428277015686,
          -0.031867723912000656
        ],
        [
          -0.03003544732928276,
          0.024837346747517586,
          0.049904659390449524,
          0.0334000363945961,
          -0.12936672568321228,
          -0.01764272153377533,
          -0.011593629606068134,
          -0.048873499035835266,
          0.17807461321353912,
          0.13263793289661407,
          0.08195436745882034,
          0.02701934427022934,
          0.007693005725741386,
          -0.025036348029971123,
          -0.021530114114284515,
          -0.06848971545696259
        ],
        [
          0.09910355508327484,
          -0.24905890226364136,
          -0.2999420762062073,
          -0.2063753604888916,
          -0.18517792224884033,
          -0.2096533477306366,
          -0.015936531126499176,
          -0.21350933611392975,
          -0.15655794739723206,
          0.10366644710302353,
          0.16358906030654907,
          0.02643192932009697,
          -0.19527103006839752,
          0.16674767434597015,
          -0.07810720801353455,
          -0.12335530668497086
        ],
        [
          0.01935384050011635,
          -0.023490075021982193,
          -0.34236595034599304,
          -0.14340370893478394,
          -0.18182478845119476,
          -0.02944345586001873,
          0.2787163257598877,
          -0.3080592751502991,
          0.012990741990506649,
          0.026911843568086624,
          0.13709940016269684,
          0.19788795709609985,
          0.1141500324010849,
          0.07119636982679367,
          -0.017740843817591667,
          -0.12658460438251495
        ],
        [
          -0.0638917088508606,
          0.031202664598822594,
          0.10705544799566269,
          -0.10618995130062103,
          -0.2336539328098297,
          -0.018843451514840126,
          0.02180240862071514,
          0.11361932754516602,
          -0.11519202589988708,
          -0.2587188482284546,
          -0.12314245849847794,
          -0.1573346108198166,
          -0.02397840842604637,
          0.2479235976934433,
          0.07369894534349442,
          -0.02554400824010372
        ],
        [
          -0.1479123830795288,
          -0.11707070469856262,
          0.03909837454557419,
          0.16121460497379303,
          -0.14313720166683197,
          0.1589474231004715,
          -0.29957902431488037,
          -0.19946631789207458,
          -0.06876110285520554,
          -0.054235510528087616,
          0.10224578529596329,
          0.27859532833099365,
          -0.05477289855480194,
          0.026462970301508904,
          0.10601112991571426,
          -0.04093990847468376
        ],
        [
          0.18130140006542206,
          -0.054052453488111496,
          0.07570388913154602,
          0.20024262368679047,
          -0.0028517029713839293,
          -0.07314834743738174,
          -0.09059279412031174,
          -0.2574736773967743,
          0.09678386151790619,
          -0.17495673894882202,
          0.12129442393779755,
          0.06196063756942749,
          -0.016807256266474724,
          0.06783444434404373,
          0.07098723202943802,
          0.020772023126482964
        ],
        [
          -0.18382374942302704,
          0.3064913749694824,
          0.06846406310796738,
          0.4734322130680084,
          -0.11145664751529694,
          -0.3596242070198059,
          -0.0016110397409647703,
          -0.032829899340867996,
          -0.1979161500930786,
          -0.21719782054424286,
          0.017970604822039604,
          0.22927162051200867,
          -0.2806599736213684,
          -0.04130685701966286,
          0.001156085985712707,
          -0.09197907894849777
        ],
        [
          0.1816309094429016,
          0.28544336557388306,
          -0.13622809946537018,
          -0.23737914860248566,
          0.13895466923713684,
          -0.08962833881378174,
          -0.22975122928619385,
          -0.11557348072528839,
          0.030469615012407303,
          -0.01271971594542265,
          0.09664551913738251,
          0.007545824628323317,
          -0.23913879692554474,
          -0.06627381592988968,
          0.10453721880912781,
          0.05571071431040764
        ],
        [
          -0.025235118344426155,
          0.29136157035827637,
          0.2652910649776459,
          0.10858571529388428,
          0.23481282591819763,
          0.27154234051704407,
          -0.09064390510320663,
          -0.1826077401638031,
          -0.424930602312088,
          -0.11325287818908691,
          0.08030956238508224,
          0.13403348624706268,
          0.06537903845310211,
          0.1453620344400406,
          0.12422642111778259,
          0.013605105690658092
        ],
        [
          0.0711398646235466,
          0.13075359165668488,
          -0.03256751224398613,
          0.05061958357691765,
          -0.1434016227722168,
          -0.16709047555923462,
          0.41191425919532776,
          -0.21915371716022491,
          -0.17785798013210297,
          -0.05956841632723808,
          0.1563066691160202,
          -0.15640020370483398,
          -0.028591442853212357,
          0.020313551649451256,
          0.00014491970068775117,
          -0.01303549762815237
        ],
        [
          0.020585816353559494,
          -0.6849154233932495,
          0.11458490043878555,
          -0.09781725704669952,
          0.07647567242383957,
          -0.2027759850025177,
          -0.2721019983291626,
          0.20052050054073334,
          0.1571706086397171,
          0.44868114590644836,
          -0.03989032283425331,
          0.17598970234394073,
          0.20051009953022003,
          -0.13365891575813293,
          0.3156655728816986,
          -0.0803719311952591
        ],
        [
          -0.2887721359729767,
          0.32499197125434875,
          0.15989521145820618,
          -0.13888531923294067,
          -0.051670320332050323,
          0.21282702684402466,
          0.23970545828342438,
          0.1889023333787918,
          -0.24528950452804565,
          -0.14411962032318115,
          -0.16982479393482208,
          -0.1811532974243164,
          0.35112133622169495,
          -0.35619214177131653,
          -0.12850864231586456,
          0.37697935104370117
        ],
        [
          0.060167551040649414,
          -0.32509076595306396,
          0.11972993612289429,
          0.2728363871574402,
          0.17629757523536682,
          -0.16696451604366302,
          -0.2934742271900177,
          -0.28127992153167725,
          0.15051032602787018,
          -0.1363561898469925,
          0.008252153173089027,
          -0.007291998714208603,
          -0.19532600045204163,
          0.2831903398036957,
          -0.39660561084747314,
          0.06781433522701263
        ],
        [
          -0.1434323787689209,
          0.18968063592910767,
          -0.19357730448246002,
          0.05531571805477142,
          0.16068300604820251,
          0.07441447675228119,
          0.1588883250951767,
          0.015612000599503517,
          -0.029660077765583992,
          0.10352876037359238,
          -0.08045171946287155,
          0.034666821360588074,
          -0.008356359787285328,
          -0.15319932997226715,
          0.08291492611169815,
          -0.11917059123516083
        ],
        [
          -0.14368903636932373,
          0.05665849521756172,
          -0.13938824832439423,
          0.17994439601898193,
          0.007579530589282513,
          -0.10455115884542465,
          0.06239096075296402,
          -0.12422210723161697,
          0.2257682979106903,
          -0.17049404978752136,
          0.12708483636379242,
          -0.06919826567173004,
          -0.2099883109331131,
          -0.2578218877315521,
          -0.20994476974010468,
          0.23662567138671875
        ],
        [
          -0.12340575456619263,
          0.03190068528056145,
          -0.12861435115337372,
          0.12513218820095062,
          -0.11170068383216858,
          0.02254948392510414,
          0.10967834293842316,
          -0.020225102081894875,
          -0.12941063940525055,
          -0.009832629933953285,
          -0.1009366437792778,
          0.22341710329055786,
          -0.20079587399959564,
          0.06855213642120361,
          0.17300237715244293,
          0.25334522128105164
        ],
        [
          0.10835948586463928,
          0.16513198614120483,
          0.09493207931518555,
          -0.194846510887146,
          0.10188529640436172,
          0.035553205758333206,
          -0.03125707805156708,
          -0.33518895506858826,
          0.09487532824277878,
          0.08667007833719254,
          0.12432976812124252,
          -0.33830028772354126,
          0.08203957974910736,
          0.10697481781244278,
          -0.016341641545295715,
          0.02327338047325611
        ],
        [
          -0.2670089602470398,
          0.0007982647512108088,
          0.17804835736751556,
          0.11163982003927231,
          -0.0005013941554352641,
          -0.02445133961737156,
          -0.024484433233737946,
          -0.09789807349443436,
          -0.038555704057216644,
          0.07185445725917816,
          -0.08380118757486343,
          -0.11922717094421387,
          -0.2542174756526947,
          0.11484909057617188,
          0.08608926087617874,
          0.21496790647506714
        ],
        [
          0.026402978226542473,
          0.08315204828977585,
          -0.06792579591274261,
          0.0990975871682167,
          -0.11238498985767365,
          0.1405823975801468,
          -0.164279043674469,
          -0.050621021538972855,
          0.1766568273305893,
          -0.07871203869581223,
          0.1751079261302948,
          -0.09960358589887619,
          0.22914893925189972,
          0.13705667853355408,
          -0.0711144506931305,
          -0.020689351484179497
        ],
        [
          0.08134400099515915,
          0.026209821924567223,
          -0.04940049350261688,
          0.2127639800310135,
          -0.04051259532570839,
          -0.259050577878952,
          -0.2994191646575928,
          0.15333576500415802,
          0.051723677664995193,
          -0.1285276561975479,
          0.012488010339438915,
          -0.011874201707541943,
          -0.14656150341033936,
          0.044433657079935074,
          -0.04247111827135086,
          -0.16644760966300964
        ],
        [
          0.14182822406291962,
          0.049895625561475754,
          -0.2523654103279114,
          -0.09598612785339355,
          0.2223273366689682,
          0.3911830484867096,
          -0.3523370027542114,
          0.047824278473854065,
          -0.18365739285945892,
          0.1763419657945633,
          0.032460737973451614,
          0.15179745852947235,
          -0.1329086571931839,
          0.22901397943496704,
          0.14853814244270325,
          -0.2286742925643921
        ],
        [
          0.18250475823879242,
          0.15574654936790466,
          -0.027328914031386375,
          -0.2404399961233139,
          0.1508633941411972,
          -0.3026582598686218,
          0.13645556569099426,
          -0.18897055089473724,
          -0.06789889931678772,
          0.08244448900222778,
          0.061961423605680466,
          0.15510514378547668,
          0.017503654584288597,
          0.11562720686197281,
          -0.09510869532823563,
          -0.16585946083068848
        ],
        [
          -0.34419551491737366,
          -0.032568249851465225,
          -0.04815004765987396,
          0.12172091007232666,
          0.03956647962331772,
          -0.01964804157614708,
          -0.09039062261581421,
          0.05505082383751869,
          0.14595648646354675,
          0.06880366802215576,
          0.09637977182865143,
          -0.07517720758914948,
          -0.06943076848983765,
          0.21614794433116913,
          -0.23869524896144867,
          0.10729624330997467
        ],
        [
          -0.13834916055202484,
          -0.23412060737609863,
          -0.009174592792987823,
          -0.010440273210406303,
          0.15227779746055603,
          -0.03606192395091057,
          0.006584338378161192,
          0.048085663467645645,
          0.15705057978630066,
          -0.16359364986419678,
          -0.28195828199386597,
          -0.03246656060218811,
          -0.08593609184026718,
          -0.3211463987827301,
          0.09618793427944183,
          -0.26607322692871094
        ],
        [
          -0.25563785433769226,
          -0.03204558044672012,
          -0.2795710265636444,
          -0.06064697727560997,
          0.028509464114904404,
          -0.2307785302400589,
          -0.15911664068698883,
          0.26548466086387634,
          -0.059534650295972824,
          -0.2086954116821289,
          0.08850611001253128,
          -0.3471783697605133,
          0.1228078231215477,
          0.16432207822799683,
          -0.12433502078056335,
          -0.08465670049190521
        ],
        [
          -0.013041047379374504,
          -0.05164599418640137,
          -0.36752164363861084,
          0.09547651559114456,
          0.08544257283210754,
          0.30487897992134094,
          0.05030246078968048,
          -0.02689845860004425,
          -0.14226950705051422,
          -0.08861474692821503,
          -0.050415586680173874,
          0.0851856917142868,
          -0.06087718904018402,
          0.043941013514995575,
          -0.06873416900634766,
          0.03080875240266323
        ],
        [
          0.03079107403755188,
          0.053535766899585724,
          -0.0915520116686821,
          -0.013308733701705933,
          -0.059775836765766144,
          -0.40410757064819336,
          0.26856210827827454,
          0.049372944980859756,
          0.6207728981971741,
          -0.15520426630973816,
          0.14146041870117188,
          -0.3813443183898926,
          0.2563939094543457,
          -0.2993164658546448,
          -0.41301432251930237,
          -0.07975316047668457
        ],
        [
          0.04612429440021515,
          0.018139466643333435,
          0.20191627740859985,
          -0.008115102536976337,
          -0.22407780587673187,
          0.030812643468379974,
          0.09113233536481857,
          -0.11464845389127731,
          -0.47868385910987854,
          -0.4194852411746979,
          0.03361088037490845,
          0.08677788078784943,
          0.07316842675209045,
          0.1083156019449234,
          -0.1630253791809082,
          0.21422593295574188
        ],
        [
          0.08567298948764801,
          -0.1003577709197998,
          -0.004807484336197376,
          0.07466566562652588,
          0.04265900328755379,
          0.24164392054080963,
          0.5161247849464417,
          0.08370812982320786,
          -0.6692826151847839,
          -0.2792222797870636,
          -0.0672578513622284,
          0.35389527678489685,
          0.11408486217260361,
          -0.07960334420204163,
          -0.4911453425884247,
          -0.4291360378265381
        ],
        [
          0.020136121660470963,
          0.04766155406832695,
          -0.07455753535032272,
          -0.05219379439949989,
          -0.04614327475428581,
          -0.15853358805179596,
          -0.2311735898256302,
          -0.25037169456481934,
          0.11446215212345123,
          -0.12739227712154388,
          0.06653362512588501,
          -0.016281960532069206,
          -0.09797511249780655,
          0.3743706941604614,
          -0.01963115483522415,
          -0.04254831373691559
        ],
        [
          -0.3845979571342468,
          -0.13101725280284882,
          0.03898388147354126,
          -0.03928724676370621,
          0.1536126434803009,
          -0.18714244663715363,
          0.3359650671482086,
          -0.39404934644699097,
          0.32223039865493774,
          -0.0805729553103447,
          0.24111473560333252,
          0.26919785141944885,
          0.3331223428249359,
          0.4606432020664215,
          -0.1578582525253296,
          -0.14531119167804718
        ],
        [
          0.009240759536623955,
          -0.21264436841011047,
          0.2161060869693756,
          0.3277431130409241,
          -0.08953241258859634,
          -0.2865675091743469,
          0.21339431405067444,
          -0.07369709759950638,
          -0.30928197503089905,
          0.11840175092220306,
          0.20355698466300964,
          -0.16953283548355103,
          0.0990447849035263,
          0.1541285216808319,
          0.0551607646048069,
          -0.24100856482982635
        ],
        [
          0.4057575464248657,
          -0.03818744048476219,
          -0.29558637738227844,
          -0.05704006552696228,
          0.01142581831663847,
          -0.020984841510653496,
          0.0033361942041665316,
          0.12995545566082,
          0.05652311444282532,
          0.167619988322258,
          -0.1583688110113144,
          -0.14417554438114166,
          0.06703345477581024,
          0.1914064586162567,
          0.25801947712898254,
          -0.1156821921467781
        ],
        [
          0.19675439596176147,
          -0.0728062093257904,
          0.2296210080385208,
          -0.18807850778102875,
          0.06272832304239273,
          0.07151651382446289,
          -0.024600254371762276,
          -0.020247217267751694,
          -0.3041502833366394,
          -0.011647623032331467,
          -0.05181298777461052,
          0.016914404928684235,
          0.21620652079582214,
          -0.2213306725025177,
          -0.07286570966243744,
          0.041147712618112564
        ],
        [
          0.07501676678657532,
          -0.11449894309043884,
          0.24673286080360413,
          -0.23142790794372559,
          -0.22693805396556854,
          -0.03212392330169678,
          0.025813469663262367,
          0.05345572158694267,
          0.08448024094104767,
          0.05637922137975693,
          0.02103290893137455,
          0.0338057316839695,
          -0.05390855669975281,
          0.10619217157363892,
          0.1964033842086792,
          -0.2517724633216858
        ],
        [
          -0.12800727784633636,
          0.020283935591578484,
          -0.2963717579841614,
          -0.14047835767269135,
          -0.21906785666942596,
          -0.11133655905723572,
          -0.1929634064435959,
          0.09979577362537384,
          -0.05274157598614693,
          0.02431706339120865,
          0.08367990702390671,
          0.055716581642627716,
          -0.0781259685754776,
          0.06934255361557007,
          0.052281927317380905,
          -0.22604472935199738
        ]
      ]
    }
  ],
  [
    {
      "activation": "selu",
      "biases": [
        0.05896502360701561,
        -0.009326504543423653,
        -0.05607118457555771,
        0.06495412439107895,
        0.04562896117568016,
        -0.03635293245315552,
        -0.09705083817243576,
        -0.17322440445423126,
        0.1716749668121338,
        -0.2898375689983368,
        -0.12158046662807465,
        -0.10858353972434998,
        -0.11110570281744003,
        0.12076922506093979,
        -0.1059103012084961,
        0.06933555006980896
      ],
      "weights": [
        [
          -0.23217657208442688,
          -0.08170364052057266,
          -0.21836432814598083,
          0.034316759556531906,
          0.08815773576498032,
          -0.04130280762910843,
          -0.021642373874783516,
          0.011972380802035332,
          -0.11294150352478027,
          -0.056353695690631866,
          -0.0657917931675911,
          -0.07830970734357834,
          0.19760052859783173,
          0.018411345779895782,
          -0.046491384506225586,
          -0.15254700183868408
        ],
        [
          0.18873870372772217,
          0.11173109710216522,
          0.06775733083486557,
          0.01145764347165823,
          -0.0233071967959404,
          0.1351153403520584,
          -0.10556932538747787,
          0.05220130458474159,
          0.20963071286678314,
          0.03750022500753403,
          0.05713893100619316,
          0.014680585823953152,
          -0.07963406294584274,
          0.1236959844827652,
          0.11389991641044617,
          -0.37573182582855225
        ],
        [
          -0.3407438397407532,
          -0.06970133632421494,
          0.2832157015800476,
          -0.20586122572422028,
          -0.011961068026721478,
          0.30469170212745667,
          -0.007326888851821423,
          -0.20177863538265228,
          -0.09694519639015198,
          0.0021297938656061888,
          0.008342895656824112,
          0.09546059370040894,
          -0.16128556430339813,
          -0.20154637098312378,
          0.098708376288414,
          -0.01927666738629341
        ],
        [
          -0.020550960674881935,
          -0.10065145790576935,
